417 186
president 0.23023811 -0.33364874 0.12343045 0.2923015 0.29614937 -0.019497953 -0.13719739 -0.04034983 0.07866417 -0.46933258 -0.22366577 -0.24018799 0.02886589 -0.050577 -0.039995603 0.031021716 0.22742306 0.41500655 0.17297073 0.006141208 0.30320674 -0.0011527619 -0.35379547 0.42711675 0.08889358 0.12762436 -0.18800958 0.19620465 0.23524457 0.3767346 0.1332395 -0.38708448 -0.12582245 -0.019558609 -0.46673107 0.16129422 -0.10495245 -0.52167773 0.05369731 -0.0659766 0.24077715 -0.22673024 0.09777143 -0.027512016 -0.029547356 0.17104684 -0.02689692 -0.2089416 0.049766935 0.22597395 0.007544817 0.4803063 -0.12532914 -0.0198043 -0.34278676 0.21286365 -0.36734655 0.1758737 -0.38573247 0.2606847 -0.27383196 0.41884768 0.13764022 -0.22654168 -0.35426128 0.14702022 -0.44557 -0.22847123 -0.13453765 -0.299335 -0.27740133 -0.24772528 0.096593745 -0.07339493 0.10505185 -0.02953458 -0.15852568 -0.6753799 -0.2009367 -0.040002815 0.23496851 0.36749235 -0.18659432 -0.024608357 -9.0979814E-4 -0.15845332 -0.017559757 0.10530564 0.27106127 0.4085949 0.045553546 0.006238006 -0.1795837 -0.12654987 0.18109451 0.21756212 -0.13580035 0.4445247 -0.5900448 0.019908315 0.38861895 0.20517094 0.004167258 0.17245354 0.0312101 0.014363739 0.04087459 0.1705029 0.0072705345 0.021013618 0.035998013 0.13840616 0.008600511 0.020924954 0.22281529 0.0014186408 0.003014612 0.023762235 6.2065537E-4 0.0054972335 0.014363739 0.0022166264 0.015161725 0.004876578 0.019594977 1.773301E-4 0.0035466023 4.433253E-4 0.0 3.546602E-4 0.057898283 0.007979855 0.0040785926 2.6599516E-4 8.866505E-5 0.0014186408 0.0 8.866505E-5 6.2065537E-4 0.0 0.0 0.0 0.0 0.0042559225 0.06694212 0.0 0.24090296 0.06481416 0.011615123 0.069868065 0.003103277 0.0013299758 0.01489573 0.0027486167 0.116683215 0.0051425733 0.0026599516 0.0046105827 0.0 0.022166263 0.003280607 0.070932046 0.0014186408 8.866505E-5 6.2065537E-4 0.0037239324 0.007802525 0.04858845 2.6599516E-4 8.866505E-5 3.546602E-4 0.0 1.773301E-4 0.06738544 0.0029259468 0.00895517 2.6599516E-4 8.866505E-5 6.2065537E-4 0.0 2.6599516E-4 4.433253E-4 8.866505E-5 0.0 0.0 0.0
monk 0.101326935 0.024466598 -0.0052444744 0.04593146 -0.010751061 0.005766789 0.07205335 -0.021380113 0.07971256 0.10664468 -0.11935047 0.0014224387 -0.06909654 0.006336922 0.09278889 -0.011233494 -0.0118257 -0.048768483 -0.015118845 -0.09691161 -0.031994786 -0.00794205 0.08533313 -0.0123733785 0.03198513 0.022271402 -0.015764687 0.0012580479 0.01987107 -0.091520205 0.056377202 0.10791089 -0.059103973 -0.014796355 0.04096408 -0.063784115 0.11364294 -0.047303233 0.12437494 0.017865736 -0.10401808 -0.029979657 0.0701673 -0.02711826 -0.053878408 -0.058834434 0.027228065 -0.03447097 -0.04003178 0.079400234 0.15045865 0.016165 0.05424436 -0.049328387 -0.057273448 0.06789743 -0.08523878 0.07406336 -0.09390363 -0.06582647 0.02682538 0.035358995 0.027321221 -0.03744637 -0.013544726 0.056310292 -0.10063544 -0.019147675 0.08368496 0.04821305 0.13845232 -0.067345865 0.066221274 -0.08560071 0.03823472 -7.5749535E-4 -0.06793169 0.022122819 -0.026886232 0.020509245 -0.0612518 0.0953006 -0.0053770067 0.013830815 0.07296608 -0.028197221 -0.042634327 0.10335504 -0.018457603 -0.046399925 0.07400814 -0.0026736117 -0.093614325 -0.09419658 0.052252922 0.021096585 -0.083230786 0.045912933 -0.08786127 0.0039994847 0.546875 0.24553572 0.0 0.078125 0.011160715 0.03348214 0.05580357 0.04464286 0.0 0.02232143 0.011160715 0.05580357 0.0 0.04464286 0.34598213 0.0 0.0 0.03348214 0.0 0.0 0.0 0.04464286 0.04464286 0.02232143 0.011160715 0.0 0.0 0.0 0.0 0.0 0.0 0.0 0.0 0.0 0.0 0.0 0.0 0.0 0.0 0.0 0.0 0.0 0.0 0.0 0.06696428 0.0 0.12276786 0.03348214 0.0 0.11160714 0.011160715 0.04464286 0.0 0.0 0.14508928 0.011160715 0.02232143 0.011160715 0.0 0.0 0.02232143 0.05580357 0.0 0.0 0.0 0.011160715 0.0 0.03348214 0.0 0.0 0.0 0.0 0.0 0.05580357 0.0 0.06696428 0.0 0.0 0.0 0.0 0.0 0.02232143 0.0 0.0 0.0 0.0
chance 0.29327402 -0.059801765 0.014850339 0.099067144 0.11297466 0.027990378 -0.18031488 -0.071264036 -0.017605167 0.13118091 -0.1441817 0.023963971 0.11298667 0.12238646 0.07734082 -0.27514696 -0.18713464 -0.053071532 -0.15614139 0.3643972 0.23145777 0.100107625 0.31493974 -0.2766985 -0.31530896 0.09368407 -0.08891289 -0.055007383 0.08609098 0.017029878 -0.18404141 0.064291395 -0.05882897 -0.028498955 0.075765386 0.2843073 0.4676367 0.038930178 -0.10827039 -0.007445679 -0.10756073 0.13927017 -0.004064878 0.21079405 -0.027382033 0.034929894 -0.28511912 -0.015430833 0.049076676 -0.18923397 -0.31636024 0.051035788 0.25067005 -0.082081094 -0.19372511 0.067792006 -0.19745965 0.0765068 -0.07758615 -0.21314473 -0.4149153 0.19382314 -0.22366327 0.043789428 -0.04610399 0.027332023 0.0040163156 0.26514608 0.10801401 0.18038104 0.38099694 0.12553178 -0.24226162 -0.0444444 0.059948266 0.033068422 -0.3077498 -0.097034216 -0.18697515 0.032618027 0.14396477 0.015914856 0.25094312 -0.18235038 -0.03210648 -0.35895985 -0.19340463 0.41483325 0.3349235 0.2937175 -0.13283464 0.071598634 0.15232442 -0.6881431 0.52065855 0.29553753 -0.10892506 0.0013779647 -0.024312327 -0.108521245 0.66039574 0.022906715 0.0034116386 0.08480359 0.022419339 0.027536796 0.089677356 0.06603958 0.02851155 0.0065795886 0.08090457 0.0112096695 0.026318355 0.017789258 0.17789258 0.024125157 2.4368847E-4 0.048494004 0.0 9.747539E-4 0.045569744 0.035578515 0.004142704 0.004142704 0.07335023 2.4368847E-4 0.008772785 0.029729992 0.0014621308 0.0 0.014377619 0.04142704 0.0014621308 0.0012184423 0.0012184423 4.8737694E-4 0.0 0.0 0.0 0.0 0.0 0.0 0.0 0.010478604 0.0056048348 2.4368847E-4 0.30144262 0.009016473 0.0065795886 0.0043863924 0.0070669656 0.0017058193 0.35383564 7.310654E-4 0.030704746 0.021931961 0.0021931962 0.0017058193 0.0 0.0012184423 0.0017058193 0.049956135 0.005848523 4.8737694E-4 7.310654E-4 0.0075543425 0.004630081 0.0043863924 0.0 2.4368847E-4 0.0 4.8737694E-4 0.0 0.0 4.8737694E-4 0.0 0.0 0.0 0.0012184423 0.0 0.0 0.0 0.0 0.0 0.0 0.0
party -0.2628384 -0.30394793 0.11971261 -0.20902313 -0.30141369 -0.16595583 0.055818968 -0.13936934 -0.03221962 -0.01896597 -0.1980515 0.12583335 0.23643753 -0.2576992 -0.18056247 0.2802133 -0.2134876 0.09906904 0.11862181 0.10167044 -0.13858624 -0.09219906 0.20440795 -0.046083078 -0.02560376 -0.060166653 -0.031871244 0.160318 0.034357455 -0.14580275 0.17641973 -0.37761828 -0.027964877 0.010182085 -0.15988666 0.022641849 0.0661899 -0.124326736 0.014590408 -0.06632199 0.06998235 0.50776833 0.27376607 -0.17102247 -0.23326768 -0.032225076 -0.038560845 0.06766833 0.1777363 -0.20608553 0.11113794 -0.084987484 0.09067423 -0.32315013 0.068766005 0.1318994 -0.320777 0.022668364 -0.26701024 0.48924047 -0.023499915 0.10821271 -0.123204425 -0.12276701 -0.06284572 0.045321193 -0.28760225 -0.18431732 0.33522448 0.20644024 0.2634942 -0.06217681 -0.15043592 0.015554189 0.06601774 -0.39861366 -0.47133484 -0.14299063 0.0245707 0.20043856 -0.18370278 0.30483088 0.11371284 0.35023683 0.033319093 -0.2848523 -0.062153682 0.010984498 0.3983798 -0.25462624 -0.087486446 -0.23138957 -0.19747572 -0.2040809 0.16633701 0.061633635 -0.1366927 -0.13054049 -0.4880658 0.1531173 0.45207867 0.13300706 7.268146E-4 0.20835352 0.029072585 0.013930613 0.036704138 0.12695028 0.015020835 0.02689214 0.04348774 0.033312336 0.0026649868 0.044456825 0.23548792 0.010781083 0.0018170365 0.012961527 0.0 0.007025874 0.10344994 0.013688342 0.008116096 0.0037552088 0.010781083 1.2113577E-4 0.0039974805 0.0018170365 2.4227153E-4 3.634073E-4 0.05039248 0.009933133 0.00314953 2.4227153E-4 3.634073E-4 0.007994961 0.0 4.8454307E-4 0.002543851 0.0 0.0 0.0 0.0 0.0055722455 0.00629906 1.2113577E-4 0.11338308 0.032222115 0.016232193 0.058750845 0.09436476 0.0778903 0.023621473 0.0032706656 0.08951933 0.004239752 0.0109022185 0.008964047 0.0 0.024227154 0.009327454 0.07910165 0.0019381723 7.268146E-4 8.4795034E-4 0.005693381 0.008358368 0.056206994 0.0 4.8454307E-4 2.4227153E-4 0.0 2.4227153E-4 0.084673904 0.008237232 0.0023015796 7.268146E-4 1.2113577E-4 0.013930613 0.0 0.0 0.0010902219 0.0 0.0 0.0 0.0
fuck 0.007400806 -0.009810684 0.001926946 -0.005586458 0.010678859 -0.0047093527 0.005357013 0.008554876 0.0010237194 0.0017402914 -0.013770754 0.0029687504 -0.0023088425 -0.018768732 0.014700179 -0.007401412 0.015724387 -0.018110566 0.00559295 2.3196705E-4 -0.01835547 0.002145451 0.003890979 0.0056911907 0.02007349 0.0052811997 0.0038626592 -9.2314894E-4 -0.015393269 -0.0142574655 -0.0046095974 0.004354799 0.015803553 -0.0077271042 0.004170847 -0.0052029914 -0.0017103923 0.010159361 -0.01643506 0.019949809 -0.006535265 0.0018044199 0.005323019 -0.00665391 -0.005086093 -0.020972045 0.0017134044 0.01954052 0.0038285777 -0.0016557405 0.0037854766 -0.008865865 2.5568463E-4 0.018383259 -0.020875132 0.008928183 0.022763127 0.0054004774 3.444408E-4 -0.012120063 0.0014063715 -0.007264814 -0.004592451 -0.006832073 -0.0057556042 0.004841972 0.008736402 0.0026216877 -0.006597421 0.012063686 0.010398298 -0.0050094826 0.005125979 0.010982162 -0.028897688 -0.007938218 -0.019088292 -0.005185106 -0.019551866 0.009366754 -0.004677697 -0.0035445304 0.011058358 -0.0042677335 0.0052356888 0.007351967 -0.0107343495 0.017621962 0.014226794 0.010397908 0.006990427 0.003434004 0.0030324692 -0.014054384 0.008862233 -0.006447008 0.009654023 0.02262429 -5.6760357E-5 -0.0022974953 0.8333333 0.0 0.0 0.0 0.0 0.0 0.0 0.0 0.0 0.0 0.0 0.0 0.0 0.0 0.41666666 0.0 0.0 0.0 0.0 0.0 0.0 0.0 0.0 0.0 0.0 0.0 0.0 0.0 0.0 0.0 0.0 0.0 0.41666666 0.0 0.0 0.0 0.0 0.0 0.0 0.0 0.0 0.0 0.0 0.0 0.0 0.0 0.0 0.0 0.0 0.0 0.0 0.0 0.0 0.0 0.41666666 0.0 0.0 0.0 0.0 0.0 0.0 0.0 0.0 0.0 0.0 0.0 0.0 0.0 0.0 0.0 0.0 0.0 0.0 0.0 0.41666666 0.0 0.0 0.0 0.0 0.0 0.0 0.0 0.0 0.0 0.0 0.0
psychology 0.016277956 -0.10807564 -0.03801866 -0.0084130075 0.028703712 0.06286291 -0.0015108904 0.007754921 0.057429694 -0.15155025 -0.017182533 0.0057131434 0.057782866 0.04451862 0.08208268 0.051474545 0.12857223 0.01684158 -0.081369534 0.056794904 0.038108625 -0.04003715 0.032418158 -0.101543546 0.045955416 -0.057546765 -0.1159309 -0.03818973 0.0752016 -0.05222653 -0.04032873 -0.053044017 -0.09058622 0.09709781 0.052252267 -0.1033566 -0.06423014 -0.11334967 -0.030932078 -0.05564883 0.011140637 -0.01483775 0.016970407 0.14031313 -0.07696084 0.03675004 -0.024492359 -0.12539773 -0.07909544 -0.05160714 0.13782854 0.15047292 0.030712849 0.042618237 0.026696213 -0.040795922 0.0026637265 0.107175775 -0.10851088 0.005411533 -0.015953634 0.08593115 0.016609715 -0.0886294 0.1418106 -0.10234415 0.27960086 0.01240804 0.021880245 0.12731947 0.06866559 -0.11667503 -0.037055917 -0.023645343 0.12972613 -0.052061655 0.12588349 -0.1812407 -0.12607218 0.037146173 0.05988071 -0.10175742 -0.08460957 0.12565373 -0.011070251 -0.1369001 0.04382093 0.044591684 0.0013694763 0.14170542 0.030946508 0.038257353 -0.081202865 -0.1658937 -0.12505181 -0.11657911 0.0071964655 -0.06579914 -0.08235024 -0.026984796 0.22833723 0.07611241 0.0 0.42154565 0.058548007 0.017564403 0.023419203 0.33957845 0.023419203 0.029274004 0.035128806 0.07611241 0.0 0.017564403 0.20491803 0.0 0.0 0.017564403 0.0 0.0 0.005854801 0.005854801 0.017564403 0.005854801 0.017564403 0.0 0.0 0.005854801 0.0 0.0 0.011709602 0.011709602 0.005854801 0.0 0.0 0.005854801 0.0 0.0 0.0 0.0 0.0 0.0 0.0 0.0 0.005854801 0.0 0.21077283 0.09367681 0.005854801 0.011709602 0.15807962 0.023419203 0.017564403 0.0 0.07611241 0.0 0.017564403 0.0 0.0 0.005854801 0.0 0.058548007 0.0 0.0 0.0 0.005854801 0.035128806 0.08782201 0.0 0.0 0.0 0.0 0.0 0.0 0.011709602 0.005854801 0.0 0.0 0.005854801 0.0 0.0 0.0 0.0 0.0 0.0 0.0
government -0.12844081 0.19159816 0.16524479 -0.03300879 0.013892151 -0.0906355 -7.004323E-4 0.15847534 0.025611183 0.08095016 -0.38466525 -0.07184509 -0.027237015 -0.005025528 0.027669778 -0.02918541 -0.2602897 0.052432455 0.021550266 -0.10127043 -0.24887984 -0.015149147 -0.038627896 -0.09044449 0.06832292 -0.16419472 -0.0589437 0.18236306 0.02472206 0.010868149 0.0048338445 -0.039352603 -0.07937285 0.2490615 0.10215194 -0.15545705 0.031587716 0.035761584 -0.007465574 0.14606985 -0.057755064 0.15222204 0.198989 -0.15180257 0.0018848723 0.12820946 -0.08684665 0.10743392 -0.032808244 -0.0640523 -0.04451917 0.22204763 -7.916539E-4 -0.20080574 0.009704389 0.044063743 0.036442213 0.111059636 -0.2991254 0.26993203 -0.15588868 0.13858598 -0.10221178 -0.44369864 -0.20317052 -0.09269861 -0.2431842 0.13280882 -0.03449501 0.16980983 -0.006515983 0.21020146 -0.063996896 0.037348535 -0.07402267 -0.036208816 0.033998445 -0.16059951 0.0068568336 -0.080547266 -0.24944754 0.5237849 0.0644247 0.07780922 -0.15938585 -0.3415313 0.02614817 0.007191025 0.044188727 0.21157733 -0.0060742795 -0.039386448 -0.010221152 -0.14914465 0.05425059 0.12400332 0.15239897 0.016568422 -0.5041546 0.24601713 0.562318 0.10987734 0.002051973 0.2263752 0.043401163 0.013860497 0.035812736 0.07441305 0.028185591 0.029347084 0.041000742 0.04978938 0.002400421 0.027604843 0.24058415 0.0012002105 0.002051973 0.020055132 1.16149415E-4 0.0070076813 0.024546241 0.0073561296 0.011692374 0.0050718575 0.014750975 0.0013550764 0.004026513 0.004103946 7.743294E-5 4.6459766E-4 0.035696585 0.011808524 0.0021681224 8.5176236E-4 3.871647E-4 0.0037554975 2.710153E-4 2.3229883E-4 6.5818E-4 0.0 0.0 0.0 0.0 0.0027488694 0.001897107 0.0 0.07472279 0.037671126 0.016957814 0.0881574 0.12455089 0.09446819 0.03147649 0.005536455 0.05234467 0.0018196742 0.0069302483 0.0062720682 0.0 0.042471968 0.005846187 0.060513843 0.0010066283 0.0 6.194635E-4 0.0027488694 0.0058849035 0.10863841 1.5486588E-4 7.743294E-5 5.8074703E-4 7.743294E-5 0.0 0.06334014 0.006155919 6.194635E-4 8.9047884E-4 3.871647E-5 0.0071238307 6.5818E-4 1.5486588E-4 1.16149415E-4 0.0 0.0 0.0 0.0
madhouse 0.019354463 -0.0058983946 0.010277781 -1.8939492E-4 0.0030718404 0.007818654 -9.028465E-4 0.009941287 0.0054399366 -0.004463485 -0.029585982 0.0024392027 -0.0057915295 9.226331E-4 -0.0031248129 0.019975416 0.015742758 0.0020740042 0.005009364 -0.012184365 -0.0050579575 -0.0070100618 0.012454627 0.0072899377 0.008881244 -0.017785812 -0.010894344 -0.0036504944 0.0110755665 -0.023224307 -0.0069674426 0.01567623 -2.320491E-4 0.0051913895 0.011127671 -0.021312317 0.008890157 -0.011832029 -0.006687554 0.007269782 -0.014341717 1.8064416E-4 -0.010053689 8.0770167E-4 -0.015212879 0.007882148 0.0066766734 -0.017595788 0.002295504 0.0033260498 0.0082610315 0.013875489 0.0062606884 -0.011602831 -0.011268761 -0.00373173 -0.0032084344 -0.0027230454 -0.025033565 -0.004602459 -0.0047610155 0.035108957 -0.020428456 0.00168832 0.014233832 -0.0118374005 0.026707124 0.02528439 0.0031913803 0.012408657 0.019591888 -0.023941442 0.006494463 0.0012137394 -0.006103172 -0.0050342353 -0.018973285 -0.012943736 -0.015499214 -0.0016518288 0.0144897 -0.003793578 -0.008663852 -0.0045861593 0.015495562 -0.017793212 0.00655913 -3.8342635E-4 0.019485822 0.011983237 -0.0016748684 0.015767531 -0.011152156 -0.045931023 0.02105425 -0.0028433308 -0.0020745224 0.009948077 -0.026714373 -0.015492965 0.8333333 0.0 0.0 0.16666667 0.16666667 0.16666667 0.16666667 0.0 0.0 0.0 0.0 0.0 0.0 0.0 0.16666667 0.0 0.0 0.0 0.0 0.0 0.0 0.0 0.0 0.0 0.0 0.0 0.0 0.0 0.0 0.0 0.0 0.0 0.0 0.0 0.0 0.0 0.0 0.0 0.0 0.0 0.0 0.0 0.0 0.0 0.0 0.0 0.16666667 0.0 0.0 0.0 0.0 0.0 0.0 0.0 0.16666667 0.0 0.0 0.0 0.0 0.0 0.0 0.16666667 0.0 0.0 0.0 0.0 0.33333334 0.0 0.0 0.0 0.0 0.0 0.0 0.0 0.0 0.0 0.0 0.0 0.0 0.0 0.0 0.0 0.0 0.0 0.0 0.0
video 0.40272617 -0.21397547 -0.270921 0.37514526 0.21579033 0.21409327 -0.012165254 -0.014358851 0.17063965 0.008660172 0.14415976 -0.08440803 0.1006198 -0.15934756 0.037304483 0.050853506 -0.16067712 -0.3752564 -0.038083673 -0.12558344 -0.1328613 0.36252788 0.1295552 0.04308791 0.0359303 0.05594534 0.23194748 -0.27752557 0.19837624 0.088707946 -0.05710426 0.14394994 -0.30197147 0.13193859 0.06830001 -0.24138698 -0.18046401 0.29790357 -0.042408284 -0.23814602 0.059733268 -0.1527708 -0.10338278 -0.09038445 -0.022343785 0.0029021131 -0.20456158 0.04925751 0.21163219 0.10140787 0.23125225 0.23320389 -0.068511836 -0.15091841 0.025170902 0.20515326 0.0010036025 0.0045530545 -0.119839296 -0.11896466 0.01681657 0.037406273 -0.25787783 -0.018509908 0.42779538 0.32644522 -0.010616406 0.33599854 0.023285128 0.12881579 -0.20521559 -0.16680747 0.016628752 0.031971253 -0.013801731 -0.03521294 -0.013695024 0.18695293 -0.05295982 -0.00932744 0.06044958 -0.068979405 -0.096325636 -0.14239712 0.09858229 -0.36587766 0.1865766 0.06947517 0.06265083 -0.25774157 -0.038740635 -0.056179885 -0.098876305 0.027746513 0.059391946 -0.4012176 -0.19603236 0.18602553 0.03872439 0.33914346 0.37332398 0.07704369 0.0021626297 0.23761895 0.0838019 0.022437284 0.045144897 0.14841047 0.054065745 0.025951557 0.060283307 0.054065745 0.008109862 0.0508218 0.21355969 0.009191177 0.0056769033 0.040549308 0.001892301 0.004865917 0.021896627 0.017301038 0.013246108 0.0056769033 0.018652681 0.0013516436 0.0054065743 0.0021626297 5.4065743E-4 0.004054931 0.01919334 0.012975778 0.0016219723 2.7032872E-4 0.0 0.0032439446 5.4065743E-4 5.4065743E-4 2.7032872E-4 2.7032872E-4 2.7032872E-4 0.0 0.0 0.0021626297 0.0035142733 0.0 0.121377595 0.040549308 0.011083478 0.032980103 0.26897708 0.15300606 0.009461505 0.0010813149 0.060553633 0.003784602 0.018112024 0.004054931 0.0 0.0062175607 0.020004325 0.037575692 8.1098615E-4 5.4065743E-4 2.7032872E-4 0.0024329585 0.005947232 0.030547146 2.7032872E-4 5.4065743E-4 0.0 0.0 0.0 0.0021626297 0.003784602 2.7032872E-4 2.7032872E-4 0.0 0.009191177 0.0 0.0 0.0 0.0 0.0 0.0 0.0
defeating -0.038926233 0.0077554067 -0.04763114 0.05116797 -0.013153764 -0.015298151 -0.09669587 0.07456142 -0.08226278 0.1354352 -0.19129023 -0.0045996653 -0.038009387 -0.030837309 -0.057746377 0.036914345 0.018794755 0.029269563 -0.02306696 0.011662411 -0.04095902 -0.01653945 -0.03964216 0.062360574 -0.030559596 0.07370856 0.0761523 -0.04873621 0.033093486 0.044522613 -0.040507652 -0.024665128 -0.02967349 -0.003957715 -0.03239998 -0.06725465 -0.028303804 0.021994764 0.063286334 -0.07126461 0.05077704 -0.06195003 0.018912546 0.09035815 0.040232792 0.07787467 -0.052010942 0.017602606 0.03167649 -0.09062035 -0.020257121 -0.06939294 -0.008658021 0.047724918 0.14217381 0.14675249 -0.078207105 -0.042543165 -0.012877411 0.04420499 0.070059635 0.05475974 0.08199005 -0.032070428 -0.09839597 -0.079224214 -0.03334787 -0.013546756 0.10581665 0.065704554 -0.0043046223 -0.004771826 0.06321728 0.087547645 0.05999035 -0.07169254 -0.040793177 0.022467542 0.0363118 0.016989475 0.0019782253 -0.023531994 0.09695744 0.048085958 0.03078728 -0.010437639 -0.045666974 0.08135226 0.035489146 -0.0064626443 0.05079438 0.065802455 -0.0874381 -0.08344425 0.033297054 0.0013121383 0.028626142 -0.026661515 0.05867764 0.028461963 0.005154639 0.11340206 0.020618556 0.4484536 0.04639175 0.067010306 0.020618556 0.34020618 0.077319585 0.030927835 0.0154639175 0.27319586 0.0 0.0 0.067010306 0.0 0.005154639 0.030927835 0.005154639 0.005154639 0.0 0.04639175 0.0154639175 0.010309278 0.010309278 0.0 0.005154639 0.0 0.0 0.0 0.0 0.0 0.0 0.0 0.0 0.0 0.0 0.0 0.0 0.0 0.0 0.0 0.0 0.24226804 0.36082473 0.005154639 0.0 0.0 0.0 0.0 0.05670103 0.020618556 0.0 0.0 0.0 0.0154639175 0.0 0.09793814 0.0 0.0 0.0 0.005154639 0.0 0.020618556 0.010309278 0.005154639 0.0 0.0 0.0 0.0 0.0 0.0 0.0 0.0 0.0 0.0 0.0 0.0 0.0 0.0 0.0 0.0 0.0 0.0 0.0 0.0
death 0.35900566 -0.1686963 -0.034411013 0.025915379 -0.035421167 -0.034379907 0.11864121 0.17530043 0.0076849493 0.08053261 0.02574217 0.049671922 0.008324512 0.1345111 0.37937823 -0.21345949 0.3606294 0.1848398 0.14100347 0.057350907 -0.094849065 -0.27205655 0.1956221 -0.18887872 0.035879545 0.14250113 -0.07175967 -0.30135295 0.18667918 -0.22345018 -0.044794615 0.19619985 -0.31863263 0.28171647 -0.07015706 -0.04637574 0.0028424028 -0.20057951 0.046115033 0.34072027 -0.10229748 0.04122271 0.059444882 0.120037906 0.055806786 0.33958635 -0.09537806 -0.12549594 0.34526467 -0.062512144 -0.1305091 0.07478275 0.24711931 -0.08618586 -0.07521569 -0.39138252 0.004533612 0.25434864 0.19844948 0.121553674 0.09868269 0.019899035 0.07700547 -0.09696523 -0.1832271 -0.3525222 -0.012253053 -0.060179416 -0.07649212 0.08506834 0.6730956 -0.26382944 0.31662053 -0.25771636 -0.18389142 -0.2443705 0.03700899 -0.08766371 0.1801557 -0.36018115 0.074631274 0.055454504 0.042629108 0.19869755 -0.22236837 0.21536559 0.14440818 -0.260237 0.053993113 -0.17127287 -0.2962459 0.09681239 -0.4085974 -0.19783306 0.050534494 -0.08766105 -0.05766832 0.013850197 0.1682688 0.09129916 0.2987209 0.093853995 0.0018198836 0.27259257 0.04003744 0.015339019 0.040427413 0.15183029 0.019498752 0.120112315 0.031457987 0.016508944 0.011179285 0.06174605 0.093724005 0.0032497921 7.799501E-4 0.07396527 5.199667E-4 0.0012999169 0.11777247 0.016378952 0.008189476 0.0057196342 0.01234921 0.0 0.0019498753 0.0032497921 1.2999168E-4 3.8997506E-4 0.1264819 0.010659318 5.199667E-4 1.2999168E-4 2.5998335E-4 7.799501E-4 0.0 0.0 0.0020798668 1.2999168E-4 0.0 0.0 0.0 0.0067595677 0.005459651 1.2999168E-4 0.27935213 0.033927828 0.0072795344 0.039647464 0.15625 0.038867515 0.0057196342 3.8997506E-4 0.07799501 0.0027298254 0.002469842 0.006239601 0.0 0.007409526 0.0022098587 0.12336211 0.0019498753 3.8997506E-4 0.0018198836 0.002469842 0.0075395177 0.025738353 0.0 0.0 6.4995844E-4 0.0 0.0 9.099418E-4 0.0037697589 0.0 5.199667E-4 0.0 0.0016898919 0.0 3.8997506E-4 0.0 1.2999168E-4 0.0 0.0 0.0
image 0.28936306 -0.25615218 0.11908118 -0.033433072 -0.013337087 -0.053511117 0.093369804 -0.07701319 0.054308668 0.0647713 -0.12975037 -0.039604325 0.14219993 -0.13584827 0.140017 -0.07785016 -0.014464187 -3.0438343E-4 -0.1446285 0.006811561 -0.12435471 0.015597571 0.07086918 -0.029057283 0.040880095 -0.082752146 -0.04893501 -0.073165484 -0.113349326 0.07456403 0.20925826 0.13556418 -0.15997982 0.046942767 0.2154686 -0.15598468 -0.08698136 -0.23743007 0.024725668 0.025692401 -0.062349632 0.05936665 0.043282073 -0.096407555 -0.17182484 0.036332667 0.0036277606 -0.0805892 -0.009525301 0.08807069 0.23576225 0.10743116 -0.029795773 -0.11868193 -0.15406287 0.025425425 0.002667633 0.25964203 -0.047362965 -0.14122085 -0.18710843 0.12539038 0.13963966 -0.18771543 -0.028132774 0.040747542 0.06596749 -0.02096701 0.014620903 0.3769315 0.022701558 -0.22315595 4.5471906E-4 0.22770245 0.07711209 -0.02849721 -0.06418204 -0.08938905 -0.13050282 -0.1980546 -0.03261039 -0.03605667 -0.03310209 0.06309186 0.014688441 -0.016582282 0.05073185 0.06273484 0.22535239 -0.20611772 0.19280623 0.018930193 -0.11837548 -0.215965 0.18264891 -0.028224383 -0.20823486 0.1347102 -0.1828268 0.101633094 0.42733434 0.071536146 0.0043925704 0.09851908 0.038278114 0.025100403 0.0313755 0.13554217 0.008785141 0.014432731 0.070281126 0.035768073 0.0018825302 0.038278114 0.27924198 0.0025100403 6.275101E-4 0.028237952 0.0 0.0069026104 0.13240463 0.0056475904 0.0106676705 0.0069026104 0.026982931 0.0 0.008785141 0.0043925704 6.275101E-4 0.0025100403 0.11357932 0.0106676705 0.0012550201 0.0018825302 6.275101E-4 0.0031375503 0.0 6.275101E-4 0.0050200806 0.0 0.0 0.0 0.0 0.0075301207 0.0031375503 0.0 0.3620733 0.052083336 0.028237952 0.040788155 0.038278114 0.019452812 0.009412651 6.275101E-4 0.06337851 0.0062751006 0.008785141 0.0025100403 0.0 0.011922691 0.012550201 0.09538153 6.275101E-4 0.0 0.0 0.008785141 0.013177711 0.043925703 0.0 0.0 0.0 0.0 0.0 0.0 0.0031375503 6.275101E-4 0.0 0.0 0.012550201 0.0 0.0 0.0 0.0 0.0 0.0 0.0
theater -0.028274454 0.05559523 0.06737764 0.17961611 -0.11860026 0.07971112 0.049396064 0.0029973846 -0.009466279 -0.0029866132 -0.13578437 0.018579893 0.050136704 0.007360546 0.07383629 0.17334129 -0.042963367 -0.15600766 -0.10737352 -0.16452864 -0.0913546 0.14168543 0.030134557 0.07793287 0.16298497 0.07450236 -0.055679586 0.08211002 -0.028141158 -0.05277287 0.059932306 -0.2187706 0.078093044 -0.11126755 0.08329102 -0.032914855 -0.23079714 -0.011454045 0.15448494 -0.26189086 0.0402625 -0.057922915 0.008107968 0.20550762 -0.0653718 -0.07369834 0.14364928 0.041697778 -0.07379102 0.01678695 0.22053593 0.0725916 -0.114917755 0.010587261 0.063163325 0.11117978 -0.0684001 0.27622962 0.0984481 -0.08276738 0.069396004 0.14357872 0.09213385 -0.14555797 0.11155384 -0.14624749 0.089596525 0.29902318 0.11395511 0.16198543 0.025442155 -0.24140802 -0.15134169 0.12798248 0.28928477 0.09847738 -0.039430395 -0.04083492 0.06181354 -0.04515553 0.13075553 0.07189653 -0.06996116 -0.16880466 -0.21205638 -0.21047047 -0.013593275 0.057452362 -0.14710484 0.03061736 0.02783045 0.11144864 -0.1547219 -0.30598867 -0.0710471 -0.13635567 -0.020616388 0.03065102 0.06534003 -0.19519758 0.41285902 0.101174936 0.0032637077 0.2969974 0.062010445 0.016318537 0.027741514 0.18766318 0.04406005 0.016318537 0.026109662 0.048955616 0.0065274155 0.0212141 0.24804178 0.008159269 0.0032637077 0.013054831 0.0 0.0032637077 0.0065274155 0.011422977 0.009791123 0.008159269 0.011422977 0.0 0.0065274155 0.0032637077 0.0 0.0032637077 0.029373368 0.016318537 0.0032637077 0.0 0.0 0.0 0.0 0.0 0.0 0.0 0.0 0.0 0.0 0.0065274155 0.0 0.0 0.096279375 0.0636423 0.0065274155 0.024477808 0.19908616 0.10933421 0.011422977 0.0 0.11096606 0.0048955614 0.011422977 0.0016318539 0.0 0.009791123 0.0016318539 0.08975196 0.0065274155 0.0 0.0032637077 0.0048955614 0.008159269 0.024477808 0.0 0.0 0.0 0.0 0.0 0.035900783 0.0065274155 0.0 0.0 0.0 0.0065274155 0.0 0.0 0.0 0.0 0.0 0.0 0.0
number 0.30362788 -0.13374725 -0.0738188 0.42045915 0.20250568 -0.4068478 -0.03411519 0.18932287 0.058036614 0.055254642 -0.044571325 0.09435366 0.37664378 0.012366876 0.47190815 -0.28275168 0.09503421 -0.19014835 -0.3101246 0.061792575 -0.0997583 0.034117777 0.39239922 -0.32879013 -0.27985165 -0.19412692 0.18010448 -0.024622766 0.20546886 0.071120284 -0.07124801 -0.0072824913 -0.15546538 0.25143245 -0.1421781 -0.06360689 -0.17184262 -0.22360635 0.19410595 0.24021564 -0.17751835 0.0106168045 -0.015056056 0.10518837 -0.26047823 0.3749845 -0.2814794 0.050037142 0.18388875 -0.21588698 -0.03351417 0.14757797 -0.03955722 -0.1435253 -0.20417856 0.0023370034 0.3495757 0.014920201 -0.079474024 0.1645326 -0.5514953 0.20952317 0.12861614 -0.017587459 0.035659116 0.41579413 0.17970012 -0.09111449 0.2747123 0.087024964 -0.07687205 0.37744057 0.011669741 -0.16228878 0.051508628 0.11077078 -0.1251646 -0.102596276 -0.10623266 0.3319411 -0.042199545 0.09535962 0.20165066 0.043027703 0.28136957 -0.3038219 0.20870207 0.110142745 0.06710155 0.049556546 -0.15411715 0.018339286 0.0360239 -0.6140352 0.018324122 0.2079805 0.15310456 -0.03341626 -0.18672691 0.07087829 0.720746 0.024287682 1.8125135E-4 0.18841079 0.03498151 0.020843906 0.04630972 0.08953817 0.009062568 0.018125135 0.047215976 0.044315957 0.002809396 0.060084824 0.16738562 0.011328209 0.0010875082 0.03688465 8.1563107E-4 0.00335315 0.016493874 0.009606321 0.009334445 0.009334445 0.021568911 4.531284E-4 0.0062531717 0.005618792 3.625027E-4 3.625027E-4 0.0106938295 0.018306386 5.437541E-4 2.7187704E-4 0.001993765 0.0015406365 0.0 0.0 6.3437974E-4 9.0625676E-5 0.0 0.0 0.0 0.0010875082 0.0021750163 0.0 0.6375516 0.011146958 0.004531284 0.011418835 0.009696947 0.0029000216 0.0066156746 8.1563107E-4 0.016221996 0.0037156527 0.0029906472 0.0026281446 0.0 0.0070688026 0.00734068 0.0144094825 0.0 0.0 0.07902559 0.005618792 0.0037156527 0.017037626 1.8125135E-4 0.0 8.1563107E-4 0.0 0.0 1.8125135E-4 0.002809396 0.0014500108 0.0 0.0 0.005437541 0.0 9.0625676E-5 0.0 0.0 0.0 9.0625676E-5 0.0
astronomer 0.025029786 -0.0016460402 -0.009800459 -0.03786686 -0.04808484 0.028902795 0.045638803 -0.0047385707 0.0075659743 -0.03735673 -0.021312317 -0.023402851 -0.048856698 0.07559282 0.06282064 0.009616546 0.017219197 -0.033726797 -0.014837546 0.014431856 0.0049925297 -0.013241842 0.0053577535 0.00599874 0.015211022 -0.020312546 0.021043994 -0.01753256 -0.032562017 -0.04882138 0.027653037 -0.011397498 -0.003099286 -7.8849564E-4 0.036057096 -0.04962738 0.002534135 -0.025212938 0.04353529 -0.029524552 -0.02802353 0.039085723 0.008840179 0.040671453 -0.043759804 -0.028784964 0.033326797 0.015154246 -0.07048212 0.0027738546 0.04117191 -0.014845529 -0.0020295386 -0.029723521 0.09261698 0.013092068 -4.549418E-4 0.06543008 -0.08051371 -0.010096686 0.01418885 0.04138792 0.05927035 -0.063103065 0.0011029992 0.04036434 0.03892614 -0.05153696 0.046126965 0.054229014 0.04014087 -0.05953949 -0.013982392 -0.074901715 -0.010308869 0.038169924 0.006064675 -0.023620294 0.015481352 0.030905358 0.006735387 0.058524247 0.008851123 0.0068930904 0.0051589347 0.006651985 -0.0073546707 0.017355883 -0.008594565 0.007884903 0.03209833 0.014563721 -0.02193708 -0.07705706 0.047496725 -0.02339927 0.014882198 -0.035381675 -0.008455193 -0.01405811 0.4296875 0.29296875 0.0 0.1171875 0.0390625 0.0390625 0.0390625 0.078125 0.0 0.0 0.0390625 0.1953125 0.0 0.0 0.3515625 0.0 0.01953125 0.0 0.0 0.0 0.0 0.0 0.0 0.0 0.0 0.0 0.0 0.0 0.0 0.0 0.01953125 0.0 0.0 0.0 0.0 0.0 0.0 0.0 0.0 0.0 0.0 0.0 0.0 0.0 0.25390625 0.0 0.15625 0.05859375 0.01953125 0.01953125 0.01953125 0.0 0.0 0.0 0.05859375 0.0 0.01953125 0.0 0.0 0.01953125 0.01953125 0.0390625 0.0 0.0 0.0 0.0 0.0 0.0390625 0.0 0.0 0.0 0.0 0.0 0.05859375 0.0 0.05859375 0.0 0.0 0.0 0.0 0.0 0.0 0.0 0.0 0.0 0.0
project 0.10503851 -0.018771013 0.15931806 0.069403455 0.11094875 0.035531383 -0.0034132656 -0.0068622185 0.18213561 -0.029103585 -0.16589138 0.12768748 0.0733226 0.0059911893 0.0012748933 -0.09394239 -0.15068336 -0.22531167 0.16531682 -0.15677233 0.09025341 -0.08317121 0.08789857 -0.15154122 0.27349743 0.02530682 -0.059280645 -0.013053177 0.038054984 -0.08144357 -0.045169428 -0.1041675 0.035368368 0.020420665 0.085438766 -0.2970836 -0.07668075 0.13548471 0.11581334 -0.051826727 0.08241496 0.0388485 0.27174369 0.03139063 -0.09911455 -0.053330477 0.31460288 -0.09974849 -0.20923685 -0.1191093 -0.017765578 0.19759038 -0.06046101 0.0395448 -0.031109614 0.29069772 0.17843336 0.093614124 -0.026310815 -0.062887065 0.17019333 0.12560831 0.14905642 -0.22955771 0.07820447 0.07153574 0.06732325 0.10012333 0.13715085 0.15301505 0.0997925 -0.0053062392 -0.19005506 -0.11794991 -0.022437016 0.055811826 -0.21187507 -0.030011814 0.036507897 -0.053315107 0.10493949 0.33392558 -0.0996816 0.027824152 -0.009558255 -0.21501221 0.061828744 0.001551215 0.03267757 0.2572719 0.08750646 0.14134528 -0.08203474 -0.34576976 -0.02665509 0.052328162 -0.20277461 -0.15390243 -0.17357312 0.00965891 0.54176784 0.14204246 0.0029042137 0.19115007 0.021385573 0.008976661 0.027986059 0.21042348 0.017425282 0.02296969 0.03300243 0.0366987 0.003696272 0.023761747 0.20540711 0.008976661 0.0039602914 0.016633224 7.920583E-4 0.0023761748 0.02323371 0.03617066 0.01372901 0.0021121553 0.010296757 7.920583E-4 0.0029042137 0.0029042137 0.0 0.001848136 0.016105184 0.007392544 5.280388E-4 2.640194E-4 0.0013200971 0.001848136 7.920583E-4 0.0 2.640194E-4 0.0 0.0 0.0 0.0 0.011880874 0.0042243106 0.0 0.14494666 0.025873903 0.016633224 0.057028197 0.05069173 0.016633224 0.040130954 0.0013200971 0.113792375 0.007920583 0.010560777 0.0055444078 0.0 0.044355262 0.02323371 0.117752664 0.0029042137 0.0026401943 0.0021121553 0.009768719 0.012144893 0.08554229 0.0 5.280388E-4 0.0 2.640194E-4 0.0 0.014785088 0.0071285246 2.640194E-4 5.280388E-4 2.640194E-4 0.02296969 2.640194E-4 0.0 5.280388E-4 0.0 0.0 0.0 0.0
dawn 0.1523053 0.014176168 0.060472906 0.1469252 -0.006044588 0.1647163 0.086901315 0.23813301 -0.0788926 -0.116555184 -0.0724098 0.123972535 -0.018616665 -0.07964826 0.06165927 0.10342164 0.034957632 -0.13969217 0.056238618 0.043121092 0.031096224 0.07812809 -0.07856662 -0.018330153 -0.116084784 0.069960915 -0.08509858 -0.010412182 -0.096341595 -0.019181913 0.011877198 -0.024823887 0.1117076 0.111151405 -0.05341724 0.07139732 -0.11465383 0.10629434 -0.054815106 -0.08076779 -0.03444914 -0.22447446 0.089237176 0.13150026 0.12035416 0.21215662 -0.13402994 -0.056857444 0.07762459 0.06288479 2.0139147E-5 0.047799297 0.11457463 -0.066215076 0.06998859 -0.101906694 -0.110566035 0.085563175 0.0040279096 -0.010028082 -0.036769483 0.12670185 0.06563323 0.017415443 0.025104117 -0.35004112 0.20044245 -0.07252956 0.06419746 -0.062471293 0.18422455 -0.21696731 -0.074743904 0.08607908 0.01882493 0.010973511 -0.010808448 -0.13549839 -0.030441318 0.18012695 -0.12461116 -0.0012358917 -0.079596184 0.0666765 -0.18745106 -0.11248551 -0.12770092 0.026037108 0.0040593003 -0.03212732 -0.23487157 -0.080396585 0.0138196945 -0.09124564 0.013054274 0.01558846 0.039237622 -0.023768667 0.13093218 -0.055216372 0.18665852 0.03977968 0.0 0.6517748 0.015299878 0.085679315 0.08261934 0.21725827 0.03977968 0.015299878 0.024479805 0.02753978 0.0 0.021419829 0.100979194 0.0 0.0030599756 0.024479805 0.0 0.006119951 0.0030599756 0.0091799265 0.0091799265 0.006119951 0.021419829 0.0030599756 0.030599756 0.006119951 0.0 0.0 0.0030599756 0.015299878 0.0 0.0 0.0 0.0 0.0 0.0030599756 0.0 0.0 0.0 0.0 0.0 0.012239902 0.100979194 0.0 0.22949818 0.033659734 0.012239902 0.018359853 0.07955936 0.036719706 0.070379436 0.0030599756 0.11627907 0.0030599756 0.0 0.015299878 0.0 0.0030599756 0.0 0.07955936 0.0 0.0 0.0 0.0030599756 0.006119951 0.015299878 0.0 0.006119951 0.0030599756 0.0 0.0 0.0 0.0 0.0 0.0 0.0 0.0 0.0 0.0 0.0 0.0 0.0 0.0 0.0
ear 0.1829296 -0.11417477 0.09378449 0.04608083 0.010272324 0.124081954 0.0016244684 -0.08200249 0.04666318 -0.043665614 -0.056658514 0.04389315 0.020837136 -0.015093597 -0.02545083 0.03814646 -0.012882444 0.12894084 0.032282855 -0.047994908 -0.089998566 -0.08466283 0.15350962 0.019980852 0.077703424 -0.06387024 0.022407174 0.0074761393 -0.09836397 -0.15178467 0.05498812 -0.03620972 -0.012434418 -0.058650468 0.1484363 -0.06551193 0.04229702 -0.1433065 0.011524057 -0.017953886 -0.3053981 0.11904725 -0.031445455 -0.12289942 -0.093733095 -0.044294458 0.03868645 0.030126754 -0.034562662 -0.013127102 -0.09321295 0.10954393 0.1495832 -0.086721815 -0.024042256 0.03512212 0.06921868 0.18960336 -0.046132065 -0.070048176 -0.047662914 0.13920444 0.026839225 -0.005926882 0.17683259 -0.1958775 0.057074785 0.029167008 0.040687375 0.24612722 0.20255099 -0.2735909 0.098630704 -0.020947265 0.009869193 0.0041980864 -0.077198125 0.08392343 0.0109772645 -0.005307131 0.13503882 -0.057651516 0.023532297 -0.04180952 0.09407985 0.054030146 -0.08303258 -0.039926868 0.041331965 -0.089588955 -0.027986575 0.05762302 -0.055387706 -0.14270596 0.06444689 -0.09128712 -0.14772278 -0.002553269 -0.08758041 0.11126473 0.29884318 0.03856041 0.0 0.2763496 0.06748072 0.009640102 0.02570694 0.15102828 0.02570694 0.05141388 0.041773777 0.022493573 0.0032133674 0.019280205 0.24421594 0.0 0.0032133674 0.0032133674 0.0 0.0 0.22814909 0.02570694 0.0 0.0032133674 0.01285347 0.0 0.0032133674 0.0 0.0 0.0 0.09640102 0.006426735 0.0 0.0 0.0 0.0 0.0 0.0032133674 0.0032133674 0.0 0.0 0.0 0.0 0.0 0.0 0.0 0.11246786 0.08997429 0.01285347 0.01285347 0.07390745 0.08997429 0.06426735 0.0032133674 0.13496144 0.0 0.0032133674 0.0032133674 0.0 0.0032133674 0.006426735 0.15102828 0.006426735 0.0 0.0032133674 0.01285347 0.016066838 0.016066838 0.0032133674 0.0 0.0 0.0 0.0 0.0032133674 0.0032133674 0.0032133674 0.0 0.0 0.006426735 0.0 0.0 0.0 0.0 0.0 0.0 0.0
voyage 0.131111 -0.060228545 0.086066514 0.03162678 0.090467215 0.0018411151 0.00844186 0.06718287 0.0360564 0.0023441727 -0.11168912 0.004605487 0.013742793 -0.10663215 -7.366402E-4 -0.033290528 -0.010834934 -0.0039515705 0.05448303 -0.036488328 -0.0632386 0.06849179 0.14976381 -0.084965 -0.06756821 0.022630263 -0.02581772 -0.032054193 -0.018597454 -0.11875828 -0.0024759534 0.02300994 -0.10134453 0.031234816 0.034072094 -0.16063578 0.014894751 -0.007318893 0.051393926 -0.052405085 -0.005839822 0.04523368 -0.07469221 -0.0011329859 -0.105162494 0.024912806 0.1118097 -0.10101305 -0.022334943 0.07008388 -0.057999242 0.11702263 0.01083256 -0.07510686 -0.06090407 0.08240773 0.0170691 0.114991754 -0.10253301 0.03499121 -0.030329235 0.15419196 -0.09005431 -0.09709786 0.08632814 -0.04750752 0.02432783 0.0057499735 0.024099141 0.17198154 0.16880454 -0.1250259 -0.0023566533 0.04141825 -0.044132594 0.011131082 -0.10766351 -0.044660658 -0.08411731 -0.062552504 0.10535419 0.028431581 -0.08066236 -0.06530498 0.09867915 0.016345045 -0.079322875 0.10106749 0.10333973 -0.042689808 -0.014606103 -1.2484667E-4 -0.041239668 -0.2064176 0.06725736 0.036665548 -0.06524494 0.060518496 -0.051840186 0.053277463 0.3547297 0.067567565 0.008445946 0.15202703 0.008445946 0.0 0.016891891 0.1097973 0.008445946 0.016891891 0.033783782 0.016891891 0.0 0.008445946 0.45608106 0.008445946 0.0 0.016891891 0.0 0.0 0.23648648 0.04222973 0.016891891 0.0 0.008445946 0.0 0.008445946 0.0 0.0 0.0 0.05912162 0.0 0.0 0.0 0.008445946 0.0 0.0 0.0 0.0 0.0 0.0 0.0 0.0 0.0 0.008445946 0.0 0.3293919 0.04222973 0.016891891 0.04222973 0.016891891 0.0 0.08445946 0.0 0.10135135 0.0 0.008445946 0.0 0.0 0.016891891 0.0 0.050675675 0.0 0.0 0.0 0.016891891 0.0 0.025337838 0.0 0.0 0.0 0.0 0.0 0.0 0.016891891 0.0 0.0 0.008445946 0.050675675 0.0 0.0 0.0 0.0 0.0 0.0 0.0
valor 0.019086102 -0.0056784335 -0.008220545 0.013401246 0.03135949 0.017489456 -0.021568945 -0.005896549 -0.008381135 -0.026438206 -0.06391764 0.0039493027 0.024101177 0.008417788 0.021040643 0.0333304 0.06779133 -0.0058908854 0.019505508 0.02374538 -0.010529657 -0.02878907 0.03675765 -0.013154954 0.0045585437 0.009073164 -0.024256691 -0.043978132 0.0029925941 -0.029576685 1.3090258E-4 -0.0042100702 -0.029074298 0.030231118 0.041189775 -0.03956346 0.0059387474 -0.023148715 -0.038287334 -0.016058588 -0.0020649757 0.01072944 -0.030093974 0.049945135 -0.06124144 0.06659875 -0.0074144118 -0.061246555 -0.027696833 -0.056097515 0.003978886 0.013334443 -0.022083042 -0.026303796 -0.0017243731 0.008411305 -0.045441203 0.044196278 -0.02889885 0.02754231 0.010750122 0.012643923 -0.026137698 0.012133554 0.0628206 -0.041466154 0.071317956 0.0036484152 0.010478727 0.037224162 0.044329625 -0.023669865 0.014009464 0.008340151 0.040964246 -0.033082604 0.0124697685 -0.059180822 -0.017149933 0.0049048592 0.028460521 -0.041406844 -0.026980864 0.035037894 0.017964674 -0.06977241 0.031036073 0.055498 0.019614043 0.010117511 -0.0131668085 0.03455614 -0.03950734 -0.047012724 -0.043496784 0.031899482 0.014788919 -0.035338968 -0.017474957 0.027859038 0.0 0.0 0.0 0.625 0.11363636 0.0 0.0 0.5681818 0.05681818 0.0 0.0 0.05681818 0.0 0.0 0.0 0.0 0.0 0.0 0.0 0.0 0.11363636 0.0 0.0 0.0 0.0 0.0 0.0 0.0 0.0 0.0 0.05681818 0.0 0.05681818 0.0 0.0 0.0 0.0 0.0 0.0 0.0 0.0 0.0 0.0 0.0 0.0 0.0 0.22727272 0.05681818 0.0 0.0 0.0 0.0 0.0 0.0 0.17045455 0.0 0.0 0.0 0.0 0.0 0.0 0.3409091 0.0 0.0 0.0 0.0 0.05681818 0.0 0.0 0.0 0.0 0.0 0.0 0.0 0.0 0.0 0.0 0.0 0.0 0.0 0.0 0.0 0.0 0.0 0.0 0.0
butter 0.04081762 -0.010476924 -0.06526854 0.11917857 0.104024254 0.26502177 0.051311523 -0.11863832 0.09706332 -0.07919771 -0.21737805 -0.031233853 -0.023596564 5.3388753E-4 -0.014002662 0.04096466 -0.05695734 0.12849952 0.039397743 -0.07670987 0.0698813 -0.0015854842 0.17588475 0.13891296 0.051452756 -0.09655441 -0.103401475 0.18508296 0.045242954 -0.11509217 0.10124332 0.2004367 -0.076830946 -0.064400665 0.15627973 -0.11255214 0.07246287 -0.051029228 -0.035984527 -0.13756835 -0.1156186 -0.071988225 -0.09135286 0.09845093 -0.08439046 0.03882741 0.084761195 -0.14429459 -0.03196996 0.07119178 0.07738307 0.08358167 0.22948056 -0.008781309 -0.009121049 -0.041979015 0.02071369 0.06921853 -0.12534335 0.002410316 -0.002236071 0.020814976 0.031537954 0.084229365 0.06461198 -0.14516538 0.13516726 0.15874287 0.0249436 0.15400457 0.05363003 -0.2302977 0.07233286 0.08501475 -0.0291872 -0.03122006 0.1176811 -0.12683995 -0.06869931 0.19252066 0.07880259 -0.05765065 -0.025444163 0.049603015 0.01666555 0.02093088 0.06880705 -0.08384323 0.10288638 -0.095355794 0.028576594 -0.0029934351 -0.20639156 -0.17078944 0.061340656 -0.01687558 0.034672223 -0.029523652 -0.14142846 -0.082707874 0.16129033 0.043988273 0.0 0.2749267 0.12463344 0.021994136 0.0146627575 0.39956012 0.07331379 0.025659826 0.05131965 0.069648094 0.0073313788 0.043988273 0.17961878 0.0 0.0073313788 0.043988273 0.0 0.0073313788 0.0036656894 0.010997068 0.0146627575 0.0036656894 0.0036656894 0.0 0.0036656894 0.0146627575 0.0 0.0 0.018328447 0.018328447 0.0 0.0036656894 0.0073313788 0.0036656894 0.0 0.0 0.0 0.0 0.0 0.0 0.0 0.010997068 0.0 0.0 0.14662758 0.16129033 0.0146627575 0.018328447 0.07697947 0.05131965 0.018328447 0.0 0.12463344 0.010997068 0.0036656894 0.0 0.0 0.0073313788 0.0146627575 0.07331379 0.0 0.0 0.0 0.021994136 0.032991204 0.040322583 0.0 0.0 0.0036656894 0.0 0.0 0.0 0.0073313788 0.0 0.0 0.0 0.0036656894 0.0 0.0 0.0 0.0 0.0 0.0 0.0
gin 0.041383106 -0.018252235 0.027666433 -0.008762447 0.04157207 0.0155456 -0.03646287 -4.0275062E-4 0.021970605 0.001076545 -0.09101205 0.024600003 0.023830183 -0.04497823 -4.2670825E-4 0.04563676 0.0055802357 0.069584124 0.06501706 -0.03509437 -0.008578379 -0.019318443 0.06348054 0.049078796 0.01470588 0.015048744 -0.03297899 -0.02665214 0.028816586 -0.08488052 0.041070558 0.023761043 -0.02601747 0.013647892 0.095024005 -0.050091185 0.019798005 0.0036823447 -0.032044835 -0.061236955 -0.06681255 -0.008717597 -0.06352929 0.039971188 -0.02657351 -0.013043406 0.03345034 -0.047386643 0.0019355543 -0.05690646 0.07230598 0.0015531135 -0.003460373 -0.042863388 -0.03487749 0.015752146 -0.037202187 0.0418736 -0.13156775 -0.0083810175 0.0041037956 0.07407648 -0.008022218 0.043612838 0.015336056 -0.08128848 0.033361487 0.06474837 0.01730973 0.03833945 0.0060854503 -0.079754464 0.052284256 0.0015295523 -0.020127112 -0.034943152 -0.02756249 -0.021522261 -0.022095619 0.062265776 0.031091247 -0.0372674 -0.040186748 0.005034135 0.035075113 -0.0503351 0.017422074 0.04930474 0.05351787 0.022569688 0.033242524 0.015357962 -0.0659609 -0.08911782 0.0032989243 0.043671492 -0.005867646 -0.020526407 -0.066543624 0.0019028436 0.24038461 0.14423077 0.01602564 0.19230768 0.0801282 0.0 0.01602564 0.25641024 0.03205128 0.06410256 0.04807692 0.09615384 0.01602564 0.06410256 0.19230768 0.0 0.0 0.04807692 0.0 0.0 0.01602564 0.01602564 0.01602564 0.0 0.03205128 0.0 0.0 0.0 0.0 0.0 0.06410256 0.0 0.0 0.0 0.0 0.01602564 0.0 0.0 0.0 0.0 0.0 0.0 0.0 0.0 0.0 0.0 0.06410256 0.1602564 0.0 0.01602564 0.09615384 0.03205128 0.0 0.0 0.1602564 0.01602564 0.0 0.0 0.0 0.01602564 0.0 0.11217949 0.0 0.0 0.0 0.03205128 0.01602564 0.0 0.0 0.09615384 0.0 0.0 0.0 0.0 0.0 0.01602564 0.0 0.0 0.0 0.0 0.0 0.0 0.0 0.0 0.0 0.0
reservation 0.06859666 -0.01952081 0.17055626 0.032527663 0.024375185 0.12100521 -0.1175455 0.034120344 0.040298704 0.020445103 -0.05908441 0.1029345 -0.03931159 -0.14426552 -0.048004143 0.034211583 -0.0050503258 -0.07203274 0.13203143 -0.060579345 -0.11009233 -0.0074099503 0.09734032 -0.07499346 -0.04551445 -0.052655943 0.020009307 0.0033614698 -0.006103674 -0.08795143 -0.019569136 -0.013523502 -0.036660407 -0.047606245 0.020484013 -0.08924465 0.10652866 -0.0631731 -0.072549276 -0.12513596 -0.017854102 0.0066367434 -0.055626832 0.014484728 -0.0452993 0.02422722 0.12239429 -0.0011601897 -0.013824744 -0.026590098 -0.055785745 0.05473775 -0.031030877 -0.02860998 -0.059199665 0.05191092 0.010688934 0.09894753 -0.076954365 0.035476882 -0.036618862 0.09710799 -0.01318649 -0.093209974 0.1543294 -0.026405621 0.017305307 0.099377275 0.06475466 0.03114797 0.1222428 -0.06812204 -4.373001E-4 -0.052611675 -0.062380526 0.032446984 -0.044327244 0.009706063 -0.024726138 0.023161812 0.039517973 0.05352257 0.015945587 -0.12978427 0.0108090695 -0.108122006 -0.016420016 0.011326817 0.06042741 -0.0015696551 -0.08408031 0.004729139 0.04824601 -0.114647724 -0.0097064935 -0.011468683 -0.09540498 0.018096535 -0.06140723 0.07673674 0.5040872 0.0613079 0.006811989 0.26566756 0.034059945 0.006811989 0.013623978 0.10217983 0.006811989 0.020435967 0.08855586 0.027247956 0.013623978 0.013623978 0.23160763 0.013623978 0.0 0.027247956 0.0 0.0 0.09536785 0.034059945 0.013623978 0.006811989 0.027247956 0.0 0.013623978 0.0 0.0 0.0 0.020435967 0.013623978 0.0 0.0 0.0 0.0 0.0 0.0 0.0 0.0 0.0 0.0 0.0 0.0 0.0 0.0 0.1907357 0.040871933 0.013623978 0.034059945 0.1839237 0.0613079 0.034059945 0.0 0.074931875 0.0 0.0 0.0 0.0 0.013623978 0.020435967 0.12942779 0.006811989 0.0 0.0 0.0 0.0 0.034059945 0.0 0.0 0.0 0.0 0.0 0.0 0.0 0.0 0.0 0.0 0.0 0.0 0.0 0.0 0.0 0.0 0.0 0.0
wealth -0.070043735 -0.24103771 0.14668572 0.058233578 -0.017568558 -0.07816705 -0.19823205 -0.1966749 -0.0037804265 0.19410889 -0.19964214 -0.13809414 -0.054348074 0.117006294 -0.106591545 -0.08085196 -0.07203644 -0.086070396 0.03266376 0.18050858 -0.21133654 -0.083900295 0.05864257 -0.062847696 0.1511917 -0.062302712 -0.066713564 -0.029058935 0.030002737 -0.04181721 0.20753327 0.050913997 -0.14361824 0.22251977 0.12900116 -0.2905037 0.010283666 -0.035491433 0.0049801175 0.13898337 -0.14427832 0.03187468 0.0787176 -0.11841338 -0.04164022 0.06513229 0.14760661 0.031459108 -0.016820107 -0.24625048 0.056947976 0.1277536 0.12980157 0.025712365 -0.1149797 0.018141763 0.15912704 -0.12605697 0.12926237 -0.012473047 -0.08290417 0.12459829 0.037136126 0.04083447 0.15377446 -0.2025139 0.15105157 0.030843232 0.026159192 0.21016416 0.053445235 0.06235191 0.03401947 0.03857807 0.21208194 -0.0304543 0.0907239 -0.26534382 -0.2575117 -0.14329201 0.018383497 -0.18630648 -0.07369106 0.32633847 0.15183274 -0.08874773 0.04198282 -0.07185902 0.2813584 0.07614989 0.07128499 0.047707435 -0.15581118 -0.19851615 0.004140111 0.06136376 0.12933558 -0.030412273 -0.07648111 0.073315315 0.197008 0.040033713 0.0 0.24968395 0.0726928 0.0094816685 0.013695744 0.20543616 0.0505689 0.028445005 0.06426464 0.026337968 0.0031605563 0.062157605 0.2707543 0.0063211126 0.0010535187 0.03265908 0.0 0.0021070375 0.11483354 0.0073746312 0.010535187 0.011588706 0.0337126 0.0010535187 0.0052675935 0.0063211126 0.0 0.0 0.096923724 0.0168563 0.004214075 0.0031605563 0.0031605563 0.0052675935 0.0 0.0010535187 0.004214075 0.0 0.0 0.0 0.0 0.0010535187 0.0010535187 0.0 0.19595449 0.07585335 0.01790982 0.024230931 0.14327855 0.05899705 0.027391488 0.0073746312 0.0842815 0.0063211126 0.0010535187 0.0010535187 0.0 0.0073746312 0.011588706 0.096923724 0.0021070375 0.0 0.0 0.0073746312 0.012642225 0.03476612 0.0 0.0010535187 0.0 0.0 0.0 0.0 0.0073746312 0.0021070375 0.0021070375 0.0 0.0052675935 0.0 0.0021070375 0.0 0.0 0.0 0.0 0.0
eat -0.25220463 -0.34444213 -0.0033144 0.25756726 0.20894258 -0.044815324 -0.046983566 0.0054714624 -0.05979507 -0.27515787 -0.03518969 0.1056952 0.2571161 -0.0498983 -0.061125007 0.11533582 -0.0020441732 0.0024971843 0.06333371 -0.038966462 0.044282217 0.09759248 -0.04564923 0.14107771 -0.013525406 -0.0059476225 -0.13259 0.4161736 -0.15323825 -0.24846452 0.17099571 0.22490321 -0.0143733695 -0.08019924 -0.03238386 0.19539426 -0.10403351 0.0753174 -0.36265188 -0.049657214 -0.39558217 -0.043244585 -0.37156543 0.028272208 -0.08068629 0.1456491 0.17848583 0.2757285 0.0055835694 0.1126853 -0.07294585 0.20911427 0.11666617 0.18643488 0.10382154 -0.13638407 0.08592409 0.15425935 0.22756965 -0.15848592 -0.023698185 0.047515064 -0.29027084 0.031675853 0.14902422 -0.092877455 0.23626053 0.08968052 -0.19527175 0.24138524 0.029108554 -0.26441616 0.19678839 -0.14592978 -0.11477338 -0.1931977 -0.022201149 -0.0056435987 0.007770245 0.12172013 0.24923755 0.08663542 -0.08320508 -0.15668435 -0.009087958 0.081884 0.040483914 0.0026723996 0.052522372 0.095787495 -0.06835289 -0.012638668 0.27884468 0.022640308 0.1275359 0.0058765286 -0.040437732 0.09120337 0.17444247 0.10862752 0.014710973 0.022499135 0.005192108 0.0337487 0.085669786 0.11422638 0.041536864 0.13586016 0.112495676 0.34181377 0.07009346 0.047594324 0.21028037 0.014710973 0.0674974 0.002596054 0.109899625 0.027691243 0.0 0.022499135 0.0043267566 0.0043267566 0.014710973 0.011249567 0.017307026 0.0017307027 0.005192108 0.002596054 0.0 8.6535135E-4 0.002596054 0.052786432 0.03980616 0.0 0.0 0.017307026 0.0 0.0017307027 0.0 8.6535135E-4 0.0 0.0 0.0 0.0925926 0.005192108 8.6535135E-4 0.100380756 0.042402215 0.066632055 0.0017307027 0.097784705 0.03894081 0.002596054 8.6535135E-4 0.066632055 0.049325027 0.002596054 0.053651784 0.0017307027 0.002596054 0.002596054 0.064036 0.005192108 0.03807546 0.009518865 0.007788162 0.0060574594 0.006922811 0.0 0.021633783 0.026825892 8.6535135E-4 0.0 0.0 0.0 0.0034614054 0.015576324 0.0017307027 0.0034614054 0.0 0.0017307027 0.0 0.0 0.0 0.0 0.0
soap 0.09854928 -0.0038196403 -0.011845894 0.1431305 0.04084444 0.08334257 0.08870558 -0.05274782 0.07878629 -0.072496444 -0.01760139 0.03253509 -0.052358095 -0.056378312 0.011983472 0.015275516 0.039927766 -0.02245671 0.014785903 -0.07054681 -0.035580963 -0.010223298 -0.027300622 0.1289214 0.10883752 0.09187156 -0.06978853 0.02783885 -0.014209162 -0.051322415 0.07225424 0.033376183 0.034111653 0.038342427 0.05678538 -0.06520666 -0.04756334 0.08696262 0.015183388 -0.13511622 -0.10495072 -0.0064102765 -0.05513942 0.044561233 0.03490766 -0.028806288 -0.06012695 -0.04942883 -0.054537714 -0.06692829 0.14120722 -0.0015634013 0.034239825 0.01443698 0.015913634 -0.0057881833 -0.092251934 0.2084544 -0.06671442 -0.057823278 -0.024597393 0.041569695 0.031272743 -0.0050118268 0.05768213 -0.080314785 0.115338646 0.08439412 -0.025810651 0.106655404 0.06670887 -0.13043256 -0.020962311 0.12055221 -0.09496247 -0.0057121813 -0.06795594 -0.04737835 -0.057357103 0.1757583 -0.023755444 0.04258817 0.0063572535 0.036741916 -0.01414654 -0.09440297 -0.01447017 0.043395042 0.072225176 0.008172884 0.08911392 0.0144069 -0.13038787 -0.10934224 -0.056581467 -0.07350115 -0.04159021 0.12785757 0.06424752 0.035068646 0.33712786 0.083187394 0.0 0.3458844 0.052539404 0.013134851 0.008756568 0.16637479 0.083187394 0.026269702 0.039404556 0.043782838 0.004378284 0.026269702 0.24080561 0.013134851 0.004378284 0.043782838 0.0 0.0 0.021891419 0.013134851 0.008756568 0.008756568 0.013134851 0.0 0.013134851 0.008756568 0.0 0.004378284 0.021891419 0.013134851 0.0 0.0 0.0 0.0 0.0 0.0 0.0 0.0 0.0 0.0 0.0 0.0 0.017513135 0.0 0.048161123 0.07880911 0.004378284 0.008756568 0.30210158 0.13134852 0.008756568 0.0 0.087565675 0.0 0.008756568 0.008756568 0.0 0.013134851 0.0 0.083187394 0.0 0.0 0.0 0.004378284 0.004378284 0.013134851 0.0 0.0 0.0 0.0 0.0 0.008756568 0.004378284 0.0 0.0 0.0 0.0 0.0 0.004378284 0.0 0.0 0.0 0.0 0.0
discovery 0.20175403 -0.04122492 0.041662633 0.25584334 0.16394216 -0.037156675 0.12813967 0.00788803 0.20748447 -0.036683444 0.0012865148 -0.0147791775 -0.058159653 -0.058959346 0.110466 -0.21716987 0.1407091 -0.00332551 0.14953063 -0.03565769 -0.1402921 -0.09728384 -0.016191423 -0.10653579 -0.1671957 -0.050409485 0.017721565 -0.24574879 0.048956353 -0.10045356 -0.006009271 0.045133248 0.005029225 0.13137092 0.16526537 -0.25431493 -0.10037909 0.051906403 -0.073947534 -0.0076938597 0.13738437 -0.10010849 0.16143179 0.030731974 -0.04189438 0.21754701 0.012981788 -0.24386042 -0.051646557 -0.03554491 0.05559617 0.10053628 -0.05649447 -0.013831452 -0.068592 0.07390067 0.092543155 0.112571634 -0.026484065 -0.019333057 0.01669598 0.03935417 -0.20251359 -0.21900876 0.13257289 -0.05610214 0.1659304 -0.040010355 0.041028935 0.0984485 0.024698975 -0.013965368 0.03587896 0.028776588 0.020076541 -0.06417816 -0.0057923677 0.049460124 -0.12416289 -0.014462603 -0.053758185 -0.020174682 -0.10729802 -0.033788428 0.008988129 -0.09593512 0.035947632 0.0039964295 0.17497797 -0.05714261 -0.04021136 -0.19909582 -0.32120305 -0.1651418 0.07772497 0.062346604 -0.009079262 -0.0074115023 -0.19316472 0.032201726 0.61740243 0.030390274 0.0015994881 0.23192579 0.031989764 0.0047984645 0.060780548 0.11836212 0.012795905 0.038387716 0.020793345 0.03518874 0.0015994881 0.04318618 0.15994881 0.011196417 0.0 0.015994882 0.0015994881 0.0031989762 0.06397953 0.012795905 0.012795905 0.009596929 0.020793345 0.0015994881 0.0 0.0 0.0015994881 0.0031989762 0.039987203 0.012795905 0.0 0.0 0.0 0.0015994881 0.0 0.0 0.0 0.0 0.0 0.0 0.0 0.011196417 0.0015994881 0.0 0.41106844 0.03518874 0.007997441 0.0671785 0.02559181 0.009596929 0.0031989762 0.0 0.06397953 0.0015994881 0.0031989762 0.0031989762 0.0 0.038387716 0.0047984645 0.07517594 0.0 0.0 0.0031989762 0.0047984645 0.023992322 0.060780548 0.0 0.0015994881 0.0 0.0 0.0 0.0 0.011196417 0.0 0.0015994881 0.0 0.007997441 0.0 0.0 0.0 0.0 0.0 0.0 0.0
hospital 0.17577015 -0.07781078 0.056246534 -0.1656339 -0.12591438 -0.06870638 0.08948527 0.21471253 -0.06377511 -0.08670995 0.082461014 0.117904164 0.077674784 0.092105374 0.16795552 0.29942822 -0.050277002 0.068387926 -0.46500826 0.048072547 -0.10064737 -0.13864085 -0.2996942 -0.5822085 0.2267538 0.034015283 0.3036385 -0.13228877 -0.13561875 -0.50357807 -0.25415367 -0.39573836 0.07466964 0.120572835 0.06771009 -0.028752455 0.14999144 -0.08855218 0.11751691 0.3254255 -0.22848761 0.2671619 -0.075599 0.14840692 -0.11760448 0.15542242 0.26236513 -0.07576955 0.06776032 0.20105289 -0.09986915 0.35468906 0.093268245 8.1452215E-4 0.46516088 -0.0953216 0.098112755 0.22612262 -0.09534161 0.029355757 -0.08953665 0.18182585 0.23009369 -0.1897446 0.427499 -0.3453067 0.013941096 -0.07584427 0.024033604 0.025206294 0.327975 -0.22704124 -0.08186935 -0.25968334 0.1751255 0.07443284 0.035771742 0.08072748 -0.25241268 -0.15020138 0.0875619 0.18675 -0.109231874 -0.23010163 -0.030266304 0.018328166 -0.12908603 -0.21734883 -0.34618598 0.28302273 -0.2832131 0.22538938 -0.23943435 -0.11327534 -0.28170002 -0.050286096 -0.25326467 -0.28964353 -0.016104631 -0.25271705 0.45702592 0.11340381 4.2633014E-4 0.32742155 0.027498294 0.01684004 0.049880624 0.07737892 0.029843109 0.1739427 0.019611185 0.03325375 0.006394952 0.02152967 0.12001193 0.0038369712 6.394952E-4 0.102958724 8.526603E-4 0.0017053206 0.014068894 0.010231923 0.0049027964 0.0019184856 0.0100187585 0.0010658253 0.0023448158 0.0025579808 0.0 0.0 0.017479535 0.005968622 2.1316507E-4 2.1316507E-4 2.1316507E-4 0.0014921555 2.1316507E-4 2.1316507E-4 0.0 0.0 0.0 0.0 0.0 0.006821282 0.008739768 0.0 0.23746589 0.04497783 0.012150409 0.036877558 0.10636937 0.054357093 0.009166098 4.2633014E-4 0.09123465 0.0036238062 0.011510913 0.007887107 0.0 0.006181787 0.0038369712 0.11617496 0.022595497 2.1316507E-4 0.0036238062 0.0021316507 0.0053291265 0.021103341 2.1316507E-4 0.0 6.394952E-4 2.1316507E-4 0.0 0.01811903 0.0046896315 8.526603E-4 8.526603E-4 2.1316507E-4 0.003410641 4.2633014E-4 0.0 0.0 0.0 0.0 0.0 0.0
computer 0.21222301 -0.16601728 -0.07124398 0.17921156 0.15653928 0.063174106 -0.06545007 0.0063498197 0.122816354 0.050371353 0.029526854 -0.121416725 0.26387164 -0.015356595 -0.031761806 -0.103242636 -0.07511057 -0.24652664 -0.083257474 -0.2389882 -0.2540293 0.20743437 0.085420646 -0.34070313 -0.017245106 -0.0018878946 0.05281519 -0.181316 0.11482963 0.053238314 0.11615438 0.13567804 -0.20124713 -0.026265232 -0.04345251 -0.25999805 -0.0744267 0.16808979 -0.23182425 -0.2979111 -0.1847133 -0.005812047 -0.14325655 0.0017188755 -0.22915855 -0.08209518 -0.012449839 -0.052633613 0.05303367 0.115071535 0.18676096 0.22208232 -0.17711218 0.09700011 -0.048014164 0.032058816 0.073653616 0.09466282 -0.0012457137 -0.06159501 0.048354335 0.20983498 -0.112235084 -0.13151924 0.51008594 0.04510171 0.025123235 0.24097282 0.10306749 0.21544454 -0.063518666 -0.2906671 -0.028220944 -0.049703646 -0.057036612 -0.036861595 0.11821144 0.25582024 -0.024750223 -0.17105934 0.1364684 -0.20797312 -0.16641091 -0.16569363 0.3134862 -0.22829594 -0.07962972 -0.09968723 0.029116077 0.0046282965 9.411831E-4 0.06957667 -0.10656127 -0.03605651 0.038097236 -0.23581558 0.27680096 -0.05641279 -0.018876327 0.14641693 0.37105918 0.034980517 8.8558276E-4 0.27763018 0.079702444 0.013283742 0.03232377 0.15541977 0.060219627 0.03808006 0.040294014 0.06066242 0.0039851223 0.039851222 0.19261424 0.007970245 0.0017711655 0.027453065 4.4279138E-4 0.0048707053 0.09342898 0.014612115 0.008855827 0.009298619 0.018154446 0.0 0.010184201 0.0017711655 0.0 0.0 0.040294014 0.011069784 8.8558276E-4 0.0017711655 4.4279138E-4 0.0030995396 4.4279138E-4 0.0 4.4279138E-4 0.0 0.0 0.0 0.0 0.0026567483 0.0017711655 0.0 0.05534892 0.038965642 0.010184201 0.016826073 0.3028693 0.19792774 0.024353527 0.0 0.047378678 0.0022139568 0.008855827 0.007084662 0.0 0.007084662 0.009741411 0.06287637 0.003542331 0.0 4.4279138E-4 0.0030995396 0.0075274534 0.012398158 0.0 8.8558276E-4 4.4279138E-4 0.0 0.0 0.006641871 0.0022139568 0.0 4.4279138E-4 4.4279138E-4 0.0075274534 0.0 0.0 0.0 0.0 0.0 0.0 0.0
queen 0.17166503 0.011796953 -0.031599373 0.16677038 -0.03964995 0.09898227 0.16769882 -0.053658042 0.03820459 0.10829056 0.010768098 0.030613745 0.009530027 -0.14101587 0.36497435 -0.06193379 -0.20412853 0.13981956 0.035669576 -0.16569872 -0.14787988 -0.115745425 -0.038106404 0.079038195 0.16370986 0.02095637 -0.07419306 -0.13614187 -0.23369175 -0.14823899 0.054515395 -0.061310712 -0.08168935 0.11502609 0.15448895 -0.080219425 -0.08690242 -0.0738117 0.1907726 -0.13352339 -0.093140244 0.2657507 0.397682 0.11837491 0.22325605 0.00828644 0.13378635 -0.087584 -0.23751298 -0.1384649 0.095123224 0.25139743 0.03922827 -0.36093643 0.08230282 0.27772114 -0.30474234 0.18089703 -0.12836994 0.10382902 -0.09835308 0.056315973 -0.03586902 -0.19699103 -0.23499821 -0.40964505 0.036508694 -0.022898946 -0.044526376 0.2507142 0.30940387 -0.21677585 0.046388127 -0.16540729 0.19876547 0.08118084 -0.14700589 0.08412261 -0.083304875 0.028395008 0.1632107 0.305628 0.018703677 -0.055281706 -0.0050543416 0.047000483 0.25368172 0.107440025 -0.15841086 -0.02559479 -0.095992595 0.07683433 -0.3499712 -0.3443169 0.022961268 -0.008318274 -0.083799176 0.02929919 -0.060980506 0.06847757 0.4765507 0.06429652 0.0 0.12102874 0.041603632 0.0075642965 0.083207265 0.31013617 0.02269289 0.030257186 0.02269289 0.052950077 0.0075642965 0.0075642965 0.19667171 0.0 0.0037821482 0.0075642965 0.0 0.0075642965 0.056732226 0.0 0.015128593 0.011346445 0.030257186 0.011346445 0.0037821482 0.0 0.0 0.0 0.06051437 0.0037821482 0.0 0.0 0.0 0.0 0.0 0.0 0.0 0.0 0.0 0.0 0.0 0.0037821482 0.049167927 0.0 0.18910742 0.06429652 0.015128593 0.07942512 0.030257186 0.0037821482 0.0037821482 0.0037821482 0.09455371 0.0 0.0037821482 0.0075642965 0.0037821482 0.0075642965 0.0075642965 0.12102874 0.0037821482 0.0 0.0 0.011346445 0.011346445 0.02269289 0.0 0.0 0.0 0.0 0.0 0.06051437 0.015128593 0.02269289 0.0 0.0 0.0 0.0 0.0037821482 0.0037821482 0.0 0.0 0.0 0.0
wizard 0.044421636 -4.7650163E-5 -0.047683682 0.043121226 0.06895264 0.0049595498 0.045447607 -0.015534121 0.043234836 -0.0030708467 -0.03694959 0.103872485 -0.012735844 -0.062164854 0.085908264 0.013628973 0.05683248 0.014405507 0.043151453 -0.008191343 -0.028801434 0.018124763 0.10365247 0.02660655 0.0042354832 0.0036917483 -0.042595025 -0.0045583374 -0.050650187 -0.03858189 -0.036268964 -0.003660894 0.002231995 0.043438096 0.04426544 -0.07742999 -0.033680886 -0.0154870935 0.012397138 0.1025396 -2.8671583E-4 -0.008005868 0.031957317 0.030290484 0.027069101 0.05566204 0.03763478 -0.032958087 -0.049268052 -0.050623007 0.012840285 0.008546554 0.019041205 -0.014761588 -0.042660818 0.004240006 -0.019816855 0.067964025 -0.026609186 -0.0020113776 -0.06886044 -0.01629683 0.038679402 -0.0064241327 0.023041327 -0.004674754 -0.06328601 -0.021474881 0.01797226 0.07969204 0.08053221 -0.023236303 0.0048126886 0.034241278 0.013694348 -0.021124335 -0.09771558 -0.036395013 -0.09797544 0.047790546 0.0012829208 -0.017202258 0.007435108 0.04113385 0.032313816 0.034510277 0.008477064 0.05076822 0.068313286 -0.021836182 0.040485803 -7.306703E-5 -0.02119968 -0.10956323 0.025273478 -0.0866994 -0.052651964 0.021984112 -0.03316689 0.042035602 0.4059829 0.06410257 0.021367522 0.21367522 0.06410257 0.021367522 0.042735044 0.32051283 0.042735044 0.021367522 0.021367522 0.042735044 0.0 0.0 0.32051283 0.0 0.0 0.0 0.0 0.0 0.021367522 0.021367522 0.0 0.0 0.0 0.0 0.021367522 0.0 0.0 0.0 0.0 0.0 0.0 0.0 0.0 0.0 0.0 0.0 0.0 0.0 0.0 0.0 0.0 0.0 0.2777778 0.0 0.06410257 0.042735044 0.021367522 0.021367522 0.06410257 0.08547009 0.0 0.0 0.021367522 0.0 0.021367522 0.0 0.0 0.0 0.0 0.0 0.0 0.0 0.0 0.0 0.0 0.042735044 0.0 0.0 0.0 0.0 0.0 0.06410257 0.042735044 0.042735044 0.0 0.0 0.021367522 0.0 0.0 0.0 0.0 0.0 0.0 0.0
oil -0.018845182 -0.24517265 0.16804826 0.079837106 0.5155244 -0.009036521 -0.20900176 -0.31225473 -0.16014884 0.010562867 -0.056695443 -0.46872446 -0.12873648 0.3189896 -0.12254806 -0.15768804 -0.28091004 -0.1569849 0.120578244 0.11559643 0.003074862 -0.049837817 0.3805388 0.09101053 -0.25011006 0.36978132 0.008747796 0.13918045 0.0568727 -0.105147354 0.16125712 -0.13207403 -0.087025754 0.22956006 -0.24058402 -0.06735192 0.32248294 -0.13432775 0.09357384 0.20287193 0.16051504 -0.50013894 0.02349598 0.17456765 0.35444516 0.057846077 0.23757526 -0.11019968 -0.36379537 -0.05368605 -0.02026664 0.07207538 0.120526224 0.059438337 -0.1791704 -0.33021253 0.1156896 -5.201929E-4 -0.08793586 0.17834823 0.069343515 -0.15653968 0.06903733 0.029054401 0.08054075 0.030198341 0.3765703 -0.006902456 -0.13643561 0.20849423 -0.18716139 -0.31612593 0.2356093 -0.15636252 -0.032420635 -0.17197607 0.18647502 0.14272627 0.26447675 -0.086915664 -0.29601136 -0.060034562 -0.26021963 0.15248846 0.089106634 -0.2498389 0.18191688 -0.22652039 0.3973764 0.19129305 0.40451488 -0.2242119 -0.12107278 -0.067021675 -0.16265184 0.13865806 0.31442755 -0.09759194 0.17810348 -0.06328011 0.16733336 0.08366668 0.00140853 0.3470618 0.053664993 0.021691363 0.024508422 0.20733562 0.0563412 0.035354104 0.0539467 0.057045467 0.003098766 0.06352471 0.26114148 0.017888332 0.004366443 0.024649275 5.6341203E-4 0.0071835034 0.019437715 0.016338948 0.0039438843 0.008592033 0.015212124 0.0 0.006760944 0.012254211 1.4085301E-4 8.45118E-4 0.054228406 0.01309933 0.001549383 0.001690236 0.001549383 0.0022536481 0.00140853 2.8170602E-4 4.22559E-4 1.4085301E-4 0.0 0.0 0.0 0.0042255903 4.22559E-4 0.0 0.05817229 0.1031044 0.006760944 0.030705955 0.23240745 0.2622683 0.010986534 4.22559E-4 0.04141078 0.001690236 0.006197532 0.003380472 0.0 0.005352414 0.005774973 0.03788946 4.22559E-4 2.8170602E-4 2.8170602E-4 0.0019719421 0.0042255903 0.019296862 1.4085301E-4 2.8170602E-4 4.22559E-4 0.0 0.0 0.003662178 0.002957913 0.0 7.04265E-4 0.0 0.0022536481 0.0 0.0 0.0 0.0 0.0 0.0 0.0
currency 0.17604674 -0.10839039 0.24599355 0.08012099 -0.041393586 0.08348497 -0.030299503 0.049995326 0.24631459 0.11063073 -0.29384404 -0.07551982 -0.07869017 0.1577227 -0.15576336 0.077418834 -0.13745722 -0.042121846 0.21186851 0.010478191 0.018630702 0.023016477 -0.10443773 -0.1491382 0.015413426 0.055833787 0.037494387 0.26263386 0.13412453 0.17361918 0.27949458 -0.030575125 -0.1939011 -0.04997361 0.24772368 -0.05446714 0.27708298 -0.2837914 -0.17012969 0.062163193 -0.016340245 0.0047075194 -0.16292213 -0.08138554 0.36914122 -0.09815145 0.28158715 -0.011704737 -0.298927 -0.3423985 -0.112427115 0.1551444 -0.066036485 -0.19142473 -0.15755731 -0.06279636 0.29308963 -0.049820606 -0.21963471 0.31038833 -0.060855582 0.29735243 0.1178711 -0.103809714 -0.14749275 -0.082617454 -0.010763268 -0.0602283 -0.13749436 0.23772484 -0.18172435 0.17342266 0.20950763 0.1731383 0.0763449 -0.26182362 -0.06817631 -0.133401 -0.20808974 -0.08821521 -0.0836663 0.09258042 -0.12055725 -0.0031461844 -0.15856607 -0.23427415 0.15282635 -0.08272404 0.40644032 -0.012440528 0.24652684 -0.14516877 -0.13589565 -0.004892033 0.077827066 0.07557703 0.19121827 -0.090841204 -0.13300024 0.0616175 0.32424948 0.078694254 7.2865054E-4 0.22952491 0.044447683 0.017487613 0.017487613 0.11221218 0.02696007 0.016758962 0.059020694 0.03861848 0.0021859517 0.047362283 0.392014 0.0014573011 7.2865054E-4 0.039347127 7.2865054E-4 0.0036432527 0.08306616 0.008015156 0.01311571 0.0029146022 0.010201108 0.0 0.006557855 0.011658409 0.0 7.2865054E-4 0.05100554 0.009472457 0.0 0.005100554 0.0 0.0036432527 7.2865054E-4 7.2865054E-4 0.0 0.0 0.0 0.0 0.0 0.0036432527 7.2865054E-4 0.0 0.07796561 0.039347127 0.019673564 0.046633635 0.16248907 0.1442728 0.02550277 0.008743807 0.09691052 0.0014573011 0.0058292043 0.0058292043 0.0 0.01311571 0.011658409 0.08962402 0.0 7.2865054E-4 0.0 0.008743807 0.009472457 0.037161175 0.0 0.0 7.2865054E-4 0.0 0.0 0.01384436 0.0058292043 0.0 0.0021859517 0.0 0.0072865053 0.0 0.0 0.0 0.0 0.0 0.0 0.0
laundering -0.093985416 0.22468926 -0.12907046 -0.035441294 -0.056715906 -0.061549548 -0.050981663 0.06514836 0.13756943 0.1078416 0.15076016 -0.07182729 -0.015388021 0.11319936 -0.0011623928 0.0970088 0.047086224 0.16668274 -0.0015349053 0.08418504 0.015630018 -0.072838746 0.016246626 0.2078357 -0.13370991 -0.1230447 -0.054527897 0.007695426 0.11045723 -0.02449659 0.08216302 0.0817092 -0.058228336 0.09451919 0.13889265 -0.1369805 -0.037991095 0.108343504 -0.24864508 0.16459179 -0.19560039 0.08227647 0.007224889 -0.12765343 -0.021066597 -0.18056236 0.08981366 0.047379427 0.09475818 -0.14148702 -0.09183247 -0.16334715 -0.038666017 0.012764106 0.2124605 -0.11373645 -0.047738057 -0.10310579 0.12836464 -0.061199423 0.027116414 -3.0589252E-4 0.17341429 0.044195592 0.06365473 -4.77764E-5 -0.03334033 -0.09851432 -0.054378577 0.16025646 -0.07857436 0.053373404 0.07196462 -0.1217732 -0.17238656 0.14765407 0.147057 -0.018850183 -0.087697774 -0.044523038 0.0010087152 -0.1546329 -0.052457143 0.23044448 0.0474156 0.0076743923 0.18911634 -0.2238291 -0.0055660782 0.114135675 0.0018742054 0.24923195 0.114626 -0.038875826 0.031908978 0.0053447513 0.28269464 -0.046414245 0.09315623 0.24786432 0.022675738 0.0056689344 0.0 0.27210885 0.28344673 0.0 0.0 0.7426304 0.011337869 0.022675738 0.045351475 0.13605443 0.0056689344 0.011337869 0.045351475 0.0 0.0 0.034013607 0.0 0.0 0.0 0.0056689344 0.0056689344 0.0 0.0056689344 0.0 0.0056689344 0.0 0.0 0.0 0.0 0.0056689344 0.0 0.0 0.0 0.0 0.0 0.0 0.0 0.0 0.0 0.0 0.0 0.011337869 0.0 0.0 0.06235828 0.18707484 0.0056689344 0.0 0.03968254 0.12471656 0.0 0.0 0.13038549 0.0 0.017006803 0.0056689344 0.0 0.0 0.0 0.22108844 0.0 0.011337869 0.0056689344 0.0 0.0 0.0 0.0 0.0 0.0 0.0 0.0 0.0 0.0056689344 0.0 0.0 0.0 0.0056689344 0.0 0.0 0.0 0.0 0.0 0.0 0.0
midday 0.05236893 -0.17240301 0.18761706 -0.03565212 -0.011099373 0.11989431 -0.020737909 0.13614175 0.09937966 -0.18562607 -0.0045077554 0.08044723 -0.063929625 -0.08549847 -0.010965913 0.33155 0.04142614 -0.033199903 0.103135005 -0.11673358 -0.0017619198 -0.038158793 -0.121601105 -0.067359746 -0.08093435 -0.07106405 -0.090659104 -0.15857488 0.14895877 -0.01437449 0.06531504 -0.124661334 0.14987509 0.09641891 0.058738995 0.038684145 -0.10024091 0.040498815 -0.13246888 0.0052439054 0.060867425 -0.07946304 0.06860864 0.17203586 0.08247953 0.08462853 0.036796685 0.22071026 0.0172958 -0.12603112 -0.22199754 -0.0042136833 0.002447974 -0.064514115 0.014918582 -0.08312917 -0.007453599 -0.14879046 -0.09729564 0.18811302 0.053450614 0.22309504 0.19267306 -0.1417805 0.11680004 -0.3218088 0.19982715 0.05307391 0.052046042 -0.14163451 0.033474945 -0.24020362 0.040978055 0.062161244 0.09389263 -0.09653351 0.08251306 -0.0666893 0.16127402 0.12004379 0.16897082 -0.014063873 -0.06274867 -0.064942665 -0.13820095 -0.040342607 0.07915564 0.023137951 0.023611473 -0.11218118 -0.16265866 0.06300014 -0.0038172367 -0.11448106 -0.08006992 0.04909829 0.009585938 -0.18225649 0.22694175 0.09080274 0.08163265 0.07823129 0.006802721 0.79931974 0.017006803 0.071428575 0.044217687 0.15306123 0.06122449 0.017006803 0.023809524 0.037414964 0.006802721 0.017006803 0.020408163 0.0 0.0 0.040816326 0.0 0.0 0.006802721 0.08163265 0.017006803 0.0 0.0034013605 0.0 0.013605442 0.006802721 0.0 0.0 0.0034013605 0.006802721 0.0 0.0 0.0 0.0 0.0034013605 0.0 0.0 0.0 0.0 0.0 0.0 0.0034013605 0.12244898 0.0 0.16666667 0.017006803 0.0034013605 0.006802721 0.2857143 0.034013607 0.013605442 0.0 0.088435374 0.0034013605 0.006802721 0.017006803 0.0 0.0 0.0 0.088435374 0.006802721 0.0 0.0 0.006802721 0.0 0.0 0.0 0.0 0.0 0.0034013605 0.0 0.0034013605 0.0034013605 0.0 0.0 0.0 0.0 0.0 0.0 0.0 0.0 0.0 0.0 0.0
man 0.5520554 0.030384153 -0.03157638 0.07857057 -0.0902538 0.043929968 0.2928653 0.038982857 0.14315392 0.14569424 0.014721834 0.19592796 -0.25204077 0.0605185 0.013537951 0.06878634 0.104367904 -0.07563881 -0.105663896 -0.10982158 -0.055517364 -0.015851086 0.040506646 -0.09434008 0.14130858 -0.016054088 -0.07808193 0.08896101 -0.30454314 -0.22530188 -0.07619736 0.06320283 -0.06446996 -0.17495339 0.37393337 -0.20284477 0.3951536 -0.07403811 0.1471196 0.3886294 -0.70548296 0.1907636 0.048584294 0.06809233 0.030126054 0.08129792 0.056440204 -0.21082728 0.13883452 0.009207869 -0.1465542 0.15354046 0.0032885715 0.037604798 -0.012745368 0.15923351 -0.04572754 0.16029823 -0.18844305 0.1248823 -0.11975958 0.13173805 -0.1178462 -0.105448976 0.116185784 0.33734575 -0.17653733 -0.031871013 0.1059665 0.1366137 0.23681617 -0.17064604 -0.06893692 -0.2620189 0.021663202 0.16975194 -0.033302065 0.08013559 0.052046012 0.21466754 -0.16480549 0.48778254 -0.0033117163 -0.00845438 0.34508836 -0.18009177 0.17507862 0.2615875 -0.03630229 -0.059437722 0.028721271 0.22969773 -0.042068154 -0.3759321 0.1707479 -0.120625086 -0.09026504 0.109680496 -0.10067758 0.010041816 0.7151996 0.054503582 3.4118048E-4 0.14832821 0.026100308 0.016973728 0.049556464 0.04000341 0.0046059364 0.014500171 0.024053223 0.0454623 0.0017911976 0.021067895 0.3004094 0.0100648245 0.0015353122 0.022006141 8.529512E-4 0.012794268 0.008870693 0.02814739 0.011344251 0.016717844 0.019106107 2.5588536E-4 0.0017911976 0.0044353465 1.7059024E-4 0.0032412147 0.008785398 0.009723644 0.0012794269 1.7059024E-4 2.5588536E-4 0.0026441487 8.529512E-5 2.5588536E-4 0.0 6.8236096E-4 0.0 0.0 0.0 0.0045206416 0.008955988 0.0 0.1414193 0.03480041 0.020556124 0.1259809 0.008870693 0.002814739 0.02115319 0.0037529853 0.08085977 0.017144319 0.027635619 0.0074206754 0.0 0.009894234 0.05629478 0.041538723 9.382463E-4 6.8236096E-4 8.529512E-4 0.007079495 0.0075912657 0.072330266 0.0 0.0015353122 8.529512E-5 1.7059024E-4 8.529512E-4 0.036165133 0.0026441487 0.118133746 2.5588536E-4 0.0 0.0011088366 0.0 4.264756E-4 0.00733538 8.529512E-5 0.0 0.0 0.0
keyboard 0.14789918 -0.023142086 0.16438529 0.12634271 0.047828835 0.13651763 0.03696516 -0.010838945 -0.01784122 -0.019402388 -0.115839235 0.03327716 0.07708227 0.015404874 -0.023693714 -0.040448498 -0.08200121 -0.054498065 -0.03760158 0.011021327 -0.09721601 0.04029175 0.1454786 0.008003 0.032370005 -0.06387748 0.030226117 0.02946476 -0.08995531 -0.10595957 0.02982341 0.106025174 -0.055859294 -0.017965686 0.20278801 -0.21190566 0.06850342 -0.04229007 -0.059705816 -0.124013975 -0.14189729 -0.0090407245 -0.013743734 0.044442266 -0.15285714 -0.015222807 0.108067684 -0.079096824 0.03204795 -0.005898975 0.09589296 0.054131538 0.055783372 -0.06664792 -0.10335519 0.06550725 0.037898984 0.082497425 -0.22367325 -0.07213869 -0.044314664 0.1263657 0.03204342 -0.04542155 0.12083087 -0.029188648 0.0025490648 0.16874151 0.13758929 0.19136393 0.10321037 -0.19353779 0.013553527 0.07566754 -0.12410756 -0.0023241122 -0.05231801 0.031294573 -0.02892883 0.060786568 0.0667704 0.04516619 -0.006480283 -0.15610382 0.066682816 -0.06908096 -0.055356514 0.014201867 0.07397385 -0.072126344 0.0061102924 -0.0014774932 -0.0993999 -0.2846179 0.13900393 -0.0520577 -0.026019776 0.07277446 -0.11001353 -0.030812679 0.52238804 0.087064676 0.0 0.22388059 0.111940295 0.024875622 0.018656716 0.09950249 0.0 0.018656716 0.012437811 0.043532338 0.0 0.03731343 0.29228854 0.012437811 0.0 0.012437811 0.0 0.0 0.043532338 0.0062189056 0.024875622 0.0062189056 0.0062189056 0.0 0.0062189056 0.0 0.0062189056 0.0 0.031094527 0.012437811 0.0 0.0 0.0 0.0 0.0 0.0 0.0 0.0 0.0 0.0 0.0 0.012437811 0.0 0.0 0.10572139 0.10572139 0.012437811 0.018656716 0.09950249 0.08084577 0.03731343 0.0 0.111940295 0.0062189056 0.0 0.018656716 0.0 0.0 0.0 0.087064676 0.0 0.0 0.0 0.018656716 0.012437811 0.062189054 0.0 0.0 0.0 0.0 0.0 0.0062189056 0.0062189056 0.0 0.0 0.0 0.03731343 0.0 0.0 0.0 0.0 0.0 0.0 0.0
announcement 0.47263435 -0.18445101 0.13738662 0.06990928 -0.062101174 0.13268696 0.24923655 -0.041944485 0.049096722 0.14533657 -0.13343996 -0.17492287 -0.120267175 -0.010825532 0.31075543 0.15167014 -0.09405103 -0.16589077 0.1275306 -0.10806209 -0.17636783 -0.21284121 0.0027139226 -0.21024887 -0.1469375 -0.43757477 0.26326337 -0.27883413 -0.078963004 0.12361628 0.034453973 -0.0278771 0.13094991 0.3523767 0.052474264 -0.17448536 0.1797998 -0.27048954 -0.29668313 0.27763283 0.39423394 0.07514108 0.42728165 -0.119934164 -0.07713115 0.25723532 0.070336424 0.0021390254 -0.24081345 0.11435928 0.108815245 0.069604784 0.024661753 -0.2772907 -0.38922006 -0.021720449 0.10094592 -0.1133673 -0.17575747 -0.19017947 -0.08727589 0.32644042 0.122980155 -0.3074936 -0.31155297 -0.05243629 0.037977733 -0.18017349 0.17000096 0.18513744 0.04613126 0.019773591 0.10024965 0.17047454 0.021837056 -0.25433052 0.20903568 0.008555617 0.3741213 -0.19037586 0.1599902 0.171795 0.0022066506 0.0609472 -0.011536554 -0.17659943 -0.13662678 0.32045242 0.1257593 0.0628177 -0.14411782 -0.3098551 -0.07161039 -0.20754635 0.36757445 0.2571183 -0.09764298 -0.14274316 -0.15764573 0.16715711 0.5730201 0.17482904 0.0049636005 0.14945953 0.018199869 0.0033090669 0.06838738 0.10258108 0.014890801 0.012133245 0.029781602 0.017096845 5.515112E-4 0.027575558 0.11912641 0.007169645 0.0 0.015993824 0.0022060447 0.0022060447 0.04742996 0.0066181337 0.0066181337 0.0049636005 0.008824179 5.515112E-4 0.0016545334 0.0016545334 0.0 5.515112E-4 0.19688949 0.0011030224 0.0 0.0 0.0 0.0 0.0 5.515112E-4 5.515112E-4 0.0 0.0 0.0 0.0 0.0132362675 0.030884625 0.0 0.31877345 0.011581734 0.014890801 0.13732627 0.00937569 0.0011030224 0.010478712 0.0 0.07114494 0.0044120895 0.0066181337 0.021508936 0.0 0.029230092 0.012684757 0.07831459 0.0 0.0011030224 0.0016545334 0.0049636005 0.008272667 0.07666005 0.0 0.0 0.0 0.0 0.0 0.0 0.0016545334 0.0 0.0055151116 0.0 0.007169645 0.0 0.0 0.0 0.0 0.0 0.0 0.0
racket 0.07073888 -0.033337146 0.075167105 0.09509329 0.03328622 -0.004552133 -0.029012127 0.054398715 -0.03690053 0.084152065 -0.120363034 -0.0012599769 -0.023668202 -0.016955914 -0.039103076 -0.039298706 -0.047169175 0.010202972 -0.02364765 6.8377756E-4 -0.114869736 0.020273773 0.17522588 -0.050809316 0.0069146957 0.028158594 0.023801805 -0.057315815 -0.13217278 -0.062326405 -0.007902653 0.04249618 -0.059007037 -0.03548617 0.111631155 -0.07722514 0.13873035 -0.064516366 0.017787052 0.059834257 -0.12161286 0.03999996 0.0061052446 -0.059213463 -0.104632966 0.0051166615 0.005700817 -0.06492235 0.0463293 -1.937216E-4 0.007795584 -0.019052139 0.01510838 -0.06133662 -0.035951674 0.004211522 0.023337075 0.05891104 -0.08393819 -0.03892175 -0.06727339 0.107402235 1.3382008E-4 -0.008720136 0.09069361 -0.09155787 -0.035640217 0.036185946 0.049580753 0.14534813 0.072472624 -0.13387057 0.053575505 0.03863386 -0.07874795 -0.027474198 -0.12243566 0.027452348 -0.061722912 -0.048079804 0.09542556 0.061393008 -0.07971181 -0.023100838 0.065887265 -0.0114612505 -0.03596584 0.07587846 0.033713892 -0.013077904 0.05902382 0.08134503 -0.0082572885 -0.21420017 0.14429525 -0.0021674747 -0.05997161 0.07624063 -0.07666165 0.031973556 0.3372093 0.023255814 0.0 0.1744186 0.0 0.011627907 0.10465116 0.20930232 0.0 0.0 0.034883723 0.0 0.0 0.093023255 0.23255815 0.0 0.0 0.023255814 0.0 0.0 0.3255814 0.0 0.0 0.0 0.034883723 0.0 0.034883723 0.011627907 0.0 0.0 0.0 0.0 0.011627907 0.0 0.0 0.0 0.0 0.0 0.0 0.0 0.0 0.0 0.0 0.023255814 0.0 0.0 0.22093023 0.034883723 0.034883723 0.023255814 0.023255814 0.011627907 0.046511628 0.011627907 0.1627907 0.011627907 0.023255814 0.0 0.0 0.0 0.023255814 0.093023255 0.011627907 0.0 0.0 0.023255814 0.0 0.011627907 0.0 0.023255814 0.0 0.0 0.0 0.0 0.0 0.0 0.0 0.0 0.023255814 0.0 0.0 0.0 0.0 0.0 0.0 0.0
anxiety 0.07645231 0.056559708 -0.11430943 -0.04063377 0.031537574 0.08132063 -0.028457567 -0.12779287 0.06778722 -0.122610874 -0.046334565 -0.016096061 -0.0016465958 -0.086227335 -0.05805598 -0.02426639 0.091273084 0.17959851 -0.07093832 0.10438376 0.033005107 -0.07367636 0.03440314 -0.0343276 0.16768284 -0.120019116 -0.0045132483 -0.05555596 0.10429347 -0.10898797 -0.044132076 -0.003471619 -0.15464164 0.006793065 -0.017976956 -0.09680951 0.004328723 -0.047061615 -0.14197482 0.0970083 -0.03524557 0.021677282 -0.084343895 0.011008759 -0.087341145 -0.050042484 -0.13697542 -0.1703137 0.011487578 -0.17154065 0.026553452 0.11479072 0.025436299 -0.020129068 0.03867243 -0.2310743 0.120003335 -0.0052837864 -0.21548624 -0.11972951 -0.005902051 0.0044977516 -0.27378482 -0.011682591 0.17762968 -0.0017841836 0.33278453 -0.009398095 -0.10008598 0.12455835 0.046749484 -0.11464998 0.07495106 -0.05272195 0.021818293 -0.018014522 0.16063808 -0.15212242 0.07616574 0.04806423 0.02615686 -0.037892714 -0.0962941 0.1118936 -0.22139992 -0.08380311 -0.037713826 -0.110072896 0.056790274 -0.050828427 -0.16541882 -0.1299123 0.039694183 0.0749671 0.034733333 -0.17283714 0.06643178 -0.02239168 -0.115249656 0.014701752 0.15138023 0.020035619 0.0022261797 0.22261798 0.16696349 0.022261798 0.040071238 0.30276045 0.042297415 0.042297415 0.060106855 0.080142476 0.008904719 0.077916294 0.19813 0.0044523594 0.008904719 0.048975956 0.0 0.0044523594 0.022261798 0.0 0.015583259 0.015583259 0.026714157 0.0044523594 0.0044523594 0.008904719 0.0044523594 0.0 0.022261798 0.024487978 0.0 0.0 0.0022261797 0.0044523594 0.0 0.0 0.0 0.0 0.0 0.0 0.0 0.011130899 0.0 0.0 0.2315227 0.13802315 0.0066785393 0.013357079 0.040071238 0.033392698 0.008904719 0.0022261797 0.11353517 0.0066785393 0.013357079 0.0044523594 0.0 0.011130899 0.008904719 0.11798753 0.0044523594 0.0 0.0022261797 0.011130899 0.011130899 0.028940337 0.0 0.0 0.0 0.0 0.0 0.0 0.008904719 0.0 0.0 0.0 0.011130899 0.0 0.0 0.0 0.0 0.0 0.0 0.0
jazz 0.13602443 0.0043792306 -0.19273561 0.17462315 0.011722213 0.011765387 0.10907054 0.025094882 0.045760475 0.03383513 -0.032980192 0.12577325 -0.04996152 -0.018152932 0.057687484 0.18828072 -0.0033488804 0.043916114 -0.04109862 -0.038863808 0.10007813 0.110747635 0.111638784 0.12620035 0.13169256 0.13160858 -0.08142034 -0.016842738 0.025533948 -0.10559355 0.08182516 -0.09602963 -0.14674237 0.07783368 0.07298634 -0.11579285 0.07864643 0.0019693186 0.17198837 -0.20326315 -0.06986853 -0.06317592 -0.047827482 0.08176562 0.016011193 0.043263767 0.0025269128 -0.0331075 -0.016230077 -0.03313211 0.22938028 0.08991221 0.08448625 -0.055327576 0.081558704 0.06459956 -0.06075588 0.22444306 -0.102390215 -0.13197221 -0.047797613 0.11557241 0.057418216 0.063416906 0.102529496 -0.056641106 0.1449396 0.25320005 0.024733819 0.16545202 0.124665886 -0.022083536 -0.021158112 0.0567441 -0.00584005 -0.017142752 -0.06141623 -0.045777753 0.10178477 0.13916817 0.09251092 0.020712135 -0.091417365 -0.06916175 0.022734398 -0.12073596 0.08799665 0.07151784 0.04393745 0.060444295 0.053723462 0.013905079 0.047367413 -0.17635208 -0.052890763 -0.14855799 -0.21766332 -0.04220096 -0.08031002 0.02671938 0.23006135 0.058282208 0.0 0.2852761 0.09202454 0.018404908 0.0398773 0.17484662 0.0797546 0.049079753 0.024539877 0.08588957 0.015337423 0.036809817 0.297546 0.0 0.006134969 0.024539877 0.0 0.0030674846 0.024539877 0.006134969 0.012269938 0.006134969 0.021472393 0.006134969 0.0030674846 0.0030674846 0.0 0.015337423 0.012269938 0.009202454 0.006134969 0.0 0.0030674846 0.006134969 0.0 0.0030674846 0.0 0.0 0.0 0.0 0.0 0.0 0.0 0.0 0.015337423 0.08588957 0.006134969 0.006134969 0.33128834 0.1411043 0.006134969 0.009202454 0.116564415 0.0 0.0030674846 0.006134969 0.0 0.0030674846 0.0 0.058282208 0.0 0.0 0.0 0.0030674846 0.0030674846 0.012269938 0.0030674846 0.015337423 0.0 0.0 0.0 0.009202454 0.0 0.0030674846 0.0 0.0 0.0 0.0 0.0030674846 0.0 0.0 0.0 0.0 0.0
gain 0.067091085 -0.15838127 0.0957376 -0.15106353 0.27619782 -0.13251235 -0.088871196 -0.20357369 -0.08484008 -0.14555708 -0.21603112 0.22963051 0.06633626 0.04245867 -0.23710948 -0.076306924 -0.077346794 0.04843742 0.042036768 0.08972947 0.024192028 0.1895525 -0.17650476 -0.18929532 -0.13923818 -0.14800109 0.06988412 0.24394375 -0.059614994 -0.076284334 0.093090974 0.10761284 -0.1755527 0.06344681 -0.008939238 -0.12343755 0.17663771 -0.23417951 -0.16045405 -0.09937755 -0.19133626 0.14865571 -0.18195672 -0.06597434 0.01019425 -0.025294894 -0.0131901195 -0.068903916 0.0871153 -0.012857303 -0.03194484 -0.07123933 0.1874645 -0.06093413 0.09519022 -0.0908672 -0.09953223 -0.19440432 -0.19765285 0.11166988 0.04479948 -0.00679012 -0.2083492 -0.007352604 0.16772841 0.10427556 0.029206172 0.02814059 -0.18692107 0.20856091 -0.06855363 9.4640057E-4 -0.0020402286 -0.03513195 -0.09979154 -0.22943029 -0.055918723 -0.04408006 -0.019260118 -0.23778681 0.32172352 -0.062075626 0.021161623 0.004710882 0.14107917 0.09355691 0.045408357 0.13874778 0.16941112 -0.16105646 -0.13217556 -0.13388252 0.33551517 -0.31705612 0.15823823 -0.13605964 0.10425044 0.08261483 0.0119244885 0.024528913 0.1588367 0.03131991 0.0067114094 0.0738255 0.045302015 0.04474273 0.03635347 0.24496645 0.0878076 0.28970918 0.030201342 0.0352349 0.04194631 0.031879194 0.21029083 0.025167786 0.06879195 0.026286354 0.0 0.0016778524 0.01621924 0.07158837 0.0067114094 0.0033557047 0.017337808 5.592841E-4 0.0033557047 0.0039149886 0.0 0.004474273 0.015659954 0.016778523 0.005033557 0.0011185682 0.0 0.005033557 0.0027964206 0.0 0.0 0.0 0.0 0.0 0.0 0.10850112 0.005033557 0.0 0.22035794 0.020693513 0.019574944 0.015100671 0.17673378 0.011744967 0.008389262 5.592841E-4 0.046979867 0.0039149886 0.0027964206 0.05033557 5.592841E-4 0.0067114094 0.006152125 0.06823266 0.0016778524 0.007829977 0.013982103 0.0067114094 0.0033557047 0.0067114094 0.0 0.0011185682 0.016778523 0.0 0.0 0.0 0.0011185682 0.0 0.0016778524 0.0 0.0011185682 0.0 5.592841E-4 0.0 0.0 0.0 0.0 0.0
history 0.20211802 -0.11815198 -0.15535846 0.078675434 -0.005515006 0.010195314 0.07054883 -0.29455316 0.13737246 -0.044403404 -0.019759001 0.17574976 -0.17891426 0.13375057 0.2467464 0.047501642 0.11626693 -0.04053954 -0.31116056 -0.026296664 -0.10043425 -0.095103 0.059701618 -0.11688622 0.18286102 0.09622434 -0.17856933 -0.04606024 0.2487573 0.051656995 -0.15640807 0.058274034 -0.094498344 -0.042793 0.073693916 -0.16713375 0.07450303 -0.1364602 0.0154295 -0.071125336 0.11744016 0.078988016 -0.042441655 0.09027951 -0.28541133 -0.09967537 -0.56994516 -0.05093115 -0.40653428 -0.2208608 0.18380037 -0.08336936 -0.3007034 -0.18146624 -0.062262237 0.09551322 -0.017928611 0.08716089 -0.040302567 0.1123535 -0.0115330685 0.13681076 -0.096178114 -0.026121724 0.14430898 -0.11260954 0.31168514 0.16131432 -0.022779217 0.37343046 0.24433908 -0.18218642 -0.08658247 0.21456355 0.33213332 -0.19598302 -0.072276264 -0.3517994 -0.051762447 -0.28433958 0.023982625 -0.053513743 -0.081273444 -0.20688024 0.19615753 -0.2613985 0.10449833 0.16481891 0.07053542 -0.034899425 -0.064256884 0.085128225 0.03426165 -0.19424197 0.02776868 -0.13425449 -0.005944536 -0.04323549 -0.08517454 0.119830415 0.22293599 0.104150824 0.0026607874 0.3723202 0.03402007 0.01368405 0.020906188 0.22958796 0.031739395 0.014634332 0.02888855 0.029838832 0.0057016877 0.018625513 0.27083015 0.0026607874 0.0036110687 0.018625513 0.0 0.0017105063 0.07564239 0.005321575 0.005131519 0.0030409 0.03554052 7.60225E-4 0.0019005626 0.0013303937 3.801125E-4 7.60225E-4 0.08628554 0.011403375 0.0024707313 0.0011403376 1.9005625E-4 0.0017105063 0.0 1.9005625E-4 0.0017105063 0.0 0.0 0.0 0.0 0.0030409 0.0039911815 1.9005625E-4 0.27425116 0.054356087 0.0110232625 0.011593431 0.022236582 0.01368405 0.01881557 0.0017105063 0.12790786 0.0020906187 0.0034210125 0.0024707313 1.9005625E-4 0.010072981 0.004371294 0.18625513 0.00456135 0.0 3.801125E-4 0.0070320815 0.020336019 0.036300745 0.0 3.801125E-4 0.0 1.9005625E-4 0.0 0.0055116313 0.005131519 3.801125E-4 3.801125E-4 0.0 0.005321575 0.0 3.801125E-4 0.0 0.0 0.0 0.0 0.0
bird 0.044253353 -0.017604878 0.12135524 -0.012832687 -0.106290504 0.11657602 0.14774068 -0.13462384 0.17688029 -0.016830962 -0.008268747 -0.04979359 0.081567384 -0.04568569 0.19605187 -0.109211735 0.21960881 0.13349088 -0.09670659 -0.021917151 -0.06380363 -0.008796908 -0.021244682 -0.035841454 -0.12283181 -0.07802554 -0.08740756 -0.015290619 -0.030677961 -0.062191896 -0.06777879 -0.037893333 0.14023721 -0.118904196 0.14104933 -0.16088367 0.09766301 -0.054180507 0.1972993 -0.110176854 -0.06815381 -0.048050225 0.017784178 0.13422546 -0.1235746 0.018913552 -0.0045304745 -0.021768466 0.005626525 -3.4882905E-4 -0.05402493 0.20805636 0.19261166 0.011847159 0.07099876 0.10121386 0.1090696 0.2722349 -0.22382647 0.10838744 -0.043273024 0.16796082 -0.004099027 0.15195434 -0.07547269 0.2633757 0.08736904 -0.028752241 -0.1384849 0.16809672 0.1834993 0.12754332 0.19169465 -0.023352293 -0.034763113 0.02558447 0.00888616 0.0030503701 0.021024022 0.078995734 0.018466273 0.17901136 -0.024465628 0.10164137 0.09341355 0.11807369 -0.0798973 0.038125027 0.11199121 -0.018928511 0.04853643 -0.029739875 0.026691137 -0.16181882 -0.083747886 0.0059265704 -0.11604173 -0.03627164 -0.18736072 -0.15781984 0.45333838 0.037936267 0.0 0.26176023 0.05311077 0.026555385 0.037936267 0.14415781 0.066388465 0.020864947 0.05121396 0.07018209 0.0 0.026555385 0.25037935 0.013277693 0.0018968133 0.03414264 0.0 0.0037936266 0.020864947 0.015174506 0.00569044 0.007587253 0.013277693 0.0 0.0037936266 0.0018968133 0.0 0.0018968133 0.01138088 0.015174506 0.0018968133 0.0 0.0 0.0018968133 0.0 0.0 0.0 0.0 0.0 0.0 0.0 0.0037936266 0.0018968133 0.0 0.06449165 0.018968133 0.007587253 0.043626707 0.30728376 0.11191198 0.007587253 0.009484067 0.04552352 0.00569044 0.007587253 0.015174506 0.0 0.009484067 0.01138088 0.04552352 0.0 0.00569044 0.0 0.01138088 0.007587253 0.05311077 0.0 0.0 0.0 0.0 0.0 0.03983308 0.0018968133 0.0 0.0 0.0 0.009484067 0.0 0.0 0.0 0.0 0.0 0.0 0.0
possession 0.4128862 0.14819288 -0.14756383 0.18038996 0.04826093 -0.07606445 0.01771189 0.0674367 0.060905557 -0.037201386 0.037381057 -0.06443466 -0.03935801 0.035194643 0.22233014 -0.04296232 0.40884206 0.19460201 0.042868994 0.080933794 0.021829003 0.01345798 0.20970464 0.075060904 -0.2855697 0.009074119 -0.120580204 0.043506026 0.062483944 0.14284638 -0.34710717 0.17452785 -0.13365069 4.9902435E-4 0.18338537 -0.003130914 -0.15849967 -0.10741317 0.02443382 0.10981563 -0.009582159 -0.13159294 -0.09698362 0.34654272 -0.08298139 0.35519546 -0.14474544 -0.42808166 0.22745462 0.019901609 -0.20700234 0.008807161 0.05823841 -0.00814251 0.11399349 -0.34042862 -0.04023318 0.051775437 0.0020863467 -0.04827839 -0.17531644 -0.08840729 0.026408998 0.13282405 0.21618271 0.16258699 0.037067376 -0.061691005 -0.12567179 0.12545913 0.0116726225 0.0115498565 -0.053545635 -0.0035840047 -0.10771542 -0.07642638 0.27259746 -0.23551229 -0.28086138 -0.18427981 0.110423766 -0.10222968 0.0066289147 0.16868517 0.2513938 -0.20215856 0.17505744 -0.08047593 0.058315113 0.116135634 0.06868812 0.06490299 -0.11961181 -0.16704999 -0.084787145 0.14013906 0.07002835 -0.09053766 0.0308079 0.1624345 0.1007752 0.051679585 0.0012919897 0.3630491 0.11369509 0.019379845 0.046511628 0.25581396 0.060723513 0.03617571 0.043927647 0.0503876 0.015503876 0.03875969 0.22739018 0.0 0.006459948 0.051679585 0.0 0.0 0.054263566 0.016795866 0.0012919897 0.003875969 0.019379845 0.0025839794 0.009043927 0.0025839794 0.0 0.005167959 0.043927647 0.012919896 0.003875969 0.0 0.0012919897 0.003875969 0.0 0.0 0.0012919897 0.0 0.0 0.0 0.0 0.0012919897 0.0025839794 0.0 0.48191214 0.068475455 0.011627907 0.009043927 0.027131783 0.018087855 0.011627907 0.0 0.08397933 0.0012919897 0.0025839794 0.0 0.0 0.0025839794 0.0012919897 0.07235142 0.0025839794 0.0 0.0 0.003875969 0.010335918 0.016795866 0.0 0.0 0.0012919897 0.0 0.0 0.0 0.0 0.0 0.0 0.0012919897 0.0025839794 0.0 0.0 0.0 0.0 0.0 0.0 0.0
yen 0.4331902 0.107956745 0.3174854 0.21859837 0.1641617 -0.24844584 -0.3332737 0.028754203 0.045582447 -0.18413156 -0.28105605 -0.06891018 -0.033952978 0.21111886 -0.19183888 0.30232412 -0.29592645 -0.33846304 0.16939731 -0.25462666 0.47541428 0.3848563 -0.009596974 -0.22995895 -0.1592514 -0.20910048 -0.04693742 0.21212272 -0.13641703 -0.061669268 0.40947482 0.09518462 0.071082376 0.2344782 0.31194732 -0.058912087 0.39976746 -0.14234127 -0.3676168 0.19241704 -0.21487789 0.12100539 -0.17576368 0.25557315 0.50416625 0.2699735 0.20787951 0.26389188 -0.17766647 -0.14564751 0.08300269 0.20106602 0.22777148 0.024009988 -0.08015304 -0.18201908 0.2071409 -0.1360134 -0.51689893 0.15967721 0.15219507 0.25611472 0.06608291 0.19234343 -0.31610078 -0.17844987 0.18075022 -0.23642586 -0.08095188 -0.1557647 0.119140565 -0.016394561 -0.27626324 0.25896648 0.06495642 0.038143273 0.015038965 -0.24728322 0.037390914 -0.009550769 0.038383074 0.08550091 -0.10740129 -0.07909823 -0.31883052 -0.4607901 0.12937391 0.23306288 0.37093714 0.13728037 1.8745019E-4 -0.044630833 -0.018470077 -0.22615437 -0.37257758 0.403176 -0.12903722 0.09282284 -0.2329199 0.08078863 0.27118972 0.0029160185 0.0 0.26438567 0.027216174 0.0038880247 0.01749611 0.028188178 0.0019440124 0.120528765 0.004860031 0.021384137 0.0 0.014580092 0.06609642 0.0 0.0 0.004860031 0.0 0.0019440124 9.720062E-4 0.74552876 0.0019440124 0.0019440124 9.720062E-4 0.0 0.0019440124 0.027216174 0.0 0.0 0.024300154 0.0 0.0 0.0 0.0 0.0 9.720062E-4 0.0 9.720062E-4 0.0 0.0 0.0 0.0 0.016524104 0.004860031 0.0 0.17690513 0.04568429 0.010692068 0.041796267 0.026244167 0.0038880247 0.019440124 0.0 0.15454899 9.720062E-4 0.004860031 0.01749611 0.0 0.0038880247 0.0029160185 0.11761275 9.720062E-4 0.0 9.720062E-4 0.14094089 0.0029160185 0.019440124 0.0 0.0 9.720062E-4 0.0 0.0 0.021384137 0.0029160185 0.0 9.720062E-4 0.0 0.0019440124 0.0 0.0 0.0 0.0 0.0 0.0 0.0
chemistry 0.04133782 -0.020237293 -0.08440782 -0.0379227 0.014580712 0.06656608 -0.11079089 -0.03626716 0.005917788 -0.114396654 -0.030203583 -0.02577813 0.07695206 0.014562928 0.08939165 0.033363044 0.13179211 0.026613066 -0.10400096 -0.039117817 -0.044429164 -0.07859731 -0.016896432 -0.048779145 0.024050407 -0.04463116 -0.07886 -0.09781406 0.1472113 -0.035159934 -0.047032766 0.07760983 0.0017126146 -0.015635444 0.081962 -0.12394557 -0.045441397 -0.0035508084 -0.054384377 -0.09160668 0.0142334765 0.024281219 -0.088487044 0.18029371 -0.103029944 -0.064856745 0.046982136 -0.1299053 -0.039656363 -0.08598552 0.06269347 0.02125896 0.045655783 -0.035651684 -0.02761363 -0.04355155 0.075773045 0.17292932 -0.12150522 -0.023735415 -0.017442986 0.0099185 -0.08851179 -0.034883123 0.10268793 -0.16030487 0.096046984 0.09031945 0.10327971 0.107614525 0.18358524 -0.14581423 -2.0162859E-4 0.015810478 0.08074067 0.0053843968 0.045427565 -0.113889046 -0.15608281 0.04823094 0.013565206 0.073474824 -0.0716703 0.047348835 -0.0149310585 -0.020021351 0.08137129 -0.008897152 0.08203072 -0.011253002 -0.006638313 0.012337653 -0.02399654 -0.11598621 -0.0038968306 -0.114323564 0.0018162039 -0.08129708 -0.056227792 -0.01769226 0.24208565 0.037243947 0.0 0.25605214 0.051210426 0.02793296 0.032588452 0.2886406 0.09310987 0.023277467 0.05586592 0.10707635 0.01396648 0.051210426 0.19553073 0.0 0.0 0.01396648 0.0 0.0046554934 0.04189944 0.009310987 0.0046554934 0.0046554934 0.046554934 0.0 0.0 0.009310987 0.0 0.0 0.023277467 0.023277467 0.0 0.0 0.0 0.0046554934 0.0 0.0 0.0 0.0 0.0 0.0 0.0 0.0 0.01396648 0.0 0.20018622 0.09310987 0.009310987 0.009310987 0.12569833 0.018621974 0.018621974 0.0 0.12569833 0.0 0.0 0.009310987 0.0 0.009310987 0.009310987 0.10242085 0.009310987 0.0 0.0 0.009310987 0.01396648 0.023277467 0.0 0.0 0.0 0.0 0.0 0.0046554934 0.0 0.009310987 0.0046554934 0.0 0.018621974 0.0 0.0 0.0 0.0 0.0 0.0 0.0
library -0.027416896 -0.09888735 0.15019615 -0.0024169672 -0.018114198 0.032165177 -0.15364704 0.0117172515 0.14802033 0.01488347 0.056524105 0.19332434 0.04935115 0.05743248 0.18594569 0.13507624 0.0781783 -0.007267926 0.03365569 -0.07909512 -0.031619083 0.10163785 0.06961907 -0.101008184 -0.048630934 -0.15751094 0.042929873 0.010152121 -0.16261356 -0.081522934 0.060508754 -0.13954444 -0.06471666 -0.053834017 0.13193274 -0.45571178 -0.16114084 0.015013655 0.139896 -0.121938616 -0.015699388 -0.024672575 0.10367565 0.13690504 -0.15115643 -0.042158004 0.106099986 0.05271814 -0.105753824 -0.016676048 0.18466692 0.13208835 -0.06562214 -0.11427716 -0.035684973 0.11125419 -0.14239627 0.2383657 -0.14380719 0.028103499 0.08633033 0.18269461 0.06258622 -0.26695323 0.120631404 -0.14766325 -0.006535671 0.22138344 0.080917165 0.16321336 0.015084757 -0.1786968 -0.02356421 -0.027262257 0.055660985 0.03400495 -0.2425229 -0.11516058 -0.19304654 -0.10239826 0.06534808 0.039483864 -0.156903 -0.14327861 0.010047414 -0.4226782 0.06139637 -0.041493848 -0.035125736 0.0169912 -0.12388853 0.12969005 0.016335737 -0.2265064 -0.026730908 -0.1075457 -0.06862421 0.1050674 -0.1248252 -0.04769956 0.5295008 0.09455371 0.0018910741 0.22125567 0.041603632 0.0075642965 0.024583964 0.13993949 0.018910741 0.041603632 0.034039333 0.05484115 0.0 0.015128593 0.2344932 0.0018910741 0.0 0.011346445 0.0018910741 0.0056732227 0.06807867 0.0056732227 0.0075642965 0.0018910741 0.018910741 0.0037821482 0.0018910741 0.0 0.0 0.0018910741 0.052950077 0.009455371 0.0 0.0 0.0 0.0 0.0 0.0018910741 0.0 0.0 0.0 0.0 0.0 0.0 0.0037821482 0.0 0.20612709 0.06429652 0.018910741 0.024583964 0.09266263 0.06051437 0.024583964 0.0 0.08698941 0.0037821482 0.009455371 0.0056732227 0.0 0.018910741 0.0056732227 0.10779123 0.0018910741 0.0 0.0 0.011346445 0.0075642965 0.03971256 0.0 0.0 0.0 0.0 0.0 0.037821483 0.0056732227 0.0 0.0018910741 0.0 0.0037821482 0.0 0.0018910741 0.0 0.0 0.0 0.0 0.0
virtuoso 0.03328616 -0.007783147 -0.0024056241 -0.012679717 0.018656636 0.011048039 0.013269896 0.0033865655 0.017955508 0.0051179724 -0.013074126 -0.010300816 0.001904864 -0.046927013 0.027657285 0.0026927986 0.007337488 -0.0019157903 0.005612108 -0.029782891 -0.0043894257 0.0053761047 0.011880367 0.026724868 0.022214802 0.030735482 -0.025214577 -0.009428851 -3.9375862E-4 -0.011777094 0.016650546 0.019519594 0.0032580446 0.027529595 0.002072439 -0.037071332 0.0025704906 -0.012931759 -0.015231513 -0.018278528 -0.021400087 -0.020832429 -0.010407688 0.020694919 -0.01847505 -0.01225358 0.018659238 -0.026055932 -0.015935104 -0.01669155 0.03344509 -0.025231086 0.024349181 0.036094807 -0.04417874 5.941927E-4 -0.018078385 0.043291714 -0.037339993 -0.017746033 0.015855845 0.009323994 0.025196545 -0.006897901 0.012997349 -0.009025755 0.01761269 0.04013148 0.025372136 0.014670031 0.04285483 -0.04592134 0.024294933 0.018204259 -0.005382095 -0.0081466 -0.0034166698 -0.020074202 -0.054588363 0.010494984 -2.4808018E-4 -0.029590467 0.02210985 0.023066515 0.006391117 -0.0057606106 -0.009736679 0.040546786 -0.0036488539 0.002187724 0.008037765 0.013572986 -0.0432626 -0.04047865 0.008266377 -0.04010953 0.007747584 0.00595613 -0.009365945 0.0044742073 0.44303796 0.0 0.0 0.25316456 0.06329114 0.06329114 0.0 0.094936706 0.03164557 0.03164557 0.03164557 0.06329114 0.0 0.06329114 0.28481013 0.0 0.0 0.0 0.0 0.0 0.03164557 0.0 0.0 0.0 0.094936706 0.0 0.03164557 0.0 0.0 0.03164557 0.0 0.03164557 0.0 0.0 0.0 0.0 0.0 0.0 0.0 0.0 0.0 0.0 0.0 0.0 0.06329114 0.0 0.15822785 0.03164557 0.0 0.0 0.37974682 0.12658228 0.0 0.0 0.0 0.0 0.0 0.03164557 0.0 0.0 0.0 0.03164557 0.0 0.0 0.0 0.0 0.03164557 0.0 0.0 0.0 0.0 0.0 0.0 0.0 0.0 0.0 0.0 0.0 0.0 0.0 0.0 0.0 0.0 0.0 0.0 0.0
psychiatry -0.009242049 -0.06967886 -0.08847906 -0.053165752 0.032424986 -0.011316683 -0.01498158 0.083893985 -0.034650587 -0.08930385 -0.03614655 0.014840707 0.084197186 -0.011295339 0.1437052 0.09190672 0.1643986 -0.003544975 -0.0570886 0.06883222 0.025807116 0.025145836 0.029221902 -0.10670965 -0.027779968 -0.01257469 -0.089512 -0.08364774 -0.027866406 -0.038518224 -0.008155577 -0.07145399 -0.03207648 0.096908726 0.050900105 -0.09847408 -0.06678445 -0.053868793 -0.04140144 -0.066059016 -0.024594033 -0.0027006033 -0.059001192 0.13474093 -0.044061977 0.06922624 0.004205331 -0.10009579 -0.009849306 -0.060325183 0.04392875 0.052482203 -4.111412E-4 0.03604186 0.020170113 -0.0386982 -0.014061103 0.08620716 0.009335968 0.007549797 -0.029622696 0.06883398 -0.056125075 -0.07610064 0.061751846 -0.21697843 0.16862331 -0.032418195 -0.008301387 0.028499493 0.08779621 -0.039830465 -0.021205151 -0.016341077 0.081286184 -0.0037891178 0.09059925 -0.2068582 -0.08409603 0.013422284 0.07626095 -0.10185902 -0.0036900279 0.103710935 7.192564E-4 -0.0657685 0.06127158 0.019018423 -0.06385697 0.052592907 -0.041407175 -0.013576791 -0.07475711 -0.049081866 -0.06527993 -0.03429996 0.09337982 -0.06094209 0.021433113 0.047568828 0.15410958 0.017123288 0.0 0.51369864 0.08561644 0.0 0.06849315 0.5308219 0.034246575 0.017123288 0.017123288 0.05136986 0.034246575 0.0 0.034246575 0.0 0.017123288 0.0 0.0 0.0 0.0 0.0 0.017123288 0.034246575 0.017123288 0.0 0.0 0.0 0.0 0.0 0.0 0.017123288 0.0 0.0 0.0 0.0 0.0 0.0 0.0 0.0 0.0 0.0 0.0 0.0 0.0 0.0 0.32534245 0.1369863 0.0 0.0 0.15410958 0.017123288 0.017123288 0.0 0.11986301 0.0 0.0 0.0 0.0 0.0 0.0 0.034246575 0.0 0.0 0.0 0.0 0.0 0.017123288 0.0 0.0 0.0 0.0 0.0 0.017123288 0.0 0.0 0.0 0.0 0.0 0.0 0.0 0.0 0.0 0.0 0.0 0.0
change -0.08283715 -0.10089043 0.36531112 0.057222188 -0.22816387 0.027359094 0.23963167 0.018336888 -0.016887173 0.047489807 -0.024356889 8.092194E-4 0.07124051 -0.054288827 -0.28029746 0.1488205 0.07920024 0.08773942 0.06955942 0.3853525 0.2326408 -0.23340249 0.12855853 -0.15470453 0.27873233 -0.16380548 -0.12563956 -0.0797324 0.15977998 -0.39342886 0.37735236 -0.20236523 -0.062404796 0.27838656 -0.2716457 -0.012372288 -0.1392701 0.108677916 -0.26249102 0.12841803 0.10635433 -6.5129745E-4 0.121900454 0.090131976 -0.18962845 0.3362098 -0.029904824 -0.21831594 0.22492193 -0.24942894 0.21485044 0.097135104 0.04519956 0.06851748 0.13138153 -0.16929623 0.29030502 0.04572272 -0.051133364 0.29482818 0.0076268488 -0.120774485 -0.060387693 -0.16026826 0.12700543 2.6877865E-4 0.3114419 -0.116808936 -0.21568027 0.5403368 -0.048703287 0.001173405 -0.064231925 -0.029346809 0.0051349415 0.03716754 -0.2319424 0.28975412 0.22826442 -0.06788141 0.19525976 0.24445668 -0.21626034 0.18237917 0.10757855 0.16898787 -0.40640032 -0.006399171 0.3363091 0.20644397 0.16348569 -0.22933234 0.28690976 -0.06875525 -0.19837992 -0.35669196 -0.19819547 -0.1836818 -0.2192505 0.013886366 0.2202471 0.021731699 0.0026859404 0.1904576 0.040289104 0.050544515 0.0393124 0.3218245 0.048346926 0.17238854 0.07459589 0.0196562 0.032231286 0.0393124 0.15444157 0.003052205 0.0848513 0.022830494 2.441764E-4 0.0059823217 0.005005616 0.0058602337 0.009889144 0.0053718807 0.030399961 4.883528E-4 0.0045172633 0.0017092348 2.441764E-4 0.0017092348 0.0064706746 0.028934903 0.0025638521 0.0010987938 0.0020754994 0.006714851 1.220882E-4 6.1044097E-4 0.0 0.0 0.0 0.0 0.0 0.093031205 0.0072032036 1.220882E-4 0.18044636 0.035771843 0.020754995 0.017092347 0.048957366 0.03052205 0.019289935 0.0013429702 0.08326415 0.013673878 0.0039068223 0.008301998 0.0 0.020266641 0.0034184696 0.12367535 0.0052497927 0.049689896 0.0012208819 0.011354202 0.010865849 0.03455096 6.1044097E-4 3.662646E-4 1.220882E-4 3.662646E-4 3.662646E-4 6.1044097E-4 0.005005616 9.767056E-4 6.1044097E-4 0.0013429702 0.00610441 0.0 7.325292E-4 0.0 0.0 0.0 0.0 0.0
