417 93
plane 0.338937 -0.0620826 0.31058475 0.24342006 0.13543479 0.09211738 -0.008347233 -0.33909145 -0.011731002 0.47683513 0.4540243 0.0073014456 -0.34366012 -0.03526747 0.0082129985 -0.04989189 0.017589713 -0.17646037 -0.11078342 -0.34420803 0.056123514 0.24857968 0.16775934 -0.32042587 -0.11572563 -0.029208029 -0.33521026 0.07735644 -0.2565636 0.28649688 -0.07349695 -0.06447253 0.1031671 0.06544697 -0.38952225 0.15813096 -0.09698966 -0.50275165 -0.16578844 -0.28297386 -0.19638798 -0.09650447 0.22636822 0.12238513 -0.05072775 -0.17434543 0.02349842 0.16133958 0.014089995 0.14757432 0.15883593 0.07567825 0.0023118244 0.1353777 0.021350378 0.027537907 0.07819406 0.10566397 0.036649216 0.02828585 0.027809886 0.035085335 0.019446522 0.024410145 0.054055892 9.519277E-4 0.0072074523 0.03168559 0.021894336 0.0074794316 0.013190998 0.015434827 0.006799483 0.005235602 0.013462977 6.7994835E-5 0.009451281 0.0022438294 3.3997415E-4 1.3598967E-4 0.013394982 0.0073434417 0.0026517985 4.7596384E-4 6.7994835E-5 0.008839328 2.039845E-4 2.7197934E-4 3.3997415E-4 0.0 6.7994835E-5 6.7994835E-5 0.0
stupid 0.20819595 -0.106428266 -0.021840984 -0.024804376 0.23105402 -0.18337065 -0.067241244 0.008227612 -0.083390616 -0.014775584 0.04948432 0.071076885 0.09599164 -0.033735592 0.17684807 -0.062965706 -0.1413885 0.13408567 -0.040299617 -0.09876891 -0.014743161 -0.044149384 -0.004594393 0.13140586 0.24707498 -0.097042784 0.06889514 -0.10848795 -0.24013399 -0.11764757 0.060034547 -0.08760398 0.101258606 -0.120082855 -0.0068248506 0.044533268 -0.03825034 0.15654553 -0.11240305 -0.0526648 0.07238266 -0.10307496 -0.219207 0.29751068 -0.16955264 0.27680758 0.06704197 -0.06914913 0.122495666 -0.22956485 0.07586207 0.024827586 0.0034482758 0.07793103 0.039310344 0.08310345 0.03275862 0.09724138 0.045862067 0.027241379 0.05172414 0.053793103 0.07034483 0.022413794 0.052068967 0.0017241379 0.014482759 0.012413793 0.044137932 0.00862069 0.007931034 0.0027586208 0.031034483 0.006551724 0.04448276 3.448276E-4 0.0027586208 3.448276E-4 0.0013793104 0.0010344827 0.0017241379 0.043793105 0.005862069 0.0034482758 6.896552E-4 0.0037931034 0.0 0.0010344827 3.448276E-4 0.0013793104 0.0 0.0 0.0
egg 0.17417428 0.02525925 0.30797276 0.045741092 0.00771638 -0.014929143 -0.11595477 -0.027624711 -0.038443204 0.050317194 -0.034138437 0.044573575 -0.15070648 -0.0016865009 -0.15951286 -0.07334957 -0.08706512 -0.07577679 -0.2244178 0.043316882 -0.19766867 0.08662341 -0.025844311 -0.055074543 -0.05128341 -0.09181382 -0.008144427 0.008886603 -0.02415511 -0.07583767 0.12103524 -0.13225026 0.060723566 0.042819317 0.033879146 0.01561952 -0.083233826 -0.17863174 -0.20666221 -0.105036564 0.046541482 -0.10586219 0.068514355 0.072038755 -0.10295646 -0.009589256 0.009970105 -0.01742475 -0.22207747 0.1557564 0.12093023 0.025839793 0.0 0.10490956 0.051679585 0.03255814 0.027906977 0.1622739 0.056847546 0.023255814 0.036692508 0.053229973 0.018087855 0.014470284 0.08268734 0.0 0.0082687335 0.033591732 0.03462532 0.0020671834 0.013953488 0.013436693 0.01498708 0.0056847543 0.019121448 0.0015503876 0.004651163 0.0031007752 0.0010335917 5.1679584E-4 0.0056847543 0.01498708 0.0031007752 5.1679584E-4 5.1679584E-4 0.0062015504 0.0010335917 0.0 0.0 0.0 0.0 0.0 0.0
year 0.88044834 -0.30791408 -0.36815995 0.40185472 -0.06320846 0.23723578 0.65207577 0.04125143 0.21361268 0.11144135 0.29499984 0.84291893 0.45033348 -0.50467944 0.11005937 -0.21194267 -0.12104805 -0.25436914 0.014711475 -0.46654359 -0.06667398 -0.522646 0.104477674 0.4031183 0.142968 -0.49745312 -0.8294273 0.17106456 0.054109413 -0.17507727 -0.08665257 -0.06587689 -0.23174801 0.0557738 -0.08139492 -0.13417101 -0.096373945 0.0662561 0.23286091 0.11589968 -0.14485873 -0.18884413 -0.05804578 0.7652531 -0.33989167 0.1127201 0.22631523 -0.2625725 -0.42889208 0.37730482 0.139198 0.05676579 0.002422418 0.13656555 0.019781912 0.031074861 0.034239408 0.10991896 0.042133268 0.020748079 0.019778412 0.04770973 0.014170445 0.015374652 0.10102743 0.0031890501 0.007323263 0.022624403 0.040586002 0.0029405071 0.009206588 0.047391176 0.008019883 0.004323246 0.013256786 2.730471E-4 0.0028389897 0.0054749446 6.231075E-4 4.725815E-4 0.013225282 0.007634817 0.0017923092 0.006794672 4.2357307E-4 0.004064201 0.006343094 1.1201933E-4 1.05018116E-4 3.850664E-5 7.001208E-6 0.0 7.001208E-6
psychiatry -0.048609417 0.10386478 0.046096973 0.11051304 -0.07189103 -0.035184596 -0.036561314 -0.05004963 0.07019163 -0.07928308 0.12773818 -0.06423996 -0.12201578 -0.15186639 -0.08659781 0.011082016 -0.09819546 0.119913936 -0.025313362 -0.03660483 -0.10308294 -0.1510391 0.038860623 -0.040917028 0.03668051 0.13762636 0.13655126 -0.12637241 0.09414414 0.09722933 -0.11512586 -0.04738902 -0.09627734 -0.031932212 0.2068837 -0.0302466 0.0042738263 -0.028382987 -0.05684909 0.1568141 -0.052236293 -0.06491811 -0.17902382 0.19692571 -0.045014635 0.0792147 -0.13335599 -0.04938854 -0.044462435 0.107499175 0.11320755 0.16273585 0.0 0.19103773 0.0495283 0.011792453 0.016509434 0.1721698 0.021226415 0.014150944 0.009433962 0.09669811 0.011792453 0.011792453 0.04245283 0.0023584906 0.0023584906 0.011792453 0.011792453 0.0023584906 0.0023584906 0.0023584906 0.007075472 0.007075472 0.014150944 0.0 0.0 0.0 0.0 0.0 0.0023584906 0.0023584906 0.004716981 0.0 0.0 0.0023584906 0.0 0.0 0.0 0.0 0.0 0.0 0.0
asylum -0.08047116 -0.048676457 -0.057876527 5.5172225E-4 -0.02180213 0.09978254 0.01373566 -0.10588754 -0.07375792 -0.031076744 0.14719829 -0.020787172 -0.1261734 -0.01839387 -0.106172 -0.01083329 7.374711E-4 0.15163106 0.111909516 -0.20444773 -0.049496848 -0.11859357 -0.040520664 -0.055584714 -0.11328945 -0.04743097 0.026530117 0.07870179 0.03457068 0.03464642 -0.12510386 0.23081696 0.0087877475 0.12497617 0.069377206 0.026486509 -0.07471143 0.09491194 -0.11886241 0.05996393 0.11144573 -0.0871784 -0.083335064 0.22361097 0.13802817 -0.06883893 -0.09915174 0.023875887 -0.07533956 -0.08610574 0.076124564 0.06459054 0.004036909 0.14532872 0.03979239 0.033448674 0.047866207 0.0905421 0.0882353 0.028835064 0.03171857 0.035178777 0.023644753 0.029988466 0.06978086 5.7670125E-4 0.009803922 0.0461361 0.032871973 0.004036909 0.010957324 0.016724337 0.0069204154 0.00461361 0.019607844 0.0 0.0028835062 0.002306805 5.7670125E-4 0.0 0.004036909 0.015570934 0.009803922 5.7670125E-4 0.0 0.002306805 0.0 0.0 5.7670125E-4 0.0 0.0 0.0 0.0
manslaughter -0.017354673 -0.08435079 0.26899627 0.06755886 -0.08743412 0.11426935 -0.003785036 -0.0908312 0.08462057 -0.12875743 0.2016194 -0.25436014 -0.2209239 -0.25210565 -0.19855182 0.12722413 0.102314115 0.018982556 0.082953535 -0.11548951 -0.19849305 -0.16802275 0.03877531 -0.089708425 -0.07387078 -0.11954842 -0.0126503715 -0.052364647 0.110510655 0.22946489 -0.16534425 0.14465831 -0.45564264 0.305124 0.2475771 0.007278131 0.20957872 -0.109810814 -0.33459902 0.20020516 -0.10795118 -0.013335713 -0.14260979 0.22267897 0.084286086 -0.15042743 0.04124302 -0.07798207 0.00475457 0.05222424 0.075519726 0.05939754 4.2426813E-4 0.19007212 0.040729742 0.012728044 0.051760715 0.1370386 0.044548154 0.0292745 0.018667798 0.0479423 0.010182436 0.019092066 0.08909631 4.2426813E-4 0.005515486 0.06406449 0.028850233 4.2426813E-4 0.01145524 0.019092066 8.4853626E-4 0.0016970725 0.017819261 0.0 4.2426813E-4 0.0059397537 4.2426813E-4 0.0 0.0046669496 0.0059397537 0.003394145 8.4853626E-4 4.2426813E-4 0.0012728045 0.0 0.0 0.0 0.0 0.0 0.0 0.0
music -0.1293355 -0.055099864 0.13085634 0.3034923 0.042368338 -0.14997941 0.16256678 -0.20914257 -0.08065257 -0.025528533 0.075679965 0.0021161945 -0.47322822 0.08910568 0.00187311 -0.27843243 -0.17393377 0.091070995 -0.19401456 0.107664675 0.21192639 -0.30532688 0.20844331 -0.11158833 0.10343198 0.13777539 0.069245316 0.10496108 -0.26682395 -0.27688107 0.06839475 -0.26202527 0.14622931 0.12338661 0.13693364 0.038922522 0.17464466 -0.10055366 0.14024897 0.25150347 0.28126675 0.13355117 -0.020767184 -0.12530288 -0.29923674 0.22980675 0.21668176 -0.24027058 -0.10634357 -0.0032450566 0.088810176 0.063178234 0.001481243 0.118467234 0.04752858 0.028047014 0.026984382 0.14545162 0.06253421 0.025986154 0.027016584 0.060924165 0.019030752 0.023184672 0.08191918 0.0030590887 0.008146836 0.023667686 0.02827242 0.0031878925 0.015198841 0.00859765 0.012236355 0.010207696 0.023249075 7.728224E-4 0.002865883 0.0020286588 8.694252E-4 8.372243E-4 0.010851715 0.013073579 0.0034454998 0.0013524392 5.152149E-4 0.005892771 1.932056E-4 3.5421026E-4 3.864112E-4 1.2880373E-4 0.0 6.4401866E-5 0.0
record 0.025902174 0.21560657 -0.09303511 0.12638474 0.12488761 -0.041195784 0.16753341 0.22296594 -0.082873926 -0.03883651 -0.10515364 -0.02027898 0.038025558 -0.1551808 -0.2897419 -0.07970813 -0.11136963 -0.11395908 -0.2299998 -0.073231384 0.032561973 0.25151235 0.23566289 -0.10824882 0.01813819 -0.11031799 -0.16026674 -0.07089598 0.06455036 0.085670754 0.20998825 -0.121429935 -0.24907048 0.058935683 0.21036695 -0.10023856 -0.17733519 -0.17517607 -0.1664791 0.2530234 -0.25674492 0.010150012 0.062000584 -0.09774216 0.09018865 0.20387375 0.27663317 -0.17433676 -0.26061088 0.15300454 0.11649333 0.066456474 0.0035418884 0.1366391 0.022827778 0.021210384 0.038407993 0.1368643 0.058512818 0.026615348 0.021230858 0.040066335 0.01353288 0.021763165 0.07775776 0.006387683 0.005793956 0.019552043 0.024690853 0.0024772745 0.018282697 0.043587748 0.006510523 0.005425436 0.019326836 3.8899353E-4 0.0022725412 0.001904021 7.3704036E-4 6.55147E-4 0.015662108 0.009233478 0.0031119483 8.803538E-4 2.866268E-4 0.0043198755 0.005957743 1.2284007E-4 4.5041356E-4 4.094669E-5 0.0 2.0473344E-5 0.0
energy -0.07549064 -0.0700237 0.010913357 0.014214278 0.20179583 0.06493406 0.19762795 -0.2805315 0.031973697 0.13946994 -0.11894477 0.45027044 -0.08331846 -0.07849278 -0.16837655 0.16907497 -0.072692685 0.34607545 -0.11745552 0.07332255 -0.11753078 0.10423442 0.104429275 -0.057609864 0.009957494 -0.005481004 0.38361228 0.13485268 0.10355731 -0.08235093 -0.1305966 0.09362937 -0.12340885 -0.042016163 0.03337346 0.09369751 -0.44152728 -0.0035396772 0.152223 -0.17299592 -0.0051949243 -0.043684352 -0.25661257 0.34146637 0.021113629 0.063035816 -0.1034217 -0.14343709 -0.18110095 0.20647025 0.075259216 0.03904351 9.6740585E-4 0.123555094 0.048990425 0.02096046 0.01766136 0.16664186 0.08022027 0.028699707 0.04035819 0.05253758 0.012749913 0.026516844 0.094334476 0.002232475 0.010815102 0.018157464 0.028302822 0.0017859801 0.012824329 0.012526666 0.008731458 0.0060276827 0.02232475 4.2168974E-4 0.0025301385 0.007888079 6.697425E-4 3.9688445E-4 0.009599643 0.013518876 0.0012402639 0.0021084487 5.705214E-4 0.007739247 8.433795E-4 4.9610557E-5 9.922111E-5 4.9610557E-5 0.0 4.9610557E-5 0.0
announcement -0.019641135 0.22443579 -0.09181884 -0.18305892 -0.34920818 -0.10748345 0.47176954 0.047480915 -0.034830138 0.31769043 0.48015785 0.039390553 0.022428254 -0.51636195 -0.08690842 -0.050991084 -0.07874842 0.033316787 -0.21444972 -0.4018909 0.026557395 0.22766162 0.03491148 0.23170762 -0.020554133 -0.060982548 -0.36752465 -0.19724831 -0.35517842 -0.17919488 -0.43541688 -0.16487472 -0.10469849 0.22658037 0.049001515 0.41856602 -0.58370185 -0.2727326 -0.1783878 -0.32153818 -0.19593498 -0.017798249 0.18802826 -0.22421955 -0.23173937 -0.045500442 -0.10859711 -0.24571748 0.018954283 0.029857202 0.1614372 0.11143307 0.0022352843 0.15357232 0.014156801 0.027485719 0.056709994 0.10182962 0.031873498 0.016309297 0.023263516 0.033115324 0.013991225 0.015895355 0.058034606 0.0017385546 0.014074013 0.026161106 0.020200348 0.0014074013 0.0139084365 0.010431327 0.0076165246 0.0035598974 0.0254988 2.4836493E-4 0.0018213429 0.0019869194 0.0015729779 1.6557662E-4 0.037006374 0.003228744 0.0016557662 0.0022352843 1.6557662E-4 0.0033115323 3.3115325E-4 8.278831E-5 2.4836493E-4 0.0 0.0 0.0 0.0
mile 0.43864438 -0.10011202 0.38163933 0.11063167 0.20500423 0.030566905 0.015171674 -0.025224367 0.22512081 0.1340123 0.002200454 0.022289356 -0.037792645 -0.13607489 0.017967895 -0.28939465 0.012581983 -0.25467718 -0.34392026 -0.10959938 -0.053366777 0.1240909 0.25573337 -0.12341812 0.064817384 0.020214848 -0.23872215 0.13740793 -0.19134071 0.3821074 0.24542482 -0.23876958 -0.12425274 -0.1258496 -0.15570167 -0.12177962 -0.03778138 -0.15117 0.22535089 -0.2659605 -0.06390103 -0.05405837 0.26187804 0.17454222 -0.03408431 -0.07185341 0.1378972 0.03279572 -0.36388946 0.28766194 0.1606204 0.04942166 2.6288116E-4 0.1577287 0.026288118 0.034700315 0.027076762 0.14300737 0.030231336 0.020767612 0.01997897 0.039695058 0.013932702 0.013669821 0.060988434 0.0021030493 0.0047318614 0.014721346 0.021556256 0.0034174554 0.009200841 0.051787592 0.022607781 0.006046267 0.017087277 0.0015772871 0.0047318614 0.009989485 0.0 5.257623E-4 0.005520505 0.005783386 7.8864355E-4 0.0031545742 0.01104101 0.0039432175 7.8864355E-4 5.257623E-4 0.0 0.0 0.0 0.0 0.0
airport 0.20423023 0.122528024 0.0057342458 0.1986869 -0.1414134 -0.07186376 -0.27693582 -0.12795423 0.28563237 0.12480151 0.33675295 -0.2848394 -0.20280327 0.08950927 0.16229708 0.17416576 -0.22831298 -0.013894117 0.11899 0.09954842 -0.24754894 -0.07996628 0.38511258 -0.07712679 -0.34059393 0.27886692 -0.32034197 0.1667179 0.021757519 0.32277268 -0.06945451 0.14754221 0.3382125 -0.0029633942 -0.07268524 0.24921077 -0.40935844 -0.11111569 -0.33324346 -0.15258874 0.10580392 -0.3334028 0.30943358 -0.00861887 -0.20228975 0.15888517 -0.13702089 0.43096182 -0.34679288 0.37277192 0.124632485 0.10813912 0.0013624955 0.15066332 0.026747938 0.021728218 0.043599855 0.1177483 0.049910363 0.028468985 0.022875583 0.043958407 0.016063105 0.020222303 0.055360343 0.0045894585 0.006167085 0.026461096 0.03212621 0.0043743276 0.007242739 0.01728218 0.0060236645 0.005449982 0.013122983 4.3026175E-4 0.005449982 0.0020078882 5.736823E-4 1.4342058E-4 0.02201506 0.008390104 0.0014342058 7.8881317E-4 1.4342058E-4 0.0035138042 7.171029E-4 0.0 0.0 0.0 0.0 7.171029E-5 0.0
population 0.48602545 -0.42311665 -0.06369862 -0.03436268 0.06628317 0.16518173 0.16841787 0.28530627 -0.032064967 0.41420287 0.13914315 0.13586776 -0.24278669 -0.049757663 -0.23188524 -0.4270141 0.0736352 0.29772997 -0.040525295 -0.06686002 0.13434574 0.037964683 0.17119105 0.18539569 0.045347396 0.38114116 -0.0012651768 0.25911206 0.14891918 0.48039606 -0.19309804 -0.34626883 -0.1253102 0.31521228 -0.009163971 0.21603948 -0.063874625 -0.07189595 -0.12327236 0.13657367 -0.28953663 -0.15413682 0.29736516 0.46937716 -0.08646325 0.18166672 -0.52087593 0.11799203 -0.06395363 0.3207781 0.13637595 0.04596455 0.0026559704 0.15480514 0.026234483 0.03208846 0.018645996 0.11594124 0.03799664 0.023199089 0.023307497 0.04645238 0.007913708 0.021572985 0.08222668 0.0037942436 0.008835168 0.020163694 0.031709034 0.0033606158 0.009919236 0.0452057 0.00731747 0.007696894 0.029866118 3.2522087E-4 0.002818581 0.006992249 5.962383E-4 3.7942437E-4 0.018212369 0.013442463 0.0015719009 0.003035395 0.0023307495 0.005908179 3.2522087E-4 0.0 8.130522E-4 0.0 0.0 0.0 0.0
planning -0.12016075 -0.1586796 -0.094027504 -0.111631334 0.16414443 -0.10016343 0.2697789 -0.31840783 0.20693569 0.007632153 0.04850954 -0.18747081 0.13336916 0.121979855 0.13358387 0.07298048 -0.070544764 0.35661554 0.38623747 0.108609386 -0.17263088 -0.04734479 0.21996436 0.09051037 0.29050416 0.10472155 -0.022135463 -0.08494749 -0.064891025 0.15706584 0.2659014 0.091523916 -0.14906612 0.10735635 0.1404492 0.034567248 0.0949343 -0.05596454 0.108558156 -0.321948 0.28677765 0.017332124 -0.20542131 -0.022874767 -0.1573563 0.029834045 -0.25283888 -0.027406815 0.06284732 0.13401487 0.09029463 0.06799538 0.0035817446 0.10727903 0.034893125 0.025707683 0.03818602 0.14945118 0.06094743 0.056672443 0.056441363 0.040439054 0.024494512 0.01507799 0.06839977 0.0014442519 0.0062969383 0.021779317 0.01617562 0.0025418834 0.010398613 0.010976315 0.0085499715 0.0051415367 0.03113807 1.1554015E-4 0.0036972847 0.0024841132 8.665511E-4 3.4662045E-4 0.006701329 0.021086078 0.003119584 0.0013287117 4.0439054E-4 0.004043905 6.932409E-4 5.199307E-4 1.7331023E-4 5.7770074E-5 0.0 0.0 5.7770074E-5
canyon 0.20333637 0.08573343 0.18866386 0.18977408 0.06340112 0.02452237 -0.09342268 -0.078921 -0.053505294 -0.0742566 0.048772 -0.041811034 -0.07410292 0.027225919 0.15184727 -0.06538825 -0.070838206 -0.07188483 -0.05477147 0.06724619 0.006756899 0.028653098 0.046018247 -0.06419268 -0.084149055 0.11324511 0.10148759 -0.11736229 -0.13516665 -0.055143367 0.10611549 -0.0080426885 0.06272717 -0.027731989 0.096217394 0.010459821 0.077152416 -0.11167344 0.017263534 -0.07704608 0.13674833 -0.1998925 0.09131544 0.030782944 -0.06411318 0.017482825 0.0031155888 0.1355613 -0.22132555 0.3388149 0.16949153 0.06214689 0.0028248588 0.16384181 0.025423728 0.025423728 0.036723163 0.11581921 0.06779661 0.016949153 0.011299435 0.042372882 0.008474576 0.01977401 0.084745765 0.0 0.0028248588 0.01977401 0.028248588 0.008474576 0.0 0.01977401 0.011299435 0.0056497175 0.014124294 0.0 0.0056497175 0.0 0.0028248588 0.0028248588 0.008474576 0.0056497175 0.0 0.0 0.0 0.011299435 0.0 0.0 0.0 0.0 0.0 0.0 0.0
delay 0.051882863 0.28599137 0.24000314 0.14396593 0.12679411 -0.06619989 0.23809701 -0.2878179 -0.1522009 -0.23129338 0.12409351 0.0088180555 0.0067730374 0.010593455 -0.3472669 0.023149548 -0.019200645 0.13925049 0.07587823 -0.3321121 0.11320601 0.11820698 -0.044938847 0.053938527 0.12415843 -0.11920661 -0.103690736 0.22681268 -0.060473368 -0.1189955 -0.31304052 -0.17596224 -0.21917845 0.19359411 0.0958287 0.037550315 -0.22492345 -0.198374 -0.15727691 -0.24318923 -0.25603294 -0.117049575 0.05062272 -0.068431094 -0.053698443 -0.27397895 -0.18525642 0.020128818 -0.19250253 -0.03589236 0.1413086 0.05237038 0.0024813896 0.13177484 0.029907275 0.027556485 0.04048583 0.13438684 0.05001959 0.04584041 0.030299073 0.03369466 0.01893692 0.03134387 0.070131905 0.0015671934 0.027295286 0.019589918 0.020634713 0.0022201906 0.012668147 0.013451744 0.011362152 0.0036567845 0.014627138 3.9179836E-4 0.0019589919 0.0018283923 0.0030037875 2.611989E-4 0.00953376 0.005876975 0.0015671934 0.0015671934 1.3059945E-4 0.004962779 9.1419613E-4 2.611989E-4 0.0 0.0 0.0 0.0 1.3059945E-4
size 0.10856543 -0.18198776 0.23050898 0.029165467 0.1844197 -0.0762402 -0.056669906 0.09328163 -0.12875293 0.2342461 0.11099707 0.024569465 0.022404991 -0.06850582 -0.32790235 -0.083705276 -0.054697447 0.08360114 -0.074009 -0.16433829 -0.0843454 0.1020026 -0.020028189 -0.10618054 0.4931434 0.23153706 -0.007605695 -0.010443913 -0.101381935 0.2555884 -0.23279168 -0.45428753 -0.20871928 0.057618182 0.05139864 0.14200643 -0.18411982 -0.18134369 -0.1329121 0.19303417 0.009428904 0.10611531 0.40348294 0.373675 -0.2059618 -0.15334225 -0.016687246 -0.12474806 -0.06325252 0.3046066 0.15345013 0.03417948 6.4354663E-4 0.1572399 0.04054344 0.031247765 0.020521987 0.14451198 0.04662138 0.025169825 0.0289596 0.04333214 0.015945656 0.016660707 0.06642832 0.0010010726 0.009367179 0.018948874 0.020879515 0.0016446193 0.024097247 0.0179478 0.008223096 0.0067929924 0.023882732 2.1451556E-4 0.0025741865 0.0048623527 5.720415E-4 2.1451556E-4 0.010010726 0.012155881 0.001144083 0.0013585985 0.0017161245 0.005148373 7.8655704E-4 5.005363E-4 4.2903112E-4 7.150519E-5 0.0 0.0 0.0
peace 0.3946503 0.007594703 -0.18199164 -0.104763344 0.01963269 0.70707613 -0.05429607 -0.41454273 -0.09658383 0.09528732 -0.015358074 7.3494384E-4 0.15967712 0.10258453 0.042683065 -0.21109712 0.035403572 0.31152084 0.24421316 0.17674445 -0.04323619 -0.18663476 0.14088377 0.42564115 -0.03318833 -0.1166827 0.41134942 -0.14911534 -0.13822228 0.13202809 -0.22873385 0.18497334 -0.38440654 -0.07795944 0.44039994 0.16192 -0.23529263 0.11488964 -0.34044254 -0.04104657 0.3596457 -0.057210207 -0.08449049 -0.074189685 0.43541676 -0.0890166 0.13995643 0.1495822 -0.12451243 0.21348876 0.11164976 0.06592034 0.006746964 0.13973711 0.037383176 0.022839721 0.027087811 0.14083663 0.054125644 0.03908241 0.04937778 0.03893248 0.017891949 0.021940127 0.065670446 0.0011994602 0.013893748 0.024339048 0.032235496 0.002348943 0.008846019 0.008196312 0.013943725 0.0033484933 0.020040981 2.4988755E-4 0.002848718 0.0019491229 0.0011494827 1.9991004E-4 0.0045979307 0.01084512 0.0019991004 4.497976E-4 2.4988755E-4 0.0072967163 0.0 2.9986506E-4 1.4993253E-4 9.995502E-5 0.0 0.0 0.0
science -0.17195566 0.3084212 0.14889674 9.551609E-4 -0.06043245 -0.22924662 0.094830185 -0.4972693 0.06443803 -0.27723023 -0.1987822 0.020637821 -0.31834167 -0.048356466 -0.10231481 -0.35966492 -0.16838801 0.15797828 0.012106124 0.020736676 0.090076335 -0.26136515 -0.0070065074 -0.1892705 0.05430308 0.2128988 0.27251074 0.13730608 0.19820213 -0.0042567533 -0.23694038 -0.11172319 -0.24363564 0.18153688 0.15233915 0.10844987 0.10502239 0.24659364 0.11473915 0.1996248 0.1760548 0.012440906 -0.292278 0.27902249 -0.40854686 0.17509207 -0.18040694 -0.13080701 0.012866281 0.07574407 0.09107312 0.06254833 0.0011169345 0.13841395 0.05249592 0.026720509 0.019847065 0.16951628 0.05515938 0.023197869 0.026548672 0.061001804 0.016410345 0.015637083 0.076724805 0.0017183607 0.008334049 0.02010482 0.031274166 0.0033508034 0.007045279 0.0078185415 0.012458115 0.0053269183 0.029641721 8.5918035E-4 0.002062033 0.0032648854 0.0010310165 9.4509835E-4 0.0062720166 0.011169344 0.0036944754 0.0010310165 3.4367215E-4 0.005069164 5.1550823E-4 1.7183607E-4 8.5918036E-5 0.0 0.0 0.0 0.0
dawn 0.07823353 -0.008603452 -0.077371866 0.13397084 -0.09443674 -0.13128284 -0.13778687 0.11120367 0.06868033 -0.20544554 0.3827729 -0.046602674 -0.2188214 -0.054199703 0.19732231 0.1477109 0.0510661 0.029979274 -0.06906665 -0.010938989 -0.12202615 -0.1676154 0.19349262 0.09351063 -0.114553556 0.21541776 -0.042813446 -0.08310419 -0.030436588 0.18230386 -0.11984183 -0.09769472 -0.033866793 -0.25317225 0.13130382 -0.02355489 -0.06307156 -0.27857804 0.008139274 0.030611118 0.07771792 -0.114638925 0.07866057 0.003667531 -0.0040128785 0.013259745 0.024043491 0.047417674 -0.048560288 0.09942785 0.103975534 0.08999563 0.001747488 0.19178681 0.024901703 0.031454783 0.05286151 0.12844037 0.04412407 0.030144168 0.023591088 0.053298384 0.013543032 0.020096112 0.05723023 0.001747488 0.00436872 0.012669288 0.023591088 0.005242464 0.006989952 0.019222368 0.007863696 0.007863696 0.013543032 4.36872E-4 0.007863696 0.002621232 0.0 0.0 0.006116208 0.006989952 0.001310616 8.73744E-4 0.0 0.003058104 0.0 4.36872E-4 0.0 0.0 0.0 0.0 0.0
brother -0.2499022 -0.16624323 0.4003843 0.07653274 -0.1406532 0.24725124 -0.1139151 0.0778317 0.35462648 0.58013886 0.16549937 -0.16943802 -0.14757647 0.021178387 -0.06784794 -0.04028981 -0.5104616 -0.41012236 -0.45682624 -0.23557037 -0.2626702 -0.2058656 -0.19352055 0.3037539 -0.16929688 -0.1816474 0.096179634 -0.16305685 -0.056726396 0.044928763 -0.14803596 -0.16536084 0.03523477 -0.23564166 0.329685 0.20791556 0.2659023 -0.05056931 -0.39428926 -0.0048902957 -0.6516062 -0.04770737 0.14779985 0.08658992 0.03193198 -0.0048754476 0.19558401 -0.12636055 0.17653646 0.17396943 0.06159643 0.14195631 9.996924E-4 0.094047986 0.042832974 0.02091664 0.05644417 0.093817286 0.01976315 0.017609967 0.015918178 0.093817286 0.021993233 0.014841587 0.042756077 0.0013841895 0.004383267 0.024300216 0.020301446 0.0037680713 0.083128266 0.013457398 0.0107659185 0.008074438 0.017533068 3.0759766E-4 0.004306367 0.016610274 1.5379883E-4 1.5379883E-4 0.032528453 0.0054598586 0.008612734 6.151953E-4 7.6899414E-5 0.0016148877 5.382959E-4 7.6899414E-5 0.002383882 1.5379883E-4 0.0 0.0 0.0
wine -0.017163659 -0.11872167 0.23167476 0.11750383 0.044754475 -0.14693685 -0.043334257 -0.0069514113 -0.06395645 -0.103956096 -0.09325596 0.16887245 -0.25266352 0.009781686 -0.19232829 0.1195078 -0.0068157804 -0.124688104 -0.30320317 -0.019256478 0.009837763 -0.021557791 0.14420773 -0.08388069 0.21346197 0.30415162 0.16184503 -0.07848926 -0.042389512 0.045569833 0.11157944 -0.015114016 -0.13632473 -0.0072604003 0.03368003 -0.1412113 0.16348626 -0.08000228 0.047615822 -0.034860175 -0.0034171103 -0.14974347 0.1471703 0.18058275 -0.04196005 0.23434868 0.09843413 -0.08063781 -0.13617767 0.16540347 0.09454216 0.043067772 6.466632E-4 0.13036731 0.05380238 0.028841179 0.021598551 0.14847387 0.06130367 0.019399896 0.027159855 0.061950337 0.019787895 0.022374548 0.08859286 0.0032333161 0.007889291 0.020822555 0.027547853 0.0031039834 0.011381272 0.015778583 0.012674599 0.00827729 0.022891877 6.466632E-4 0.0051733055 0.0023279877 0.0010346612 5.173306E-4 0.007242628 0.015778583 0.002198655 0.001810657 9.053285E-4 0.0049146404 0.001422659 0.0 3.8799792E-4 1.2933265E-4 0.0 0.0 0.0
object 0.15659465 -0.040157318 0.13356322 0.17268537 0.04151442 0.026995262 -0.10958788 -0.1077502 -0.0015287135 -0.089384496 0.2127994 -0.22744396 0.033111535 0.09955128 -0.4481776 -0.10995544 -0.15832338 -0.10587923 -0.027208986 -0.22547974 0.0067444025 0.16611855 -0.11550908 0.039124057 0.31780326 -0.010486237 -0.08650544 -0.009604109 -0.15690573 -0.2019699 0.09494143 -0.17497025 -0.13917623 -0.08296097 0.09783076 0.12719338 0.11095717 -0.26153356 -0.26928613 -0.2871021 -0.009852008 -0.1726282 0.13995981 0.0927794 -0.22399692 0.015396588 -0.19820249 -0.07357463 0.0020884897 0.17969367 0.15006684 0.0394385 0.0030080213 0.11363637 0.028409092 0.0421123 0.03910428 0.12332888 0.03542781 0.04779412 0.023395723 0.036096256 0.03175134 0.02473262 0.07987968 0.0020053475 0.017713904 0.023395723 0.022058824 0.0043449197 0.01236631 0.0030080213 0.011697861 0.00802139 0.029745989 3.342246E-4 0.0036764706 0.001671123 6.684492E-4 0.001671123 0.0060160425 0.010695187 0.010026738 0.0013368984 0.0010026738 0.009692513 0.0 0.0 6.684492E-4 0.0 0.0 0.0 0.0
attitude 0.024485398 0.033880938 0.09183981 -0.0140423775 -0.0813066 0.16932435 -0.019363198 -0.092342265 0.033670075 0.1032596 0.25709122 -0.053541657 -0.09844415 0.037361715 -0.3302336 -0.18287206 -0.34674537 0.070057325 -0.14791286 -0.14421882 -0.09733324 0.14926378 -0.046397407 0.069738925 0.23177129 0.10693656 -0.028965559 0.1735382 -0.24011666 -0.11959499 -0.066712014 -0.36353508 0.101615645 -0.10806003 0.23112714 0.15335116 -0.016032841 -0.05821186 -0.19039306 -0.09836579 0.009836526 -0.17158952 -0.13845748 0.13513114 -0.006391043 0.1313711 -0.14699116 -0.16200323 0.004076133 0.2043329 0.115300946 0.048585933 0.0031423736 0.11650955 0.041817743 0.028523084 0.031423736 0.11433406 0.030940294 0.030215131 0.02078801 0.042542905 0.02779792 0.014503263 0.10949964 4.834421E-4 0.008460237 0.021271452 0.028281363 0.0033840947 0.035291273 0.0026589315 0.015470147 0.0065264683 0.03891709 0.0 0.0036258157 0.0014503263 0.0012086052 0.0 0.024897268 0.013536379 0.0024172105 0.0062847473 9.668842E-4 0.0070099104 0.0 0.0014503263 2.4172105E-4 2.4172105E-4 0.0 0.0 0.0
treatment 0.25076345 0.07674763 0.11286396 -0.30316797 -0.08061516 -0.29185367 0.0047594733 -0.2184326 0.044460937 0.14815386 -0.0047624595 -0.05112045 -0.31012928 -0.03899543 -0.31866688 -0.07818832 -0.09953512 0.16690268 0.02602518 -0.41257316 -0.28108996 -0.26422837 -0.055826884 -0.097588405 -0.07282432 -0.037007473 -0.01863123 0.18639882 0.37212786 0.37105346 -0.08773933 -0.16765192 -0.32311764 0.03460058 0.070051126 0.112636805 0.05759083 0.038095165 -0.2469992 0.21919599 -0.09746429 -0.14852375 -0.28682265 0.30632594 -0.0093615595 -0.023627488 -0.2563959 -0.018295033 -0.34300599 -3.1711135E-4 0.08396383 0.045047395 0.0016088355 0.15210018 0.03852509 0.02748065 0.0336551 0.13405514 0.05904861 0.029437343 0.0358292 0.040916603 0.018479867 0.023915123 0.09279068 0.0016088355 0.011174885 0.029219933 0.03539438 0.0030002608 0.014870859 0.012827203 0.010783547 0.0041742763 0.020480042 6.957127E-4 0.0017827637 0.004217758 0.0010435691 6.087486E-4 0.005826594 0.013740325 0.004000348 0.0016523176 8.6964086E-5 0.005043917 5.2178453E-4 8.6964086E-5 2.1741021E-4 4.3482043E-5 0.0 4.3482043E-5 0.0
flight 0.2792615 0.09925783 0.14856222 0.03964737 -0.036703732 0.0710152 0.01263362 -0.32751295 0.11009205 0.039718054 0.11175369 -0.080067284 -0.20305768 -0.08386633 0.022628801 -0.16191678 0.099396035 -0.3195095 -0.035718877 -0.34153545 0.03675647 0.25152498 0.32677302 -0.29424018 -0.07188488 -0.014239695 -0.28608522 -0.026854001 -0.083457485 0.18358251 0.22897923 0.019355528 0.007615344 -0.062026504 -0.09683155 -0.121367894 -0.15043552 -0.4880531 -0.04440137 -0.21693602 -0.07267653 0.15146466 -0.07626829 0.01060394 -8.776667E-4 0.06636889 -0.096682854 0.026711745 -0.20018588 0.17587642 0.12625617 0.100310616 0.0069431756 0.14288324 0.023935685 0.023692064 0.045374263 0.120896526 0.04488702 0.038674705 0.026493696 0.04031914 0.016200744 0.01967233 0.06565564 0.0014617211 0.007247701 0.02521469 0.02521469 0.0029843473 0.016018027 0.0193069 0.0065168403 0.0056032646 0.013764541 3.0452525E-4 0.0054814545 0.0023143918 5.4814544E-4 1.21810095E-4 0.007856751 0.0076131313 0.002558012 0.0010353859 1.8271514E-4 0.0055423593 4.2633535E-4 0.0 4.2633535E-4 0.0 6.0905048E-5 0.0 0.0
forest 0.15854888 0.12057381 0.07262834 0.175357 0.06682245 -0.09248101 -0.069659375 -0.22797404 0.030557781 -0.008504125 0.23024084 0.18165293 -0.22939147 -0.0017247638 0.24576272 -0.106474906 -0.09897649 0.120481215 -0.11631584 0.06428584 0.030538112 -0.17548005 0.14546128 -0.35819572 -0.060114857 0.242349 -0.11615209 0.058404624 0.0071490617 0.22447225 -0.0779283 -0.09079488 0.06243472 0.09722773 0.1246991 -0.009146829 0.07520098 -0.065729216 -0.0062794546 -0.16043672 -0.009972492 -0.09226005 0.17266516 0.12525056 -0.060268972 0.19618037 -0.014642631 -0.05584266 -0.15860642 0.38884366 0.12 0.049536426 5.298013E-4 0.15152317 0.037880793 0.023576159 0.025430463 0.13430464 0.07152318 0.018543046 0.02437086 0.054039735 0.013509934 0.025430463 0.078410596 0.001589404 0.0042384104 0.024635762 0.030993378 0.0029139072 0.0066225166 0.016688742 0.008211921 0.006092715 0.018807948 0.0037086094 0.006092715 0.002384106 0.0010596026 5.298013E-4 0.010596027 0.015364238 5.298013E-4 0.0010596026 2.6490065E-4 0.008476821 2.6490065E-4 2.6490065E-4 0.0 0.0 0.0 0.0 0.0
abuse -0.062008385 -0.30975085 0.31602722 0.033195388 -0.104520336 0.12666655 -0.35683513 -0.098724514 0.056240357 -0.38412455 0.3245772 -0.23293348 -0.11832704 -0.038874373 -0.10236185 0.06006354 -0.03933385 0.23941769 0.32590315 -0.22376426 -0.041853447 0.06611723 -0.28408304 -0.238675 0.07011535 -0.124946386 0.15174769 0.14072573 0.32973993 0.062255885 -0.41368124 0.13836193 -0.508655 0.34730998 0.21714851 0.1481702 0.2944936 0.04558456 -0.4834241 0.26994002 0.29280365 0.19462931 -0.3964604 0.5002021 -0.038749706 -0.14744703 0.006691663 -0.24220996 0.05342174 -0.37994376 0.07796769 0.029891517 9.365488E-4 0.16787638 0.04807617 0.020369938 0.035432763 0.15289159 0.08397721 0.02614532 0.025989229 0.04167642 0.014048233 0.022711309 0.09201592 0.0015609147 0.0057753846 0.030437836 0.035042536 0.0031998751 0.010302037 0.011238586 0.00897526 0.0039803325 0.015687192 1.5609147E-4 0.002653555 0.0021852807 0.0015609147 4.682744E-4 0.004994927 0.011238586 0.0033559666 7.8045734E-4 2.341372E-4 0.0052290643 2.341372E-4 2.341372E-4 4.682744E-4 0.0 0.0 0.0 0.0
criterion 0.008824576 0.013957421 0.061580125 -0.047058612 1.3883741E-4 -0.026773693 -4.13512E-4 0.008192018 -0.025703123 0.018422678 0.021900622 0.03729085 -0.05224109 -0.023453565 -0.0103847785 -0.034568585 -0.025695696 0.019596409 0.0045714313 -7.404217E-4 -0.02614799 -0.00980253 -0.027568923 0.023383278 -0.013311528 -0.0026598312 -0.060992375 0.057419583 -0.01949628 -0.033267826 0.021698331 -0.100965105 0.02067231 0.05042804 0.02443245 0.007965796 -0.05680524 -0.0085425265 0.027609771 -0.021387309 -3.2960463E-4 0.039092496 0.04273203 0.05070281 -0.03287641 -0.02045684 -0.021250153 -0.011685165 -0.028730182 -0.02113071 0.1418919 0.054054055 0.0 0.16216215 0.0 0.033783782 0.006756757 0.0945946 0.027027028 0.013513514 0.02027027 0.0472973 0.02027027 0.013513514 0.0945946 0.013513514 0.013513514 0.033783782 0.013513514 0.013513514 0.0 0.027027028 0.027027028 0.02027027 0.054054055 0.006756757 0.0 0.0 0.0 0.006756757 0.006756757 0.02027027 0.0 0.0 0.0 0.006756757 0.0 0.006756757 0.0 0.0 0.0 0.0 0.0
sea 0.22029221 0.052207552 0.08919158 0.22426955 0.05605148 0.05212315 -0.066553846 0.0019107236 -0.17066641 -0.1676329 0.09541999 0.18156664 -0.16867018 0.14165334 0.1849022 0.09660488 0.13763025 -0.13994035 -0.09969195 -0.063923866 -0.050709117 0.14413351 -0.040677544 -0.38294312 0.054159816 0.5382016 -0.113463245 0.11159901 -0.3340364 -0.059432097 0.03938513 -0.20980856 0.02286192 -0.19693825 -0.0518827 0.06406148 -0.044462107 -0.23984592 -0.12198882 -0.18694384 0.19686492 -0.025316114 0.21249609 0.2822137 0.2609349 0.07805762 -0.26994732 0.24856262 -0.32927734 0.28116444 0.10886605 0.03614353 0.0013934855 0.15467688 0.03954015 0.030830866 0.028479358 0.14039366 0.082912385 0.027956802 0.02699878 0.046420485 0.012018812 0.031092145 0.061226267 0.0018289497 0.00949312 0.02760843 0.033530742 0.004006271 0.0070545203 0.014805783 0.01071242 0.0057481276 0.019421704 1.7418568E-4 0.0057481276 0.0028740638 4.354642E-4 2.6127853E-4 0.0036578993 0.013673576 0.0022644137 0.0013063926 1.7418568E-4 0.00583522 8.709284E-5 2.6127853E-4 8.709284E-5 0.0 0.0 0.0 0.0
dollar 0.21712862 -0.3616798 -0.2763517 -0.02509808 0.27508095 0.08003855 0.23925053 0.40736613 -0.19657685 0.2373664 -0.055815857 0.2230081 -0.028890468 -0.06020709 -0.3988856 -0.028672388 -0.19967063 -0.13837674 0.18139444 -0.32090527 -0.039074037 0.31233007 -0.043071445 0.122516155 -0.43702105 -0.055751044 -0.052494414 0.0491679 -0.47772315 -0.037115898 -0.16795993 -0.0437947 0.010876767 0.16656414 0.19323906 0.14948675 -0.911285 -0.5130855 0.2587333 -0.010542093 -0.30678412 0.04385377 0.6613963 0.3852822 -0.05064737 0.2838106 -0.26370615 -0.014573412 -0.18045929 0.0822715 0.1661732 0.044349864 0.0012953368 0.13508512 0.026338514 0.02849741 0.045213424 0.12570935 0.051628422 0.02874414 0.021835677 0.043116212 0.008388848 0.019800149 0.06914631 0.00228226 0.007710338 0.02054034 0.024056254 0.0020355294 0.007093511 0.04286948 0.008265482 0.0051196646 0.022699235 3.700962E-4 0.002714039 0.010301012 3.700962E-4 6.16827E-5 0.0072785593 0.007833703 4.934616E-4 0.0027757217 2.467308E-4 0.0048729335 0.0043794718 1.850481E-4 1.233654E-4 0.0 0.0 0.0 0.0
example 0.14402018 -0.47620735 -0.13958167 -0.025425373 -0.34888726 -0.47431594 -0.43963274 -0.050606523 -0.23923633 0.59028894 0.15201792 -0.07191009 0.15066418 -0.2491763 0.11272907 -0.4185608 0.16564612 -0.10529122 -0.0030239364 -0.11180629 -0.15889129 -0.3257835 0.17889091 -0.06987036 -0.105448835 -0.13461718 0.1138698 -0.21847826 0.19358757 -0.061547354 0.35199332 -0.5688152 -0.8899708 -0.009828595 0.4253617 0.5945144 -0.11334498 -0.54994905 0.5273175 -0.010177202 -0.062131405 -0.17143525 -0.32254693 0.5484695 0.016121145 -0.22519791 -0.19249879 -0.4129526 -0.12110846 -0.0011261326 0.10215977 0.07419121 0.0023947225 0.18145671 0.015000904 0.023495391 0.025302729 0.09045725 0.037050426 0.013916501 0.023405025 0.14024942 0.022410989 0.01613049 0.06456714 0.0029821075 0.012335081 0.015362372 0.014323152 0.007184168 0.00799747 0.01350985 0.011431412 0.010211458 0.03289355 6.325682E-4 0.0018525212 0.0027110067 0.0012651364 0.0013555033 0.007319718 0.014232785 0.003750226 0.0012199531 2.7110067E-4 0.003162841 0.0013555033 2.2591722E-4 4.5183446E-5 1.3555033E-4 4.5183446E-5 0.0 0.0
journal -0.1966963 0.679969 0.58559084 -0.026129844 -0.22937194 -0.26422608 0.023435663 -0.4959347 6.5621897E-4 -0.27318758 0.1579064 0.19436143 -0.06422959 -0.5502358 -0.17635769 -0.13707858 -0.15562649 0.101548925 -0.53739786 0.1493463 0.025174795 -0.46747303 -0.2565323 -0.3081109 -0.28971687 0.5708332 0.08533828 0.3334042 0.009775316 -0.2247136 -0.22304164 0.059409194 0.13344078 0.83147067 -0.23247892 0.2851006 -0.17207989 0.20131472 0.2363857 0.2169667 -0.10049554 0.43581766 0.46591845 0.02423925 -0.44524562 -0.11329267 -0.32683674 -0.23245068 0.17932491 -0.09907948 0.15695448 0.16163334 0.00935772 0.1386644 0.016588686 0.007443641 0.032964695 0.11314334 0.032752022 0.0061675883 0.005529562 0.06911952 0.0072309654 0.011059124 0.052105486 0.0010633772 0.00233943 0.047001276 0.049766056 6.380264E-4 0.0068056146 0.013823905 0.0036154827 0.0025521056 0.020416845 0.0 8.507018E-4 4.253509E-4 0.0 2.1267546E-4 0.009995746 0.012547852 0.0012760528 6.380264E-4 0.0 0.0038281581 4.253509E-4 0.0 8.507018E-4 0.0 0.0 2.1267546E-4 0.0
laundering -0.013383583 -0.12371837 0.16975379 0.10316924 0.08502248 -0.05722202 -0.14155295 0.034635704 0.26263168 0.03823242 -0.08881046 -0.054581437 0.112913966 -0.12396364 -0.3264223 0.0859364 0.047316995 0.16475886 0.15625492 0.025771417 -0.014311632 0.11445324 -0.09274751 0.06177473 0.032988943 -0.040109236 0.1269594 -0.035170753 0.27562216 0.13854896 -0.04325588 0.3113895 0.17494868 0.030428402 0.15925422 -0.025417214 0.23398054 0.16535723 0.09601732 -0.02324534 0.046926524 0.08185732 -0.02078495 0.04974884 0.14657757 -0.20568816 0.10888559 -0.27745652 -0.11845382 -0.09017759 0.033050846 0.022881355 8.474576E-4 0.12457627 0.09152542 0.008474576 0.015254238 0.28728813 0.08305085 0.027966103 0.019491525 0.072881356 0.0050847456 0.02881356 0.044915255 0.0 0.0033898305 0.027966103 0.05338983 8.474576E-4 0.0025423728 0.016101696 0.0025423728 8.474576E-4 0.006779661 0.0 0.0025423728 0.0025423728 0.0 0.0 0.0033898305 0.0025423728 8.474576E-4 0.0 0.0 0.0050847456 0.0025423728 0.0 0.0 0.0 0.0 0.0 0.0
hotel 0.21628124 0.0853063 0.3371381 0.25337306 0.075975776 -0.08569786 -0.28117174 -0.26389554 0.26242423 0.05223149 0.17364301 -0.013109926 -0.16347536 0.11095174 0.08719961 0.0016444236 -0.06963314 -0.020337308 -0.2893918 0.070855655 -0.27473384 -0.08616517 0.22048472 -0.15954283 -0.06946766 0.46940094 -0.21675816 0.13477625 -0.057361286 0.15908888 0.24933255 0.0096969595 0.09640712 0.2029755 0.16593564 0.007520582 -0.019884506 -0.14536741 0.14858471 -0.032651145 -0.17653191 -0.3889506 0.4165348 -0.030055301 -0.1592732 -0.04117856 0.05893787 0.29010236 -0.32672504 0.43039253 0.14268927 0.08281574 7.833921E-4 0.14173801 0.03088803 0.023613676 0.040120866 0.13686979 0.051424094 0.020088412 0.018913323 0.051144313 0.01633932 0.017794192 0.06227967 0.0026299593 0.0055397013 0.023613676 0.025740026 0.006882659 0.01471658 0.014828493 0.007162442 0.0052599185 0.01796206 3.9169606E-4 0.00391696 0.0020703934 5.036092E-4 6.714789E-4 0.011415142 0.008897096 0.0020703934 5.595658E-4 2.797829E-4 0.0055397013 0.0013989145 1.11913156E-4 2.2382631E-4 5.5956578E-5 5.5956578E-5 0.0 0.0
term 0.50037503 0.58065075 -0.08105403 -0.043598894 -0.020340856 0.0754476 0.274541 0.1003281 -0.03874385 0.32364097 0.031055862 -0.07743567 -0.02295082 0.08408921 -0.19860849 -0.20916604 -0.21283728 0.03067817 -0.027198391 0.0062573673 -0.37252527 -0.05217227 -0.19440126 0.098650485 -0.09139968 -0.4554466 -0.14780082 0.31875682 -0.021927463 -0.054826345 -0.033059932 -0.36117214 -0.48234072 0.045105513 0.10957606 -0.13041168 -0.14315242 -0.13488549 0.21907546 0.21544486 -0.14818656 -0.20847642 -0.19446784 0.3824396 0.2903641 0.024806513 0.022268202 -0.104704745 -0.06444343 0.221696 0.12785843 0.050811272 8.5397094E-4 0.13877028 0.020068318 0.025192143 0.023863744 0.10940317 0.037527278 0.0258089 0.032261126 0.04326786 0.018123161 0.020305531 0.120931774 0.0020400418 0.01138628 0.02196603 0.036293767 0.002799127 0.021681374 0.015798463 0.018550146 0.004839169 0.026567986 0.0010911851 0.0030363412 0.006736882 0.001138628 3.7954265E-4 0.009915552 0.010152766 0.0029888984 0.0010911851 1.423285E-4 0.0043647406 5.69314E-4 7.590853E-4 6.6419964E-4 0.0 0.0 0.0 0.0
listing -0.06031938 0.018891184 0.12942219 -0.054243505 -0.0022485093 -0.041230034 4.727023E-4 -0.1420012 0.089267485 0.108399145 0.07478561 0.007231819 -0.06440801 -0.13265972 -0.11023797 -0.08430375 -0.022539422 0.057790007 -0.21741353 -0.10050784 -0.13003518 0.05774363 0.099056296 -0.06518854 -0.03320763 -0.03250146 -0.13109215 0.08313584 0.02186705 -0.07149832 0.12749088 0.010903222 -0.13270444 0.045114312 0.09301727 0.14843084 -0.23812188 -0.1428584 0.034484502 -0.030251065 -0.045004077 0.117591746 0.0664726 0.03287061 -0.0317775 0.006985084 0.18608128 -0.14155008 -0.14223556 0.11787775 0.13354787 0.08246179 0.0024135157 0.13475463 0.028559936 0.02614642 0.024939662 0.14561544 0.053097345 0.018101368 0.028962187 0.04625905 0.016090104 0.018101368 0.079243764 0.0028157684 0.009654063 0.019710379 0.023330651 8.0450525E-4 0.018101368 0.014078842 0.00925181 0.0024135157 0.02172164 0.0 0.002011263 0.0016090105 0.0036202734 0.0 0.013274336 0.007240547 0.0012067579 4.0225263E-4 0.0016090105 0.004022526 0.0048270314 0.0 0.0 0.0 0.0 0.0 0.0
chemistry 0.001315119 0.10090057 0.17478861 0.02108055 -0.018228088 0.0139325885 -0.057020828 -0.19522484 -0.11685309 0.036549754 0.043017514 0.088067085 -0.1997583 -0.029830907 -0.051445365 -0.08242579 -0.15175171 0.06323909 -0.08867297 -0.05967988 -0.10608972 -0.15467714 0.08319094 -0.06984825 0.0074704723 0.20864637 0.07394071 -0.05394423 0.018774817 0.046977006 -0.06135374 -0.16440338 -0.04059879 0.015224617 0.20739923 0.1044797 0.03984706 0.068483666 0.026838075 0.13409427 0.06073109 -0.10045885 -0.06850114 0.17482594 -0.08291887 0.044915527 -0.19245866 -0.06606078 -0.10606718 -0.084629335 0.0966644 0.07011572 0.0020422055 0.11912866 0.04628999 0.023825731 0.025867937 0.15452689 0.058543228 0.024506466 0.029271614 0.072838664 0.023144996 0.019060586 0.06739278 0.0013614704 0.006807352 0.015656909 0.029271614 0.004084411 0.012253233 0.008168822 0.010211028 0.0061266166 0.029271614 6.807352E-4 6.807352E-4 0.0027229409 0.0027229409 0.0 0.0074880873 0.020422056 0.0013614704 0.0013614704 0.0 0.0061266166 0.0 0.0 0.0 0.0 0.0 0.0 0.0
seafood 0.016221639 -0.065664135 0.09655445 0.10258003 -0.007898421 -0.05853718 -0.025923263 -0.061180994 -0.008242502 0.030362379 -0.025162343 0.097448066 -0.109397456 0.057353955 -0.10682605 0.037620433 0.00404597 0.01502248 -0.037133146 0.0047110245 -0.064037986 0.024079762 0.065960206 -0.04388728 0.040893465 0.12506448 0.10287849 -0.03724274 0.078973204 -0.099722534 0.026590714 -0.03602025 -0.045459967 -0.022812374 0.18327588 0.04714803 0.0036574404 -0.07607878 0.027342716 -0.019357264 -0.04315116 -0.06674278 0.016295038 0.1284158 -0.044343866 0.10802188 -0.14275129 -0.06180241 -0.07608147 0.031459596 0.08993158 0.04105572 0.0 0.11827957 0.05083089 0.015640274 0.011730205 0.16911046 0.076246336 0.015640274 0.018572826 0.088954054 0.012707722 0.019550342 0.092864126 0.0029325513 0.010752688 0.024437929 0.028347997 0.0019550342 0.010752688 0.011730205 0.008797654 0.0068426197 0.028347997 0.0029325513 0.0019550342 0.0048875855 9.775171E-4 9.775171E-4 0.0039100684 0.014662757 0.0029325513 0.0019550342 9.775171E-4 0.0039100684 0.0029325513 0.0 9.775171E-4 0.0 0.0 0.0 0.0
mind 0.056044057 0.011616023 -0.06271197 0.034767125 -0.08470478 0.08209945 -0.27497047 -0.17857839 -0.04070992 0.13342975 0.35209963 -0.10225754 -0.23407471 -0.018664211 -0.23239586 -0.14728494 -0.3179264 -0.1492727 -0.43991503 -0.06542603 -0.15646103 0.04885973 -0.22847681 -0.058718573 0.34310767 -0.19429411 0.045934547 -0.09461984 -0.35539487 0.028231904 -0.08543506 -0.35654312 0.08917355 -0.30450204 0.3800319 0.06112673 0.020580377 0.24770314 0.025830919 -0.07911024 -0.053745206 -0.43491295 -0.03426039 -0.12528022 -0.07696757 -0.08625589 0.047323953 -0.255986 -0.14589645 -0.10172317 0.085064165 0.03730652 0.001058341 0.14003175 0.031485647 0.04590554 0.03591745 0.10186533 0.033470035 0.030758036 0.041738324 0.046037834 0.049940467 0.023415796 0.05979627 0.0015875116 0.012700093 0.015345945 0.03466067 0.0072760945 0.04987432 0.006085461 0.013295409 0.010120386 0.03122106 1.3229263E-4 0.0050932663 0.0016536579 0.00125678 3.968779E-4 0.0085990215 0.021299114 0.006879217 8.599021E-4 5.953168E-4 0.005820876 0.0 4.6302422E-4 3.968779E-4 5.291705E-4 6.614631E-5 0.0 0.0
sex -0.02175945 -0.24101594 0.03965756 0.015836487 0.16137917 -0.12266857 -0.014359989 -0.28105164 -0.23237216 -0.12656674 0.10120818 0.040448584 -0.33285302 0.14800566 -0.08223759 -0.09563812 -0.17487286 0.03132 6.062615E-4 -0.11400194 -0.26242253 -0.07045552 0.03334205 -0.061207157 -0.16302139 -0.19880515 -0.15684369 0.17034377 0.09449161 0.22470589 -0.12855364 -0.2234491 -0.1189449 0.14498428 0.38813326 0.07606591 0.61881286 0.121710666 -0.41985965 -0.013645056 0.13470022 0.023464836 -0.11835775 0.2607346 0.15709701 0.32664776 -0.041780144 -0.09649877 -0.10975135 -0.33018845 0.08118571 0.027447129 8.08968E-4 0.14411187 0.038830463 0.030394083 0.036692478 0.1453831 0.07402057 0.02814053 0.032589853 0.043857623 0.027562695 0.031260833 0.07095805 0.0010978851 0.008147463 0.030914133 0.03305212 0.0034670057 0.013521322 0.013116838 0.009187565 0.007511846 0.020975385 2.8891713E-4 0.0027736046 0.003929273 6.356177E-4 4.6226743E-4 0.005547209 0.017681729 0.0069340114 0.00202242 3.4670057E-4 0.0042759734 1.7335029E-4 5.200509E-4 1.1556686E-4 5.778343E-5 0.0 0.0 0.0
food -0.014334195 -0.13699922 0.042733952 -0.0050428296 0.14020544 -0.35080057 -0.14621364 -0.29452753 0.091264196 0.014454955 -0.06654504 0.3433344 -0.1748425 -0.035449307 -0.15115753 0.37703696 -0.080309756 0.34700355 -0.058535837 -0.095684625 -0.0108662825 0.19570789 0.03837925 -0.110627696 0.0505612 0.12247881 0.40281278 0.14852528 0.069016814 0.010193537 -0.09794259 0.22588514 -0.2868158 -0.030332329 -0.012735222 0.14297497 0.0438488 -0.005304097 0.065410614 -0.1193622 0.0128669385 0.05252622 -0.1376403 0.3209093 0.016868856 0.14387722 -0.09022607 0.04986794 -0.3677016 -0.003134902 0.06962311 0.029899497 0.0012562814 0.12256281 0.057889447 0.027336683 0.023668341 0.15419598 0.08550251 0.027110552 0.034095477 0.062160805 0.015879396 0.029296482 0.078693464 0.002035176 0.008140704 0.026080402 0.029623115 0.0033165829 0.012110553 0.011582915 0.008015076 0.007311558 0.02361809 4.7738693E-4 0.0045477385 0.005552764 0.0010050251 5.0251256E-4 0.005552764 0.018517587 0.0022613066 0.0015326634 6.281407E-4 0.006834171 0.001080402 3.0150753E-4 7.537688E-5 1.0050251E-4 0.0 0.0 2.5125628E-5
precedent 0.20463294 0.04681752 0.10423933 0.03144056 -0.08244199 -0.09304683 0.034540758 -0.15839915 -0.13155995 -0.11136572 0.102520466 -0.04765889 0.041900154 -0.060335223 -0.20825356 -0.20846911 -0.11237649 0.043949835 -0.041684728 -0.13781095 0.074289955 -0.016686937 0.082970165 0.11847216 -0.10182422 -0.057153974 -0.12092307 0.029094089 -0.042997833 -0.07416998 0.052652817 -0.09110897 -0.3053963 0.09390649 0.069375575 0.18645595 -0.09896638 -0.10845844 -0.14745201 -0.16563968 -0.2014282 -0.14045797 -0.13406691 0.06167746 0.09047037 -0.07295256 0.006418385 -0.060877416 -0.17947152 0.09718873 0.13430852 0.047872342 0.0026595744 0.1356383 0.019281914 0.045212764 0.027925532 0.08577128 0.03523936 0.022606382 0.054521278 0.035904255 0.027925532 0.035904255 0.08909574 0.0013297872 0.034574468 0.022606382 0.025930852 0.0033244682 0.0033244682 0.005984043 0.009973404 0.005984043 0.041223403 0.0 0.0013297872 0.0026595744 0.00930851 6.648936E-4 0.005984043 0.013962766 0.0026595744 6.648936E-4 0.0 0.008643617 0.0 0.0 0.0 0.0 0.0 0.0 0.0
series 0.1396304 0.22910531 -0.0058004763 -0.02523053 0.11043056 0.19931775 0.07811236 -0.061380003 -0.29573274 -0.2811165 0.35386148 -0.21116966 0.05049386 -0.19935662 -0.23786475 -0.2965213 -0.18061052 -0.016919693 -0.31437197 -0.09155382 0.28440118 -0.23673816 0.6098596 0.16777974 0.46775296 0.07091323 -0.08745401 -0.058821697 0.09242891 -0.11467052 0.1460061 -0.065356925 -0.28554985 0.3200908 0.26388586 -0.15132244 -0.12971959 -0.39598367 -0.072905086 0.30834106 0.04823943 -0.03459824 0.19179942 -0.306624 0.039057698 0.0074752886 0.21509999 -0.33607477 -0.078769594 0.01457453 0.14591375 0.08518501 0.0046135015 0.17604275 0.019513229 0.01892477 0.03095283 0.09431786 0.07280388 0.018383391 0.019466152 0.037284624 0.011368986 0.018312776 0.08452594 0.0047076545 0.005955183 0.025821486 0.02153752 0.0019536766 0.009933151 0.019207232 0.013510969 0.0052725733 0.020337068 1.6476792E-4 0.0035778175 9.886075E-4 6.5907167E-4 6.119951E-4 0.008850391 0.008026551 0.002165521 6.119951E-4 1.6476792E-4 0.007602862 2.1184445E-4 2.8245928E-4 1.8830619E-4 2.3538274E-5 2.3538274E-5 0.0 0.0
kilometer 0.09815392 -0.0026299641 0.07091081 0.0043684286 0.044647362 0.003001592 0.012384788 0.009372168 0.0127952425 0.007201937 0.007913693 -0.0026709551 -0.01471712 -0.026413256 -0.012470937 -0.048267327 0.009515435 -0.061866608 -0.10027409 0.0039323783 0.007275698 0.027508102 0.05807921 -0.02481734 -0.017699657 -0.02398968 -0.09287049 0.009673109 -0.033756528 0.059244856 0.03701019 -0.07860904 -0.0313581 0.0056355465 0.02076171 -0.010401711 -0.029522778 -0.018007142 0.011643457 -0.006545318 -0.027515518 -0.026673863 -0.0048061702 0.008439178 -0.020213023 -0.015379074 0.024676355 -0.015676659 -0.01700771 0.036442712 0.14574899 0.04048583 0.0 0.13765182 0.012145749 0.02834008 0.024291499 0.17004049 0.04048583 0.012145749 0.012145749 0.020242915 0.008097166 0.012145749 0.06882591 0.004048583 0.008097166 0.016194332 0.024291499 0.0 0.0 0.10121457 0.06477733 0.004048583 0.016194332 0.004048583 0.0 0.004048583 0.0 0.0 0.0 0.004048583 0.0 0.0 0.004048583 0.008097166 0.004048583 0.0 0.0 0.0 0.0 0.0 0.0
grocery 0.22422911 -0.010863329 -0.07590045 0.34071207 -0.08375261 -0.1776831 -0.015641952 -0.056561314 0.16816688 0.123632245 -0.15363193 0.24886036 0.0070742466 0.11127313 -0.049358185 0.14547096 -0.015046531 0.030408401 -0.21254115 -0.1579834 -0.019542897 -0.16155308 -0.0068408744 0.07093694 0.09066933 0.2353622 -0.13132232 -0.058581885 0.019906795 -0.099405564 -3.694069E-4 0.16868807 -0.14854874 0.0045668064 -0.0853386 0.11486012 0.029576225 -0.110077456 0.08159604 -0.069211006 -0.10876501 -0.12892577 0.07775188 0.15053049 -0.25311497 0.19669476 0.049457107 -0.07083132 -0.37919548 0.21856768 0.094427906 0.054870266 8.507018E-4 0.1161208 0.045087196 0.022118248 0.023819651 0.17907274 0.0918758 0.020416845 0.024245001 0.06592939 0.017014036 0.027222458 0.05614632 0.0021267545 0.005529562 0.019991493 0.030199915 0.005954913 0.01829009 0.013611229 0.0021267545 0.0038281581 0.011059124 0.0 0.005954913 0.00467886 0.0 0.0 0.008932369 0.015312633 0.0029774564 0.0012760528 0.0 0.0063802637 0.0012760528 4.253509E-4 8.507018E-4 0.0 0.0 0.0 0.0
wizard -0.061543986 -0.07163575 0.11758088 -0.033438735 0.04548979 -0.016613368 -0.023013303 -0.032188833 -0.095253505 0.04064769 0.07717181 -0.044865176 -0.084765434 -0.018130569 -0.011839793 -0.11143357 -0.05467974 -0.009643587 -0.052523665 -0.062016748 -0.051701043 -0.06344335 0.021401197 -0.025197487 0.08936402 0.030313568 -0.002600002 -0.024717249 0.0101450505 -0.039420456 -0.046824407 -0.11122138 -0.009404172 0.0010925407 0.061141677 -0.102025755 -3.9229644E-4 -0.05430524 -0.039284002 2.7392627E-4 0.011485889 -0.028285323 0.028423095 0.044314593 -0.012672635 -0.059292845 0.049624637 -0.0069073215 0.105464 0.07702554 0.10294118 0.14705883 0.005882353 0.1 0.026470589 0.011764706 0.01764706 0.12941177 0.064705886 0.014705882 0.011764706 0.052941177 0.014705882 0.011764706 0.09411765 0.0 0.0029411765 0.029411765 0.020588236 0.0 0.020588236 0.011764706 0.0029411765 0.0029411765 0.04411765 0.0 0.00882353 0.0 0.0 0.0 0.01764706 0.011764706 0.014705882 0.0 0.0 0.005882353 0.0 0.0 0.0 0.0 0.0 0.0 0.0
information -0.079448655 -0.20641124 0.014874477 -0.18453102 -0.45714247 -0.43361586 -0.032395728 -0.5180365 0.013405343 0.25610358 0.3405433 -0.07015074 -0.26852095 0.021105042 -0.04077481 -0.1124784 0.080010116 0.25165513 -0.051319223 -0.20154819 -0.37369582 -0.009123386 0.14225923 -0.005677956 -0.018629985 -0.24394403 -0.025295146 0.37539792 0.016535928 0.0021909701 -0.2999682 0.050465766 -0.22443187 0.10401553 0.03230831 0.2811584 -0.19733043 -0.01736967 -0.10291045 0.022756781 -0.045556128 0.34002227 -0.42111114 0.34557897 -0.32051888 0.2930609 -0.049131583 0.023727927 -0.15608512 -0.16759646 0.08342525 0.046222825 0.0018325446 0.14315198 0.03875031 0.025566665 0.028964879 0.12621428 0.05394442 0.036366224 0.048998326 0.043216027 0.02088745 0.026171584 0.08340747 0.0014055439 0.012845604 0.028395545 0.026224958 0.0038607977 0.009821015 0.0070810947 0.011173184 0.005533217 0.023556205 0.0013343771 0.0028466713 0.01921503 0.0012454187 4.981675E-4 0.00629826 0.01763157 0.0035049638 0.0013877522 9.785432E-4 0.006938761 8.362097E-4 3.558339E-5 1.0675017E-4 1.0675017E-4 0.0 1.7791695E-5 0.0
brandy 0.021302085 -0.049197 0.08088749 0.06454212 -0.033594955 -0.024166264 -0.027798006 -0.043103587 0.018315766 -0.007096126 0.028449308 0.058354903 -0.011812454 -0.04778876 -0.0525465 -0.00908359 0.038425587 -0.005830135 -0.024450935 -0.05622543 -0.01950928 -0.044817716 0.042849682 0.012522442 -0.026522174 0.020584403 0.08375646 -0.013872176 0.004014576 -0.0049710902 0.033643905 0.0044592014 -0.0054506697 -0.019815043 0.07467783 -0.03923358 -0.007661155 -0.045620263 -0.044360027 0.014116549 -0.0249782 -0.05010873 -0.07274454 0.031726275 -0.02542768 0.029115671 -0.0433067 -0.04527725 0.011875981 0.013699495 0.06818182 0.03409091 0.0 0.125 0.07386363 0.017045455 0.03409091 0.17613636 0.051136363 0.017045455 0.022727273 0.06818182 0.017045455 0.011363637 0.08522727 0.0 0.0056818184 0.03409091 0.028409092 0.0 0.0056818184 0.022727273 0.039772727 0.017045455 0.011363637 0.0056818184 0.0056818184 0.0 0.0056818184 0.0 0.0 0.011363637 0.0 0.0 0.0 0.0056818184 0.0 0.0 0.0 0.0 0.0 0.0 0.0
interview -0.15934902 0.19827567 -0.18362306 0.020851742 -0.31906742 0.19762549 0.060461108 -0.63406545 -0.059308834 -0.47384965 0.43892694 -0.21518442 -0.05984731 -0.69249725 -0.16390009 -0.2568623 -0.005307245 -0.3253841 -0.9051315 -0.14175376 -0.6297 0.181357 -0.3541523 0.26793465 -0.33583522 -0.42290103 -0.9094678 -0.30955583 0.25280315 -0.67860997 0.050216127 0.021724053 0.48011085 0.55466425 0.31027994 0.44359297 -0.16428564 -0.3075456 0.117292345 -0.4332739 0.024238868 -0.79724246 -0.33533284 -0.3313074 -0.49984658 -0.22511406 -0.2502625 -0.22677968 0.31782097 -0.028242242 0.15890889 0.15923867 0.0023556016 0.1922171 0.011212664 0.014887402 0.07062094 0.08706304 0.01875059 0.016394988 0.011683784 0.049750306 0.024828041 0.009846414 0.045368887 8.9512864E-4 0.0048525394 0.016630547 0.034486007 0.0020729294 0.012908697 0.008621502 0.011778008 0.0026853858 0.008433054 2.826722E-4 0.0019315933 8.9512864E-4 5.653444E-4 2.3556016E-4 0.009233958 0.004240083 0.001601809 8.009045E-4 1.413361E-4 0.00301517 4.7112033E-5 1.8844813E-4 1.413361E-4 1.8844813E-4 0.0 0.0 0.0
prominence 0.045148484 0.038442023 -0.07916137 0.17516421 -0.030384777 0.1769047 0.07856541 -0.13456525 0.08157989 -0.19883707 0.22972208 -0.107595906 -0.11484417 -0.010020214 -0.28749445 -0.061018426 -0.090024166 0.056853164 0.12797785 -0.15600634 0.012401219 0.0013760354 0.082771435 -0.01781215 0.123724476 0.048087798 -0.03147343 -0.0819225 -0.02544907 -0.02085221 -0.042737585 -0.22528887 -0.056850437 -0.12755102 0.1820862 0.012188328 0.031152748 -0.18511741 -0.039410338 -0.035080105 -0.07031579 -0.14216879 -0.050457682 0.12526956 0.019467315 -0.03621516 -0.12747401 -0.059190545 -0.0012480915 0.18468666 0.0864745 0.062084258 0.0022172949 0.13192904 0.022172948 0.02660754 0.07871397 0.118625276 0.02993348 0.08425721 0.016629713 0.036585364 0.023281597 0.015521064 0.07871397 0.0 0.007760532 0.033259425 0.015521064 0.0121951215 0.021064302 0.018847007 0.007760532 0.007760532 0.009977827 0.0 0.0022172949 0.006651885 0.0 0.0 0.01330377 0.006651885 0.01330377 0.0011086474 0.0 0.0088691795 0.0 0.0 0.0 0.0 0.0 0.0 0.0
bed 0.120060004 0.05634285 0.2893578 0.18441056 -0.07294242 0.15893753 -0.2419916 -0.28464565 0.10256462 0.022682134 0.19459932 -0.14424945 -0.26151413 0.01475083 -0.14984418 0.2987098 0.06094252 -0.05224292 -0.5670022 -0.2680501 -0.1594052 0.11849627 -0.03554548 -0.15389344 0.13343516 0.008443728 -0.032872032 -0.027362265 -0.18274105 0.13501894 0.017143566 -0.29463533 0.017636824 -0.21460672 0.19269371 0.076312475 0.24239697 -0.14935122 -0.024998691 0.026320165 -0.023197789 -0.33551 -0.006551701 -0.028837578 -0.0028512776 -0.117696516 0.12046848 0.103174984 -0.07921139 -0.11088351 0.09730238 0.03113676 0.0012078915 0.1716548 0.03851832 0.03180781 0.042947255 0.120789155 0.042813044 0.037176218 0.03288149 0.049657766 0.039592 0.03006308 0.055294592 4.026305E-4 0.0072473492 0.0224131 0.0303315 0.0042947256 0.032613073 0.013957858 0.006978929 0.003892095 0.019192055 1.3421018E-4 0.008321031 0.001610522 6.7105086E-4 1.3421018E-4 0.005368407 0.011676285 0.002415783 4.026305E-4 5.368407E-4 0.003892095 2.6842035E-4 1.3421018E-4 0.0 2.6842035E-4 0.0 0.0 0.0
furnace 0.052384626 -0.011334227 0.09019868 0.023117587 0.029246904 -0.035759322 -0.018421324 -0.0230875 -0.02184356 0.0051797703 0.03159061 0.026237192 -0.06877935 -0.0565365 -0.037103113 -0.042276904 -0.025675917 0.0349726 -0.057399154 -0.013784422 -0.014642615 -0.0035391266 0.035050355 -0.004216553 0.017379481 0.06167995 0.02721385 -0.012470259 -0.038494077 -0.020717116 -0.008087562 0.012965055 -0.021017615 0.020734685 0.009775359 0.017776038 -0.005744067 -0.0623281 -0.042701494 -0.008711027 0.0033644638 -0.04082316 -0.01856638 0.05472752 -0.01817143 0.007987775 -0.008691013 -0.02991939 -0.029961338 0.0333062 0.14574899 0.02834008 0.0 0.14574899 0.032388665 0.032388665 0.012145749 0.18218623 0.032388665 0.016194332 0.04453441 0.032388665 0.004048583 0.016194332 0.109311745 0.004048583 0.0 0.012145749 0.036437247 0.008097166 0.012145749 0.016194332 0.020242915 0.008097166 0.016194332 0.0 0.008097166 0.004048583 0.0 0.0 0.012145749 0.0 0.0 0.0 0.0 0.004048583 0.004048583 0.0 0.0 0.0 0.0 0.0 0.0
evidence -0.07489319 -0.0036540914 -0.21282388 -0.22452201 -0.47553024 -0.27278408 -0.079855785 -0.14150518 -0.39740363 0.061370436 0.44591004 0.09212387 -0.10114697 -0.05980995 -0.3123947 0.14102091 -0.1758161 -0.043532345 -0.004497633 -0.36585957 0.017597446 0.1118473 0.041250415 -0.092075884 0.047287926 0.2676061 -0.049806073 0.12100218 -0.11228947 -0.038480457 -0.18262848 -0.19132951 -0.29610807 0.40839824 0.0053945053 0.21662638 0.01466828 -0.08722843 -0.5570338 0.22248851 -0.103797704 -0.085109375 -0.21029651 0.29321313 -0.16654855 -0.23715846 -0.21109132 -0.13619378 0.03747541 -0.23255825 0.10601024 0.04144581 0.001287695 0.15404426 0.02434642 0.032162428 0.05767676 0.10618992 0.04536879 0.032611623 0.037612673 0.032941036 0.028029827 0.026143204 0.08151409 0.0017967838 0.010690863 0.032881144 0.01694966 0.0030844787 0.008624562 0.005240619 0.012517594 0.004611745 0.037612673 1.1978558E-4 0.0033839426 0.0033839426 0.01877639 5.390351E-4 0.0060791182 0.017009553 0.003174318 8.0855266E-4 8.384991E-4 0.0043422272 5.989279E-5 5.989279E-5 2.9946395E-5 0.0 0.0 0.0 0.0
sprint -0.14354187 0.058098454 -0.04036963 0.06368666 -0.027463702 -0.029126877 0.07777983 -0.028512172 -0.110755555 0.12798776 0.014453113 -0.032129224 -0.29790577 -0.011137971 -0.013504511 0.009660942 -0.26866683 0.050020628 -0.034986228 -0.0656147 0.06595719 0.06900679 0.18254465 0.09561592 -0.11240434 -0.19854018 0.10236017 -0.052438144 -0.024855644 -0.24152777 0.08786015 -0.12413637 0.06687853 0.17044018 0.017317846 -0.07842322 -6.222987E-4 -0.14785376 0.22248593 0.13660458 -0.06659226 5.8240857E-4 -0.08329812 0.04600268 -0.012280355 0.18427916 0.03148891 0.11847947 -0.21164496 0.18154347 0.12428919 0.08935825 0.005686434 0.12672624 0.028432168 0.018683996 0.034930952 0.1413485 0.04874086 0.040617384 0.022745736 0.044679124 0.019496344 0.015434606 0.074735984 0.002437043 0.0040617385 0.012997563 0.022745736 0.005686434 0.012185215 0.019496344 0.008123477 0.0064987815 0.020308692 0.0 0.0064987815 0.002437043 8.123477E-4 8.123477E-4 0.01787165 0.01056052 0.0032493907 8.123477E-4 0.0 0.0064987815 0.0 0.0 0.0 0.0 0.0 0.0 0.0
emergency 0.1555823 0.06690367 0.12736212 -0.14919668 0.20699638 -0.32420537 -0.24426065 -0.39460012 0.18384473 0.06631785 0.22677635 -0.0771014 -0.14226817 -0.22957262 -0.10831283 0.025849454 -0.06361873 0.23213013 0.103447504 -0.1226631 -0.06394539 0.017006772 -0.056442533 -0.18815504 -0.15370637 -0.15480542 -0.112207934 -0.10342472 0.19263022 0.51479256 -0.16376668 0.36511418 -0.106010176 0.22374798 0.1585543 0.027133392 -0.20299083 -0.21472412 -0.037059274 -0.35442638 0.22206186 -0.21093093 0.0417041 -0.04779243 -0.023012882 -0.19740145 -0.38234502 -0.12160259 0.0843961 0.1999929 0.11228422 0.06730718 0.0015309085 0.13039118 0.03024864 0.019215541 0.04877791 0.17241198 0.078023545 0.03352162 0.03225466 0.04059547 0.013144697 0.021643879 0.05020324 8.974291E-4 0.007443383 0.027873093 0.026078235 0.0036425064 0.007337803 0.017262314 0.0067571136 0.004170406 0.0126695875 1.5836985E-4 0.004909465 0.0014253287 6.334794E-4 2.111598E-4 0.0076017524 0.0096077705 0.0021643878 5.278995E-4 5.278995E-5 0.0045399354 0.0024283377 0.0 0.0 0.0 0.0 5.278995E-5 0.0
institution 0.19542527 0.17877136 0.2176042 -0.25959986 -0.13497932 -0.17378473 -0.21637811 -0.05808165 -0.007593651 0.08540558 0.14472248 -0.055990208 -0.039319664 -0.13419797 -0.16941144 -0.39052784 -0.24354544 -0.03530435 -0.15063423 0.13151127 -0.053145017 -0.053272583 -0.014684393 0.10349286 -0.09874241 0.17910843 -0.3457163 0.09145522 0.123111874 -0.2029955 -0.051709283 -0.06330105 -0.14254898 0.03571233 0.18959597 0.2540981 -0.28326803 -0.16005689 -0.14541158 -0.041161615 0.07047488 -0.24343628 0.15663618 0.18405108 -0.33246765 0.07689949 -0.29580075 -0.062198956 -0.15175577 0.3503855 0.16361256 0.05235602 0.002356021 0.12696335 0.02460733 0.030366492 0.02251309 0.09816754 0.029842932 0.02853403 0.031937174 0.04528796 0.017277487 0.019895287 0.107329845 0.002356021 0.010209424 0.028795812 0.02643979 0.004973822 0.009947644 0.009947644 0.009947644 0.004973822 0.035863873 7.853403E-4 0.0039267014 0.0044502616 5.235602E-4 0.0010471204 0.013089005 0.011256545 0.002617801 7.853403E-4 5.235602E-4 0.013612566 0.0015706806 0.0 0.0013089005 0.0 0.0 0.0 0.0
bird 0.17532378 0.114376314 0.23816916 0.10889155 -0.006451788 0.07914851 0.07316284 -0.04193635 0.050668824 0.1382308 0.07707902 0.20149064 0.031845193 0.23670016 0.0054190694 -0.14764026 -0.09425889 -0.15917939 -0.0586154 6.059378E-4 0.06937781 -0.07862373 0.1451569 0.062103517 0.094533116 0.1616382 -0.049663138 0.08170693 -0.16770318 0.090622544 -0.1307788 -0.25709036 -0.1582022 0.18562554 0.013058861 -0.03809962 0.059144843 0.06408459 -0.1722892 0.11453657 -0.066113375 -0.117672674 0.08297549 0.27225733 0.088919595 0.116341926 -0.098414175 -0.12689376 2.4304753E-4 0.13827369 0.13140853 0.03966541 0.0010793308 0.12223422 0.028872099 0.026713438 0.03507825 0.16189963 0.058553696 0.021586616 0.026173772 0.052347545 0.014570966 0.020777117 0.08310847 0.0029681597 0.005396654 0.033459254 0.025094442 0.0029681597 0.00998381 0.00998381 0.012142472 0.007285483 0.028332435 0.0010793308 0.0040474907 0.0013491635 2.698327E-4 5.396654E-4 0.008364813 0.01295197 0.0021586616 5.396654E-4 2.698327E-4 0.006475985 2.698327E-4 0.0 0.0 0.0 0.0 0.0 0.0
warning 0.33159193 0.053909928 -0.15870625 -0.09190801 -0.12641597 -0.070364416 0.008939471 -0.10603365 -0.017753432 0.030969301 0.0911077 -0.042727116 0.11998648 0.11012902 -0.12337396 -0.036864385 -0.079675324 0.027212987 0.031370312 -0.35908276 -0.0175216 0.046319038 0.19218163 -0.22679982 0.02100276 0.07151149 -0.37131864 -0.1982501 -0.19448477 0.0635231 0.06674515 0.004211504 -0.16618492 0.17393139 -0.08968855 0.38710013 -0.3341332 -0.10727947 -0.17566283 -0.43962225 -0.079433806 0.23371767 -0.21320711 0.105552495 0.038708717 -0.043548495 -0.063306324 -0.34143436 0.12116284 0.0059898114 0.12664524 0.07782369 0.0026017753 0.13980716 0.02073768 0.02540557 0.051958986 0.12825222 0.07330885 0.027471686 0.026859503 0.03841445 0.021655953 0.015916742 0.06994184 0.0014539333 0.014768901 0.025788184 0.014233242 0.0022191613 0.010407101 0.009565351 0.011401898 0.0052800733 0.019589838 3.8261403E-4 0.0029843894 0.0021426384 0.0018365473 5.356596E-4 0.009029691 0.013238445 0.0029843894 8.417508E-4 6.121824E-4 0.0032904805 3.060912E-4 3.060912E-4 0.0 0.0 0.0 0.0 0.0
implement 0.01273016 0.07337307 -0.12504728 0.2541644 0.12427645 0.117065 -0.07977964 -0.32637003 0.22635053 -0.2526992 -0.14480346 -0.21960007 0.13348636 0.27285868 -0.42837706 -0.047957525 -0.18584977 0.18515764 0.40113795 -0.047459956 0.10337814 -0.035356786 -0.20359658 0.10753383 0.17430419 0.033373162 0.034574393 0.098721646 0.09181797 -0.15382257 -0.13826902 -0.11122484 -0.097800136 0.014503705 0.1479924 -0.031826094 -0.19545439 -0.35145408 0.048767373 -0.36222464 -0.24940345 0.08991944 0.094946444 -0.070269674 -0.04751999 -0.0134477345 -0.16502555 -0.08133065 -0.12098318 0.25284794 0.1003861 0.051084053 5.940006E-4 0.07128007 0.036234036 0.031779032 0.018117018 0.15087615 0.078111075 0.1033561 0.042768043 0.024057023 0.026433026 0.015741015 0.076329075 8.910009E-4 0.026433026 0.021384021 0.021978023 0.0056430055 0.015444015 0.011286011 0.01009801 0.0044550044 0.014850015 0.0 0.0014850015 0.0044550044 0.0 0.0 0.0065340064 0.0133650135 0.0026730027 8.910009E-4 8.910009E-4 0.008613009 0.0014850015 0.0 0.0 0.0 0.0 0.0 0.0
train 0.3151627 -0.019587506 0.24032444 0.23493141 0.08109585 -0.060812037 -0.17287579 -0.35160157 0.12736751 0.011839984 0.18452288 0.018749721 -0.31986102 0.18977898 0.06942637 0.034061614 -0.024984743 -0.12487747 -0.0085783405 -0.26068336 0.03245819 -0.057034023 0.15281942 -0.24196541 0.013601926 0.11834668 -0.25423998 0.12926763 -0.14410931 0.103769094 0.07859696 0.012308745 0.11084617 -0.08195622 -0.07436525 0.0025039976 -0.09763139 -0.3857261 -0.026701704 -0.28194368 0.0121181905 -0.16424286 0.034245487 0.06198348 0.002203361 0.054267168 -0.13579987 0.17448719 -0.141452 0.32048756 0.121031 0.07306687 0.00149421 0.1245424 0.036384013 0.026223384 0.043705642 0.12327232 0.061860293 0.049084798 0.034964513 0.039671272 0.023309674 0.020395966 0.056630556 0.0016436309 0.009413523 0.029286515 0.024579754 0.006275682 0.008965259 0.017482257 0.008068734 0.00605155 0.014792678 5.229735E-4 0.005080314 0.0029137093 3.735525E-4 2.9884197E-4 0.0067986553 0.01053418 0.0030631304 6.7239447E-4 2.241315E-4 0.006275682 7.47105E-4 7.471049E-5 1.4942099E-4 0.0 0.0 7.471049E-5 0.0
area 0.38450995 0.019189961 0.032110292 0.07486947 0.13572279 0.09564419 -0.1697303 -0.31412876 -0.27224162 0.09605179 0.41550797 -0.050132647 -0.27482155 -0.12040502 -0.038190804 -0.07493136 -0.04171097 -0.021725172 -0.24341884 -0.18061155 -0.09841713 0.02440279 -0.13846637 -0.11004541 0.08781892 0.34068024 -0.21940069 0.24882466 0.052079365 0.039786655 -0.11705892 0.023046933 0.28195044 0.27664152 -0.1346496 0.09643249 0.0062711844 -0.14714345 0.058945443 -0.075938895 -0.041701213 -0.45195276 0.3582534 0.16548295 -0.21228015 -0.07070246 -0.3064365 0.2282944 -0.3255184 0.22608222 0.15867305 0.08692935 0.0017987995 0.15890028 0.02508852 0.024312196 0.03440441 0.10811732 0.049476456 0.021680268 0.021434117 0.041486 0.012099294 0.01933236 0.07091057 0.0018745385 0.006134853 0.028742922 0.033703823 0.005794028 0.008463825 0.014731222 0.0067028953 0.0036544034 0.019161949 1.5147786E-4 0.0039384244 0.0029348833 8.3312823E-4 3.597599E-4 0.0063242004 0.01164486 0.0027266014 7.9525873E-4 2.4615153E-4 0.0058129625 3.2189043E-4 7.573893E-5 1.5147786E-4 1.8934732E-5 5.6804194E-5 0.0 0.0
image -0.056666184 -0.066368945 0.25723994 -0.15512577 0.01579912 0.026162833 -0.13062234 -0.008115813 -0.17455815 0.39362115 0.16399524 -0.053873863 -0.30448315 -0.08508113 -0.29041946 -0.2339945 -0.112980574 -0.06142164 -0.24450433 -0.08556656 0.09402056 0.02513022 -0.1851921 -0.004851123 0.28556317 0.10303387 -0.15445985 0.030281585 -0.10009279 -0.20964904 -0.040857952 -0.17658286 0.02410236 0.039654206 0.23137386 0.12891153 -0.15211321 -0.10643159 -0.29865628 0.08989127 -0.044933334 -0.285554 0.067811765 -0.03682347 -0.22797032 0.17746061 0.1045653 -0.2325758 0.17818478 0.19239481 0.14267585 0.054931108 0.0030819434 0.12690355 0.030456852 0.032632343 0.02737491 0.11729514 0.031635243 0.02737491 0.037073966 0.03915881 0.016678752 0.024292966 0.08792603 0.0011783901 0.009880348 0.025471356 0.024383612 0.003444525 0.032360405 0.005801305 0.009880348 0.005801305 0.031997826 4.5322697E-4 0.004079043 0.0019941987 7.2516315E-4 9.970993E-4 0.020939086 0.009064539 0.0023567802 0.0014503263 2.7193618E-4 0.00688905 9.064539E-5 2.7193618E-4 7.2516315E-4 0.0 0.0 0.0 0.0
murder 0.07555498 -0.102424175 0.60117143 -0.03292286 -0.13450193 0.19367443 -0.12916258 -0.091882676 -0.110010326 -0.038610782 0.21710739 -0.23657598 -0.12527128 -0.05459089 -0.19117813 0.10066587 0.021537496 -0.1584381 -0.017020194 -0.38932 -0.24582183 -0.16240685 -0.06416565 0.02483568 -0.32652593 0.04726202 0.011728082 -0.026036458 0.1431246 0.3246808 -0.2933116 0.11862338 -0.56530994 0.852183 0.34634584 0.11891192 0.35430735 -0.20188797 -0.7065865 0.21083331 -0.024349216 0.11374313 0.042220682 0.22393814 0.025303349 -0.44792947 0.17664021 0.18026285 0.14765172 -0.23049061 0.1018332 0.0672347 0.001394268 0.17960237 0.03583785 0.017867286 0.040278852 0.13426284 0.042705912 0.021585334 0.016008262 0.04410018 0.012445133 0.019054996 0.06873225 7.745933E-4 0.0048024785 0.0627937 0.03335915 0.001394268 0.013374645 0.024064032 0.0041311644 0.0034082106 0.01972631 2.5819778E-4 0.0015491867 0.0010327911 4.64756E-4 2.0655822E-4 0.008520527 0.008985283 0.0036147689 6.7131425E-4 2.0655822E-4 0.0029434548 5.1639556E-5 2.5819778E-4 4.64756E-4 0.0 0.0 0.0 0.0
journey 0.23268592 -0.08202981 0.1174422 0.21898147 -0.06396177 0.18948175 -0.08440441 -0.22452004 0.11257741 0.1414515 0.2630154 -0.02095191 -0.25370657 0.074218065 -0.037697975 -0.22980864 -0.18650766 -0.18065055 -0.18519112 -0.28998163 -0.013050619 -0.019249344 -0.06664868 -0.19272526 0.084565155 -0.041864928 -0.1742038 -0.030439265 -0.20934567 -0.056814585 0.067396924 -0.5255422 0.115996644 -0.18958835 0.11508704 -0.07011701 -0.13922249 -0.22455195 -0.20980965 -0.25501114 -0.027885858 -0.013108383 0.05535984 -0.066321254 -0.207561 0.047034148 0.0076696384 0.022935105 -0.23654246 0.26852053 0.13491786 0.065187 0.0012233484 0.13072352 0.024292206 0.029709892 0.030408949 0.103285566 0.030408949 0.046137713 0.034078993 0.03949668 0.023942677 0.016078295 0.0900035 0.002621461 0.011359665 0.021495981 0.026564138 0.004194338 0.036700454 0.015379238 0.007864383 0.0061167423 0.025166025 1.7476406E-4 0.002970989 0.0024466969 5.2429223E-4 1.7476406E-4 0.012583013 0.010660608 0.0022719328 0.0012233484 5.2429223E-4 0.007864383 5.2429223E-4 1.7476406E-4 5.2429223E-4 0.0 0.0 0.0 0.0
minister -0.7916497 0.37444556 -0.060267217 -0.32375044 0.11118316 0.097388096 -0.7878456 0.12211908 0.15262707 1.0648087 0.09006125 -0.22353114 -0.06735507 -1.1274664 0.26236102 -0.6018085 -0.27273962 -0.47743097 0.7973728 0.20229226 -0.25353345 0.84640485 -0.08715092 0.5114005 -0.09886223 0.09342799 -0.19240373 -0.21948503 0.611409 -1.0451051 -0.23176745 0.18313152 0.214463 -0.15664369 -0.33855924 0.027386913 0.21959114 -0.9147456 -0.17739958 0.24152228 1.0129445 -0.37895945 0.37978804 -0.25459847 0.011012535 -0.7742128 -1.2015545 -0.42025903 0.15022583 0.020890174 0.105678774 0.15100633 0.001111808 0.088003874 0.02303438 0.01884372 0.053338274 0.10354068 0.02072524 0.017532356 0.0194994 0.084383376 0.011802269 0.011488683 0.14182678 4.5612635E-4 0.007839671 0.02086778 0.020753749 0.0023376476 0.008694909 0.0075831003 0.008010719 0.0064142765 0.018758196 4.8463425E-4 0.003050345 0.0010547922 3.1358688E-4 2.8507898E-4 0.0277952 0.0032213924 0.0075831003 5.9866585E-4 5.7015794E-5 0.0012258396 2.8507897E-5 1.1403159E-4 6.2717375E-4 2.8507897E-5 0.0 0.0 0.0
planet 0.19592515 -0.063832246 0.15812564 0.16617699 0.03877115 -0.044651523 0.023581028 -0.20490582 -0.20120712 0.31642565 0.12232665 0.18766554 -0.35877094 0.17227058 0.056781292 -0.362328 -0.19773808 0.06567799 -0.13680747 -0.19736074 -0.079799525 0.040285416 -0.0317304 -0.1216656 -0.056379966 0.11069474 -0.055465136 0.3164909 -0.10344483 -0.21028063 -0.029125944 -0.364665 0.0049019745 -0.02978421 -0.059607618 -0.23184891 -0.28383514 -0.11302213 -0.17433698 0.079645894 -0.09953261 0.0036330095 0.16060358 0.2023319 -0.3643893 0.04327383 0.08408971 -0.09202875 -0.15720676 0.008903305 0.1647261 0.02214163 3.8175224E-4 0.13685818 0.028249666 0.03607559 0.015842719 0.10841764 0.046955526 0.025386523 0.037793472 0.040656615 0.018896736 0.023286887 0.066234015 0.009925558 0.014506585 0.019851116 0.04523764 0.004771903 0.017560603 0.011643443 0.011070815 0.0057262834 0.026340906 1.9087612E-4 0.0038175224 0.005153655 5.7262834E-4 0.0034357703 0.018133232 0.015651843 0.0034357703 0.0026722657 9.543806E-4 0.006680664 0.0 5.7262834E-4 1.9087612E-4 0.0 0.0 0.0 0.0
article 0.57885236 -0.16760753 -0.26622397 0.15224965 -0.38677973 0.501838 0.37508845 -0.95811594 0.11043627 -0.30428267 0.49628046 0.48428783 0.12767975 -0.8368371 0.42563605 -0.6844005 0.087724045 -0.48167652 -0.6306785 -0.3384194 0.3191554 -0.086266294 0.15262875 0.3590913 0.03541409 -0.18999888 -0.6914646 0.6976313 0.011614008 -0.24859542 -0.32115394 -0.47452754 -0.10422738 0.30840206 -0.5053606 0.121942155 0.015587374 0.025623564 -0.44382647 0.101734765 0.28242052 -0.6771175 -0.23274913 -0.06623821 -0.7837461 -0.25905028 -0.10593459 -0.84174234 0.45687458 -0.3728451 0.19061932 0.059490263 0.0016281545 0.19825913 0.0120859165 0.03688396 0.09167763 0.116037324 0.0150917405 0.012336402 0.014027177 0.023670861 0.016594652 0.011021354 0.03062183 3.1310663E-4 0.003068445 0.053541236 0.01603106 0.0017533972 0.00895485 0.009017471 0.029056296 0.0033815517 0.017847078 3.7572798E-4 0.0021291252 0.0014402906 0.0010645626 2.5048532E-4 0.0059490264 0.010457762 0.0015029119 2.5048532E-4 3.1310663E-4 0.0028179598 6.262133E-5 1.8786399E-4 6.262133E-5 1.2524266E-4 0.0 0.0 0.0
anxiety 0.20188582 -0.018732443 0.1090576 0.12267967 -0.028920973 0.007000722 -0.064593405 -0.052954335 -0.028297717 -0.07997126 0.08316352 0.22085118 -0.18916728 -0.022606576 -0.15174942 -0.083968915 -0.078686096 0.24138303 0.10937274 -0.23017016 -0.055227086 -0.0027993976 0.024833847 0.039899655 0.123774156 -0.014627461 0.29404986 -0.020048643 -0.09904653 0.08750169 -0.19413121 0.010480474 -0.14794344 -0.03415767 0.059075136 0.2846675 0.11071157 0.17046349 -0.12921403 -0.12315658 0.13420112 0.04629265 -0.21323945 0.08875296 -0.10579386 0.030101081 -0.18537413 -0.19425435 -0.115445726 -0.08977327 0.08167841 0.026265215 0.0016015375 0.13324791 0.065022424 0.033311978 0.028507367 0.15663037 0.05253043 0.02178091 0.032351058 0.060858425 0.018577835 0.030108904 0.076553494 9.609225E-4 0.010890455 0.024023062 0.028507367 0.0041639972 0.012171685 0.0035233824 0.0083279945 0.01024984 0.029788597 9.609225E-4 0.0022421526 0.0054452275 0.0022421526 6.40615E-4 0.007367072 0.017616913 0.0035233824 0.001921845 6.40615E-4 0.00512492 0.0 0.0 0.0 6.40615E-4 0.0 0.0 0.0
month 0.9938379 -0.27211544 -0.4335671 0.41487128 -0.08488047 0.25737858 0.51072866 -0.092220865 0.16916691 0.05025462 0.21601783 0.8472102 0.5460347 -0.5249671 0.2131024 -0.14261818 -0.026217442 -0.4076381 -0.11816158 -0.5380929 0.08128134 -0.4634072 0.15610223 0.47524068 0.2321512 -0.526815 -1.0352234 0.16460624 0.13520062 -0.087764 -0.16966638 0.2793193 -0.3706327 0.077046946 -0.17353183 -0.007466677 0.0053337687 -0.12711097 0.07229417 -0.1612635 -0.30206877 -0.22012168 -0.18578817 0.778983 -0.43622997 0.078221075 0.44851434 -0.40159893 -0.41620532 0.17725343 0.1313324 0.083319426 0.0027415548 0.1273035 0.017784348 0.026402365 0.05042077 0.10861325 0.039251912 0.020585502 0.019310081 0.049371827 0.014768637 0.016342051 0.11106873 0.0024793192 0.007211481 0.02306482 0.03457935 0.003516342 0.008320023 0.03275562 0.005959902 0.003575941 0.010823182 4.2911293E-4 0.0030991489 0.0039812145 4.4103272E-4 2.0263666E-4 0.011311893 0.0048275203 0.0020859656 0.01155029 1.5495745E-4 0.004314969 0.006424774 1.19198034E-4 1.3111783E-4 1.1919804E-5 0.0 1.1919804E-5 0.0
carnivore 0.005483435 0.017740542 0.018488888 0.005147551 0.019013094 0.010058581 0.005342034 0.005571998 -0.013096829 0.006597213 -0.012861135 0.0052955803 0.0016830256 0.012884596 -0.007467793 -0.0036721989 0.008519846 0.009248336 -0.009813644 -0.004870367 0.013334071 0.008259097 -0.009769077 -0.0022210858 -0.0030446462 0.001408358 0.0050635235 -0.0026273704 0.010731879 -0.0028158508 0.011268375 -0.0063051917 -0.0013917384 -0.004472635 0.0032959462 0.008129108 -0.0050907247 -0.0112912385 0.008578165 -0.0072327964 -0.004022981 -0.005684491 0.0035890457 -0.0042781886 0.0063383863 -0.0073550204 0.0010843781 0.0037148143 0.0020466985 0.0017391042 0.11904762 0.023809524 0.0 0.11904762 0.023809524 0.0 0.04761905 0.071428575 0.071428575 0.04761905 0.04761905 0.023809524 0.04761905 0.023809524 0.11904762 0.0 0.0 0.023809524 0.023809524 0.0 0.0 0.0 0.023809524 0.0 0.0952381 0.0 0.023809524 0.0 0.0 0.0 0.0 0.0 0.023809524 0.0 0.0 0.0 0.0 0.0 0.0 0.0 0.0 0.0 0.0
party 0.0055939583 -0.062055722 0.027170056 0.0018923412 -0.20115538 0.39311272 0.293279 0.3254036 -0.12969962 0.42067716 0.11876775 -0.09730442 -0.04237997 -0.19432363 0.034121 -0.60333824 -0.5619384 0.32620132 0.16663031 -0.010077138 0.0142911095 -0.05551915 -0.12020501 0.14590661 -0.028913524 -0.18288335 -0.02623795 0.16364983 -0.15827604 -0.22929467 -0.16414852 -0.10226921 -0.01079316 -0.15792236 0.13375947 0.03921633 -0.30251393 -0.25716767 -0.04580224 -0.070553385 -0.3860388 -0.3639906 0.046829037 -0.003658612 0.0072181257 -0.15030967 -0.14505827 0.15649348 0.123947605 -0.04474368 0.12991524 0.08199597 0.0021015701 0.123037376 0.02471516 0.0265041 0.039044045 0.11537793 0.043994024 0.028171461 0.031905655 0.0443935 0.017107822 0.022596221 0.07728915 0.0030568293 0.010525219 0.023482006 0.026104627 0.0033694594 0.023238849 0.010664166 0.008232597 0.005297346 0.02280464 2.2578852E-4 0.0037862998 0.0017542031 6.599972E-4 6.599972E-4 0.024419896 0.0102473255 0.004046825 0.0011810476 3.8210367E-4 0.006391552 2.952619E-4 1.9105183E-4 7.815757E-4 5.2105042E-5 0.0 0.0 0.0
production -0.1015816 -0.01662992 -0.034817394 -0.12567839 0.048471656 0.040429983 0.17065202 -0.20238368 0.038396828 -0.062330738 -0.104029566 0.14277525 -0.17182307 -0.10602754 -0.3596371 0.17998673 0.07353204 0.17961493 -0.117375396 -0.07163893 0.027426595 0.06847738 0.11676798 -0.0106866285 -0.030102836 0.37589067 0.14815463 0.029952303 -0.099495694 -0.11550417 0.030955134 -0.053603027 -0.13211472 0.001389329 0.041948494 -0.026759425 -0.3944659 0.0031056975 0.12105078 0.1330934 -0.08914653 -0.008757756 -0.06226912 0.17498954 0.09799256 0.16373004 -0.039091647 -0.1322922 -0.16644977 0.35268205 0.0830197 0.07564017 0.0017710871 0.14301528 0.03649177 0.025016604 0.03025607 0.13998967 0.05940521 0.029075345 0.034056526 0.045568593 0.009519593 0.020330602 0.0830935 0.00188178 0.011032396 0.02619733 0.02586525 0.0022507564 0.012803483 0.024389343 0.0094089 0.005202568 0.024795217 5.534647E-4 0.0047597964 0.004907387 6.2725996E-4 3.6897647E-4 0.010774112 0.008301971 8.4864587E-4 0.0013283152 1.4759059E-4 0.0056084422 0.0010331341 1.8448824E-4 4.796694E-4 0.0 0.0 0.0 0.0
importance -0.20472443 6.9942814E-4 0.032424334 -0.0128439395 -0.08281904 0.016761597 -0.16047025 -0.12309915 -0.26173696 0.11070779 0.34438568 0.0975379 -0.19689597 -0.21464494 -0.40824634 -0.2931415 -0.123517014 0.28920183 -0.020363543 -0.27059925 0.07839525 -0.09543354 -0.062118262 0.22580849 0.57845753 0.37711576 0.1706275 0.03876291 0.124971196 0.017048093 -0.55876917 -0.21855131 -0.17965908 0.06882229 0.15226597 -0.027041452 -0.43515334 -0.28898025 -0.23148224 0.3050259 -0.029970028 -0.08795503 0.320115 0.117277056 -0.3390548 -0.1663883 -0.17236687 -0.06434404 0.097267695 0.101568475 0.14719452 0.051346928 0.0028278017 0.17204942 0.030956987 0.022027086 0.030510493 0.12204197 0.044203006 0.03125465 0.02485489 0.035421938 0.015627325 0.03676142 0.08662003 5.953267E-4 0.0075904154 0.018008633 0.0178598 0.001339485 0.015478494 0.0034231285 0.011013543 0.0040184553 0.028724512 0.0 0.00267897 0.0029766334 5.953267E-4 2.9766336E-4 0.011460039 0.013692514 0.0016371484 0.0010418217 1.4883168E-4 0.0032742969 0.0 0.0 4.4649502E-4 0.0 0.0 0.0 0.0
inmate 0.22123638 0.09723072 0.17368191 -0.0870944 0.096180975 -0.014495695 -0.019356675 0.023724647 0.034184072 0.15894067 -0.101370364 -0.07474266 -0.14272337 0.005990008 -0.017881611 -0.19970499 -0.17407013 0.010857783 -0.0820321 -0.030715218 -0.11750073 0.041604124 -0.050327446 0.021481669 -0.17151509 -0.12916599 -0.28318352 -0.028522968 0.007371399 0.052410804 0.046550337 0.025565246 -0.13949409 0.1146727 -0.020923711 0.07024091 0.030909952 -0.22989129 -0.20515254 -0.14483069 -0.06896048 -0.08211549 0.06552351 0.03967191 -0.107695475 -0.06012221 0.04568897 -0.009654482 0.032563843 0.1433548 0.15255658 0.08214585 8.38223E-4 0.13076279 0.02514669 0.023470243 0.054484494 0.15926236 0.025984911 0.027661357 0.02263202 0.036881812 0.010896899 0.021793798 0.060352053 0.002514669 0.002514669 0.03352892 0.023470243 0.005867561 0.005867561 0.021793798 0.005867561 0.0075440067 0.015088013 0.0 0.001676446 0.0 0.0 0.0 0.011735122 0.006705784 0.01424979 0.0 0.0 0.002514669 0.003352892 0.0 8.38223E-4 0.0 0.0 0.0 0.0
psychology 0.01711901 0.10516375 0.12804839 0.07657691 -0.039250746 -0.08702986 0.009884493 -0.1335272 0.029622793 -0.071312666 0.09171028 0.040114965 -0.18318985 -0.08077943 -0.099073105 -0.070133686 -0.10980656 0.17362846 -0.1373238 -0.0429104 -0.03597435 -0.20033821 0.07867857 -0.10777515 0.078688145 0.17115977 0.13957725 -0.109982304 0.048822287 -0.03999026 -0.1478275 -0.041419007 -0.083003655 -0.0027987123 0.24044558 0.073796794 0.060062993 0.023248835 -0.05860457 0.10901645 -0.042699575 -0.17137814 -0.11859003 0.2556435 -0.17165658 0.037867792 -0.13946876 -0.10140584 -0.026073169 0.1505899 0.097418815 0.10574521 0.0016652789 0.16319734 0.041631974 0.024146544 0.012489592 0.15487094 0.037468776 0.016652789 0.014154871 0.07577019 0.01582015 0.010824313 0.069109075 0.0 0.0024979184 0.017485429 0.024979183 0.0033305578 0.0074937553 0.0016652789 0.0066611157 0.009159034 0.039966695 0.0 0.0033305578 0.0033305578 0.0033305578 0.0 0.0041631972 0.017485429 0.0074937553 0.0 0.0 0.005828476 0.0 0.0 0.0 8.3263946E-4 0.0 0.0 0.0
medal 0.20146109 0.2752268 -0.26036438 -0.12867148 0.17895623 0.19491385 0.1956919 0.4198379 -0.09669016 0.19286633 -0.07562868 -0.31455913 -0.11890762 -0.051952813 -0.03589003 -0.3314224 -0.43496865 -0.04340833 -0.042462647 0.0064988765 -0.18303607 -0.39399847 0.34556046 0.31231117 -0.059247166 -0.013762732 -0.16781116 -0.08245276 0.0117989695 -0.035366762 0.18080921 -0.15703224 -0.14920145 0.113500714 0.21939763 -0.26190552 -0.18437059 -0.38098368 0.20626944 0.099313945 0.11673725 -0.24368207 0.2481517 -0.2967725 0.15416868 -0.019445447 0.11991479 0.06620917 -0.23288032 0.24288423 0.13754717 0.10113207 0.010943396 0.12603773 0.023207547 0.019433962 0.043396227 0.13924529 0.030377358 0.021886792 0.026415095 0.032075472 0.018113207 0.019245284 0.08716981 0.0035849058 0.0067924527 0.019245284 0.02264151 0.0016981132 0.026792454 0.018867925 0.0056603774 0.0056603774 0.016603773 1.8867925E-4 0.003773585 5.660377E-4 5.660377E-4 5.660377E-4 0.017735848 0.0071698115 0.0032075471 1.8867925E-4 3.773585E-4 0.0016981132 0.0 0.0 1.8867925E-4 0.0 0.0 0.0 0.0
company -0.23321792 0.035773497 0.08695849 -0.12473691 -0.024156982 -0.014810776 -0.04580029 -0.46076244 0.12381361 0.5110346 0.11672702 0.32041734 -0.29057735 -0.15242276 -0.15659946 -0.013720291 -0.33263564 0.045893375 -0.21884531 -0.010163773 0.11113808 -0.0940168 -0.008632645 0.14083582 -0.34513047 -0.07472567 -0.31341013 0.4306769 -0.22920069 -0.3022967 -0.111446686 -0.18623565 0.061226014 0.41113862 0.03693587 0.22132058 -0.2638989 -0.09070717 0.250518 -0.056036457 -0.34166232 0.083478816 0.63742834 0.078714095 -0.26977843 0.03626736 -0.19026116 -0.08946548 -0.08688524 0.18575215 0.14872943 0.07765847 0.0022562211 0.10252631 0.021475272 0.024826666 0.050707333 0.12559906 0.04150129 0.025197214 0.029940218 0.056537278 0.013109138 0.020684771 0.06366002 0.0030220188 0.010712933 0.026835855 0.021014147 0.0024209088 0.013306764 0.01784391 0.007987352 0.0038536915 0.034477364 6.0111E-4 0.0032690503 0.0026102995 3.2114095E-4 5.352349E-4 0.023986759 0.0065298663 0.0021574085 9.304853E-4 2.2232835E-4 0.008983713 0.0030631907 7.410945E-5 7.657977E-4 3.2937533E-5 0.0 2.4703151E-5 8.234383E-6
live 0.3315466 0.03553988 -0.09920787 0.37716588 0.11112889 0.10358728 0.064314134 -0.458472 0.079156935 -0.44706866 0.046834193 -0.29386207 -0.10382772 0.04307484 -0.22698839 -0.008897923 -0.06786566 0.27492726 -0.40226546 -0.06792538 -0.08795738 -0.18152581 0.018861398 -0.065677404 0.2704694 -0.036848217 0.15356643 0.14557418 -0.03549083 -0.30875784 0.05347152 -0.17349617 0.24741083 -0.009936203 0.30598173 -0.04092849 0.287343 0.020717002 0.02889202 0.09862349 -0.041202947 -0.09448291 0.041613188 -0.07875535 -0.042726263 0.26223564 -0.113379136 0.26797447 8.175075E-4 0.032416012 0.08362554 0.053805582 0.0040958244 0.13569261 0.03621416 0.045908596 0.0193594 0.12626337 0.06585732 0.046969384 0.030320888 0.04523087 0.043816485 0.013230397 0.05268586 0.0022099772 0.019978195 0.017002093 0.02699119 0.009694434 0.015499308 0.019889796 0.01134455 0.006954062 0.013613461 0.0012375873 0.0048030172 0.004361022 5.3039455E-4 5.598609E-4 0.0053923447 0.017119957 0.010725756 0.0021510446 5.598609E-4 0.004832484 5.009282E-4 4.4199545E-4 2.0626455E-4 2.9466365E-4 2.9466364E-5 0.0 0.0
holy -0.16147107 -0.15334226 0.22328126 -0.0033184143 -0.08434257 -0.030424139 -0.12730473 -0.03425415 -0.20267011 0.0054757665 0.17184801 -0.22699142 -0.17626505 -0.06724486 0.13322186 -0.20285487 -0.04210215 -0.09524383 -0.038098585 0.033722196 0.17170691 -0.20683359 -0.17091547 -0.15687968 -0.001500687 0.36310273 0.14456105 -0.1349792 -0.08630806 0.12178139 0.06689635 -0.036307734 0.14068246 0.10265369 0.23819362 -0.12091335 -0.009774341 -0.105843015 -0.093159735 -0.17963591 0.24237977 0.036551487 0.063058004 -0.210325 0.10575077 0.016542729 -0.18570901 0.045733005 -0.014265191 0.12849788 0.13165498 0.09244738 0.005777961 0.14733802 0.028889807 0.018572018 0.02434998 0.17210071 0.04952538 0.025588114 0.020222865 0.047049113 0.0066033844 0.018572018 0.06727198 8.2542305E-4 0.004127115 0.014032192 0.028064383 8.2542305E-4 0.007841519 0.0037144036 0.020222865 0.008666942 0.021460999 4.1271152E-4 0.0033016922 0.0 8.2542305E-4 0.0016508461 0.008666942 0.009905077 0.0024762691 0.0 0.0 0.0066033844 0.0 4.1271152E-4 0.0 0.0 0.0 0.0 0.0
ticket 0.08327484 0.07405803 0.106764026 -0.04118702 0.15697187 -0.098305516 0.309804 0.015811767 0.15434559 0.1811111 -0.035550803 0.062764265 -0.07421709 -0.11497638 -0.2190458 -0.01463177 -0.08881313 0.0642129 -0.04809564 -0.22533974 -0.30102125 0.008152747 0.12831073 -0.22503175 -0.096745886 -0.1645924 -0.18845187 -0.05489183 -0.09892118 -0.11943934 0.27727544 -0.096615545 -0.14912932 0.095917605 0.14321874 -0.0413472 -0.25606012 -0.15803473 0.044547927 -0.12669198 -0.26292592 0.107536286 0.104311936 -0.1117291 -0.16759673 0.07635957 0.07905607 -0.090187155 -0.3142727 -0.05897289 0.122969255 0.05748563 0.0019995002 0.122969255 0.028617846 0.029992502 0.034991253 0.12409398 0.066858284 0.029492626 0.033616595 0.039490126 0.021494627 0.019995002 0.07110722 0.0017495626 0.010372407 0.020744814 0.03511622 0.0034991251 0.015371157 0.026743313 0.008622845 0.005623594 0.017870532 2.4993753E-4 0.0024993753 0.0044988752 7.498125E-4 4.9987505E-4 0.007248188 0.014621344 0.0028742815 0.0013746563 2.4993753E-4 0.0042489376 0.009247688 1.2496876E-4 0.0 4.9987505E-4 0.0 1.2496876E-4 0.0
victory 0.13660276 0.37404102 0.1519682 0.072566934 -0.2596664 0.56903553 0.1701837 0.13731904 -0.06208292 0.080454715 -0.11953384 -0.22324269 0.14672866 -0.19291198 0.012397198 -0.43618467 -0.47491902 -0.21102288 -0.007291277 -0.50784564 -0.017191783 0.41694498 0.47990286 0.09335644 -0.11593273 -0.26714882 -0.2526988 -0.33017367 0.15822527 -0.288811 0.09085263 -0.22782405 -0.130643 0.13362235 0.25255874 -0.036494955 -0.06178613 -0.44968107 -0.059548274 -0.09123695 0.12696326 -0.45598635 -0.028946044 -0.15189353 0.10546303 0.03873768 0.119050875 0.21263614 -0.47147524 -0.018250126 0.12889072 0.14816947 0.015905663 0.1600713 0.0151652265 0.017743042 0.037597697 0.08539695 0.021527492 0.027889756 0.02166461 0.029617442 0.011188812 0.01604278 0.10717126 0.0011517893 0.00693816 0.011353352 0.031345125 0.0023035787 0.024160154 0.021938846 0.0051830523 0.0034827918 0.009817634 2.1938846E-4 0.0044426164 8.7755383E-4 1.6454134E-4 3.5650624E-4 0.021801727 0.0035102153 0.0017551077 8.2270673E-4 3.290827E-4 0.0034827918 1.6454134E-4 1.0969423E-4 1.919649E-4 5.4847114E-5 0.0 0.0 0.0
football -0.089277275 0.3897573 0.14912665 0.15302831 -0.104467265 -0.037283808 -0.087515995 0.08434529 -0.10061592 -0.11842761 -0.09800622 -0.28877303 -0.05540053 0.04954232 0.18304318 -0.040934645 -0.47839367 0.0044868155 0.23451523 0.14956617 0.13903126 -0.31750223 0.3872264 0.11881924 0.09199169 -0.103913404 0.039201993 -0.13636741 0.14761032 -0.07010116 0.2922202 0.07136056 -0.25822738 0.052220505 0.3209662 -0.42885008 0.096950695 0.2000535 0.110984564 0.21703763 0.30427027 -0.054881535 0.06648742 -0.07569283 0.15933038 0.13998045 -0.06127483 -0.09157948 -0.20788333 0.21883646 0.09380504 0.07795504 0.0023308815 0.12887186 0.033046722 0.028488552 0.026727442 0.15767118 0.05081322 0.022324666 0.027659794 0.045322698 0.021703098 0.02284264 0.077592455 0.0042991815 0.0075624157 0.020252772 0.030560447 0.004091992 0.012690355 0.011965192 0.0078214025 0.0064228736 0.02854035 5.179737E-4 0.00295245 0.0024862736 0.0010877447 0.0014503263 0.015124831 0.014917642 0.0040401947 0.0014503263 2.5898684E-4 0.0034704236 2.0718947E-4 3.6258157E-4 2.5898684E-4 5.1797368E-5 0.0 0.0 0.0
rook 0.017162876 8.058076E-4 -0.0021938756 0.03218867 0.012531267 5.873878E-4 -0.019525683 -0.0068549477 -0.0014300393 0.0062522204 -0.008490519 -0.007157675 0.03607024 0.01837207 -0.023752365 -0.01857289 -0.009160263 9.23153E-5 0.0046404214 0.008093868 -0.0044935727 -0.004457083 -0.0041340124 -0.0019025399 0.024931146 2.0772258E-4 -0.03422493 -1.7591986E-4 0.005115843 -0.0115037095 0.008533187 -0.01335767 -0.018968616 5.676183E-4 0.0064310865 0.0078214845 0.008039913 -0.01770446 -0.0015754419 -0.027063912 -0.012428933 -0.0045309453 7.3324307E-4 0.013389577 -0.012820328 0.012661213 0.005290034 0.004932189 0.0126903355 -0.0103087295 0.23529412 0.11764706 0.0 0.1764706 0.0 0.0 0.0 0.05882353 0.0 0.0 0.0 0.05882353 0.11764706 0.0 0.0 0.0 0.0 0.0 0.0 0.0 0.0 0.0 0.0 0.05882353 0.11764706 0.0 0.0 0.0 0.0 0.0 0.0 0.05882353 0.0 0.0 0.0 0.0 0.0 0.0 0.0 0.0 0.0 0.0 0.0
stroke 0.46062866 0.08730712 0.49511212 0.06526861 -0.019597331 0.024094343 0.034519017 0.051859867 -0.12149921 -0.086872384 -0.076947115 0.07953538 -0.20575258 0.014280096 -0.18093817 0.06438022 -0.014597678 -0.030605352 -0.1434102 -0.2507103 -0.09308693 0.1802308 0.20198393 0.11007927 -0.043012083 -0.09840322 -0.24947615 -0.14194703 0.009535702 0.18456832 0.0605788 -0.05534838 -0.30988574 -0.0650211 0.03506848 0.09865514 0.07152188 0.043973915 -0.17565249 -0.03612387 -0.008695476 -0.05715927 -0.12294226 0.18761751 0.02073659 -0.11858131 0.008458292 -0.31190708 -0.16513646 0.06858788 0.11926221 0.053657513 4.1919932E-4 0.14462377 0.041291133 0.034583945 0.049046323 0.14755817 0.035422344 0.018235171 0.026409557 0.057639908 0.01949277 0.022217564 0.064347096 0.0016767973 0.0092223855 0.02536156 0.034164745 0.003143995 0.012995179 0.025990358 0.00628799 0.0050303917 0.013204779 2.0959966E-4 0.0035631943 0.0033535946 4.1919932E-4 2.0959966E-4 0.0052399915 0.006707189 0.0025151959 8.3839864E-4 0.0 0.005449591 0.0 0.0 0.0 2.0959966E-4 0.0 0.0 0.0
environment 0.2800894 -0.060820438 0.14661859 -0.12987418 0.28886637 -0.04366024 -0.10086386 -0.559953 -0.15711197 0.041299276 0.021393457 0.30539352 -0.022470802 0.093638934 -0.05733504 -0.23331137 -0.32963774 0.26270524 -0.084545985 -0.09187064 -0.28376815 -0.06787343 -0.19094227 0.12857914 -0.045300476 0.17453219 0.06493558 0.19043079 0.089584954 -0.17762922 -0.19945125 0.0132773 -0.14152567 0.019097479 0.28032765 0.17130072 -0.444642 0.14367433 0.27684554 -0.21772504 -0.050985616 -0.13836314 0.08651525 0.16506933 -0.1471111 0.028866861 -0.25342456 -0.02198453 -0.2799994 0.10822931 0.14310203 0.036371768 0.0012670492 0.11537602 0.043452337 0.027576955 0.021837967 0.12424536 0.042110756 0.025266454 0.033390474 0.060818363 0.019005738 0.022732355 0.104047105 0.0017887754 0.010732653 0.018111352 0.034657523 0.0046955356 0.011999702 0.0037266156 0.016993366 0.0068569724 0.02452113 4.4719386E-4 0.0020869046 0.0042483415 5.2172615E-4 3.7266154E-4 0.007900425 0.015055527 0.0018633078 0.0037266156 1.4906462E-4 0.008198554 7.453231E-5 5.2172615E-4 7.453231E-5 7.453231E-5 0.0 0.0 0.0
coffee 0.054668713 -0.15236634 0.33786345 0.026895737 0.012522171 -0.19319832 -0.055381197 -0.081384234 -0.08849109 0.16884874 -0.0012712488 0.06581666 -0.18647856 0.019074181 -0.021649534 -0.01964565 -0.038777787 0.13959143 -0.3110475 -0.08470044 -0.21351972 0.18258053 0.17333 -0.044883866 0.014306563 0.14163743 0.19490194 -0.088819474 0.10871235 0.16935624 0.12060722 -0.03236461 -0.086410716 -0.18581627 0.06945259 -0.1384723 0.18323992 -0.13175333 0.08921432 0.08246452 0.030422516 -0.11250168 -0.024841078 0.10054879 -0.018024972 0.35401177 0.19358842 -0.08830713 -0.16086216 0.25941512 0.09208843 0.04439978 0.0020098665 0.12643889 0.0579207 0.02631098 0.02631098 0.15750046 0.07345149 0.014434497 0.027772702 0.060661428 0.021377672 0.022108532 0.07198977 0.002375297 0.007491321 0.01918509 0.03160972 0.0043851635 0.017906085 0.011511054 0.01242463 0.007856751 0.020829527 7.308606E-4 0.004750594 0.0027407273 0.001279006 3.654303E-4 0.006212315 0.014434497 0.002558012 0.0010962909 1.8271514E-4 0.003654303 0.0010962909 0.0 1.8271514E-4 3.654303E-4 0.0 0.0 0.0
baby 0.076120876 0.044127733 0.32372758 0.021031873 0.19444811 0.1128927 -0.09053693 -0.06448087 0.016880536 0.084945224 -0.025383156 -0.15536422 -0.46619436 -0.04083176 -0.17683806 0.07171696 -0.07087749 -0.049388226 -0.65004766 -0.13431801 -0.16104843 -0.19373807 -0.116028026 0.25607976 -0.25176504 -0.046094164 -0.04368296 -0.011661632 -0.29045665 0.18221252 -0.01621883 -0.24031013 -0.14807592 -0.03228088 0.033950772 0.14310643 0.27001157 -0.17760578 -0.36143622 0.022692671 -0.13432594 0.048373047 0.10593946 0.19576076 -0.046286177 0.200984 0.061524484 -0.11243842 0.029588977 -0.15543994 0.12625419 0.041304346 6.688963E-4 0.10610368 0.033779263 0.029598663 0.05033445 0.13486622 0.046237458 0.024916388 0.02951505 0.050167225 0.027424749 0.028762542 0.05978261 0.0013377926 0.008528428 0.02993311 0.031103678 0.0053511704 0.031688962 0.0122909695 0.0122909695 0.0067725754 0.022993311 4.180602E-4 0.0037625418 0.0013377926 6.688963E-4 8.361204E-5 0.01270903 0.014297659 0.0070234113 6.688963E-4 4.180602E-4 0.00409699 5.8528426E-4 5.016722E-4 0.0010033444 4.180602E-4 0.0 0.0 0.0
personnel 0.0935154 -0.07891685 0.03400629 -0.24887294 -0.06683254 -0.036046356 -0.068301596 -0.34159207 -0.09263363 -0.12769175 0.19753587 -0.021756522 -0.10527122 -0.11061548 -0.100565314 -0.0244822 -0.04870194 6.593525E-4 0.20060211 -0.085055284 -0.09558404 -0.42158723 0.17862186 -0.12769517 -0.0988515 0.05882019 0.17262547 -0.12067772 0.35249662 0.47403717 -0.2299557 0.40004963 7.619824E-4 -0.008750295 -0.110527694 0.13975988 0.12630925 -0.13109612 -0.093964726 -0.16894166 0.17535912 0.21555652 -0.11971134 0.17240636 0.11509329 -0.28685775 -0.4971005 -0.0028491262 -0.09081304 0.20758577 0.07540984 0.06478689 0.0015737705 0.12340984 0.051540982 0.026098361 0.037114754 0.1327213 0.06832787 0.030688524 0.031081967 0.044065572 0.010491803 0.027540984 0.10203279 0.0018360656 0.010622951 0.03672131 0.023868853 0.002885246 0.009311476 0.026622951 0.006295082 0.0044590165 0.008918033 1.3114754E-4 0.0022295082 0.004196721 2.6229507E-4 6.557377E-4 0.004327869 0.020065574 0.004852459 6.557377E-4 6.557377E-4 0.002885246 2.6229507E-4 1.3114754E-4 2.6229507E-4 0.0 0.0 0.0 0.0
family 0.015534119 -0.056131937 0.27452776 0.13360879 0.01226012 0.07657274 -0.13511856 -0.096502796 0.22209477 0.35532737 0.18955624 -0.15422446 -0.27884823 -0.040194366 -0.1869927 -0.2165945 -0.34258232 0.16037212 -0.3827523 -0.12777147 -0.1294682 -0.32566482 -0.28513685 0.23665205 -0.10013381 -0.22860473 -0.22785564 0.25806496 -0.215245 0.063068956 -0.15222467 -0.019573579 0.17947656 0.039981917 0.22766055 0.123684004 0.28625885 0.12722939 -0.0534321 0.048257876 -0.26297557 0.059551705 0.2836643 0.044671334 -0.031640157 -0.10718652 -0.2660694 0.04818483 -0.026173688 0.11022291 0.1061316 0.0663525 0.001336772 0.12194332 0.043505855 0.027262047 0.047867242 0.113922685 0.055347763 0.02811272 0.0275186 0.049271528 0.02236055 0.019389946 0.05460511 0.0013097666 0.0073589976 0.027289053 0.02722154 0.0041048354 0.04550426 0.013124671 0.009721979 0.006062734 0.02196897 3.2406594E-4 0.004064327 0.0019308929 4.3208792E-4 2.9706044E-4 0.017459054 0.013516251 0.0056036403 6.6163467E-4 4.4559067E-4 0.0040508243 0.0012692583 1.8903847E-4 0.0010262089 1.2152473E-4 0.0 1.3502748E-5 0.0
hypertension 0.04077334 -0.05810967 0.12069135 0.11429835 -0.042408526 0.016489789 -0.019590378 -0.072914444 5.9282506E-4 -0.035785507 0.020380946 0.08481863 -0.043327056 -0.041884653 -0.09886538 0.05374696 -0.051877417 0.058388434 0.012209107 -0.08285241 -0.11217116 -0.06876565 -0.0021732578 0.017667828 0.042706676 0.022423334 0.055084113 -0.032974884 0.033994254 -0.008564317 0.027152378 -0.11045796 -0.07497805 -0.039951947 0.14940783 0.06823431 -0.042089365 -0.035210554 0.037131302 0.040230073 -0.017193228 -0.047523625 -0.08736386 0.1110979 0.0066730794 -0.0034922673 -0.12689513 -0.07154467 0.00704414 -0.01405993 0.075630255 0.010504202 0.0021008404 0.12394958 0.069327734 0.027310925 0.037815128 0.19537815 0.05462185 0.018907564 0.027310925 0.10714286 0.010504202 0.016806724 0.084033616 0.0 0.008403362 0.021008404 0.021008404 0.0021008404 0.0021008404 0.006302521 0.014705882 0.0021008404 0.014705882 0.004201681 0.0 0.008403362 0.0 0.004201681 0.0021008404 0.014705882 0.004201681 0.0021008404 0.0 0.004201681 0.0021008404 0.0 0.0 0.0 0.0 0.0 0.0
president -0.07394744 -0.07720184 -0.009586205 -0.29519787 -0.34388867 0.5505403 0.08150165 -0.15504894 -0.23331699 0.19561699 -0.0024489858 0.15862693 0.16916905 -0.34656212 0.083351836 -0.12806675 -0.11558202 0.10525274 0.35040343 -0.029125057 0.15882803 -0.09429837 0.15834977 0.33859265 0.5017502 -0.08231768 -0.076483354 -0.054056764 -0.25912893 -0.51833934 -0.4882415 0.04673216 0.0559086 -0.15173075 0.117112 -0.03970477 -0.29160908 -0.7700471 -0.118447445 0.18257873 -0.28630677 -0.16727528 -0.00724691 0.18264899 -0.16789207 0.048845783 -0.070473775 0.11415714 0.4566945 0.066528656 0.1150351 0.17721762 0.004365029 0.11271219 0.026675176 0.021033823 0.043241862 0.10296107 0.021135928 0.021225272 0.026675176 0.075609446 0.014652202 0.013477983 0.06892151 8.806637E-4 0.0097766435 0.017689854 0.021518826 0.003165284 0.009342693 0.0074792597 0.01252074 0.004964901 0.023241863 4.850032E-4 0.0023229101 0.0010976387 3.0631782E-4 3.7013402E-4 0.024377791 0.006636886 0.0055137207 7.7855773E-4 1.2763242E-4 0.0016464582 1.6592215E-4 1.5315891E-4 4.594767E-4 2.5526484E-5 0.0 1.2763242E-5 0.0
