419 100
president -0.09712073 -0.362196 -0.1285767 0.1523759 0.23513444 0.16348664 -0.095669754 -0.12903276 0.047917727 0.0653486 -0.023546197 -0.048239414 -0.058518846 -0.20156951 0.08102346 -0.3317367 0.3026678 -0.15341718 -0.49733055 -0.029006725 0.09435129 -0.036064833 -0.14468783 0.12398677 0.43457943 0.17789057 0.25866672 -0.13268301 -0.04868232 -0.16731532 0.38068742 0.15082511 -0.25178838 -0.14821425 -0.039775956 0.098616116 -0.03411387 0.124450415 -0.022611922 0.12257465 0.009209054 0.14485894 0.2771161 -0.053744107 0.07891983 -0.1981224 0.20792171 0.36075196 0.30836597 -0.31874752 0.18828781 -0.02897274 -0.15629907 -0.09496386 0.17234574 -0.03547235 0.22523232 0.13998236 0.6107181 -0.02241285 0.2687104 -0.2736718 0.40774217 -0.22064614 -0.012978041 -0.006770619 -0.008293038 -0.19027631 0.20820059 0.025838168 -0.41715932 -0.19748393 0.021149624 0.09602859 0.29042926 0.36627662 0.12615539 0.022827778 -0.40207258 0.03799715 -0.07261547 0.11715243 0.06725014 0.4297741 0.23395881 0.17536934 0.15148152 0.1507635 -0.11040307 0.16514246 0.0020142694 0.15149644 0.17066483 -0.4300189 0.40605506 0.2250475 0.19348536 0.43165275 0.18374978 -0.22058697
monk 0.12080857 0.11852812 0.103478156 0.2450428 -0.2298827 0.11999888 0.031379987 0.14053038 0.098699965 -0.0016157448 -0.07385698 -0.0654655 -0.10374411 0.16239005 -0.032954067 -0.0016981352 0.12501356 0.069214255 -0.13616508 0.013359875 -0.13903068 0.09271066 -0.16414674 -0.03810285 0.27270904 0.05557934 0.13333654 0.0103582395 -0.103015415 0.10531204 0.07501332 0.21616612 -0.072941534 -0.11399815 0.16033012 0.09647898 0.05600966 0.054722477 -0.072761 0.06392738 -0.046517912 0.24405524 0.009335189 0.033407476 0.18407647 -0.23441154 0.2279324 0.0023308676 -0.17196968 0.009833436 -0.05117571 0.0029293199 0.074522294 0.09298134 -0.020678863 0.03998936 -0.11802359 0.21507935 0.15790024 -0.09523275 -0.10781945 -0.17073861 0.15782233 0.09561109 -0.031797796 0.17699884 -0.09786515 -0.036533915 -0.15103877 -0.032866575 0.30076733 -0.03505293 -0.10086346 -0.10687695 0.078843676 0.113899134 -0.22958443 0.042642202 -0.066294774 0.049231704 -0.032639153 -0.029140769 0.25287458 0.016543936 0.17414504 -0.2984844 -0.017397355 0.12525204 -0.03883395 0.04733782 0.015013566 -0.0411652 0.023218216 0.08727713 0.0167729 -0.020206526 0.19469713 0.114117056 -0.1329695 -0.035496835
chance 0.009303493 -0.13560824 0.18154795 0.25343034 0.22190842 -0.06723035 -0.18197343 -0.066211656 -0.007263151 0.28914174 0.19031444 -0.27025768 0.028557003 0.10003825 0.03137549 -0.07145549 0.29268715 0.12099837 -0.52817005 -0.104733765 -0.15136108 0.09913012 -0.009548725 0.3975459 0.4460435 -0.18315454 -0.07532898 0.21021007 0.310916 0.029435022 -0.22290057 -0.30611995 -0.022564504 -0.20825247 0.27233598 -0.017558329 -0.40511325 -0.2802935 0.25774917 0.03239762 -0.03416943 0.24532247 -0.01723151 -0.30491152 0.114384755 -0.048724215 0.22972047 0.2797239 -0.12800647 7.1021164E-4 -0.36815006 -0.20656626 0.10303952 0.0070919427 -0.21826641 -0.4045086 -0.168361 0.24857746 0.062036216 -0.23635855 -0.25825188 -0.0768483 -0.2784577 -0.15094782 0.030052293 -0.034098763 -0.111422785 0.11823231 -0.2390458 -0.064670235 0.09075971 -0.1805393 0.06866837 -0.505763 0.027311727 -0.17596653 0.11590022 0.16774787 0.02102814 0.027802931 -0.27759382 0.2731547 0.19340578 -0.08577698 0.12925549 0.017988773 -0.16784392 -0.21257836 -0.12564571 0.12890954 -0.02766864 0.022350643 0.009765305 -0.10787803 0.05282289 0.39547488 -0.14889029 -0.115023315 -0.17974485 -0.14280781
party 0.24520059 0.08939094 -0.17983751 0.1225221 0.1258606 0.34765163 0.37384287 0.14358218 -0.040919017 -0.09195842 -0.08600012 -0.2698957 0.05793462 -0.26275298 -0.1172316 0.028012523 0.27862462 0.54721206 0.10963709 -0.12791136 0.104843125 0.035009243 -0.30163628 0.33447 0.37070066 -0.07581763 -0.018182285 0.0034486346 0.023933696 -0.18952118 0.011913789 0.37549576 -0.20747556 -0.2654366 0.07908769 0.08132467 -0.024619631 -0.14300576 0.1785111 -0.31167692 0.14773935 0.2176515 0.050476767 -0.10718864 0.2679216 0.21024892 0.17598575 0.25671723 -0.019316928 0.2849491 0.2299888 0.032941468 0.29261696 0.23825195 0.14978033 0.24907234 0.09967445 -0.0035854732 0.10848085 0.08963729 -0.2303991 -0.20685522 -0.22935998 -0.29197052 -0.24426277 -0.05763613 -0.24124008 0.10833394 -0.07344976 -0.06585312 0.08851591 -0.12320264 -0.0681495 -0.46966717 0.12867497 0.002039582 -0.12444173 -0.18220484 -0.16101564 -0.20383774 0.26595193 0.21592122 0.13866962 -0.19267495 0.16157462 -0.12431324 -0.09353941 -0.21060954 0.29965556 -0.094942614 -0.036030866 0.085511275 0.04230218 -0.051852435 0.07091367 0.36781177 -0.08013954 -0.24590157 -0.2574174 0.050833467
fuck 0.0053106616 -0.014509946 7.274639E-4 -0.031604853 -0.033208095 0.031006083 0.03705882 -0.0012774211 0.0035082463 -0.035548307 0.026172645 0.011417354 -0.064798355 0.015083345 0.044874046 -0.0013954834 -0.03362913 -0.06686082 -0.037672333 -0.0059452057 0.0026845972 -0.0345221 -2.6846983E-4 0.019163517 0.01799636 -0.022945838 0.005334299 0.030451752 0.044693362 -0.0073696603 0.028638175 0.049827356 -0.021575019 0.029017886 0.015505566 -0.014126213 -0.038991075 -0.03640709 -0.022743165 0.09344248 -0.01395012 0.047438305 0.008607948 0.00370107 -0.024716934 -0.023263393 -0.005797308 0.018230407 0.030161146 0.031050995 -0.0049808114 0.05355362 1.7773188E-4 -0.0077898754 -0.072033435 0.040796254 0.042852513 0.006696075 -0.0055452758 -0.046745393 -0.07898446 -0.008289372 0.032441296 -0.027426137 0.028354239 0.0017857304 -0.008639003 -0.04890192 -0.04535473 0.0012606432 0.007824996 0.016186476 -0.0031139143 -0.01021587 0.010734218 -0.04869743 -0.028016914 -0.001604756 0.011115362 0.04918608 -0.0047189663 0.09732773 0.058443915 -0.03334853 -0.04183208 0.013187718 -0.011695305 0.0025799111 0.11092598 -0.029104078 -0.039985105 -0.0014502666 -0.035748694 0.0050598416 0.05250451 -0.08150805 0.04532621 -0.042766165 -0.041848645 -0.009505429
psychology -0.0097703645 -0.39218837 0.083616115 0.018665815 0.01346877 -0.12556815 0.076804474 -0.046368986 0.081175245 -0.055819415 -0.30593386 0.15507336 -0.12878177 -0.004189795 -0.1556903 -0.05265715 0.025165638 -0.097668044 0.18319942 0.29283136 -0.1446054 -0.010817015 0.025956608 0.16089743 0.20727617 -0.23739184 -0.14622399 -0.08704742 0.22531486 0.18136778 -0.051246073 0.15105887 0.13233793 -0.19671272 -0.12201553 0.010929238 0.11990803 0.18706457 -0.29273182 0.13099143 0.0767172 -0.10269618 -0.058594014 0.21685675 0.17115259 -0.038436756 -0.12003548 0.24464346 0.07749237 0.079895735 -0.20081075 -0.072930776 -0.24598442 0.14371496 0.03538793 -0.058876216 -0.103184 0.027459253 0.23231378 -0.13726944 0.26846567 0.01480067 -0.113485135 0.16449982 0.36357933 0.44362283 0.0010278096 -0.035840116 -0.27233145 -0.07308105 -0.095191084 -0.21573487 0.06259436 -0.1713247 -0.089174315 -0.08717496 0.012213634 -0.35921875 0.19429591 0.11158681 -0.15564784 -0.05012994 0.18275405 0.13002084 0.26858148 -0.31624576 0.031240739 0.06165022 0.105328925 0.10388799 0.0822302 0.21602763 0.10478442 0.14655711 0.3596915 0.23196284 0.24334617 -0.11873417 0.09516108 0.20017958
government 0.043602455 0.10359007 0.12633584 0.115378655 -0.076256864 0.14471866 -0.008314746 -0.18139315 -0.058738373 0.02273253 0.15011892 -0.2497046 -0.07653758 -0.28638273 -0.10744574 0.24668947 0.32888055 0.25233012 -0.11226391 -0.1202418 -0.20460156 0.08135699 -0.27900574 -0.2611369 0.23067787 0.054290958 0.031610288 -0.32636923 0.35327432 0.014198921 0.37536502 0.08806861 -0.023899117 -0.2220469 -0.28467804 -0.0470544 0.15181984 0.08563953 0.07040066 -0.36245593 0.14669353 0.3734074 -0.028392324 -0.21588965 0.05217319 -0.20314837 0.25607678 0.13807385 0.051698737 0.18001303 0.2762364 -0.076091655 0.23055881 0.09903747 0.121568434 0.19357564 -0.019064022 -0.1985959 0.043180168 -0.10367392 -0.16975346 0.06096813 -0.18188572 -0.14942679 -0.030990655 0.2254095 -0.013174519 -0.055888273 4.287073E-4 -0.12157543 -0.09220078 -0.16779348 -0.049905192 -0.22379957 -0.08130402 0.07902234 -0.013518975 0.25408015 0.046719998 0.07361104 -0.07250751 -0.064827494 0.19115835 0.15317473 0.24411851 -0.102126256 0.2936909 0.118656896 0.115820445 0.03759311 0.2224648 0.26838362 -0.04658954 -0.18553494 0.08639897 -0.031512573 0.2580082 0.12610863 0.21104087 -0.0978919
madhouse -0.010711526 -0.011629619 0.04271854 0.010940545 -0.0064941226 -0.0149275325 -0.018592602 0.01100374 0.028450614 -0.014158672 0.010066849 -0.021783127 -0.024423873 0.01297829 0.033296194 0.017170701 0.090617195 0.014992621 -0.047035407 0.024532551 0.008291813 0.012701201 -0.0394745 0.0089144325 0.084685005 0.016018922 0.024778178 0.016914451 0.010160976 -0.010070244 0.014801467 0.007761808 -0.0068516876 -0.024878798 0.016498055 -0.043792576 -0.07722943 -0.0023238747 0.044596296 -0.024380287 0.03911871 0.015275044 -0.010104363 -0.018344644 0.046633407 -0.03602589 0.07975485 0.07493405 -0.027463736 0.040490992 0.00399638 -0.0016280891 0.03140801 0.021481862 -0.028637927 0.040014975 -0.015760511 0.0758146 0.0047821724 -0.058850214 -0.048087258 -0.10088765 -0.03449084 -0.04300698 0.03571889 0.06724095 -0.05889751 -0.03440003 -0.04592997 -0.017046606 0.04957473 -0.045167286 -0.011832761 -0.027048886 0.043337464 -0.0058043906 -0.05072244 0.010635244 0.011637815 0.047295224 -0.03111798 0.029981274 0.056809314 -0.01932388 0.07678687 1.3397851E-4 -0.028139459 -0.0010322963 0.04838512 0.030971054 -0.011008823 0.0124288965 -0.054494962 0.0063350634 0.013148807 -0.02515074 0.005004569 0.008244981 -0.043595374 -0.017902808
video 0.30153158 -0.15889756 -0.10758461 -0.11021295 -0.02460924 -0.18484576 0.012848364 0.1450991 0.14292325 0.2651262 -0.034819167 0.114643425 0.07676074 0.30749577 -0.18613058 0.012677701 -0.07995462 -0.057224452 -0.23264667 0.031355217 -0.083542846 0.06309548 -0.25024658 -0.12577033 0.2242358 -0.1307098 0.19622557 0.22937049 0.14604864 0.27629575 0.13231215 -0.068157986 -0.15195556 0.30859697 -0.4288672 0.13255106 -0.1863079 0.028650673 -0.22945772 0.07981202 0.0030713866 -0.022462863 0.14553669 0.44109356 0.312867 -0.022007035 0.041250955 0.27030247 0.08481568 0.045022063 0.17091826 0.005385577 0.13883606 -0.077964276 -0.19501898 0.08147905 -0.13948755 0.006639257 0.14593108 -0.024449557 -0.067662515 -0.05035817 -0.097643 0.2412598 0.28212625 0.19232637 0.24575321 0.015517194 0.028253134 -0.39323756 0.33311698 0.24348299 -0.026955796 0.09312633 0.1277731 -0.037989043 -0.070251904 -0.07293454 -0.053896185 0.093859404 -0.39774323 -0.032657992 -0.22101565 -0.030441266 0.18942781 -0.20379654 0.19632131 0.010606919 0.031086039 0.13186117 0.048460204 0.045631755 -0.057306282 0.34438992 -0.2837245 -0.030623255 -0.28010783 -0.28409377 0.011988906 -0.018160736
defeating -0.010370446 -0.1819535 -0.03308652 -0.11132781 -0.03441142 -0.1519689 -0.07529465 0.086225644 -0.17584282 -0.04222733 0.062664546 0.16861759 -0.1692397 0.007599882 -0.17021261 0.05750445 -0.23441517 -0.0059171715 0.06666533 -0.029255118 -0.19303071 -0.23021501 0.23915116 0.20288402 0.044080626 -0.152263 0.008791245 0.006136274 -0.04840565 -0.09351185 0.09280005 0.02741213 0.10545906 -0.15267633 0.116323404 0.08214376 -0.19535162 -0.14757119 0.12398474 -0.2657663 0.05506898 0.14569376 0.014404644 0.103871696 -0.36270517 0.028103704 0.184501 0.18076977 0.03783325 -0.015735047 0.17114903 0.022024509 0.018681599 -0.11447159 0.08875714 -0.02023828 -0.11906342 -0.0957675 -0.15221572 0.05269174 0.08978361 -0.1413687 0.031369362 -0.15426444 -0.14662704 0.086513564 0.10329924 0.12620085 -0.17067957 -0.089653715 0.14835165 -0.0029115363 0.34698808 -0.11175469 -0.009263713 -0.010580281 0.06302367 0.055996694 -0.07159863 -0.23943257 -0.103201315 -0.07194864 0.024070872 0.015660385 0.031954765 0.15169175 -0.09447477 -0.30503985 -0.2410174 -0.10645252 0.16999567 0.075460725 0.12942657 0.14314541 0.287163 -0.017284006 0.15275912 0.22885838 -0.2292339 -0.03050105
death -0.34862432 -0.32584882 0.30280253 -0.21704455 -0.33669275 0.17511594 0.31323883 -0.05010918 0.11888334 -0.17434272 -0.18496203 -0.21754329 -0.34883335 0.055922877 -0.1587128 0.044275552 0.023900982 0.19957905 -0.15344852 0.13234931 -0.13087118 0.15487814 0.13122661 0.22837687 0.07669258 -0.077069916 0.12484504 -0.31034672 0.024858095 0.16262294 -0.03782173 0.37729722 0.13793312 -0.2779184 -0.016720653 -0.089567214 -0.3106181 -0.13443927 0.17407896 0.048826907 0.052273653 0.052198626 -0.3486678 0.101284645 0.037706554 -0.096256405 0.15119262 -0.07141012 -0.044749897 -0.028862428 -0.10459087 0.10410361 0.14400992 -0.13604967 0.105301864 0.08380319 0.161663 0.21474849 -0.027968338 0.18206817 -0.1080833 -0.1716161 0.002294749 0.43575945 0.06366136 -0.14954032 0.36186308 -0.47733852 0.32288018 -0.1911197 0.39515996 -0.2706592 -0.05203826 -0.029146781 0.16336736 0.025701648 -0.26398253 -0.25105074 0.22363062 -0.30083224 0.077856205 -0.12089118 -0.22822607 -0.024640238 0.55120414 0.14321291 -0.042543996 0.17939445 0.2926219 -0.115773484 0.36659896 0.018684167 0.057519447 -0.0817453 0.10659064 -0.086443804 0.01985206 0.12079084 0.087703206 -0.23903994
image 0.21779233 -0.22082023 0.15480213 -0.038434103 -0.06231924 -0.1250659 0.10632396 -0.10911169 0.025039088 0.1676632 -0.034836426 -0.24119182 0.25610414 0.32004446 -0.06408744 -0.18617332 0.15521464 0.112599894 0.097507946 0.05601876 0.016057948 0.18785386 -0.2090399 0.15545715 0.32983103 0.1297551 0.19173281 0.09205622 0.1483631 -0.08430974 0.2937624 0.11251127 -0.13907757 -0.059242256 -0.26776096 -0.008885232 -0.18630444 -0.18556505 0.21474122 -0.1424153 0.12355617 0.104601 0.08099066 -0.05148548 0.1915961 -0.21587716 0.063948736 0.09838765 0.24437466 0.2730379 0.09365331 -0.05585211 -0.012141577 0.094099216 -0.041546077 0.116397604 -0.0963207 0.2708933 0.3820885 -0.30440018 -0.06484633 0.11240605 0.119594514 0.08348823 0.21736881 0.19480808 0.13070232 -0.10673464 -0.15725549 -0.011276101 0.30678183 -0.053916417 0.11793007 0.039603267 0.08682116 0.05521899 -0.1857222 -0.08267089 0.14742114 -0.07729325 -0.107999325 0.09495393 0.2032137 0.084048174 0.18303463 0.12484967 -0.34926543 0.13490863 0.34382945 -0.09597697 0.3097379 0.16888446 0.15693253 -0.20661204 -0.11527756 0.13793756 -0.072754525 0.03445806 -0.21237718 0.0064487043
theater 0.19513509 -0.034109667 -0.16373117 0.07370928 -0.074629635 -0.22625779 0.10084962 0.017295523 0.25217962 0.027477788 -0.058688045 0.13745163 0.094642244 0.18893209 -0.07131204 0.004805388 -0.095775835 0.019531425 0.14001463 0.102748714 0.025217712 0.0639094 -0.038551528 0.07968197 0.15646178 0.1284885 0.044733923 0.2239013 0.08757613 -0.121798806 -0.07532117 -0.13409738 0.028009133 0.04576546 -0.10025915 -0.11306912 0.015023494 -0.026295992 -0.008997872 -0.031728428 0.13235974 0.01841988 -0.0403811 0.18669231 0.036103975 -0.0687645 -0.06457537 0.33536178 -0.1423773 -0.11779492 -0.104548514 -0.2894276 0.074644335 -0.08676512 0.14505698 0.17980051 0.115258195 0.011430926 -0.28155038 -0.37730092 -0.12645921 -0.32455447 0.10491821 -0.015212198 0.22202043 0.17581321 -0.13951367 -0.0574275 -0.20569387 -0.23340511 0.0057645533 0.12161049 -0.20241126 -0.11715391 0.034117315 -0.05270029 -0.35605177 -0.058140807 0.007112682 0.12157171 0.109519236 -0.025856065 0.21828637 0.13934834 0.23004465 -0.24586873 -0.13585661 -0.06815063 0.058395665 0.21090767 0.03466941 0.049278498 -0.26161173 0.024829427 0.26026192 0.02474686 -0.043606497 -0.23261696 -0.02500979 -0.31977132
number -0.020880694 0.07609856 0.18465133 0.24672168 0.16572957 -0.2668278 0.28554547 -0.37655696 0.054293953 0.38826722 0.074060395 0.07167669 0.023840524 0.037867956 0.08473541 0.07547634 0.09912903 0.37446246 -0.24431874 -0.33595213 0.018017814 0.328578 -0.22024685 0.4046327 0.24206883 -0.32598454 0.40470096 0.12186089 0.12756981 0.025124468 -0.04926875 0.2541665 0.29841527 -0.21717519 -0.15768208 0.40065625 -0.37260643 0.028335063 -0.046668608 0.112266816 0.14053635 0.072171226 -0.21865936 -0.12889506 0.11786383 0.0516578 0.24739943 0.41839316 -0.034607504 0.019407783 -0.29947898 0.12441744 -0.14263153 -0.14863469 -0.035925444 -0.17666537 0.16897343 -0.15072097 0.32976073 -0.24833204 -0.0070859944 0.034833375 -0.6300528 0.18410523 0.02575654 -0.09238786 -0.063239045 -0.2951198 0.028816061 0.34440824 0.19031444 0.20898129 0.26164755 -0.40892798 0.0580827 0.043733496 -0.087414086 0.091588065 0.12803859 0.2746129 -0.27954584 -0.021317536 -0.012116933 -0.15966602 0.49230123 0.18432167 0.020547068 0.19014198 0.06585749 0.22509743 0.25526872 0.074822865 0.25249714 -0.13728395 -0.07557639 -0.024014933 0.07364749 0.012053629 -0.16442566 0.18793516
astronomer 0.11781839 -0.016945241 0.017985815 0.19647086 -0.04547918 0.016292091 -0.016415572 0.113423996 -0.00293508 -0.12415336 0.012023719 -0.008754561 0.041193787 -0.012080573 0.007478036 -0.052711315 -0.076523505 -0.06266087 -0.05666238 0.20738122 0.06327514 0.089498065 0.12479114 -0.001477962 0.09342863 -0.015414704 0.057267584 0.079174384 -0.058235686 -0.033324897 0.098115295 0.02775486 -0.008823609 -0.19384786 -0.021017278 -0.034395006 -0.053128462 0.13908285 -0.027963325 0.06945479 -0.004946014 0.18809511 -0.014981538 0.13247785 0.031076988 -0.089077815 0.12963246 -0.013659777 -0.09972327 -0.009732394 -0.036632083 -0.08828406 0.06453378 0.11959701 0.085130714 0.086868435 -0.11776362 0.17204407 0.18127555 -0.20496157 -0.0837375 -0.07904822 0.13225824 -0.062266413 0.15382251 0.26950127 -0.1347762 -0.06252797 -0.1360745 -0.010507137 0.045896463 -0.22388789 -0.040134907 0.054874405 0.024664076 0.18433356 -0.19713876 -0.06593763 0.05958733 0.014006873 -0.10626807 -0.18489352 0.21416272 0.027309002 0.029736994 -0.10697553 -0.20378625 0.07134868 0.08438998 0.05537881 0.1010326 0.06799012 0.04053589 0.0102521265 0.019223273 0.0944772 0.09085336 0.11006574 -0.10817277 -0.07080552
project -0.076726526 0.16291384 -0.16097559 -0.0018755315 -0.16065982 0.025015501 -0.057793394 0.12788838 0.028413838 0.18493956 0.04591237 -0.13013355 -0.017564707 0.0033449205 0.06914065 -0.10124907 -0.13222474 -0.042317733 -0.10993961 0.03617382 -0.02945185 0.14356844 0.1566721 0.15798241 0.0031337833 -0.0018211759 -0.014117872 -0.13628948 0.14767106 -0.053662423 0.049359746 -0.04779605 0.048843887 -0.18547125 -0.04352524 -0.17227507 -2.898651E-4 0.20042096 0.067942716 -0.06992171 0.044356175 0.20339356 0.006304432 0.03122898 0.1966352 -0.0052576168 0.25320923 0.18870007 0.23491496 -0.06739547 0.15172376 -0.1310037 0.05716968 0.20993501 0.41556025 0.22073454 0.00896131 0.19592002 0.020606367 -0.3089237 0.04248059 0.11610124 0.0037096988 0.009246872 0.27478743 0.17832261 -0.049424123 0.09873717 -0.23267645 0.14769053 0.08786301 -0.021593923 -0.16949143 -0.09971537 0.032320313 0.07356731 -0.13308884 0.04847659 0.033031266 0.26845953 -0.07225598 0.08267772 0.09920486 0.19268547 0.14354227 -0.17506623 -0.02905837 0.15916882 0.12921467 0.12654097 -0.07056256 -0.14646968 -0.1177663 0.024311718 0.056930624 0.007807169 0.021604495 -0.070792966 -0.14820515 -0.0614928
dawn -0.21083806 0.01688053 0.008268414 -0.15747286 0.031195436 0.091388725 0.3094435 -0.06282279 -0.33768076 -0.097642794 0.19455682 -0.028808013 0.026931265 0.01339609 -0.08234903 0.0052178847 -0.19291192 0.1534696 0.05872014 0.27923077 -0.30432013 0.082667634 0.0698423 0.099674925 0.007330413 0.10244308 0.14799747 -0.008694769 0.044351406 0.04042918 -0.034742232 -0.026535567 0.033063643 -0.22224554 -0.044866756 0.15588531 -0.15876873 0.117310464 -0.49208763 0.007296681 -0.04909293 -0.055014558 -0.12672006 -0.060209356 -0.095675774 -0.11007887 0.16853082 -0.018616322 -0.1466996 0.11918375 -0.06337123 0.26629752 -0.014059341 -0.020454967 -0.0851528 0.16863224 0.23411144 -0.13502742 0.17212209 -0.13347644 -0.1241585 0.1332541 0.21547505 -0.1511692 0.021833794 -0.09041129 0.045639813 -0.10672901 0.019059306 -0.28391564 0.18203928 -0.05266546 -0.016746992 -0.036473263 0.1622668 -0.18761721 0.03186807 -0.08214007 0.20319828 -0.08193168 0.27115652 0.062195178 0.27325454 0.020904142 0.25259352 0.08220242 -0.24042442 0.03341512 7.598489E-4 0.061330236 0.044277295 -0.119215906 -0.14439508 0.25181183 0.21799186 0.06166482 0.06617764 -0.028234025 -0.0021107798 -0.252536
ear -0.145029 -0.21597096 0.07467733 -0.015047231 -0.007950536 0.17046367 0.16644558 0.16299747 -0.067592636 0.10637678 -0.048186164 -0.24664354 0.1262824 0.06494354 -0.10557154 0.2597869 0.022244556 0.107528836 -0.18580389 0.109092474 0.10087081 0.17275724 0.11561554 0.4985898 0.14702009 0.007174587 0.16525815 0.046091367 0.041193 -0.07548038 0.05449655 -0.030647103 -0.25938535 -0.03825385 0.1317021 0.05201268 0.002880984 -0.070069954 -0.00917765 0.13819824 -0.19337669 -0.13264033 -0.09693808 -0.09403977 0.07995407 -0.28769046 0.070640884 0.015775973 -0.053907946 0.30303165 0.08042635 -0.03947169 0.038988344 0.16509522 -0.16388874 0.04982971 -0.12550373 -0.012935391 0.24277297 -0.21113172 -0.2148767 -0.41138467 -0.07193886 0.31181538 -0.09505356 0.007744508 0.24484348 0.08267295 0.03946415 -0.06890605 0.27291062 -0.2570364 -0.10394895 0.18202922 -0.010956943 0.10291326 -0.056932364 -0.15956861 -0.010503847 -0.23026623 -0.020050107 -0.10180552 0.39810425 -0.31843945 -0.008049152 0.055802394 -0.0820117 0.020287177 0.51878124 0.037203893 0.08782537 0.21893856 -0.18898489 -0.17323488 -0.15932472 0.037836935 -0.28816295 0.11703073 0.06414932 -0.12706664
voyage 0.016961912 -0.041029077 0.04954987 0.0655113 -0.005203103 -0.17786035 0.34378973 -0.050174773 0.14842097 0.16110672 0.14472155 -0.18055084 0.074259765 0.1931381 0.13002414 0.061178014 0.089448206 0.0037150253 -0.10405297 0.25082052 -0.10400239 0.1596407 -0.007812497 0.25315955 0.31640473 0.04291582 0.08049693 0.06287808 0.14138561 -0.16087969 0.03048549 1.2864271E-4 0.24348496 -0.14188604 0.0155708045 0.14315338 -0.1897423 -0.17024882 0.26587078 -0.1009499 -0.09697823 -0.07228924 0.029077807 -0.20866704 0.16117306 0.21378851 0.19624521 0.036439735 -0.0868362 0.04087509 0.1822664 -0.01930904 0.06845115 0.0035950835 0.1636006 0.19092475 -0.1354526 0.3498767 0.18356529 -0.2829883 -0.051456124 3.8090348E-4 0.082113475 -0.08026542 0.18158044 -0.11623123 -0.069382265 0.169014 -0.15235406 -0.04056999 0.32154772 -0.023920942 -0.03891557 -0.05825354 0.27682373 -0.03691569 -0.15199687 -0.22719522 0.09785109 -0.0055647325 -0.15858015 0.17661399 -0.13220215 0.1440422 0.25807768 -0.15658158 -0.09195088 0.19423576 0.10617224 -0.10896279 -0.024955783 0.054866277 -0.24368836 -0.096866876 0.08857083 0.12087456 0.16449556 0.23786089 -0.11472003 -0.31290442
valor -0.025139544 -0.18513556 -0.050739195 -0.019755548 0.027955137 -0.027483543 0.02356648 -0.07740711 0.015273069 0.07524653 -0.060776606 0.10967282 -0.12541835 -0.036352213 0.07245638 -0.046237815 -9.579553E-5 0.03298193 0.047315814 0.034811802 -0.12296278 0.05160307 0.038004205 0.13329427 -4.5150463E-4 0.02856901 -0.014237623 -0.067463696 0.11832904 0.09369345 -0.11028284 0.040676232 -0.03699561 -0.05638252 -0.048051476 0.0021699676 0.081801035 -8.871396E-4 -7.7568076E-4 0.048681263 0.05555047 -0.07484717 0.021002762 -0.02196849 0.101030715 -0.033894908 -0.005522846 -0.05713245 0.04014548 0.039738514 -0.011561079 -0.06715549 -0.1536154 -0.01911714 0.03602824 0.005664782 0.021298476 -0.049595047 0.04829706 -0.06019332 -0.14179452 -0.18952714 0.08692783 -0.06829167 0.11889447 0.08447849 0.07464373 -0.041584183 0.03267104 -0.061529327 0.15525742 0.032371324 0.04014363 0.014089499 -0.05198496 0.07333764 0.108702496 0.12695397 -0.01317746 -0.06083447 -0.02967221 0.052088443 0.04729034 -0.14615785 0.10432833 -0.046660967 0.029101817 0.052659843 -0.038246177 -0.12758805 0.075265944 0.020685883 0.0012882996 -0.04990757 0.07160157 0.1565079 0.09189506 -0.045775227 0.047337856 -0.16781531
butter -0.11934943 0.20456049 0.28895757 0.091230355 0.12037922 0.04867944 0.10247581 0.08086233 0.17035083 -0.08719156 -0.39740175 -0.00455458 0.2804261 0.3484327 0.11131544 -0.06590782 -0.07062672 -0.18422702 -0.021545744 -0.19816977 -7.5571815E-4 -0.08276796 0.073141985 0.23336543 -0.19487539 0.13104554 0.024764681 0.06606759 -0.05989457 -0.1975041 0.102342926 0.092564665 -0.0131502515 -0.041904703 0.123758465 -0.45943362 0.009840712 0.34348422 -0.119411424 0.013279208 -0.036413647 -0.22714783 0.11571173 -0.15775199 0.045699723 -0.1943358 -0.009086693 0.03182457 -0.18661314 0.2668506 -0.22983943 0.058148216 -0.08850077 -0.059026793 -0.26623765 0.13137485 -0.15631764 -0.107117005 0.5011381 -0.06400339 -0.2481546 -0.22845204 0.07802066 -0.03016036 0.010273546 -0.024643803 0.053076163 0.16425571 0.011668055 -0.056043666 0.38045758 -0.22356585 0.2536773 0.10346668 -0.29475468 0.04268365 0.073225304 0.0830892 0.06159107 0.4226051 0.041317914 0.06478648 0.5094881 -0.30447462 -0.21042973 0.051680043 0.09981837 0.07320004 0.1503598 0.11912353 0.18185367 0.086974904 -0.5745179 -0.42194673 0.07330581 0.21414024 -0.22204314 -0.2405527 0.020174239 -0.18837784
gin -0.040683515 0.077009715 0.073420934 -0.01615959 0.040102545 -0.00876508 0.015723038 -0.038177606 0.0031680823 0.024504308 -0.088883966 0.11382475 0.016410736 0.1219576 0.1415984 0.0053808447 -0.08563779 -0.19992177 -0.05984143 -0.00804853 0.00272448 0.0494791 0.027659982 -0.0044333707 0.12756002 0.06871773 0.0052428287 0.04889698 -0.029038085 0.079684764 0.106615044 0.10259851 -0.045650173 0.06521961 0.08655572 -0.00806517 -0.0027644485 -0.03887802 -0.1483888 -0.0024082244 -2.768934E-4 -0.047910523 0.07585409 -0.032894693 0.17658365 -0.08278286 0.045665935 0.06674255 -0.14872241 0.08329743 -0.04315739 0.08950576 -0.06106392 0.09963546 0.04093238 0.00736901 0.015090725 0.004330159 0.18396512 -0.15758711 -0.21345577 -0.2234989 0.054178465 0.008578854 -0.0031490976 0.21342945 0.0020511164 -0.04615816 -0.00598387 -0.001895826 0.15454279 -0.015169335 0.06596985 -0.01436455 0.034324743 0.008943369 0.0050726635 -0.040765543 0.0077908533 -0.016737605 -0.11019297 -0.024030011 0.23409963 -0.21134502 0.0271998 0.007828012 -0.045489747 0.050056245 0.002894507 -0.09904609 -0.0021530264 0.13641137 -0.2209497 -0.072262175 0.05189262 0.10733034 -0.020171316 -0.027901776 -0.14475046 -0.18124275
reservation -0.22072664 -0.03080815 -0.2362262 0.22799608 -0.19673301 -0.047405772 0.11013834 -0.15867862 0.097409256 0.22516105 -0.043688048 -0.2359722 -0.19394301 0.124323614 0.09390138 0.23102172 -0.036762483 0.04966302 -0.040653657 0.122454286 0.042570226 0.23341249 -0.15437499 0.009017169 0.28450844 0.0531722 -0.07463154 -0.006240891 -0.018348021 -0.007358532 0.05122398 -0.101837605 -0.010658776 0.0040191594 -0.10954438 0.042693958 -0.15608464 0.051254448 0.28484398 0.040431116 -0.08124395 -0.13040052 -0.057073135 -0.10622124 0.25679186 0.054140978 -0.16010036 0.21248834 -0.078218095 0.16527651 0.10512214 -0.039334662 0.21179739 0.0449618 0.1292301 0.13887249 0.03817464 -0.10087809 -0.022428002 -0.20448223 0.008637742 -0.0882934 0.13153681 -0.062326137 0.2816681 -0.0067218314 -0.14057389 -0.06826841 0.036699567 -0.04747414 0.16050164 0.035406277 -0.009474133 0.10623401 0.21052316 0.18780127 -0.19555187 -0.092501484 -0.01929567 0.14023337 -0.11874434 -0.04536825 0.30366808 -0.06555451 -0.087671846 -0.29558435 0.048057213 0.08339841 0.19288678 -0.14874697 0.010609048 0.016230986 -0.25283286 0.10520212 0.07852475 -0.005664319 -0.002187391 -0.05345832 0.03474495 -0.1866036
wealth -0.039125856 -0.312937 0.06574729 -0.07891782 -0.18108527 -0.017420908 0.176475 -0.005798594 -0.10902371 0.29782474 -0.07258347 0.029017588 0.17363223 0.167963 0.2564678 0.03785287 -0.09069985 -0.15363428 0.2539323 -0.07413389 -0.30458483 0.1894548 -0.19143362 0.20078646 0.22560939 0.088302836 -0.012766414 -0.3357418 0.2251313 0.13501647 -0.074805506 -0.0606045 -0.03622273 0.027304132 0.10450472 -0.4153336 0.042819288 0.034924585 -0.018107517 -0.08528352 -0.090532266 -0.09184286 -0.10915801 0.08483932 0.58276284 -0.03776227 0.18371168 0.17062852 -0.030143213 0.21744299 0.07064111 -0.23550582 -0.21851178 -0.09234016 0.2492059 0.15639421 0.1623343 0.1241506 -0.075233765 -0.14622888 -0.038680214 -0.052140594 -0.29281363 -0.09204467 0.21361408 0.028195888 -0.10213619 -0.05545206 -0.0073127975 0.021154128 -0.15869342 -0.11240579 0.08645311 -0.117141955 0.0048764264 -0.13049337 0.14041202 -0.1436165 0.29362398 0.10292828 -0.21470384 -0.13471879 0.23161061 -0.15115076 0.07073325 0.041913122 -0.21314842 0.012635864 0.03709546 -0.20539176 0.20679425 0.1914759 0.0657717 -0.423644 -0.123284735 -0.0068286667 -0.2798433 0.19197637 0.06774873 0.14490023
eat -0.09360069 -0.15904744 0.28708428 0.007230145 0.13190268 -0.15259731 -0.06933703 -0.17949235 0.27798557 -0.2725354 0.055378273 -0.020332327 -0.044009946 -0.010181657 -0.2508567 0.16705446 0.12839748 -0.060409952 -0.03280486 -0.37144667 -0.004877408 -0.22500177 0.48546135 -0.37269223 0.08217453 0.043245733 0.014334066 -0.03911965 0.07515161 -0.22160622 -0.12086633 0.14894542 0.11516995 -0.060710136 0.1312293 0.26955166 0.010447343 0.050562132 -0.2443813 -0.25029656 -0.18848146 -0.06226314 -0.013532655 0.018873375 -0.2037237 -0.074677356 0.14528072 0.3524218 0.060856976 -0.12256752 0.03615238 0.11140444 -0.1861251 -0.0884711 -0.16503434 -0.033505153 -0.3405805 -0.13956311 0.17826365 0.20671429 -0.24244387 -0.29424354 0.054902278 -0.28020367 -0.23050275 -0.19871217 -0.05924731 0.037510935 -0.025222316 -0.36548445 0.26065472 -0.05717756 0.24628286 0.15725237 0.24303634 -0.14767161 0.13211998 -0.14831251 0.049933884 0.10446217 0.13769245 0.27473208 0.40896457 -0.22366448 -0.41299835 -0.27842104 0.12700585 0.07229275 0.7045226 0.016031228 -0.10195108 0.015576267 -0.57423073 -0.390552 0.1446877 -0.23254603 0.048280273 0.10744756 0.116330445 -0.3722432
soap 0.4420768 0.10478111 0.20384789 -0.19803677 0.13158844 0.07293972 0.35852057 -0.12862746 0.18130738 0.12457115 -0.010322074 0.015595007 0.06385126 0.34975904 -0.054298885 0.109988905 -0.16238943 -0.0140630575 0.0046939002 -0.026167149 0.06570108 -0.040683918 0.17860316 -0.12601894 0.13249446 0.17480564 0.19525011 -0.18100248 0.15357092 0.12862095 0.03769195 0.13956098 -0.0076787765 0.09420088 -0.052314457 -0.15840003 0.08112096 0.2961679 0.012166742 -0.03397447 -0.07412707 0.07223635 0.1571813 0.23075885 0.25546715 0.03419519 -0.12227379 -0.0016084004 -0.16237937 0.15490071 -0.15232426 0.3764329 0.003824142 0.15494536 -0.18556423 0.015241805 0.11066919 0.06622076 0.15006547 -0.12903999 -0.008106635 -0.032900855 0.05896686 -0.3845736 0.010796645 0.20419812 0.22210605 -0.18881051 -0.18187197 -0.13044858 0.28915906 0.13070306 0.011421647 -0.014938935 0.13631727 -0.29755127 -0.05095778 0.028089078 -0.28182983 0.10768022 -0.2774833 -0.32494298 0.24800077 -0.056999058 0.13465798 0.43141478 -0.19203664 -0.037158262 0.13958834 0.07484424 -0.018450249 0.13431649 -0.43066576 -0.074865155 0.08107851 0.1043242 -0.12696697 -0.04495702 0.054473907 -0.44121408
discovery -0.11080595 -0.047639266 0.13282382 0.008268858 -0.01377086 0.06299693 0.08738428 0.10004547 -0.13066894 0.058760572 0.1322628 -0.3004382 0.047038786 0.0672411 0.11036781 0.08530164 0.07185686 -0.11450939 0.08343777 0.028148761 -0.113528505 0.07699943 0.008399853 -0.008023318 0.11176923 0.03635003 0.11413013 0.13297799 0.088305205 0.0045227157 0.038755488 0.0021549899 0.2142906 -0.27380604 -0.31313252 -0.106591456 -0.29604998 0.17559269 -0.02881563 -0.031589627 -0.03935427 0.1742099 -0.072554536 -0.046391193 0.079880714 -0.018488172 0.2619545 0.16927586 0.16743621 0.2125869 -0.052748147 -0.16108862 -0.14721705 0.1771854 0.11278229 0.49350423 -0.039935168 -0.02288125 0.22210358 -0.14505714 0.08328228 0.09930146 -0.115533374 -0.024726983 0.59802467 0.15295154 0.024343893 -0.14238556 0.07354038 0.004498921 0.39595056 -0.25728887 0.002380325 -0.044162784 0.22192846 0.12032087 -0.31481948 -0.23508017 0.054994646 0.101228595 -0.05477225 0.18937501 -0.11687033 0.2331503 0.30956152 0.048674215 0.08531179 0.22639924 0.014074356 0.2750311 0.057672195 -0.02597747 0.047016963 -0.012782686 0.07648568 0.19999228 -0.0627114 0.1936493 0.19867119 -0.06755134
hospital -0.38783908 -0.24211979 -0.3101646 0.40226048 -0.004221816 0.23832597 -0.17789644 0.11138799 0.04633752 -0.25509912 -0.25679865 -0.32589853 -0.05206433 0.03786251 -0.2015492 0.13970062 0.1592339 0.32276344 -0.05960144 0.23879038 -0.02235816 0.3102018 0.19590726 0.19424807 0.26075813 -0.08614471 0.10108429 0.1609525 0.1807296 0.1056274 0.061212488 -0.08212204 0.30722344 -0.08984532 0.16029975 0.16744024 0.23046602 -0.029724613 0.1676457 0.15875009 0.15364262 0.008814352 -0.2741386 -0.17737111 0.090966724 -0.012308871 0.15686595 -0.024513058 -0.20866603 -0.16601904 -0.20940313 -0.015903763 -0.05139284 0.16025192 -0.019213332 0.06346915 -0.073429085 0.38689667 -0.0054461365 -0.25485814 0.09667497 -0.20211464 0.026807865 -0.008024693 -0.280036 0.23759952 -0.31488255 0.13293473 0.18680716 -0.29448992 -0.18677689 -0.03588056 0.24623263 -0.312465 0.16646917 0.43454692 -0.2769945 -0.36081865 0.42468098 -0.058894977 0.27345213 0.11650278 0.17979327 -0.38328114 0.4934764 -0.26499298 -0.2222737 0.2363943 0.2395111 0.22808376 -0.2833107 -0.32247838 0.11631291 -0.23131652 -0.1623029 0.071375534 0.3346534 -0.07983639 0.038475137 -0.11222118
computer 0.07657407 -0.3008293 -0.029406156 0.0030319437 0.055607446 -0.15185554 -0.14588273 -0.10475734 0.031578716 0.33752573 -0.029102268 -0.06005071 0.05281967 0.04918844 0.047526255 0.06386065 -0.22878422 0.22504298 -0.12979302 -0.072860934 0.0497286 0.12913166 -0.25607437 0.07775326 0.12947486 -0.0026117354 0.23110044 0.20409025 0.0016304521 0.26257658 0.17112881 -0.13701619 -0.24758562 -0.034922704 -0.015679592 -0.011179326 -0.14873847 0.036060028 -0.1410476 0.029576313 -0.051157326 -0.0684064 0.010877989 -0.018083664 0.11817336 -0.032064002 -0.103366755 0.30559108 0.098636195 0.11564389 0.19423102 -0.11539605 -0.008239466 0.022757066 -0.14925686 0.2143055 -0.1773282 -0.022970535 0.05945903 -0.06745063 0.15346694 -0.07130817 0.046267312 0.109320626 0.25276738 0.21545225 0.2157729 -0.064871624 0.008022269 -0.36862364 0.20046677 0.023587754 0.13281645 0.06935634 0.19585343 0.15685259 -0.1253044 -0.3038005 -0.07227915 0.33252162 -0.07083141 -0.0013849896 -0.10516173 -0.09988161 -0.06787008 -0.25197062 0.012438097 0.15432385 0.09724111 -0.13225514 0.062332917 0.12622447 -0.067810014 0.099601775 -0.39360133 -0.009407344 -0.26146856 -0.1647543 0.022911739 -0.035749212
queen 0.08137756 -0.029614644 0.14219533 0.25988486 0.24607995 0.18730193 0.11086921 0.39697528 0.032228526 -0.09483986 -0.21435334 -0.15136564 -0.10400097 0.029883243 -0.06559599 0.12854065 0.15122427 0.15673673 -0.0067856633 0.060994178 -0.18174817 0.21063924 -0.18321387 0.12961854 0.22403587 -0.07556381 0.23360108 -0.043581154 0.10101699 -0.009045404 0.0021780536 0.45486617 0.19589621 0.065407895 -0.6172843 -0.026286032 -0.080667436 -0.009779109 0.2421345 -0.22334462 0.026070982 0.259432 -0.1209777 -0.102496006 0.23946507 -0.24166381 0.120653614 -0.3668643 -0.053371523 0.07741875 0.038375232 -0.28693753 0.012034157 -0.12193166 0.06419234 0.34060118 0.18081166 0.26286632 0.20870028 -0.38155606 0.15786043 -0.3156588 0.03973022 -0.078253195 0.1905076 0.03349953 -0.09958076 -0.15235384 -0.11458444 -0.15397626 -0.054450404 0.07698552 0.12382737 -0.2673719 0.08145712 -0.11542717 -0.32352367 0.051107697 -0.23867048 0.011271318 0.116896525 -0.16612163 0.0931003 0.29640323 0.12490018 -0.17181183 -0.13373545 0.020786071 0.09438978 -0.17749435 -0.1155807 0.031458277 -0.38278773 -0.24051233 0.2685613 0.051865887 0.2579495 0.012870228 -0.057875685 -0.3146941
wizard 0.20233144 -0.071035646 0.23990728 0.044219792 -0.04543085 -0.0772155 0.059956618 0.1441047 0.018021518 0.024162197 0.07829893 0.073813036 0.09409351 0.14924245 0.16624406 -0.09181214 -0.055597417 -0.13309789 -0.07127779 0.23860742 0.11698991 -0.017167902 -0.046219546 0.13054949 0.11730223 -0.16464509 0.13364826 0.02804022 0.026995972 0.031014126 0.018462079 0.2066984 0.10598233 -0.17060244 -0.11904086 -0.054133363 -0.14973505 -0.0137167 -0.20356737 0.16174592 -0.050622553 0.16100366 0.08839142 -0.0034401922 0.15812582 -0.13799661 0.23153023 0.06743351 0.11732689 0.05146058 0.11252869 0.07146431 -0.027989842 -0.0221643 -0.15911196 0.1435923 0.11093428 0.3295504 0.2098298 -0.10996666 0.045785155 -0.1593618 0.18872334 0.18903361 0.19462578 0.04893237 0.038321584 -0.13498004 -0.073862 0.0839914 0.21769784 -0.0235576 0.004043521 -0.13688979 0.036667097 -0.08990247 -0.3034857 -0.04257172 9.6188777E-4 0.1374919 -0.07652752 -0.026467212 0.11644784 0.081538804 0.060804483 0.27243844 -0.0122955805 0.011507518 0.19040525 0.0013529218 0.15395784 0.110963225 -0.057859726 -0.07654799 0.28688207 -0.033516943 0.02646895 0.026256 0.07165434 -0.12868205
oil -0.11381075 -0.29347306 0.055799503 -0.079643495 0.09946272 -0.3241768 0.1593455 -0.039469674 -0.066331744 -0.17788908 0.17217144 -0.22249307 -0.0072963657 -0.12351906 0.1643084 -0.07279455 -0.0415131 -0.23054914 0.07508454 -0.09664195 0.050704062 0.011379578 -0.18580194 -0.055203296 0.2928829 0.32247242 -0.09548237 -0.2618395 -0.031009901 -0.04679753 0.09626101 -0.0188065 0.101237714 0.22169413 -0.07977989 -0.46926403 0.13648605 0.09779411 0.040418696 -0.49253106 0.09010573 -0.18669155 0.09614454 -0.09069967 -0.20627551 0.117871046 -0.045263458 -0.062129393 -0.4026244 -0.20491236 -0.045945097 -0.013687983 0.11270387 0.06893958 0.045369003 0.20131338 -0.36608666 -0.3950945 0.32000467 0.06995653 -0.06787561 0.029323313 0.039436884 -0.12773272 0.21585606 0.13411821 0.19439237 0.20641136 0.0909416 0.0536726 0.17055185 -8.273522E-4 -0.23648356 0.006115144 -0.3429514 0.23604585 0.18534586 -0.12920807 0.5570381 0.15979175 -0.09967967 -0.08680594 0.07976011 -0.2467856 0.20506261 -0.028745372 -0.19878562 0.23869582 0.09148535 0.34324062 0.28185886 -0.06664655 0.18441162 -0.072697006 -0.16820344 -0.28915432 0.0428367 0.037394885 0.11533592 -0.398928
currency -0.07170239 -0.060234085 0.1256284 0.31848896 -0.010865213 -0.18355648 0.2531053 -0.51493746 -0.22200267 0.06310864 0.06750157 -0.43415868 -0.1095397 -0.22942579 0.13029006 0.24470408 0.15079258 0.19699836 0.28678036 -0.05494843 0.14630339 0.15890905 -0.14467338 0.10956863 0.3905258 0.061015714 0.1347215 -0.08270353 0.19401179 0.18802436 0.29673022 0.010487235 0.068358235 0.23348926 0.11838553 -0.24237424 -0.07822041 0.11626464 0.348807 -0.20211203 0.16944525 -0.047580637 0.11863704 -0.2953689 0.031156499 -0.11877951 -0.1035544 -0.289482 -0.21596229 0.26293144 0.27458134 -0.16976127 -0.20294842 -0.062580444 0.0886096 -0.13212843 -0.014218677 -0.08658564 -0.0344228 -0.004386593 -0.18786198 0.05322863 -0.34044623 -0.19934924 0.17753342 0.3454042 0.42486212 0.1661797 -0.060501732 0.14028327 0.11414207 -0.28987202 -0.2421442 -0.35070994 0.09140435 -0.10083519 0.044997193 -0.050797377 0.17330833 0.08544332 -0.26768783 -0.35821894 0.0301267 0.19705305 -0.08316926 0.15751109 -0.17628683 -0.04351408 0.13460943 -0.09534274 0.21815683 0.1669809 -0.15172103 -0.22914764 0.4301257 -0.20210059 0.26513177 0.099257946 -0.062357485 -0.16351171
laundering -0.1798394 0.09402168 0.009561257 -0.15281507 -0.24401495 0.013495275 0.07521118 -0.21077144 0.23811164 0.16042568 -0.25570217 0.10334901 -0.34939122 -0.29730025 0.093340084 0.22191553 -0.10286241 0.1424091 -2.4710607E-4 -0.08601095 0.13410592 -0.36712217 0.11258287 -0.20486717 -0.22985533 0.32074487 0.120635845 -0.23910558 0.4143934 1.0819871 -0.09295159 0.33427483 -0.20317109 -0.15075617 0.4083894 -0.11840708 -0.1702656 0.3132654 -0.19079079 0.10112172 0.09684138 -0.25886896 -0.3546933 0.40942684 -0.37830642 0.44826332 -0.17156933 -0.19354571 -0.10965933 0.13172126 0.28271744 0.11565094 0.08905394 0.14603132 0.33263436 -0.44214115 0.31584644 -0.071932174 0.17386985 -0.10465572 0.04934756 -0.108699076 -0.13125236 -0.09743801 -0.13785516 0.101524 0.16856638 -0.31038457 0.24947718 -0.28654364 0.35753328 0.027907234 0.64798087 0.058660008 -0.22700723 -0.47861725 -0.060642347 0.22592278 -0.55811256 -0.23830633 -0.263298 -0.71815735 0.43772087 0.22052203 0.11465255 0.3359679 -0.45944026 -0.24376935 -0.18309517 0.092405066 0.23907794 -0.085338384 -0.037641138 -0.11237721 -0.13543348 -0.35878783 -0.26356637 0.20795555 0.31030124 0.15586463
midday 0.039369985 -0.3459913 -0.29678994 0.08795818 -0.15648288 0.40135792 0.068701595 -0.42141572 -0.20526603 0.07283351 0.15012392 -0.37367406 -0.26901662 -0.1591569 -0.39883724 -0.014329705 -0.12594901 0.5118233 0.22770472 0.11388299 -0.332354 -0.187269 0.23047273 0.47226715 0.09188553 -0.019404693 0.05667492 0.17693505 0.18402971 0.011072138 0.04370184 -0.17830054 0.10956362 0.05690447 0.03819655 -0.004669704 -0.43718418 0.1216225 -0.26205492 -0.23735839 0.035498098 0.028615626 -0.15163046 0.17634352 -0.33452705 -0.054536846 -0.079063006 -0.28290904 -0.31082624 0.15066446 -0.18633275 -0.12653628 -0.08861122 0.12009658 0.022778843 0.114742 0.2473137 -0.31645066 0.059656635 0.009988337 -0.09224409 0.04518766 0.043375064 -0.20165987 -0.18639725 -0.2648551 -0.16180708 0.2971511 -0.10440924 -0.20512289 0.13257907 -0.0051649865 0.048375215 0.031755455 -0.19220516 -0.34827435 -0.21927145 -0.123335466 0.4592883 -0.15979171 0.11028331 -0.25831667 0.06791044 0.18624847 0.33751652 0.040180996 -0.077470616 -0.056658473 -0.10165177 -0.016033905 -0.03959791 -0.3601522 -0.49810475 0.36199558 0.46837005 -0.09696351 -0.08861381 -0.21019997 0.09043105 -0.3422328
man 0.12963584 0.3092399 0.030072505 0.35419995 -0.21981707 0.1927497 -0.34285453 0.015952442 -0.15456468 0.025478713 0.059643023 -0.22765732 -0.37369546 0.17466795 -0.04816937 -0.06896738 0.26132324 0.2545716 -0.29608557 0.12250391 -0.03657551 0.39476305 -0.0513289 -0.013753478 0.281434 0.059574887 0.18551052 -0.07162733 0.21337624 0.27334172 0.22519661 0.18142006 -0.05451598 -0.092549615 0.047872566 0.009180272 -0.1540916 0.06391361 -0.003564638 -0.015823385 -0.16501477 0.05637448 -0.14851496 0.13831237 0.18952131 -0.38622895 0.36876282 0.23323034 -0.041265324 -0.09599834 -0.10418031 0.15896161 0.12378775 -0.04529424 -0.1840217 -0.1676111 -0.024345897 0.24674444 0.53535455 -0.1875873 0.01724392 -0.3199503 0.0061113876 -0.029123902 -0.02236229 -0.06973796 0.034599647 -0.328045 -0.15089267 -0.03392718 0.29497495 0.033754468 -0.32465878 -0.0036400142 0.08901491 0.21920413 -0.16575292 -0.16476654 -0.14577024 -0.047743857 -0.24171323 -0.10235628 0.39811635 -0.20900346 0.22494762 -0.10229006 -0.010673292 -0.1380959 -0.022346228 0.046231374 -0.034949988 -0.19047801 0.015502098 -0.015294728 -0.30012587 0.07646486 0.0036624544 0.15455055 -0.064044446 -0.15117687
keyboard -0.011021297 0.026416108 -0.08245363 0.124763034 0.015090766 -0.120227836 0.07400893 0.028473964 0.06519628 0.23829103 -0.2373705 -0.11695344 0.024712343 0.1660774 0.13414072 0.12001027 -0.08887896 -0.02257491 -0.2616752 -0.067749925 -0.013814742 0.088885725 -0.037707325 0.097383104 0.29853103 -0.073338486 0.15636708 0.18776722 -0.018294973 0.023802416 0.111086674 -0.0835958 -0.3087616 0.0018736921 -0.075608455 -0.06604934 -0.22610135 0.065323055 -0.051455054 -0.014311495 -0.03728319 0.02419715 0.04150808 -0.23095937 0.14486252 -0.08525396 0.038010556 0.3562127 -0.027231026 0.26352456 0.006389067 -0.081296206 0.21881022 0.10220892 -0.29082307 0.2137626 -0.19037022 0.093971536 0.054399528 -0.2771528 -0.15682435 -0.14175546 0.021431949 -0.060680572 0.2821538 0.4020064 0.07289267 0.059900325 -0.14361696 -0.07754997 0.29828438 -0.017592618 -0.08711052 0.09308387 0.18659149 0.11041217 0.07046116 -0.34794837 0.053677652 0.08944202 -0.11904865 -0.022470348 0.2603398 -0.13093702 -0.021040266 -0.094765455 -0.030162271 0.07554546 0.26760972 -0.14125098 0.050740518 0.11920571 -0.33704296 -0.042880654 0.06760786 -0.025041083 -0.3006185 0.088978626 -0.04299223 -0.26666713
announcement 0.22746009 -0.23732314 0.2684115 0.086410105 -0.080942445 0.10576433 0.25025645 -0.14612271 -0.17949189 -0.020242227 0.31665623 -0.16294695 0.19252601 0.2634087 0.12942176 0.055118978 0.3317318 0.21086049 0.1414536 0.14744651 -0.055853516 -0.13456385 -0.32236424 0.43988812 -0.10005375 0.078041516 0.15346493 0.0643564 -0.016953519 -0.21756388 0.4269451 0.024832752 0.15257975 -0.091345824 -0.31150165 -0.037418056 -0.5181654 0.08581185 0.23521705 -0.19669941 -0.10160827 0.48718172 -0.034741417 -0.18196045 0.10496049 0.034855146 0.093059324 0.12580949 -0.10507829 -0.0031191013 0.23478886 -0.085186906 0.07722943 -0.051320765 0.30785704 0.26150817 -0.068989076 0.21377306 0.17684197 -0.3410122 -0.4288649 0.29071546 0.038764387 -0.47633052 0.25983474 0.17507306 0.033357672 -0.3061253 0.20586084 -0.04474675 -0.18139966 -0.2912114 -0.1179318 0.18562706 0.4587759 0.03533227 -0.37809825 -0.20793884 0.28846267 -0.076452136 -0.12753955 0.13735697 -0.12308244 0.15014666 0.56546813 0.05686487 0.13563235 0.22159627 0.17220846 0.03189268 -0.09548832 -0.12402627 0.05129185 0.14437258 0.18403526 0.11292089 0.16389826 -0.03284542 -0.0033502018 0.18869244
racket 0.0070441514 -0.034147687 0.12516955 -0.049148835 -0.060294386 -0.0032254453 0.12578967 -0.030950274 -0.04869185 0.117972195 -0.032855395 -0.24293528 0.080867045 -0.04126996 -0.043684915 0.059684787 0.11459295 -0.0675207 -0.26587084 0.12960093 -0.019023947 0.17183611 -0.2584844 0.28055367 0.15699677 0.016938377 0.1362056 0.02439323 0.058721848 0.07927424 0.110734485 0.07762403 0.0451976 0.022563819 0.25875723 -0.050073825 -0.14094627 -0.06045275 0.11072175 0.015769118 0.021434993 0.033272043 0.011032055 0.04040247 0.085682034 -0.07026148 0.27619094 0.23134677 -0.010456428 0.08462042 0.04622494 -0.05179409 0.124630935 0.20388895 -0.14255309 0.11726062 -0.112765305 0.24864759 0.0073755807 -0.19041845 0.013160097 -0.22528656 -0.15024565 -0.081723124 0.108631276 0.25726584 0.20483848 0.075487606 -0.20498897 -0.065006584 0.22727038 -0.13592516 -0.06424392 -0.04659769 0.13393341 -0.024031451 -0.18598025 -0.08985642 0.0869348 -0.17191687 -0.093416266 -0.011208317 0.19907098 -0.12236897 0.26036906 0.010935846 -0.1922046 -0.09757368 0.16248631 -0.27136987 0.08533424 0.0988985 -0.14866684 -0.07556405 -0.27944204 -0.07971853 0.019982688 0.12101686 -0.02241586 -0.007814759
anxiety 0.0012332499 -0.3324339 0.29221386 -0.1568852 -0.13314708 -0.07256405 0.19946642 -0.12031283 0.002757366 -0.084825344 -0.11758475 0.10691595 -0.06994156 -0.10196502 -0.109013826 0.029746786 0.19825524 -0.03998522 -0.07447277 0.22571744 0.0012016569 0.05693523 -0.11265967 0.14918388 0.23996347 -0.017049415 0.18458073 -0.037575286 0.022998162 0.23063722 0.23556785 -0.07158612 -0.051661983 -0.372115 0.21823256 -0.32875815 -0.105873406 -0.11423051 0.039144408 0.061332677 -0.442159 -0.18654333 0.02097217 0.0013110673 0.18374944 -0.15074664 -0.3545305 -0.06956186 0.030258179 0.32514393 -0.13455868 -0.1174241 -0.44592577 -0.038634427 -0.08803206 0.08982232 -0.2837964 0.21029326 0.1933281 0.016277658 -0.28973162 -0.11270949 -0.26798028 0.2218281 0.061261483 0.141904 0.33670497 -0.03487969 0.15837145 0.19108748 0.1731505 -0.122375816 -0.1470232 0.072956614 -0.10406994 -0.3152899 0.26035514 -0.31501174 -0.007594622 0.026349112 0.11122072 -0.08200254 -0.23361614 -0.1708905 0.20956802 0.23754856 0.069030814 0.065783255 0.2988496 -0.07326109 -0.30491275 -0.10299311 0.057523128 0.041153233 0.28618428 -0.02869863 -0.13966952 -0.11672321 0.23630808 0.018433092
jazz 0.4356276 -0.08703347 6.3157926E-4 -0.14044902 0.0064391685 -0.22071469 -0.19138987 0.08346699 0.26504007 0.053271744 -0.104576275 0.106338955 0.17339318 0.17496146 0.14223242 -0.22454692 -0.118139334 -0.019842438 -0.024923958 0.014636539 0.091875054 -0.004732297 -0.17115718 0.13072337 0.24115473 -0.013563226 0.15745488 0.024599528 0.092660315 -0.115048654 -0.32302883 0.01778875 0.018388951 0.15436336 -0.2745887 -0.0074388883 0.045926627 0.011381019 0.06431732 -0.052130777 -0.010966079 0.027574813 -0.051670227 -0.11198819 0.043244667 -0.12655371 0.15246405 0.19420649 0.065486796 -0.065469034 -0.16510595 -0.102618426 0.08684846 -0.13246089 0.032795694 0.24267314 0.11324386 0.09269979 0.008921174 -0.25623664 -0.018156672 -0.13133876 0.17620012 0.020747662 0.0069834646 0.08543457 -0.071687646 0.12527208 -0.21376888 -0.08011116 0.21939489 -0.113756806 -0.17929724 0.08306858 -0.20707133 -0.21199843 -0.081146516 0.013363522 -0.19743423 -0.06572127 -0.11922671 0.0016721486 0.23441538 -0.00360511 0.19609027 -0.014862418 -0.07970533 -0.04458702 -0.01761267 -0.10543247 0.16127121 0.16038926 -0.1188095 -0.03328737 0.2153682 0.17804657 -0.07703517 -0.04751888 -0.3011222 -0.4882248
gain -0.10422268 -0.052888934 0.009789281 0.07375952 -0.0659914 -0.08467984 -0.050403297 -0.14356542 0.2083391 -0.162294 0.13972883 0.0035389299 0.092986554 0.031718306 0.029516228 -0.15165974 0.28366667 0.3842907 0.24119972 -0.10583228 -0.018151255 0.102468625 0.16419353 0.059288546 0.26382655 0.2651737 0.22685306 0.09662681 0.13932401 0.27165318 -0.097399995 -0.43537134 0.22832793 -0.054008 0.0392093 0.25684 -0.14113119 0.29054752 -0.03858976 -0.3799279 -0.22026215 0.08754796 0.07535751 0.32088733 0.16476089 0.28067005 0.26019838 0.041919544 0.2237678 0.07859313 0.31800556 0.03680043 0.067579046 -0.08128738 -0.04456421 -0.13152948 -0.10048648 0.16492453 -0.13530402 0.1850403 -0.17255671 -0.3840103 -0.09085683 -0.057733785 -0.20821081 -0.08784725 0.016293934 -0.0084656 0.1628285 -0.07387254 0.019057518 -0.11482986 0.12906028 0.06575659 0.3137391 -0.19333173 0.3589658 -0.08931818 0.17165697 -0.039478946 -0.25487894 0.25632817 0.30153373 -0.09520229 0.05932971 -0.19444264 -0.054231055 -0.08992919 0.1138782 -0.14959866 -0.14468843 -0.111728065 -0.06607302 -0.14913355 0.04222544 -0.12426875 -0.33377615 0.22445728 0.02356929 -0.0802572
history 0.20388864 -0.35336614 0.16353413 -0.12265632 -0.13698782 -0.07699636 0.25397784 0.068572395 -6.111942E-4 -0.15877059 0.06764679 0.19940914 -0.12796241 0.26464233 0.04302288 -0.10307515 0.2814694 0.0024828052 0.12520193 0.1787904 -0.13366053 0.08545769 0.06960249 0.40068573 0.42302486 0.26116222 0.0971333 0.03411523 0.46093452 0.0020969503 0.09831854 0.16672884 0.110870115 -0.112625964 -0.038148064 0.020672727 0.12490814 -0.083459795 -0.10104934 0.22514643 -0.16773586 -0.08260978 0.0053791017 -0.058283806 0.046216305 0.06933024 0.16030338 0.03138139 0.105834 0.1585254 -0.08579166 -0.20803936 -0.20388837 -0.016695758 0.025204094 0.032666232 -0.010668267 -0.012087474 0.017833013 0.07919745 0.10544185 -0.1825489 -0.026800036 -0.067903556 0.43130055 0.25934017 -0.032344036 0.10404396 -0.15067759 0.0487735 -0.05089961 0.07839021 0.08247418 -0.013032736 -0.037927084 0.121624835 -0.057815768 0.007633335 0.25510007 0.039545022 -0.27895182 1.9709016E-5 0.14199834 0.0025022267 0.1287948 -0.06489147 0.0038636297 -0.13537839 -0.042487606 -0.1097736 0.0852971 0.21546517 0.036979735 -0.13444136 0.029355535 0.28615263 0.13050988 -0.28084305 0.078380816 -0.0041740984
bird -0.13457192 -0.09183789 0.3877263 0.102659106 -0.16428211 0.15957639 -0.062277347 -0.07253202 0.05979496 -0.060556673 0.23001748 -0.14864896 -0.14428121 0.09159419 0.0047805333 -0.0018167159 0.11369156 -0.07572761 -0.094069585 -0.17173776 -0.14747919 0.29873255 -0.0619851 0.031022556 -0.12128105 0.06390906 0.35229445 -0.15023683 -0.20306681 -0.11367794 0.14111844 0.09512139 0.29484913 -0.105542794 -0.013169836 -0.07437888 -0.08160188 -8.113238E-4 0.17075238 0.05984174 -0.37511232 -0.23167792 -0.3704076 -0.25412986 0.054552414 -0.014413203 -0.047202423 0.12113613 -0.03214007 -0.055118043 -0.037036575 0.08149619 0.020776367 0.14570007 -0.27216166 0.005650827 -0.44937655 0.017487144 0.08522853 -0.18497096 -0.1188914 -0.08918617 0.40344277 0.11386035 0.06637143 0.1951748 -0.15774526 0.06519244 -0.13038938 0.0036597287 0.3083476 -0.010735323 -0.15964761 -0.08686455 -0.40674883 0.20719899 -0.13934773 -0.104991876 0.12239413 0.017500738 0.04600597 -0.004287416 0.077899605 -0.074329406 0.13892902 0.010143608 -0.016352752 0.19367854 0.09998727 0.1663648 -0.14693198 0.032679264 -0.44387877 0.09879957 0.13309647 0.09783541 0.06857466 -0.19575904 -0.112727165 0.0064208205
possession -0.32123163 -0.17892204 0.1273701 0.06545583 0.21866618 0.22156791 0.19311896 -0.10585082 0.10938309 0.32023457 -0.16883436 -0.11708599 -0.2419899 0.07333699 0.20452788 0.012771082 0.12097573 0.05798583 -0.067202255 -0.03130197 -0.35144404 -0.11296445 0.35727873 0.38885382 -0.010642088 0.006961056 -0.087105565 0.27803522 0.13537052 0.43981892 -0.11900416 0.16071998 0.28450105 -0.099007666 0.09792914 0.19466767 -0.25068706 -0.14319889 -0.0037116027 0.13156898 0.12717491 -0.4662003 0.03080791 0.12504393 -0.3526244 0.17546646 0.06851369 0.32019582 0.18908678 -0.039873794 0.03222577 0.18760784 -0.278318 -0.107340485 0.23486862 -0.1990993 0.043847598 0.102800556 0.7808539 0.2159027 -0.24118409 0.09623481 -0.09688462 -0.10270561 0.30699375 0.22100668 0.04011528 -0.21187207 0.10200159 0.09241006 0.4792148 -0.079387024 0.22210097 -0.11266186 0.12290692 -0.108830266 0.031452708 -0.100354224 -0.19469711 0.26467106 -0.29229566 -0.14191398 0.104237296 0.13432194 0.39008588 0.23791127 0.31650338 -0.19693676 0.03103511 -0.35175887 0.36063686 0.17435491 0.13910815 0.0034736425 -0.557364 0.23917428 -0.016603552 0.07695711 0.1443195 -0.11135446
yen -0.34306344 -0.13773587 0.1859302 0.07278258 0.6798615 0.24816161 0.49519673 -0.48350802 -0.30139926 -0.27103993 -0.010119132 -0.54179597 -0.07522277 -0.55644727 0.10894068 -0.1032595 0.058128677 0.49473283 0.06656511 -0.3351397 -0.22022747 -0.07169301 0.04812319 -0.14511198 -0.15272015 0.058064763 0.53666645 -0.2638408 0.060230784 -0.026517376 -0.17179355 -0.07295237 -0.1558798 0.5264816 0.19161119 -0.16785614 -0.32093677 0.38755164 -0.095583834 0.13335739 -0.38127524 -0.2523819 0.1968216 -0.11893244 0.17396331 -0.16953868 0.32114765 0.009740559 -0.61006224 -0.020868922 -0.008294145 0.48250416 -0.069876015 -0.09219939 -0.09434815 0.26089543 0.088767424 0.5009131 -0.09481356 -0.48720378 -0.5455426 -0.2822829 0.015752243 -0.3253188 -0.35416192 0.6278494 0.045482166 0.600085 0.10351475 -0.19948983 -0.13464335 -0.38921386 -0.24905048 -0.062910624 -0.09255893 -0.19225481 0.60069644 0.03173736 0.47479746 -0.05339401 -0.3167114 -0.025492609 0.006259843 0.61701095 0.5155662 -0.019298494 -0.103632316 0.1334387 0.04759633 0.06988487 0.36686242 -0.16522998 -0.039323602 -0.1264597 0.60284805 -0.42229754 0.14356408 0.28527826 -0.12373734 -0.52808875
chemistry -0.019460842 -0.19280681 0.025415385 -0.14005491 0.12972254 -0.101575755 -0.09400341 -0.003550386 0.19750296 -0.0024649943 -0.20656718 0.14375798 0.028931785 0.07838568 -0.05732787 0.12057177 -0.0013878754 -0.014791261 -0.026046898 0.1909268 -0.18954216 -0.15998498 0.27016956 0.18241616 0.17366372 -0.08169663 -0.07799162 0.005981667 0.2844141 0.10550326 -0.13121063 0.09151244 0.10626186 -0.1685856 -0.056637466 -0.17724633 0.22601125 0.055501197 -0.1358757 -0.036915157 -0.109208636 0.050625324 0.09323249 0.06671978 0.049295694 -0.020457264 -0.08110775 0.057998527 0.13608113 0.11215997 -0.35514954 -0.019098468 -0.13512355 0.03814855 -0.0011118194 -0.022221426 -0.34038994 -0.09003164 -0.021563986 -0.20121229 0.18474731 -0.07436719 -0.03407011 -0.04517486 0.24236207 0.43099603 -0.14784387 -0.0016941808 -0.21354015 0.043005195 0.025464669 -0.2887934 0.16403754 -0.105670154 -0.15282312 0.08331973 0.05555224 -0.21996437 -0.07708717 0.122379206 -0.10872676 0.024755992 0.18384084 -0.069434226 0.12109811 -0.18737343 0.023631055 0.18276721 0.104379594 -0.0203472 -0.019562526 0.20998168 0.07525878 -0.12554218 -0.065773666 0.24713634 -0.030767042 -0.07612248 0.13036089 -0.052921336
library 0.18694896 -0.16783023 -0.10723883 0.07917107 0.101322345 -0.1404435 0.16612434 0.12683946 -0.011296029 0.020546908 -0.22182833 0.060017224 0.079998516 0.13217166 -0.22136603 0.088462114 0.08495963 -0.041323673 9.0298476E-4 0.36529303 0.10766753 0.4111706 -0.067235336 0.118818484 0.31233385 -0.16322042 0.12756209 0.2587045 0.24980792 0.030106014 0.21367832 -0.011390678 -0.10048195 -0.022661692 0.08090951 0.04541762 -0.05942764 0.0139680365 -0.11589258 -0.029150782 0.14855419 0.06686918 0.020782305 -0.17862976 0.14789522 0.05183583 0.07730525 0.3900206 0.109681666 0.08289133 -0.036051992 -0.17167802 0.09281911 0.21276218 0.16982579 0.25485414 0.0524674 0.014827009 0.023943517 -0.57405734 0.22127827 -0.054733213 -0.12316685 0.06958194 0.2449411 0.19381633 -0.14682963 -0.05007117 -0.15932022 -0.18711352 -0.071322925 -0.012747076 0.30837208 -0.30059358 0.060508493 0.20314816 -0.36578965 -0.15254934 -0.018939704 0.23945984 0.08493225 -0.32860628 0.16239724 0.021982394 0.28089616 -0.24654604 0.02306777 0.22916043 0.21445964 0.3022803 -0.2736627 0.20687784 -0.15265036 -0.028310176 0.086618476 -0.020203799 0.017556852 -0.19345984 -0.22256848 -0.067613415
virtuoso 0.10164256 0.008081113 0.063957416 0.062412035 -0.0335671 -0.02839028 0.022241278 0.024676498 0.1081694 0.038852487 -0.049009323 0.0104376245 0.066548824 0.08177798 0.04794948 -0.07921151 -0.018352177 -0.08224283 0.001749016 0.02440334 -0.036802877 -0.008270844 6.016973E-4 0.088518746 0.08885817 0.041418772 0.06550688 -0.027477652 0.061584655 0.0026217788 -0.07034436 0.032263648 -0.018728258 -0.04494471 0.02008807 -0.02702442 -0.004460554 -0.030713243 -0.055434372 0.001797543 0.018486986 0.0017695719 -0.06504218 0.0097414665 0.022202957 -0.064821355 0.0013712851 -0.020993145 -0.020006943 0.012784458 -0.028101126 -0.021425594 -0.0921241 0.029451992 -0.009474364 0.12700358 -0.13316242 0.052818775 0.03412614 -0.08497854 -0.122127034 -0.037418224 0.020869302 -0.027736062 -0.0051151286 0.1640047 -0.024469716 0.006943835 -0.05050457 0.02762093 0.23043561 -0.062184986 -0.058958914 -0.0049242573 0.08310702 -0.037307728 0.007862656 -0.11493449 0.03757242 -0.024054835 -0.10307129 0.060361676 0.040967952 0.004364776 0.077351294 -0.01321734 0.0045325477 0.063780926 0.02706099 -0.0060163476 0.11985074 0.057723496 -0.090189256 -0.005772731 0.088043086 0.057577264 -0.038050804 -0.0052878708 -0.1179739 -0.15486474
psychiatry -0.2959137 -0.3231981 0.07871421 0.036588166 0.03890142 -0.07186979 6.982733E-5 0.04281524 -0.026355822 0.10689298 -0.21465877 0.33902934 -0.13216904 0.06334904 -0.058762453 -0.03637461 -0.053797234 -0.0571782 0.14811242 0.2699225 -0.077389136 0.08579342 0.058865484 0.10515186 0.2466813 -0.21384004 -0.03306895 0.13572787 0.099978074 0.22796434 -0.02245578 0.19549328 -0.017335618 -0.33189312 0.025308756 0.045323122 0.18652818 0.03334207 -0.3765946 0.06692285 -0.07369542 -0.17663018 -0.1631191 -0.01685876 0.14058062 0.06927486 -0.2171663 0.04080728 -0.09893632 0.07104105 -0.4594251 0.05363023 -0.35156232 0.0070322026 0.012272105 -0.11638033 -0.08659051 -0.19597486 0.2916671 -0.12618674 0.07805723 0.0075299675 -0.1291841 0.10226729 0.32810935 0.15855342 -0.11393486 -0.10948722 -0.04768071 -0.11539169 -0.13692422 -0.16289026 0.1139533 -0.024216933 -0.15266693 0.0010232282 0.02888317 -0.2783427 0.15300238 -0.018745081 0.058598533 -0.08305164 0.11867165 0.027358172 0.2900693 -0.2261763 -0.11763158 0.1758448 0.11395808 -0.06368125 -0.048490547 0.17695679 0.22957079 0.07181458 0.32404384 0.4313838 0.18655904 -0.042868562 0.07082248 -0.10559115
change -0.034065682 -0.2192077 0.028140789 -0.26809296 -0.10975575 0.05704825 -0.20091236 0.09870683 0.07386667 -0.08821119 0.26067287 0.008399031 0.16740221 -0.24529877 0.14267169 0.20427103 0.0831916 0.56621367 0.3813945 0.04562527 -0.005134824 -0.069960885 0.3119583 0.27196983 0.0130818505 0.21122377 -0.06365544 -0.26993486 0.19758104 -0.16306949 -0.27705383 0.15031834 0.40588576 -0.39631543 0.24778478 -0.06694212 -0.05740483 0.084698625 -0.004392092 -0.13733914 0.17020713 0.009945183 0.2743648 0.25646257 0.33699363 -0.022013484 0.12763588 0.3405032 -0.08394861 -0.007845213 0.25594985 -0.17321496 -0.017529171 0.15444219 0.22961405 -0.13862947 -0.23487496 0.013057923 0.20117058 0.056635894 -0.20595667 -0.39766136 0.20804706 -0.14816318 0.05878376 -0.06937808 0.087581545 -0.12062348 0.09323062 -0.015138792 -0.010155162 0.07745194 -0.36062306 -0.05420239 0.24190322 -0.2470589 0.049953613 -0.23534909 0.25014538 0.23110607 -0.18643323 0.26874545 -0.19014427 -0.16912386 0.26326057 0.025829326 0.4061532 -0.12828551 0.389125 -0.06326086 0.31360087 -0.359292 -0.25311932 -0.49170586 0.2893853 0.027005363 -0.21511938 -0.09552072 -0.039795134 0.056018077
entity 0.0666123 -0.03445177 -0.2002851 0.13749418 -0.4304624 -0.037051313 0.18891986 -0.23631819 -0.028440995 -0.137841 0.31987152 -0.1029323 0.017403753 -0.030990819 -0.04928129 -0.23588972 0.03817785 0.40022808 0.0979121 0.063662425 0.15527166 0.021983823 -0.08510127 0.0982518 0.18922794 -0.096224256 -0.11466171 0.098867826 0.11259037 0.16932508 0.07166578 -0.15691215 -0.20267335 -0.17879257 0.00700578 -0.2839517 -0.25306445 0.1809481 0.22980772 -0.2855314 0.16014135 0.005242488 0.008085633 -0.26870307 0.4004422 -0.21917872 -0.0024011168 0.2717442 0.06448453 0.008600699 0.09617143 0.10176235 0.17349346 0.41201887 0.07141572 -0.033150617 0.06627558 0.28776714 0.0808669 -0.07529198 -0.1385786 0.16061072 -0.03205952 -0.09746681 0.15115201 0.3221208 0.12516096 0.08612968 -0.14075844 0.18391256 0.0071756407 -0.20066908 -0.14554663 -0.023891352 0.19232796 -0.1218328 -0.19780023 -0.124156795 0.0649913 0.1259392 -0.4285545 0.048299696 0.622871 0.23715214 0.14505382 -0.21199359 -0.28667516 0.14406115 0.21541844 -0.19799298 0.10104321 0.12947801 -0.091052875 -0.25663733 -0.074277356 0.019902442 -0.053641893 -0.2643389 -0.07678763 0.13748989
tool 0.10876906 -0.1225042 0.13097863 0.33823717 -0.13061915 -0.10278523 -0.034994196 -0.2375421 -0.046829496 0.17143823 -0.19649093 -0.16373597 -0.13103192 -0.21050449 -0.21161245 -0.16421153 -0.12525721 -6.260852E-4 -0.21714762 -0.055693172 0.15653707 -0.019455217 0.08791171 0.018624049 0.39113873 -0.021957815 0.13879927 -0.054666933 0.07523542 0.204816 0.1748458 -0.37380898 -0.21482486 -0.37161553 -0.009217104 -0.0015722559 -0.21881312 0.12225642 0.06407886 -0.043248676 0.0583801 0.1308812 0.08429073 0.061219946 0.32977507 -0.06937072 0.047472358 0.20104729 0.3437733 0.08648355 0.25074863 -0.17283972 -0.09401851 0.5646532 0.018773679 -0.25117505 0.110149905 0.070721306 0.19316836 -0.24622248 -0.099256575 0.09456221 0.015982587 0.024229825 0.08234991 0.4478494 0.22433065 0.12537046 -0.13597853 -0.1172296 0.15671797 0.040947005 -0.24752392 -0.120119825 0.44358486 0.11331864 -0.0025309364 -0.2268849 0.04616477 0.20105046 -0.22251846 0.2961914 0.14531785 0.08213164 0.004745506 -0.12288187 -0.30174628 -0.012742273 0.11206637 0.11793692 0.012415456 -0.010086392 -0.102065496 0.18667896 -0.17151996 0.13770518 -0.20239644 -0.24446814 -0.14332852 -0.08352267
stupid 0.09522979 -0.3185612 0.17740609 -0.049091544 -0.20597894 -0.13057612 -0.1170283 0.14265709 0.25249383 -0.106401734 -0.34428042 0.017215837 -0.1093293 -0.041850653 0.068105526 0.18343328 0.30594203 0.03868077 0.02879384 0.11752505 0.040199805 -0.17519681 -0.19010659 -0.15733162 0.051125564 0.12801825 0.06798876 0.017298967 0.20806566 -0.15308191 -0.07546388 0.124214366 -0.22358827 -0.081679866 0.0471041 -0.1113095 -0.2211542 -0.073501036 -0.2784695 0.15110232 0.1052863 0.07004365 0.17525202 0.098184854 -0.111604415 -0.11647061 -0.13808383 0.019566227 0.07147545 -0.08594603 -0.085111804 0.53332907 0.08888146 0.120048106 -0.12585363 -0.06126304 0.27620432 -0.16455328 0.04813312 -0.017777152 -0.15891123 -0.15409888 0.27641508 0.018631063 -0.0525572 0.118818946 -0.29495713 0.053376604 0.10897863 -0.30266368 -0.13317138 -0.022176491 0.06836573 -0.12148956 -0.16237955 -0.12560442 0.1510314 -0.1831098 0.10214675 0.03308263 -0.21416084 0.051480062 0.16848458 -0.11600521 -0.12072994 0.08422056 0.06779626 0.11614489 0.095390216 -0.08828813 0.012620422 0.18121576 -0.25936794 -0.019545618 0.09255921 -0.1096108 -0.01250691 -0.14341497 -0.3550129 0.04414704
precedent -0.13279703 0.0019672902 -0.045636073 0.06419243 -0.23343848 -0.3024368 -0.03067083 0.034443792 0.11777916 -0.07076523 0.12353754 -0.1435562 -0.07700902 0.106927656 0.27873582 0.21321258 0.20510006 0.18704966 0.056186948 0.27730596 0.1333199 0.15848677 -0.15616706 0.59840703 -0.11598168 0.21574128 0.009051539 -0.2453626 0.19533202 -0.088471316 -0.076134495 0.02498398 -0.21438368 -0.52426326 0.05820159 -0.031906042 -0.16118824 0.06188491 0.33200848 -0.17324397 0.08461477 0.35882825 0.29877383 0.047146667 0.045786984 0.16681257 0.024497777 0.25054032 0.25167042 0.017515918 -0.15435797 -0.40785575 0.06621315 0.049515244 0.17820448 -0.35809803 0.25046465 -0.09782525 0.27300873 -0.37801826 -0.59653366 0.041502263 -0.13939844 -0.03587451 0.27504128 0.22019087 0.619611 0.025742559 -0.2250052 -0.06768633 0.1939151 -0.24352647 -0.20077747 -0.1431157 0.35191518 0.07753713 -0.06621446 -0.07815203 -1.3427914E-4 -0.029627763 0.10600638 0.1519468 0.12960108 -0.08312631 0.30042395 -0.08408457 0.0036375306 -0.016585138 0.006678735 -0.15780675 0.40022132 4.430987E-4 -0.11937034 -0.034763094 -0.13507125 -0.04769502 -0.034095064 -0.2800162 0.21523418 0.12178442
architecture 0.19343865 -0.03125728 -0.018175794 -0.07866758 -0.2123814 -0.10633043 0.066534236 -0.21303082 0.036118895 0.05525636 -0.062179122 0.25348803 -0.083667636 0.075881384 0.021539433 -0.03900536 0.016820455 -0.120087765 0.32391638 0.18556112 -0.14636426 -0.09416641 -0.027918927 0.11510319 0.35402536 0.21973462 -0.0363832 0.07254913 0.071147114 0.034003735 -0.02890899 -0.006067718 -0.13972978 -0.05549826 -0.11755968 -0.071167745 0.044645265 0.073953986 0.031193541 0.00352425 0.113632806 0.21520011 0.05671839 -0.030881332 0.2749465 -0.13304289 -0.0320158 0.11163919 0.10865505 0.27520752 -0.08199657 -0.22426677 -0.32511982 0.060669933 0.26307142 0.11346685 -0.14458235 -0.03739227 0.10341497 -0.36088935 0.010844783 0.02175115 -0.013969776 0.025977278 0.31573507 0.262801 0.02150383 0.028411413 -0.18459296 -0.03440675 0.061974727 -0.24010819 -0.15626551 -0.03735385 -0.10716308 -0.042589188 0.116570435 -0.08605954 -0.04648108 0.15664831 0.0755052 -0.039903075 0.17433985 0.14367574 0.084657095 -0.34535214 -0.05204044 0.005473431 0.12631293 0.14056738 0.17953825 0.11378951 -0.06891899 0.06772628 0.17785455 0.16940181 -0.25572145 -0.15730928 -0.27936202 -0.2360861
consumer 0.085605 -0.0134630855 0.14696555 0.14554828 0.15120453 -0.1846172 -0.25890106 -0.3084785 -0.29149422 -0.11908965 -0.1281911 -0.22903813 0.10470548 -0.4235075 0.19217245 -0.06360264 -0.021916607 0.23022087 0.06907805 -0.30345383 0.23129626 0.22539508 -0.13823088 -0.09502598 0.20321417 0.3366633 0.16933729 -0.09137432 -0.02016214 0.28886142 -0.134371 0.07147466 0.08261021 -0.057458036 -0.15630102 -0.35947728 -0.10156588 0.19162132 -0.23392381 -0.07558625 -0.1326308 -0.025273465 0.120469615 0.11737448 0.14619564 0.03668996 -0.16120128 -0.05948031 -0.050610207 0.2837384 0.2954657 0.028608767 -0.15836924 -0.070236444 0.06720551 -0.008105165 -0.20581847 -0.2816199 0.120825045 0.17038047 0.14469194 -0.23508474 0.08781011 -0.020847501 -0.020355845 0.33921733 0.07363687 0.06987416 0.31942874 -0.23278971 -0.24671705 0.083669804 -0.23591836 0.16205207 -0.046718366 0.16664569 0.065259956 -0.034032203 -0.11376423 0.1478218 -0.15270896 -0.26774383 0.15836321 -0.15964434 0.49064115 -0.024957983 0.4055831 -0.21323591 -0.09547268 0.31917512 0.09685502 -0.04601678 0.10305101 0.068260595 -0.11518425 0.05304298 0.22919801 -0.16202833 -0.033845913 0.007456377
doctor -0.045274664 -0.0769804 0.18956605 0.28306177 -0.21987796 0.23947996 -0.16864997 0.14232449 -0.04314047 -0.20123857 -0.107530504 -0.267824 -0.31961015 -0.09498426 -0.12589 0.046638962 0.05053631 0.18610604 -0.48051193 0.27940628 0.17453688 0.25569293 -0.111899234 -0.03749012 0.44385317 -0.0015261564 0.22070535 0.08980405 0.14320508 -0.006517034 0.17837416 0.36525372 0.060845166 0.007670939 0.017235102 0.035846334 0.041509148 0.054004323 -0.008914239 -0.03257464 -0.044650048 0.12414959 -0.05889213 -0.052249655 0.21924596 -0.19628733 0.21325591 0.12115322 -0.2254769 -0.056761876 -0.304294 -0.09380459 0.07056817 0.40317798 -0.1351848 -0.22173005 -0.09632752 0.27846503 0.24269411 -0.05574694 -0.016392883 -0.3246791 -0.17099759 -0.044332735 -0.010510604 0.107473895 0.04211571 -0.46831697 -0.04792481 -0.11684021 0.031372588 -0.0029074796 0.049544808 0.14329803 0.24543856 0.20468305 -0.21976614 -0.11479417 0.084521435 0.08594843 -0.18886241 -0.1239353 0.1935907 -0.18623154 0.11850469 -0.24776438 -0.09633612 0.2150286 -0.015489382 -0.110498406 -0.23488192 -0.0036114107 -0.10348264 -0.05842588 -0.14731616 0.07308316 0.10866109 0.009705674 -0.0020232762 -0.123060554
cock -0.027077394 -0.07048215 0.03766359 -0.062722646 -0.0034111002 0.074690044 0.05295888 -0.012150614 0.0280088 -0.013885999 -0.007844523 -0.045512646 -0.010622326 0.0018236677 -0.011021249 -0.022715354 0.030650385 0.0441415 -0.026122592 0.032074444 -0.0048208605 0.044354882 0.010740626 0.08769638 0.07682123 -0.010217742 0.025722647 0.015780116 0.028424438 0.052592043 -0.0082232235 0.062013842 -0.004552256 -0.02689674 0.025789198 0.041055635 -0.041166116 -0.06605529 -0.028732294 0.0063493378 0.033919685 -0.002050063 -0.019761458 -0.020843925 0.0936751 -0.014980823 0.049694777 -0.055280924 -0.03043347 0.051157683 -0.022280859 -0.03362543 -0.050287884 0.016242258 -0.041803945 0.050524518 0.007941838 0.08179669 0.009334481 -0.10057474 -0.07476816 0.013405153 0.047752704 -0.028125161 0.04220135 1.6283277E-4 -0.059202023 -0.022762593 -0.052938983 0.014293613 0.098339364 -0.052148487 -0.01913905 -0.083890215 0.06003584 0.025506962 -0.094616964 -0.04406935 0.004705362 -0.0021452098 -0.033076067 0.012383088 0.10656582 -0.013934961 0.044875603 -0.025429212 -0.0023290168 0.038314782 0.09645779 0.0080286395 -0.059339978 0.0057771266 -0.06118511 -0.016244875 0.03961071 0.013931517 -0.035055116 -0.010274887 0.0042760423 -0.08734769
planet -0.15632957 -0.05578565 0.33734447 0.10340003 -0.1472088 -0.13807626 -0.03873674 -0.079552345 -0.06554614 0.089858904 -0.027360564 -0.41621274 0.16299058 0.09586173 -0.009249368 0.19443172 0.17422934 -0.05382791 -0.18105361 0.19358249 -0.2476528 -0.0014198552 -0.2429646 0.14456633 0.31511614 -0.4133028 0.18854626 -0.46902084 0.26692376 -0.26907173 0.0888475 0.2438325 0.099853806 -0.31681776 -0.23033525 -0.21647274 -0.2722284 0.15937823 0.30893886 -0.046807975 -0.24582694 -0.17986064 0.097575225 -0.22890262 0.37338123 -0.038097795 0.22079071 -0.016216995 0.033369064 0.1350728 0.29415074 -0.18154961 0.2412684 -0.1179621 -0.17679466 0.56468284 0.029723423 0.22539365 0.2964773 -0.21291877 0.025141021 -0.2324315 0.22496423 -0.13168722 0.32069975 0.15255721 -0.34471443 0.12525296 -0.31792155 -0.09986623 0.46409756 0.15510604 -0.091338955 -0.08095223 0.0033540733 0.079740465 0.0021827202 -0.108031124 -0.091984466 0.1427111 -0.022363553 0.089109115 0.082849674 0.07635804 -0.29271653 -0.23682788 -0.11532605 0.044240978 0.16735123 -0.0065350537 0.28694156 0.023422647 -0.4759184 -0.043042988 0.055682074 0.1606701 0.14739235 0.049655203 0.018902818 -0.04358267
software 0.021638943 -0.19644308 -0.47119802 0.035826407 -0.030091135 0.034279328 -0.065123156 -0.11014718 0.0128827635 0.25288334 0.118343875 0.23124099 -0.109413154 0.05329088 -0.11558227 -0.0025873617 -0.17073321 0.1166611 -0.16645305 -0.41903055 0.12733054 -0.14795308 -0.022321666 0.16505711 0.24564266 -0.032772657 0.27053556 0.3294091 0.07600786 0.10679188 0.15205392 -0.2524035 -0.18833168 0.10688572 -0.25363213 -0.17932007 0.0465949 0.05294039 0.03685871 -0.13803217 -0.20860487 0.06840221 0.07110007 -0.14035462 0.43042684 -0.07279767 0.044088073 0.31483454 0.59787244 0.11443825 0.27755663 -0.05141456 -0.10481429 0.31072816 0.029507658 -0.016965033 -0.049572397 -0.17474888 -0.018561142 0.09613517 0.13218237 0.008264973 0.25547737 -0.09407388 0.070645794 0.17502892 0.28098497 0.08252373 0.16802625 -0.35019243 0.058797814 -0.07870114 0.12102562 0.005343748 0.1632522 0.04376328 0.133442 -0.2558154 0.08879247 0.23042278 -0.16647428 0.024442405 -0.15952289 0.13132444 -0.09739526 -0.34082982 0.06281426 0.29668233 -0.021123085 0.20022756 0.07827286 0.17093487 -0.17794718 0.21529078 -0.15165357 0.1761775 -0.32768115 -0.16092041 -0.07125721 -0.07490584
personnel -0.027896388 -0.16454376 -0.10142772 0.15776737 -0.16279031 0.18444209 -0.10961217 -0.23963587 -0.25029224 0.22016673 0.053177904 0.4477551 0.02862931 -0.20332292 0.37368745 -0.1423366 -0.0032805924 0.23520736 -0.22562084 0.53526425 0.21951735 0.2280262 -0.309521 -0.048461135 0.12496875 -0.1794894 -0.10606712 0.12319472 0.30964875 0.05658534 -0.19655643 -0.4124285 -0.09016137 0.012708118 -0.026935281 0.19576606 0.13554826 -0.08069158 -0.17398879 0.2259538 -0.22181106 -0.17722102 -0.048250925 -0.32803765 0.13945895 -0.17753746 0.08355919 -0.28743425 -0.024100406 -0.0549287 0.057226546 0.3072623 -0.30974618 0.30269125 -0.15471388 -0.025291681 0.088047154 -0.15847395 -0.023142533 0.10318208 -0.1302931 -0.11784987 -0.11218871 0.05458017 0.13222833 0.06836973 0.31624523 -0.18664652 -0.081717625 0.08163462 1.4170929E-4 0.066007905 0.26748422 0.117420346 -0.13048154 0.2778094 0.10941645 0.23834327 0.14799765 0.1912617 0.067813635 0.012574271 -0.11518805 0.061869867 -0.066580206 -0.41246268 -0.07815034 -0.19905715 -0.2602142 -0.28523356 -0.03551039 -0.2539064 -0.029807188 -0.05126064 -0.3139779 0.25835046 0.13314001 -0.27509424 0.37311986 -0.3459557
bank -0.41872326 -0.039416783 0.019655848 0.23464471 -0.043178473 -0.20566182 0.0058788997 -0.05349834 -0.048587233 0.4064901 0.2255463 -0.21774471 -0.11521898 -0.10826857 0.1761163 0.28691006 0.20978841 0.03802454 0.18780763 -0.27772218 -0.20251325 0.31581527 -0.0852124 0.004789309 0.28875872 0.16935883 0.35798123 0.26069787 0.059149757 0.17954624 0.16413935 0.051663447 0.2527954 -0.07185469 -0.18902968 0.12542036 0.061044224 0.08231117 0.06575227 -0.14584114 -0.09221523 0.0025899094 -0.27568197 0.061596263 0.29792932 -0.3167584 -0.10413955 0.19244023 -0.18935846 0.047786757 0.35993236 -0.07393506 -0.062394187 -0.23412772 0.26411968 -0.012492591 -0.121387996 0.13802807 -0.06709498 -0.35566437 0.116241954 0.17845567 -0.32747725 -0.38692644 0.14257663 -0.01326167 0.07193911 -0.026118858 0.028373223 0.055751286 -0.2997462 -0.1262579 0.0040830625 -0.5425736 0.19880916 -0.054449186 -0.1917251 0.08366728 -0.17981674 0.13750723 -0.038548358 -0.63138086 0.10354937 0.1201808 0.39031366 0.19355264 -0.18865263 0.33462182 0.22972132 0.057666253 -0.0019542652 0.3207517 0.1678152 -0.23929957 -0.08073263 -0.17795484 0.17836095 0.10651124 -0.2872862 -0.06434536
victory 0.2634423 -0.14678524 -0.04764408 0.036667485 0.10641607 0.22780393 0.21095684 -0.033026166 0.28242308 -0.26334134 -0.16819537 0.012659264 -0.33050632 0.115974896 -0.27345031 -0.24892765 0.13746667 -0.08953501 -0.26618335 -0.08808095 0.023511847 0.17696992 0.072982475 0.35772663 0.07708111 0.06265592 0.1880865 0.040649857 0.07590333 -0.01613694 0.2398705 -0.24503152 0.28381643 -0.424676 -0.12765954 0.113791905 -0.5130682 -0.29871306 0.08989661 -0.15931568 -0.10414924 -0.08087872 -0.052665412 0.34969106 -0.033074018 0.08983405 0.2343941 0.34635526 0.0525539 -0.106263615 0.051138587 -0.39315286 0.17863576 -0.24849546 0.52072996 -0.37225533 -0.09864911 0.32481995 -0.30857727 -0.08398504 -0.39073858 -0.3474174 0.10900833 -0.14902224 0.03689786 -0.018361425 0.37387672 0.49459255 -0.092183135 -0.05304426 0.3909176 -0.06433515 0.09009451 -0.046090376 0.22111464 0.06367679 -0.07922299 -0.20121202 0.083997004 0.04585144 -0.09751397 0.047359783 -0.21299595 -0.3284162 0.22442174 0.07445759 -0.2188891 -0.38117352 -0.2567578 -0.2990186 0.14152217 0.26517338 0.17798822 -0.28542098 0.22591314 0.3301801 0.081695125 0.054048464 -0.07601377 0.24631375
bishop 0.069624536 -0.04599356 0.15997943 0.39825153 -0.10389434 0.261831 -0.09954378 0.18630615 -0.10561372 -9.500609E-5 -0.15667276 0.1301569 -0.15478308 -0.028248454 -0.11570688 -0.15572041 0.013334036 0.0103706755 -0.22921614 0.21612021 -0.04817015 0.09315801 -0.21873456 0.10244868 0.11949355 -0.21213284 0.018619832 0.020915117 -0.10735235 0.24599697 0.073326975 0.36977986 0.1316088 -0.27233478 -0.1349988 0.36181846 -0.053370595 -0.04075431 0.06527085 -0.056543846 0.07131753 0.23151793 -0.08360773 0.09127191 0.052833155 -0.26797658 0.30931425 -0.14059351 0.05498162 0.25743017 -0.2859678 -0.05646257 0.20598927 0.07585462 0.24901429 0.01717144 -0.16958195 0.275536 0.3846952 -0.10634933 -0.061874 -0.066287525 0.059763934 -0.023039538 -0.030062616 -0.1598806 -0.17661528 -0.16217892 -0.031150842 0.10304201 -0.029243942 -0.15520872 -0.06971623 -0.07867426 0.20553258 -0.08927054 -0.3404557 -0.036643464 0.13482033 0.08759985 -0.062201064 -0.18525097 0.069344826 0.043637842 0.40104312 -0.07904571 0.0154740615 0.18914886 0.014532733 -4.9253187E-5 0.28343698 0.09428346 0.20081773 0.009370345 0.21912801 0.076175205 0.013149151 0.18473414 -0.19564903 -0.09865882
country 0.20753767 -0.09760826 0.031446368 -0.20820372 -0.2084251 0.3007872 0.015993187 -0.05185106 -0.027059736 -0.113175645 -0.068719886 -0.37903044 -0.03830543 -0.23192258 -0.3161502 0.15909982 0.44161445 0.26199546 -0.037406214 -0.14919238 -0.30106497 0.3410503 -0.2882025 0.08921429 0.14835946 -0.09339407 0.12532538 1.4927383E-5 0.43491462 -0.027797682 0.21698055 -0.0552113 0.04069563 -0.05911633 -0.07594125 -0.066427454 -0.031487487 -0.16532633 0.37690344 0.06159093 -0.040220015 -0.056627944 -0.08330664 -0.019506082 0.40865886 -0.28988066 0.39115423 0.03267184 -0.11632816 0.15051128 0.23408365 -0.03365477 0.010343284 0.18847904 0.17655061 0.31600016 -0.0022192546 0.2315261 0.09711439 0.009163791 -0.2302108 -0.24610677 -0.12817311 -0.10451137 0.10700129 0.08228741 -0.30443463 0.047792956 -0.15003267 -0.09979248 0.12891501 -0.047422536 -0.09685555 -0.16730604 -0.022132011 0.100223 0.014106358 -0.04876693 0.014669263 0.111857876 -0.040824376 0.15102114 0.12155954 0.038454816 0.09364307 -0.04714868 -0.062038593 -0.116291694 0.13807659 0.007528515 0.05019372 0.16483377 -0.3355259 -0.20793657 -0.23111978 0.01484483 0.23329042 -0.06623462 -0.047674548 -0.068552315
sign -0.122050084 -0.24228859 0.26757345 0.15925214 -0.07584118 -0.06650854 0.021545872 -0.20291434 0.17997573 0.020534307 0.16705315 -0.109156474 -0.09064436 -0.06451803 -0.0542236 -0.18343446 0.05817586 0.041734815 0.21779385 -0.06999962 0.11293711 0.30141664 0.11109178 0.083900385 0.3747565 0.014177766 0.15225144 -0.025240347 0.00996534 0.21289232 0.17740302 -0.074644245 0.011880549 0.05288408 -0.07873411 0.30347627 -0.5769273 -0.023297835 -0.08669901 -0.025680425 0.16266768 0.07008483 -0.025406688 0.035436798 0.08735363 -0.10357313 -0.055834845 0.24303791 -0.26892292 -0.015426166 -0.09779342 0.1317344 -0.13802384 0.03187516 -0.4477871 -0.12269929 -0.13416567 0.07268506 0.1468959 -0.28416023 -0.24399765 0.007259443 -0.09307852 -0.031367134 -0.2325178 -0.0060326727 -0.024089824 -0.02674806 0.07802073 0.53685385 -0.033441838 0.14048463 -0.005016969 0.1867671 0.3854851 -0.22668783 -0.04515979 0.254674 -0.15541345 -0.009503232 -0.23181507 0.48473993 0.40478343 -0.31917194 0.34497997 -0.083870016 0.011162258 -0.1426541 0.18164909 0.05665766 0.19848011 0.056153983 -0.022745775 -0.12077981 -0.14117192 0.18256599 0.06571918 0.15676844 -0.24490526 -0.008753819
proximity -0.08634399 -0.1508431 -0.014516042 -0.20304886 0.13779458 -0.25887173 0.045968007 -0.29522967 0.018029194 -0.12131366 -0.12246424 -0.04380336 -0.20626526 0.038766082 0.002862941 0.16025952 0.39341888 0.18589602 0.0904272 0.009026405 0.014966894 0.10611242 0.04397268 0.0014989753 0.46357682 0.13823225 -0.034886915 -0.13685451 0.031029815 -0.03587033 0.041404426 -0.18371505 0.18277109 -0.102842145 -0.10437379 0.20301595 -0.19199443 -0.3048605 0.33898863 -0.17754802 -0.107655704 -0.019942213 -0.1474191 -0.0888557 0.5671127 0.0054752827 0.2916694 0.09137795 0.112553984 0.0029477621 0.0530102 -0.0967527 -0.2707594 0.012366302 0.04925877 0.26641178 -0.12707813 0.24288972 0.15115465 0.014216258 -0.28830096 -0.14198281 0.11142199 0.045765042 0.009806858 -0.14400314 -0.033348396 0.0065660714 0.014608288 -0.125651 0.2652528 -0.2252929 0.123793915 0.039257094 0.057082966 -0.11285859 -0.29540607 0.052357048 0.18180466 -0.1478797 0.15918903 0.14480306 0.25198555 -0.12650353 0.36421615 -0.25283775 0.036901888 0.104210846 0.053092323 0.20956688 0.044489656 0.041156303 0.039373312 -0.25836203 -0.122904785 -0.16708517 -0.022963192 0.10954035 -0.06606663 -0.17940414
earning 0.06327518 -0.139422 0.25769714 0.10673088 -0.08856449 -0.2360674 0.03524909 0.22082849 -0.051897645 0.07298841 -0.060330432 0.3037685 -0.035010934 -0.2626477 0.18664762 -0.13602492 -0.16515002 0.06256993 -0.03186932 -0.08007465 -0.10312982 0.063550316 -0.08570867 0.040371366 0.04268421 0.05334736 -0.21896279 -0.24922465 -0.02061245 0.065735854 0.023095556 0.054960497 0.09951389 0.16789898 8.131787E-4 -0.017221086 -0.02202833 -0.11400337 -0.13520798 -0.18647543 0.16415307 -0.11959804 0.02312981 0.19313782 -0.15512365 0.17596187 0.13311103 0.15866466 -0.26492634 -0.11315258 0.048901685 -0.12478249 -0.040992945 0.11593843 0.052958 0.06592079 0.06578334 -0.021613281 -0.23964226 -0.023596123 0.1021026 -0.06976166 -0.15170223 -0.037230644 -0.15600018 0.26165867 -0.04637933 -0.22836171 -0.22814178 0.18590136 0.081249334 0.026161935 0.3132388 -0.014409588 0.24391454 -0.3172328 0.0039031447 -0.040968776 -0.098204926 -0.3269442 -0.19910981 0.11300625 0.5162741 -0.099763624 -0.2654455 0.055167086 -0.15467194 -0.15354289 -0.1490651 -0.20264795 -0.45017523 -0.008517809 -0.019118166 0.03230272 -0.023443835 -0.2669056 -0.011783054 0.2600566 -0.10039738 0.12687567
similarity 0.102374546 -0.039444882 0.053118996 -0.10496154 -0.015054571 0.07020973 -0.007182048 -0.09897122 -0.0076731257 0.006475198 0.04581553 -0.12035917 -0.1284462 0.060310062 -0.12735067 0.028335918 0.23869345 0.13569205 -0.09670375 0.038382087 -0.012057267 0.05572598 0.19513822 0.13124439 0.18112695 -0.04390499 0.11538431 -0.054936167 0.1484396 -0.038853724 -0.13359687 -0.005887967 -0.0038344974 -0.15282685 -0.07763038 0.08414288 -0.13202037 -0.053911738 0.037692554 -0.08869349 -0.08889155 0.1337833 -0.018644596 -0.03429515 0.18282184 0.052243914 0.08900086 0.02589125 0.13636406 0.14850463 -0.11761239 0.042794116 -0.07338745 -0.023934629 -0.033166602 0.09929108 -0.06352773 0.11051236 -0.08817582 -0.11518776 -0.10166388 -0.021322723 -0.052635685 -0.017601289 0.1641119 0.05232766 0.075155884 0.13370821 -0.14817789 0.030029058 0.14729168 -0.014637297 -0.08901463 -0.113444835 0.12774059 -0.022435779 -0.13579457 0.022275455 0.11829973 -0.008703293 -0.030363465 0.005695427 0.17233819 -0.068078965 0.11889018 -0.06527632 0.09512088 0.1505319 0.07487089 0.01552636 0.0034496519 0.061597187 0.02277924 -0.18616167 -0.028033039 9.580089E-4 -0.12735617 0.08043109 0.089586996 -0.17390496
example -0.0060832305 -0.6034302 0.030131409 0.2601207 -0.09278942 -0.35392493 0.06893323 -0.3607009 -0.34406412 0.42940873 0.13715638 -0.03776455 -0.27453077 -0.17910522 -0.16940638 -0.14686204 -0.11549701 0.030907638 0.0281898 0.01645098 0.35739085 0.15202758 0.17242801 0.7612949 -0.61148906 -0.2698367 0.3054896 -0.10913502 -0.3087949 0.034838095 -0.40321782 0.005242028 0.0059353746 0.08409212 0.1935104 0.049419317 -0.24240834 -0.38940224 -0.020346712 0.03383851 0.18272474 0.023848848 0.33774024 0.26434898 0.44674432 -0.007907253 -0.20230041 -0.45661932 0.22141966 0.2582227 -0.08538615 -0.18414265 -0.2950869 0.17412926 0.67319536 0.14186415 -0.045194134 -0.36983037 0.6649386 -0.4492818 -0.51355696 -0.05187843 0.4030562 -0.37825695 0.69735336 0.22628376 0.42114332 -0.2698224 -0.032848347 -0.037969794 0.2035028 -0.36144578 -0.16277774 -0.1709633 -0.009942335 -0.17303482 -0.031524222 0.09488205 -0.1388405 0.036157057 -0.07060439 0.4010023 0.5986503 -0.15056986 0.05771148 -0.16631274 0.29977253 0.10972511 -0.01715669 -0.19886132 -0.1896694 -5.0004106E-4 -0.11583921 -0.06507776 0.024201158 0.3917458 0.5309318 0.0016061678 -0.46418172 0.042581175
day -0.030379163 0.35477817 0.052921064 0.0041815727 -0.23379003 -0.16030376 0.1987978 -0.10185682 -0.06460366 -0.087154165 -0.07980788 -0.24580847 0.040840514 -0.079135604 -0.16474448 0.16179776 0.052142322 0.2863091 -0.26893133 0.11303759 -0.13719556 0.03578104 -0.22152857 0.3695199 0.06277019 0.07066756 0.1773852 -0.12897961 0.063088894 -0.061193027 -0.0841802 -0.11214973 0.09558952 -0.25915733 0.047696605 -0.16287228 -0.42988288 -0.1390276 -0.06593814 0.07137271 -0.18670376 -0.17338508 0.15746877 -0.06878511 0.12419075 0.14489508 0.3298603 0.26177287 -0.22900404 -0.16534857 -0.019406054 0.05445271 0.13272221 0.1843405 -0.08494037 0.12634738 0.14586657 -0.037598517 0.17873052 -0.291298 -0.18660742 -0.13520925 -0.06582912 -0.19231462 0.2000979 -0.006904705 -0.28268722 0.006136444 -0.30528796 0.04933979 0.2597792 0.008178577 -0.15374212 0.13330485 0.3455303 -0.041619845 0.07297964 -0.08760621 -0.1562646 -0.00350893 -0.020605078 0.008650881 -0.013468623 0.13663232 0.34227645 -0.02162467 0.0397637 0.17776686 0.116818756 -0.11683429 -0.2321131 -0.18385465 -0.21328883 -0.12410501 -0.22842576 0.16450147 0.23753664 -0.07382 -0.2077604 -0.34527472
gem 0.062076636 -0.04047258 -0.04427159 0.10859263 -0.1271813 -0.055387933 -0.0061586513 0.03501487 0.049195506 4.2064398E-4 0.021846954 -0.114707895 0.022599164 0.16247791 0.15212578 -0.11076167 -0.014878116 -0.057440106 -0.058696624 0.11992418 -0.08313505 0.102318406 -0.11052347 0.14745764 0.26962128 0.06202829 0.18453947 0.05845583 0.028268343 -0.06641032 0.13815217 0.04482917 0.029156333 -0.03321046 0.120152265 -0.082228184 -0.27203453 -0.09451043 -0.016796619 -0.021474862 -0.091360666 0.06312259 0.0015730246 -0.011198911 0.1477241 -0.07317457 0.11777013 0.14749874 -0.04460525 0.051809862 0.012888436 0.02342776 -0.009823359 0.0818102 0.055998243 -0.017439974 -0.11251772 0.076385714 0.05901263 -0.3360139 -0.11539104 -0.06564009 -0.031582274 0.0013156191 0.1637556 0.1486447 -0.113906875 0.027492205 -0.1256699 0.0064902776 0.2530098 0.032767132 -0.1422545 -0.16071942 0.19998461 0.004591811 -1.8474543E-4 -0.10732248 0.08862478 0.09470823 -0.13914649 0.08338361 0.34872225 0.026642596 0.079586625 -0.06431562 -0.091211274 0.16005658 0.11149294 -0.008803037 0.22241688 0.054098617 -0.13753182 -0.10309373 -0.06343639 0.037414495 -0.11115849 0.009718504 -0.1698527 0.014676177
internet 0.09455454 0.013802631 -0.180007 0.18321757 -0.122227386 -0.07526006 0.1128381 0.07762069 -0.11832702 0.18349482 -0.0583652 0.123281404 0.014759799 0.06562254 -0.3108655 0.082606204 -0.031131646 0.012875424 -0.20652235 -0.075166516 0.22391188 0.26552686 -0.2918344 -0.08654295 0.2722585 -0.46864903 0.32558078 0.16049209 0.12181966 0.37931663 0.2827157 -0.18541062 -0.19760402 0.01935799 -0.38340315 -0.057695318 -0.15087478 0.041761197 0.19947165 -0.15537691 -0.05370773 -0.26867574 0.22632125 -0.00818013 0.123947665 -0.05902335 -0.06682699 0.34636113 0.12796265 0.34673163 0.45442647 0.0048045884 0.2405183 0.020001052 -0.030765705 0.36081097 -0.13068654 -0.13703015 -0.013669617 -0.14934744 -0.17734532 -0.07310564 0.13584301 0.11947187 -0.08349387 0.20752329 0.1302896 -0.2947225 0.008767766 -0.3102135 0.14311497 -0.019892333 0.066377036 0.15823922 -0.09811453 -0.05800878 0.010193184 -0.047424037 -0.16749845 0.27486426 -0.20853478 -0.06214142 -0.11394387 0.0874436 -0.07524034 -0.18152694 0.2596263 0.24891958 0.26196694 0.11123099 0.21649553 -0.15766564 -0.046822406 0.2650714 -0.08585109 -0.072449 -0.08457944 -0.102223136 -0.023683669 -0.08844427
rook 0.009623146 0.012500627 0.0045609614 0.006324279 -0.021273782 0.0038304282 -0.033177294 -0.0055713234 0.019028189 0.015685633 0.019345887 -0.049745943 -0.013221106 0.027868493 0.020281775 -0.011656197 0.024511676 0.0023692339 -0.042626414 0.0010570512 0.014266265 0.016314305 -0.0025455328 -0.017318362 0.045528885 0.019746242 0.018161185 0.0066835084 0.028752295 0.02664144 0.024215817 0.030005574 0.020490123 -0.01914581 0.03905239 -0.025629433 -0.05104675 0.016318083 -0.016874684 0.01630437 0.013173164 -0.0011793195 -0.0035619761 -0.027508635 0.036959473 0.0028913743 0.021012126 0.010549023 -0.021529047 -0.016653998 -0.012970148 0.02180704 0.015281234 0.021281583 -0.011119865 -0.009988957 0.019532435 0.02997108 0.01772007 -0.07634675 -0.039480694 -0.037475605 -0.012487011 -0.036202326 0.007261939 0.05325128 -0.014152063 -0.0015786022 -0.019643227 0.013901787 0.020452894 -0.01598533 -0.0064011924 -0.038152084 0.047535192 0.0041483813 -0.021885559 -0.013409102 -0.019916518 -2.5077688E-4 -0.048519712 0.028259104 0.053277977 -0.035080463 0.033587325 -0.033275653 0.0025558784 -5.8420283E-5 0.03628983 -0.0058942134 0.03377634 8.84934E-4 -0.012363902 -0.029510291 -0.006666143 0.0096479785 -0.01156223 0.02505588 -0.039401818 -0.012047267
galaxy -0.08772194 -0.0031472868 -0.11255746 0.021772938 0.095891476 0.14903833 -0.14764534 0.01644522 -0.15333042 -0.028703425 -0.052759714 -0.07389322 0.15393655 0.12117844 -0.004232074 0.13432382 0.22689849 -0.0016306972 -0.107888594 0.14265946 -0.17311929 0.3709622 -0.12059813 0.17017028 -0.048569046 -0.084701605 -0.04615916 -0.20615268 -0.011982798 -0.19172257 0.018354068 0.03270817 0.079032026 -0.04294149 -0.34167627 0.18509078 -0.006050275 -0.01959148 0.34514844 -0.043296862 -0.11737604 0.2389694 0.017086877 -0.13646327 0.16488309 -0.05970954 0.32726133 -0.030278454 -0.05038228 0.018625902 0.035317127 -0.30571288 -0.24555567 -0.025323452 0.046037767 0.3887457 -0.07093938 0.2635283 -0.13258381 -0.08604129 -0.34638295 -0.30920428 0.10808441 -0.15151247 -0.10312134 0.22405052 -0.0132974805 7.353598E-4 -0.2889721 -0.07210184 0.41165137 0.1733722 -0.2328148 -0.07880261 0.017721353 -0.033281017 -0.16882724 0.0074429275 0.014593997 0.11419213 -0.27042586 -0.009560298 0.19977067 -0.103797816 0.1156146 0.06358979 0.09201272 0.030948907 -0.073653534 0.06078282 0.08574032 0.0029969364 -0.1464159 0.1534755 0.0864467 0.20187481 0.11046078 0.025191706 -0.109492004 -0.025595432
insurance -0.1620639 0.03569745 -0.19775571 0.31956688 -0.26536497 -0.2527118 0.3435202 -0.11289341 -0.1958423 -0.21725084 0.054411065 0.32806578 -0.12763125 -0.552258 0.19957513 0.07762107 -0.15879557 0.23315151 -0.18137817 -0.1356097 0.026451075 0.17872265 -0.05244616 -0.10276673 -0.09811449 -0.15117025 -0.024642693 0.010734093 0.21280265 0.14871095 -0.08033448 0.10958713 0.070054874 0.12154005 -0.00847544 -0.39540577 0.030127108 -0.25339723 -0.018552687 -0.24098267 0.32045016 -0.30204153 -0.15024652 -0.16909973 0.015868437 0.09254123 -0.24396315 0.1363857 0.079575814 0.19899759 0.023781613 -0.13545497 -0.24885264 -0.047591638 0.1910121 -0.029774431 -0.18372533 -0.09048429 0.034809314 0.021278987 0.05934995 -0.38497823 0.01100532 -0.30228025 -0.3104813 -0.06926598 -0.012871672 -0.22849144 -0.16028568 -0.15054658 -0.54217154 -0.42371213 -0.0116128195 0.24026914 0.08387326 -0.014906259 0.24934307 0.11725511 0.38418153 0.25656942 -0.4043956 0.119016044 0.16027361 -0.27687213 -0.09062146 0.053164717 0.17049238 0.4419185 0.19576825 -0.013781972 0.030140933 0.22636195 -0.28951684 0.126717 -0.09927458 0.016146408 -0.121680155 -0.18440068 0.36137483 0.2593515
sex 0.22168857 -0.08765729 0.16903211 -0.009933056 -0.21082859 -0.12649292 -1.13028225E-4 -0.09818235 0.063483566 -0.0870755 -0.21075757 0.11893531 -0.12266289 -0.10766092 -0.37528068 0.0049693077 0.04875219 0.03053985 -0.33382925 -0.028010484 -0.12679352 -0.0020100165 0.18361329 -0.063017495 0.15246136 0.049654964 -0.12711306 -0.1360607 0.2172973 0.28228524 -0.3072213 0.3789559 0.11208744 -0.15394165 0.030174937 -0.2918425 0.13750277 -0.23507422 0.03726417 0.042360272 -0.119305015 -0.17279428 0.060174163 -0.16924591 0.012168526 -0.022253899 -0.32899788 0.08056252 -0.105057955 0.12692297 -0.07209725 -0.26424125 0.020908592 -0.18785328 -0.31355363 -0.47064406 0.09422001 -0.12042331 0.14805701 0.04952791 -0.087060004 -0.23633696 0.17019963 0.11315865 0.25262007 0.25465855 0.16523866 -0.16121815 0.054318346 -0.11553322 -0.012539608 0.25788474 -0.12140995 -0.25857624 0.10508249 -0.07953082 0.0635017 -0.031824965 -0.17944194 -0.07791706 0.13774912 -0.17137784 0.16999058 0.10336073 0.26954228 0.21457878 -0.12920648 0.13518186 -0.15226695 -0.35703045 0.0032987723 -0.13402812 -0.34693593 -0.0010755499 -0.080451354 -0.045415375 -0.28612292 -0.09311292 0.43160284 -0.07159814
evidence -0.24744926 -0.50810176 0.027741471 -0.09611803 0.2878104 0.28642744 -0.20674472 -0.19808961 0.034001853 -0.003328712 0.11651946 -0.11981954 -0.068480924 0.1223338 -0.12474408 -0.04884011 0.24300629 0.034289572 -0.07693804 0.11378271 -0.23285253 -0.060119867 0.04355235 0.33027053 0.19572619 -0.36265066 -0.15331614 0.017418353 0.26223207 -0.043249935 0.019132346 0.10471797 0.025401326 -0.23227797 -0.29367167 0.28308645 -0.034498934 0.044877306 0.20637359 -0.3637705 0.017842563 0.1784673 -0.025479473 0.09169902 0.02357763 -0.24883656 -0.3461261 -0.105018295 0.21411917 0.11566333 -0.14011 0.10049112 -0.17351022 0.039234046 -0.5242885 0.11466862 0.15052846 0.035375483 0.080452755 -0.17792283 -0.110635504 0.15824583 -0.3761898 0.048044257 0.31198907 0.36062092 0.37564123 -0.23878925 0.21851946 0.18635717 -0.030605346 -0.11040393 -0.09904469 -0.11820071 0.041945636 0.08856506 0.23272374 -0.034698285 0.17833498 0.051134877 -0.17742202 -0.03368898 -0.046926077 0.36362648 -0.009094 -0.19312495 0.20638047 0.20744544 -0.07128753 0.06325525 0.22607875 0.22274007 0.23457015 -0.060417365 0.01614204 0.17180568 -0.30014822 0.05856463 0.038136154 0.0136468
landscape 0.3000888 0.13684016 -0.034382578 0.040208023 -0.3147597 0.073580615 0.055744864 -0.08364872 -0.28434113 -0.115881786 -0.04294885 -0.10206206 0.1271056 0.122991934 -0.10440041 0.03623418 0.19438623 -0.29114693 0.03258756 0.07657196 -0.14767581 0.065758444 -0.11651566 0.24082379 0.25188527 0.03513156 0.05590167 -0.17640358 0.17999548 -0.11858442 0.23506558 0.04121283 0.0017478986 -0.24171922 -0.1101792 -0.08961836 -0.17998204 -0.02363461 0.16395259 -0.3521744 0.15703256 0.13124023 0.15956151 0.07579862 0.2527745 -0.05038814 0.19772582 0.09557291 0.25893635 0.36773092 -0.04704852 -0.11835253 -0.13626929 -0.015450551 0.09901239 0.21251889 -0.15834588 0.26948318 0.13816516 -0.19175193 -0.0015978554 0.07187422 -0.17170796 -9.553888E-4 0.24460977 0.17786969 -0.11333994 0.20841266 -0.1914091 -0.06983479 0.1018582 0.09022457 -0.018713437 -0.0029815333 0.021448905 -0.14554486 -0.03158305 -0.06877417 0.20645332 0.11999642 -0.015626369 0.056711998 0.28760853 0.19602433 0.16090089 -0.23347838 -0.14837965 -0.17515206 0.089896135 0.15278284 0.07197775 0.17914142 -0.21238346 -0.2190484 0.23712774 0.14488666 -0.18899973 -0.0071847844 -0.18762457 -0.124870054
lad 0.05633956 0.06121842 0.120961204 0.10205911 -0.018543826 -0.03750514 -0.17795913 0.11075457 0.10248104 -0.08544509 -0.04860211 -0.112050496 -0.13060473 0.09569435 0.061455775 0.007441108 0.07049858 -0.09009356 -0.15319991 0.078881845 -0.06573819 0.27144343 -0.14525455 0.20628077 0.29115406 0.077669665 0.07954376 0.047164522 0.10123201 -0.04692505 0.07948156 0.08889918 -0.003674545 -0.025198186 0.02533085 -0.020417217 -0.12363752 -0.15199143 -0.044775877 0.0012201245 -0.09213874 0.19492202 -0.024068402 0.15585184 0.10188148 -0.17220567 0.17742479 0.11800262 -0.084957615 0.076925725 0.0014925394 0.055471297 0.070770666 0.08534735 -0.10478476 0.033051327 -0.080445655 0.28497642 0.13482742 -0.1837849 -0.10724728 -0.20405647 0.044649694 -0.04333024 0.12358305 0.19444211 -0.041613184 -0.15896645 -0.13586454 -0.0318859 0.16153273 -0.06277452 -0.0987351 -0.16851647 0.11199554 -0.048324645 -0.04250209 -0.14797196 0.01805134 0.05499681 -0.1425927 0.13869986 0.3798 -0.19782755 0.17163736 0.08245621 0.01343573 -0.07771228 0.08718342 -0.123803474 -0.03934123 0.14043038 -0.034399103 -0.11142844 -0.06852353 0.059700873 0.0474376 -0.013641123 -0.05413135 -0.013290044
asylum -0.19015951 -0.13796255 -0.090134785 0.2940758 -0.06829457 -0.006094173 0.11972385 -0.1848969 0.36436045 -0.15859535 0.015866626 -0.1355147 -0.13660967 0.03279012 -0.396493 0.25781658 -0.0019637821 0.27567005 -0.28754708 0.27443352 0.092836015 0.25107747 0.094033666 0.09953383 0.1919833 -0.11936014 -0.1990245 -0.15912282 0.20714016 0.20892556 0.05628288 0.077383205 -0.03912687 -0.010617639 0.28456727 0.12441826 0.61473644 0.1605417 0.12977234 -0.33557302 0.22025734 0.13888985 0.47726986 0.053071246 -0.09709478 -0.006396016 -0.11862047 0.16671519 0.07102627 0.29966006 0.19524619 0.16520402 0.10751103 -0.044075724 0.19198932 -0.30911508 0.27840382 -0.15867373 0.26548025 -0.1702554 -0.3524704 0.18811937 -0.008643596 -0.010015314 -0.08311728 0.21362905 0.40724558 -0.14383438 0.21065854 0.2818886 -0.12994543 -0.22585595 0.17504705 0.039626338 0.006337386 -0.04289947 0.16069041 -0.05164017 0.010690619 -0.06545886 -0.17927152 -0.016314894 -0.0018461024 0.14588837 -0.093441844 -0.07665388 -0.18056868 0.31634337 0.073672004 -0.3894735 0.047834754 -0.055997044 0.26230624 -0.20061165 -0.19677775 0.2713694 0.1595088 -0.376845 -0.13237523 0.11158772
area -0.05968885 0.009431113 -0.11721939 0.11076678 -0.039158426 0.21462747 -0.06034884 -0.32553363 -0.029933896 0.07622481 0.18946923 -0.075495854 -0.087666795 0.11667474 -0.29037014 0.039527647 0.3365757 0.07235046 -0.08476313 0.18639626 -0.0602118 0.20611405 -0.030146247 0.17553547 0.01686347 -0.029438227 -0.10496641 0.1312293 0.16485931 0.1499211 0.16868497 -0.1582655 -0.052773587 -0.31467336 -0.048792776 0.099884845 -0.07421271 0.09182785 0.38990268 0.06847265 0.11287055 -0.012569646 -0.045591462 0.236722 -0.058103103 -0.21956155 0.23477952 0.0801579 0.0098557165 0.23166426 -0.038814705 0.03053931 0.16185333 0.022158086 0.25487432 0.32374543 -0.11716566 0.29285878 -0.05331976 -0.31447977 0.013289715 0.04791071 -0.13344455 0.052264504 0.15526384 0.07699996 -0.3706091 0.04620379 0.057305694 -0.107848644 0.26737937 -0.080793895 0.22422192 -0.014055946 -0.013921878 0.19655068 -0.1579251 -0.06108602 0.49956745 0.21151896 0.018007305 0.15867987 0.42467406 -0.086596504 0.1631138 0.025802933 -0.1709097 0.082664914 0.15101996 0.35575783 0.10383245 0.050175212 -0.112265855 -0.43635166 0.048173744 0.11990189 0.015569487 -0.117055774 -0.17444925 -0.106254965
disability -0.18116277 0.043526098 0.13990246 0.19757155 -0.16944641 0.010560162 0.21413097 0.043256707 0.058891226 -0.05854072 -0.29110497 0.24265544 -0.06226856 -0.05609023 -0.05230498 -0.09055321 0.058426846 0.25724718 -0.22781967 0.18811722 0.07429325 0.16207787 -0.1465586 0.0811734 0.06180208 -0.1743318 -0.082094245 -0.24256483 0.22565524 0.23820148 -0.13787688 0.18190256 0.03407722 -0.104437485 0.2692953 -0.20305033 0.0037329905 0.021004375 0.025055103 0.08885733 -0.12591758 -0.19138734 -0.1926505 -0.14245749 0.10000774 0.13104764 -0.30881232 0.058654185 -0.11846687 0.40874383 -0.088755704 -0.17957292 -0.18323359 0.17421387 0.10100096 -0.3431542 -0.18798792 0.07639118 0.04946303 -0.01896408 0.05499817 -0.2041747 -0.115386076 0.06548619 0.051075995 0.3284739 0.040373076 -0.24998578 -0.101947755 -0.045949962 -0.121526405 0.09106166 0.23040877 0.17319188 0.13111347 -0.10731081 0.054355204 0.01383938 0.13598025 0.09340644 -0.045483205 -0.008506234 0.2605265 -0.2163685 0.22880656 -0.0015376535 0.0065694926 0.18355308 -0.021869991 -0.2675811 -0.22995697 -0.24312088 0.05170443 0.20989741 -0.07866207 0.06968245 -0.13286611 -0.09144395 0.2069386 0.2680136
