417 200
plane -0.1303875 0.13069 -0.12830457 0.10161413 0.0729033 -0.25315797 0.053721584 -0.019412534 0.031040166 0.011884314 0.01866841 -0.07587349 0.21828961 -0.13868318 -0.1597449 0.07931195 -0.15418504 -0.014551592 -0.030008744 -0.021827094 -0.02055778 -0.1315526 -0.05832902 -0.09071075 -0.08711382 -0.06505726 -0.080715805 0.2206748 0.07142977 -0.0066100014 0.08486186 0.17412315 -0.12277342 -0.03346066 0.04506072 0.0027552648 0.1100986 -0.15303417 0.20431721 -0.21284987 -0.080305494 0.2301905 -0.0040432257 0.04512045 0.0944418 0.3460715 -0.080049254 0.124911696 0.04071328 0.2846269 -0.077741735 0.034684222 -0.14410535 0.020044781 -0.3436027 0.2876583 0.14441672 0.035877485 -0.071464054 -0.12209548 -0.03271339 -0.29901302 -0.076551266 0.21723828 -0.17368811 -0.11716112 0.20079719 0.09801416 -0.1924187 -0.098613694 0.2694211 -0.0029081248 0.12358539 0.09016798 0.052616928 0.13167106 0.09762368 0.08322817 -0.12942384 0.035721786 -0.06721446 -0.18850033 -1.07784144E-4 0.0016985494 0.05099012 -0.08772568 0.04116067 -0.09510146 -0.11595033 -0.08963128 -0.3722052 -0.14443162 0.27121705 -0.11395312 0.08846255 -0.03277347 -0.061033897 0.22652441 -0.06630504 0.22294305 0.009715761 0.08608644 -0.069117226 0.038787894 0.0030237376 -0.11484318 -0.12848209 0.129256 -0.21768449 -0.04244617 0.15202345 0.07917028 0.16490659 0.34724355 0.092422105 0.19617277 0.148408 0.17904377 -0.011563936 -0.030924505 -0.22966175 0.063706465 -0.103737734 0.11710131 -0.34088925 -0.2447172 -0.105955936 -0.048546806 0.04530801 0.16279323 0.26239356 -0.010615443 0.0039844452 0.114198945 0.12982515 -0.010615573 0.102411225 -0.11918695 -0.18515782 -0.01933038 -0.11258634 0.023271048 -0.11146228 -0.25865445 0.08807036 -0.20593168 0.04495348 -0.006641336 -0.063014925 -0.028775074 0.08591252 0.037827257 -0.10403883 -0.19443578 0.06383082 -0.2234146 -0.029318372 -0.085978135 0.22131789 -0.2273131 0.08294533 0.14307655 0.055910714 -0.018205715 -0.13438006 -0.020338614 0.045702986 -0.10888701 0.0046631102 -0.07003753 0.16865548 0.12160737 0.12558459 0.0010385253 -0.18677635 0.28276658 0.060103007 0.027459705 0.03505234 -0.0142211905 -0.07265762 0.06235417 0.15086435 0.04231944 0.0632981 -0.15070395 0.03609133 0.05101557 0.07636036 0.06607284 -0.09537562 0.09933795 0.0054296562 0.08397399 0.15777905 0.041438162 0.016903315 0.04145936 -0.0715813 -0.013035431
stupid -0.09783683 -0.010637649 -0.020914232 0.034785304 0.03705662 -0.07868251 -0.04198141 0.056850873 0.008193431 -0.010285562 0.053992238 -0.0607843 -0.052006178 0.11504219 0.048931606 0.12709223 0.008994588 0.009347183 -0.03695509 -0.13143115 -0.03811571 -0.13566028 0.018905327 -0.036280423 -0.048698835 -0.10389241 0.028602716 -0.09551437 -0.21631709 0.0132193845 -0.1447807 -0.0062908456 0.07724904 -0.07938182 0.112089075 0.039073914 0.073271625 -0.10623915 0.09354944 1.710816E-4 -0.04224581 -0.046146106 0.07637816 -0.043254334 -0.057824366 -0.02025825 -0.03250074 -0.21394993 -0.052864525 -0.050045863 0.03588509 0.070706405 -0.047959704 -0.03378962 -0.015677372 -0.061166134 -0.072738245 0.04182646 -0.09217932 0.0419325 0.013674918 0.12218019 -0.04501787 0.027178321 0.07632201 0.12754896 -0.007560578 -0.1380977 0.050342094 0.019818453 0.0021665907 0.15786393 -0.25725678 0.055800144 0.03492714 -0.02234674 -0.06501218 0.012303445 -0.046038985 -0.089163594 -0.041755173 0.06980813 0.030524071 -0.10687053 -0.08755835 0.009326365 -0.04135686 0.07176758 -0.12925835 -0.08044296 0.10114384 0.034870498 -0.0377974 -0.06538241 -0.06785131 -0.024647053 0.014245994 -0.13299944 0.045028068 0.0573954 -0.0047582122 -0.0013875829 -0.04952006 0.012042091 0.113777705 0.09799719 0.11155228 0.019992454 0.012327045 -0.049571704 -0.07095853 -0.004131609 0.06445654 -0.030348457 0.076845825 -0.053025443 0.042546503 0.009744092 0.047936954 -0.07931476 -0.08812255 -0.030507822 -0.05387995 0.027930778 0.012912894 -9.908106E-4 0.07454412 -0.032225847 -0.039417133 0.019219512 0.062706195 -0.035544906 -0.026012724 0.10139248 0.101268195 -0.06555691 -0.02167627 -0.016227338 -0.0014774214 0.01859534 -0.025611129 0.009550396 -0.013639575 0.04689263 0.07489186 0.058433183 -0.08613763 0.060825333 0.07382787 0.08682223 -0.088776514 -0.01816011 -0.06149008 0.032407716 -0.008226029 0.04263276 0.0050831684 -0.017189773 0.12265848 0.15828519 0.04865567 0.06154755 0.088325016 -0.043984305 -0.07522465 -0.022458684 -0.019836912 0.04272015 -0.06441973 0.012720861 0.015129836 0.103743516 -0.047908667 -0.054641712 0.09058926 0.13768531 -0.06596305 -0.024768746 0.013705037 -0.015269131 -0.019101365 0.096815385 -0.03558503 -0.106964394 -0.08726778 -0.06257172 0.04872848 0.05027376 -0.05054603 -0.086290486 0.0010321147 -0.12030961 0.08204919 -0.045287296 -0.035291817 -0.07171785 0.07123909 -0.079454616 0.005132137 -0.14746739
egg -0.06301721 0.032133155 0.055070475 0.035615183 -0.061938547 0.025476256 0.011013823 -0.013738379 -0.058808547 -0.03368316 -0.06751338 -0.077409916 0.06907106 0.024824314 -0.04243788 0.018863536 -0.022712277 -8.799004E-4 -0.006446191 0.05263372 -0.08032343 0.1674682 0.033938743 -0.04087076 -0.003142222 0.098803386 -0.14130321 0.022708591 0.057632387 -0.028301401 0.033344083 0.054264948 -0.020943364 -0.091812536 0.025598451 0.016697163 0.007339436 -0.019534051 0.16936545 -0.046387956 0.0058681797 0.008579772 0.12985317 -0.09954993 0.053584985 -0.038377292 9.9047174E-5 0.04074931 0.022169672 -0.07725048 0.022623546 0.0060664243 0.01497412 -0.010914528 -0.12838447 -0.049582902 0.07947225 0.11433235 0.119298555 0.033554483 0.121128656 0.043097332 0.04686744 0.19797738 -0.057634003 -0.07263521 0.06715607 0.026170252 0.012175228 0.002217118 0.13483849 -0.08061422 0.018875897 0.03176059 0.006155417 0.08396216 0.063434154 -0.048038222 0.014344485 -0.02909018 0.07315834 -0.053291433 0.013949057 -0.008483946 0.05951184 -0.020045185 0.07180553 -0.026915437 -0.08553766 -0.04970181 -0.03722014 -0.072470084 0.06481758 -0.042661335 0.035258032 -0.041851543 0.07329358 0.028221104 -0.032808702 0.0045943693 -0.014602552 0.05730958 -0.052685097 -0.025667662 -0.041333593 -0.045582063 -0.036268253 0.11553989 -0.024176648 -0.025427664 0.021783682 -0.09190991 0.14902431 0.05259381 0.0068932874 0.027723508 6.4490584E-4 0.05716176 0.03267817 0.023783674 -0.027044065 0.14033434 -0.060356747 0.058518387 0.030317273 -0.054223776 -0.009661502 -0.0062326062 0.043288536 0.012284359 0.04889358 0.01921997 0.08597324 0.04572469 0.0319244 -0.08924335 0.021401536 -0.029514074 -0.017865788 -0.027177718 -0.044278916 -0.01295021 0.015728183 -0.026190335 0.02967834 0.011565442 0.015803056 0.025318231 0.09603466 0.019722993 -0.010392316 0.061197527 -0.013649813 -0.018113792 -0.0022135114 -0.009393472 0.15302074 -0.050131682 0.07406817 0.06763183 0.008833525 -0.0032118703 0.084397584 -0.10265538 0.10159221 -0.096099205 0.1000166 0.011846941 -0.03668336 0.16608468 -0.009323173 -0.035622742 0.02138208 -0.015785892 -0.054399595 0.07377686 -0.067401 0.046452627 -0.0019092198 0.11806575 0.01846449 0.054557405 -0.06337011 -0.040094975 -0.06086856 -0.008405982 0.036422223 -0.009375001 -0.01293778 0.06219 -0.09263688 0.06941166 -0.02620662 3.4542047E-4 0.0016926469 0.012794155 0.008405302 -0.11226412 -0.058920622 -0.037669368
year -0.20116669 -0.14713956 0.19527173 0.35492676 -0.20985346 -0.006417006 -0.04138586 0.18230721 -0.076886214 0.12701301 0.09741277 -0.21625163 -0.35736665 0.22090878 0.17491575 0.23630573 -0.053848524 0.014569457 -0.2555231 -0.28216988 -0.12583645 -0.1498438 -0.19707395 9.650648E-4 0.043084983 0.05857784 -0.2747359 -0.21041773 -0.018436192 0.20156208 0.08146185 0.06625265 0.048478335 -0.15630339 0.13333245 -0.02537273 0.096326515 -0.35341018 0.26556948 0.23525344 0.025054082 -0.06647664 -0.0763248 0.1960223 0.11422125 -0.1528128 -0.25393125 -0.06662223 0.16569433 0.0834913 -0.2020981 0.28872192 -0.43974835 0.08989486 -0.36326504 0.082065836 0.15988782 -0.5351176 -0.27804804 -0.031687323 -0.15033431 -0.18415129 -0.09773443 -0.07614909 -0.28899074 0.13450445 0.13248266 -0.370659 0.025813086 0.25826377 0.2480603 0.32595474 0.0995945 0.22276315 -0.14418343 0.043901093 0.0788666 0.13710535 -0.20244338 -0.15377682 0.17393081 -0.020731555 0.2283977 -0.29747537 0.036972348 0.10024497 0.3023733 0.14069736 -0.10344707 -0.35409793 0.20317857 0.020335933 -0.13778807 -0.09041121 -0.070235975 -0.10501738 0.25301716 -0.08790044 -0.088896476 0.18197125 -0.11240093 0.17683692 0.15457156 -0.24728245 0.09235446 -0.13560316 0.3884405 0.17875658 0.12978525 0.14864433 0.017955005 -0.015053682 -0.32132795 0.13955085 -0.04518886 0.024600118 0.2283785 -5.366643E-4 -0.32455933 0.021683963 0.22580631 0.043982092 -0.41254395 0.1586635 -0.08689623 0.25132093 0.44179052 -0.13462676 -0.025261557 -0.002891784 0.08857468 0.17130879 -0.0145799 0.19840316 -0.16917337 0.25294426 0.028650306 0.1562242 0.12322257 -0.20772804 0.1501696 -0.29298466 0.16753924 -0.25506622 0.045274843 0.14038773 -0.24220571 0.3207667 -0.08949498 -0.11468206 -0.028354319 -0.033888508 -0.13809717 0.015561112 0.2562286 0.074551076 -0.060122624 -0.35466173 0.25473985 -0.20823109 0.15705378 -0.02468016 0.22236308 0.11953454 -0.063647635 -0.23156837 0.09607554 -0.006636625 0.08076649 -0.11636212 -0.0060093733 0.015637768 -0.12087979 0.11347083 -0.20304483 -0.31081742 0.0045665726 -0.023205087 -0.14549734 0.06327857 -0.13456063 0.3591059 0.06488312 0.036143277 0.24556297 -0.22091733 -0.14366233 -0.012776783 -0.14072008 0.05341282 -0.33276576 0.0071563767 -0.057209264 0.1249187 -0.34020507 -0.31568697 0.021804055 -0.090245865 0.33580214 -0.19601819
psychiatry -0.059784748 -0.07781552 0.10173193 -0.0035195106 -0.013254699 -3.064432E-5 -0.03681559 0.0019126832 -0.04015122 -0.0161971 0.024080321 -0.034792352 -0.00843021 -0.12286352 -0.025791083 -0.093689665 0.06154009 -0.017288283 -0.001248534 -0.123635896 -0.005360903 -0.0069687683 -0.003995276 -0.036200117 0.014068882 -0.05427147 0.03009125 -0.01700879 -0.06340191 0.022497859 -0.040134195 0.037393987 0.094597794 -0.010732281 -0.0763618 0.05744978 0.11317116 -0.049695414 -0.03951144 0.05375182 0.0601915 0.02709192 -0.056920845 0.06498616 0.0012211587 0.04923745 0.006220024 0.007011587 -0.0724764 -0.06324482 0.07293294 0.04596136 0.056017548 0.034243118 0.056349292 0.029014664 0.0676518 0.011841089 0.008639875 0.018283235 -0.04748667 0.12926094 0.025010897 -0.010810706 0.016819809 0.086914845 0.027375262 0.098606355 0.05251376 -0.037307274 -0.034527026 -0.03346942 0.0038161709 -0.02298227 -0.025148954 -0.00578326 -0.007914128 -0.032059625 0.012778505 -0.0037259227 0.034966964 -0.027678339 0.05874312 0.03215903 -0.069336705 0.032978103 -0.035580676 0.040770605 -0.05897049 -0.044071265 -0.024514522 -0.09234527 0.0049651098 -0.0035550818 -0.03714676 0.0142994905 0.07962978 0.036402166 0.074125916 -0.06929154 -0.053507313 0.06380628 -0.08649475 -0.0732623 -0.024687175 0.01232653 0.0034899858 -0.0076366975 -0.002943312 -0.07279492 -0.06244455 -0.035948396 -0.0330801 0.043652933 -0.005209996 0.031774804 0.009031399 0.0052503007 0.010832301 0.05842036 -0.0035645356 0.03988953 -0.06415416 0.04389593 0.02507563 -0.017247586 0.023023203 -0.072766125 0.009533975 -0.0070560994 0.04486229 0.06327431 0.068147175 -0.032517545 0.10933984 0.0727229 -0.027460458 -0.02175454 0.028206121 0.01459662 0.0049436437 -0.05067343 0.06117856 0.0874385 -0.053437766 0.021633923 0.05734552 0.012571776 0.009347988 -0.024934446 -0.03846035 0.0786979 0.07427814 0.07431568 0.02075224 -0.09257297 -0.013458399 0.03346222 0.016525645 0.041151725 -0.012691907 0.014003779 0.046382118 0.031295322 0.053358622 -0.018286843 -0.036170643 -0.0129922265 0.046795294 0.0028145104 -0.038432326 -0.07753294 -0.059197094 -0.0364575 0.109454915 -0.034550045 0.016691914 0.020442523 -0.05935712 -0.001436561 -0.07144828 0.1266803 -0.06935401 0.036454827 -0.120999865 -0.039264094 0.050543904 -0.030002592 0.02483531 0.044130545 -0.03271962 0.03500663 0.045795217 0.019926876 -0.051922627 0.053649474 -0.025549762 -0.024192179 0.0542304 0.017796308
asylum 0.0016725013 0.016357454 -0.014287213 -0.10822267 0.020926751 0.102043584 -0.07257418 0.034985017 -0.012341928 0.008975915 0.05311931 -0.08994675 0.046213243 -0.0914574 0.052187297 0.03986195 0.0375438 -0.032892726 -0.026969243 -0.059465237 0.11804676 -0.11406722 -0.103510655 -0.04489707 -0.09340226 -0.022543915 -0.03273431 0.08743845 0.026562763 -0.009952543 -0.0041945498 0.07032702 0.040682614 -0.01380895 0.060584426 0.02460537 0.13727601 -0.092723705 0.021859575 0.0180689 -0.0042441683 0.12115986 0.0011528378 0.123764515 0.04035395 0.006416538 -0.02639611 -0.04637588 -0.016881073 -0.011801481 0.03278275 -0.07965893 -0.0029119404 -0.0554674 0.080781 0.031203588 0.08892935 0.028825987 0.010350462 -0.01988516 -0.079484195 0.081138514 0.03972155 0.086493954 -0.03733684 0.056729186 0.008942251 -0.002386376 0.086687595 0.027622966 -0.03938692 -0.017501678 -0.0042782575 -0.0025770448 0.016575197 0.028363222 0.08752627 -0.05581684 0.062403757 0.013087383 0.05607313 0.019365111 0.036386523 0.032092948 -0.10942827 -0.07343566 0.044933006 -0.012417449 -0.0149176605 -0.068488 0.07441183 -0.0817304 0.041163962 0.03750093 -0.14339484 -0.061330684 0.041307002 -0.0016063363 0.0026263716 -0.016554404 -0.06187698 -0.06963766 -0.11294267 0.0038107594 0.02575378 -0.041111127 0.0452828 -0.019800056 0.08134918 0.02666139 0.057025667 0.0073741116 -0.015030939 0.025939513 -4.4922918E-4 -0.026574984 -0.13633743 0.006279627 0.049683757 0.14733568 -0.06823036 0.087796316 -0.040804803 -0.05409006 -0.0633738 -0.07648772 0.122428946 -0.05781986 -0.108280376 -0.0143944975 0.010614326 -0.032748096 0.027082026 -0.042233508 -0.0047200583 0.07491663 -0.11391761 -0.0030134704 -0.009020586 0.022766354 0.06665903 0.0046033915 -0.014582314 -8.0315175E-4 -0.04568499 -0.06577899 -0.055524483 -0.054091793 0.005333503 -0.01817713 -0.0017671643 0.0508569 0.018353427 -0.051852126 -0.025562312 -0.0620558 0.05373624 0.11461581 0.027636535 -0.031042293 -0.072450295 -0.029288314 0.058478754 0.039295368 0.03247146 0.028937217 -0.052216075 0.008350611 0.03856319 0.016307969 -0.058203246 0.045058712 -0.005244149 0.02022725 0.054625593 -0.019142365 -0.097259946 0.10664067 0.10645187 -0.05773199 -0.023025565 -0.023270242 0.040997755 0.068422474 0.013257136 0.046438422 0.05780222 -0.12104584 -0.083679646 0.04263119 0.013394951 0.06891252 0.03244224 0.06622142 -0.07491961 -0.079849094 0.01211175 -0.0780362 0.0393366 0.09490154
manslaughter -0.24010856 -0.09290137 -0.009225155 -0.08789866 0.10268763 0.08486023 -0.14082175 0.0122622885 -0.072188534 0.050460942 -0.068337224 -0.07224397 0.15304868 -0.22412847 -0.029520975 -0.08855317 -0.11645914 -0.06869328 -0.15786548 -0.2051541 0.022304533 -0.009569693 -0.116010115 0.013350464 -0.076326825 -0.031952135 0.11795232 0.11210195 0.022921288 -0.032627024 0.01901388 0.061749656 0.015261368 0.1424654 0.026406655 -0.08386767 0.168628 -0.09491341 0.014174083 0.0570794 -0.06177734 0.0805184 -0.22528048 0.007278207 0.07302444 0.08544714 0.015087525 -3.8746424E-4 0.09911199 0.006431193 -0.06994778 -0.05653524 0.11555923 0.048186943 0.14618886 0.050291482 0.1650908 0.10083427 -0.017375572 0.055277616 -0.12329902 0.10027974 0.07059107 -0.011170518 0.039196983 -0.090142 0.07781792 0.03860438 -0.037561532 0.010212787 -0.050081138 -0.10414476 0.1282986 0.047151413 -0.04644011 -0.02425924 0.10682348 -0.16031986 0.07168116 -0.16933846 0.051135574 -0.11206407 0.091228686 -0.018232038 0.1280324 0.01908993 0.09793094 -0.0055887275 -0.0672705 -0.01243983 -0.10330444 -0.15843073 -0.09289396 0.026534934 -0.05856768 -0.015526947 0.16391501 0.0483373 0.015485546 -0.08298588 0.049210615 -0.014086945 -0.05735037 0.10324137 -0.054359198 -0.14467725 0.040974393 -0.009378633 -0.0127502885 -0.029220145 0.069781266 -0.102937356 -0.026444096 0.11986771 0.11249337 0.08809088 -0.031274315 -0.012357836 -0.018816216 0.23108059 -9.3578186E-4 0.10082647 0.07012355 0.10874781 -0.13787135 -0.014619866 0.036842816 -0.040907133 -0.024270816 0.03459688 0.06951856 0.06437327 -0.030658243 0.08724241 0.025344765 0.1799396 -0.040228307 -0.11695991 0.014647424 0.030042846 -0.015195915 -0.09415637 0.1139454 0.12115186 -0.011974411 -0.12464348 0.06954704 0.0592863 -0.045895264 -0.045004338 0.038746834 0.16979447 0.09914788 0.06868678 0.13877387 -0.086435914 0.017876832 0.04379054 0.07092775 -0.03732599 0.014454821 0.014679101 -0.039551705 0.019655759 0.12977433 -0.08685362 0.034418304 -0.033682354 -0.02684026 0.041424837 0.01641534 -0.22860803 -0.15477963 0.04534649 0.108018726 -0.061777618 -0.059623286 -0.0023072716 -0.049897853 0.06383872 -0.092374295 0.10240244 -0.13764004 0.20252599 -0.072033055 0.0013551736 0.15584512 -0.07273255 -0.08188881 0.16870338 -0.024686046 0.13136785 0.033453744 0.033573072 -0.13911326 0.09668444 0.011007258 -0.029459443 -0.01764941 0.15024371
music 0.026576132 -0.033341516 -0.06992966 0.2501147 0.18148144 -0.12873717 -0.16908553 0.049975757 -0.1196724 -0.049386073 -0.106529534 0.2563943 0.025996335 0.030353364 -0.1768518 -0.02241223 -0.0065299803 -0.22809528 -0.0517519 -0.07546689 -0.08228888 0.2688007 0.0021849389 -0.2814044 0.16307676 -0.1651548 -0.13711427 -0.15179826 -0.06288214 -0.1297077 0.004440845 -0.003968161 -0.16128102 -0.20344429 -0.22494894 0.12612025 0.13870296 0.0057074917 -0.082096055 0.13754411 -0.06588031 -0.048720118 0.14750302 0.057214774 0.0016489907 -0.1966612 0.14609334 0.15102668 0.055386055 0.109846584 0.025199352 -0.002725935 -0.085121326 -0.15250747 0.08122841 -0.015995177 0.018021917 0.096005015 0.13060541 -0.02432852 0.044490024 0.18506321 0.052377492 0.24102446 0.07544783 0.07271893 6.948946E-4 -0.08942307 0.13056111 -0.028083326 0.2928006 0.004390093 0.036949378 -0.07806975 -0.13644862 0.18177326 -0.16966246 0.051942836 0.17291501 -0.123775974 -0.20802493 0.02318351 -0.061121367 0.15849239 -0.1101151 0.054005727 0.11660713 -0.008598322 -0.2383697 -0.19344944 -0.018301878 0.11040048 0.054767042 -0.07349012 -0.097001806 -0.11930099 0.12618797 -0.13488038 0.13217898 0.093693264 0.15870693 0.041856237 -0.067733094 0.041112643 -0.14146347 0.04374493 -0.0118791675 -0.03985707 0.15261072 -0.1422645 -0.10662764 0.008852579 -0.13945204 0.012834623 0.062179897 0.01274267 0.12975428 0.1791767 0.13997047 -0.002913164 0.073691666 -0.13966888 -0.32786906 0.18975307 0.17688346 0.13097769 -0.23645617 -0.18390118 -0.34270898 -0.01958655 -0.14357789 0.17697284 0.22153729 0.11543919 0.004202173 -0.11287017 -0.14676817 0.07680492 0.088082746 0.23724236 0.16817036 -0.31368113 0.03718183 -0.042374685 0.22088327 -0.18579 0.06693334 0.01053514 0.09489966 -0.085399084 0.09557622 0.095661834 -0.25510588 -0.100776844 0.007224461 -0.013076234 0.2051151 0.0021159053 0.075773865 0.09956376 -0.07653933 0.025478877 -0.026027381 -0.04013425 -0.19482912 -0.005139568 -0.022066558 0.14196551 0.15902725 -0.117617264 -0.19291265 -0.06137652 -0.09758701 0.008022633 0.028076977 0.072573796 -0.009318634 0.009769856 0.10471954 0.25632316 -0.030670721 -0.11739244 -0.12039581 -0.13105464 -0.03642568 -0.14834003 0.101086184 0.010972489 0.07749722 -0.04087325 0.38243723 0.14254321 0.12533635 0.20178193 0.15769538 -5.62412E-4 -0.04909871 -0.07642011 0.04560538 -0.1101554
record 0.12501466 -0.09144792 0.23065595 -0.017294252 -0.08960679 -0.17713152 -0.0035108144 -0.14217548 -0.18659455 -0.036745895 0.07560475 0.26916224 -0.07179777 0.14450216 -0.16817145 -0.30325842 -0.055571288 0.12719919 0.11106528 -0.14880785 -0.2380542 0.14579725 -0.057775 -0.0016833362 0.2257811 0.119242296 0.05144896 0.012179172 0.06998095 -0.048997305 0.067363456 -0.1441534 -0.050386794 -0.09469689 0.1254495 -0.005830751 -0.00532317 0.01231586 -0.017614547 -0.017471276 0.10759752 -0.02237488 0.020231145 -0.14322436 0.09513622 -0.051558413 -0.17973328 -0.058281887 -0.03383944 -0.03805585 -0.052081764 -8.069241E-4 -0.20346378 0.08302529 0.05889188 -0.20671043 -0.16300368 -0.19392295 -0.12016318 -0.0603173 -0.0767899 -0.057594568 -0.23266126 0.06857762 -0.08357804 0.20460184 0.2559583 0.111869596 -0.047678642 -0.095485866 0.053469002 0.12967072 0.33302572 0.23401137 0.18457966 0.16057725 -0.1557301 -0.22304063 -0.0037409035 -0.07490565 0.08842374 0.016898792 0.0819393 0.004170945 0.16983944 0.09675995 0.07268733 0.022367008 -0.13698247 -0.055502206 -0.01166383 -0.15021367 0.12684797 0.23713644 0.062129065 0.12847449 0.110691115 8.499808E-4 -0.06231864 0.14390755 0.1466775 -0.05279808 -0.037070002 0.3699517 -0.063290715 0.1466476 -0.07320973 0.06282951 0.076289736 -0.011049701 -0.032912437 -0.055863094 -0.08842965 0.18729709 0.039953027 0.22979298 0.017294822 -0.05301191 -0.17834373 0.0063063754 0.13030495 0.14989698 -0.048143536 0.24001817 -0.41984805 0.061632633 0.023964547 0.12992765 0.043644022 -0.21958902 0.025095062 -0.044765107 0.09759391 0.07643582 0.2366798 -0.06718088 -0.11870084 0.001026877 -0.18177256 0.053389814 0.08276983 0.010565704 -0.054046325 0.16087347 -0.083474465 -0.05174254 0.0956124 0.07494201 0.23669074 -0.023558559 0.099681035 0.1894778 0.15862136 0.06778867 0.12295609 -0.16109559 0.16315107 -0.0037883944 0.11324053 -0.104242235 -0.054801617 -0.11185426 0.011128032 0.11163315 0.12631278 -0.012983346 0.14245416 0.12345934 0.054142475 0.03612463 -0.4433946 -0.04742674 0.06595037 -0.29088372 0.015299734 -0.1722324 0.009055663 -0.053343732 -0.13577572 0.21665299 0.2670262 -0.12029682 0.21315499 -0.13464239 0.04283313 -0.18110979 0.3258741 -0.24723886 -0.10364383 0.028238595 -0.022691498 0.11945958 0.08581529 0.007699719 -0.07799417 -0.010102474 0.25880384 0.14899796 -0.15982279 -0.06825862
energy 0.110245764 -0.04677254 -0.077548504 0.10166113 -0.0115859145 -0.3297373 0.12338864 0.11648697 -0.17305814 0.09078121 0.063373804 -0.09860288 0.086660884 1.9365197E-4 -0.031167578 -0.09105719 0.031741064 0.025042586 0.12379022 -0.2381043 -0.14716856 -0.23553142 -0.076496184 0.017000912 0.122549914 -0.06503014 -0.14543863 -0.35448024 -0.09571686 0.10825448 -0.031304166 0.15407614 0.14220074 -0.14828652 -0.10057955 0.20411669 0.08478217 0.08978323 -0.2135988 -0.15781863 0.1923041 0.08557598 3.857966E-4 0.24092539 -0.07102663 -0.06930973 -0.06433286 -0.16294901 0.06499987 0.13553631 0.1410181 -0.13361384 -0.24881528 0.11899329 0.291015 0.17372677 -0.14808822 -0.23919718 0.04854624 0.18090393 0.2030506 0.13146617 0.022276834 -0.06922882 -0.1405915 -0.12654568 0.26369148 0.054397058 0.06756412 0.04136271 2.5497875E-4 0.035054613 -0.016024414 0.08265385 0.09839036 -0.03791812 -0.042212818 -0.10307996 0.14155723 -0.018367926 0.21518205 0.17310208 0.17010573 -0.033506554 0.18950033 -0.2918747 -0.15511772 0.037794285 -0.1813759 0.21964237 0.0012406945 0.0013968471 0.2990379 0.049046908 0.16025218 -0.09892124 -0.30512726 0.08584181 0.26954874 0.012835025 0.1044417 0.42071125 -0.1599957 -0.31227887 -0.024759145 0.0050211893 0.18299374 0.094291285 -0.095397 -0.024740359 0.0356584 0.19950399 -0.0892252 -0.16796869 0.10721281 -0.0830182 -0.1768686 0.040101662 -0.014311479 0.20890233 0.30918092 -0.2593818 -0.03210548 -0.07948377 0.10998074 -0.09654377 0.07035548 -0.29604623 -0.09145099 -0.005320901 -0.061037213 -0.14269982 -8.058301E-4 -2.7959322E-4 0.28278995 -0.093451574 -0.039492846 0.07784345 0.17066848 -0.1806651 0.013629822 -0.01767818 -0.0033671139 0.07035477 0.03507751 0.20631373 0.14757943 -0.018937657 0.09727193 0.06216437 -0.0639525 -0.16960266 0.15092468 0.06404434 0.017256161 -0.1958749 0.09133439 -0.015180459 0.3067883 -0.23722921 -0.13389541 -0.30036077 0.040320456 0.12881091 0.08112396 0.092561275 0.40045223 0.046170436 0.05331723 -0.13247584 0.046439003 -0.15367374 -0.24788012 0.07202566 0.12356014 0.20425694 -0.2001571 0.21698664 -0.04431212 0.08254315 -0.038109615 -0.025240056 -0.15740609 0.122094944 -0.090562664 0.0012931813 -0.09142311 -0.13685751 -0.14372714 0.1910758 -0.17556064 0.19437082 -0.11244729 0.059166897 -0.08822798 -0.28078163 -0.078544006 -0.08226619 -0.41177684 -0.039444596
announcement -0.08587805 0.04532167 0.0023700506 0.061186947 -0.074098 -0.006927351 0.10115986 -0.18081819 -0.07648112 0.032349754 -0.07879374 -0.10834202 -0.15386392 -0.021735396 -0.21151324 0.071793064 -0.12275705 0.2509225 0.04012591 0.06499682 0.15940863 -0.04451561 -0.04865378 -0.10220742 -0.016985478 0.2574388 -0.15654644 0.21988444 -0.26898134 0.31685793 0.018579373 0.17515446 0.16556603 0.020969527 -0.003180844 -0.004678037 0.11522349 0.016102107 0.14649488 -0.04150227 -0.07122597 0.03623083 0.056748893 -0.040227734 -0.100434415 -0.008923341 -0.4204144 0.15893827 -0.057110246 0.15491137 -0.21422847 0.052660927 -0.045323268 0.23809396 -0.23181443 -0.21790329 0.1000195 0.11243188 0.008239956 -0.09485423 -0.13390076 -0.020087387 0.17957418 -0.03536958 -0.035640396 -0.064553946 -0.05567017 -0.14539537 0.27258587 -0.150624 0.24378408 0.044635642 0.05209475 -0.1451712 0.22680694 0.22508194 0.19513634 -0.03908423 -0.14039044 -0.19790107 -0.02704755 -0.016050395 0.14203899 0.21953726 0.21504794 0.015926087 0.007900956 0.1424127 -0.073159344 -0.03572547 -0.05553689 0.019189624 0.15017277 0.029563056 0.07248624 0.15025686 -0.091713674 -0.19077355 -0.17941193 0.0046695 -0.044307455 0.28420162 0.07605907 0.032863915 -0.20524336 0.17670253 0.24318932 -0.022286355 -0.37756237 -0.04776282 -0.0112132095 0.11802582 -0.0677885 -0.13653924 0.069866255 0.16203316 0.15420483 -0.1067373 -0.119723655 0.07980738 -0.15471731 -0.19500771 -0.03687316 -0.03780159 -0.1442249 -0.11618791 0.21193525 0.09144192 0.14051983 0.04926557 0.105951935 -0.13780154 0.15349336 0.22535296 0.31974563 -0.15970951 -0.10653632 -0.04630399 0.011399711 -0.2161132 0.15136717 0.11756721 0.11540983 -0.26900956 0.10425943 0.010529182 0.06303451 -0.06031263 0.12863034 0.09110373 -0.27595362 -0.23287965 0.022113426 0.043326784 0.051705968 -0.3307481 0.052507184 -0.21542446 -0.1556914 -0.145277 -0.19747502 0.11343996 -0.013695173 0.13803643 -0.09385586 -0.10818664 -0.08696943 0.10772418 0.045473997 -0.12890856 -0.09500473 -0.12482988 -0.11655081 0.16106509 -0.10838456 0.17465082 0.043578178 0.21439858 -0.082012616 0.33669108 0.01781574 -0.13208362 0.022572108 0.31229055 0.1682249 -0.021684185 0.21248 0.08462146 -0.027720675 0.013891536 -0.1297781 0.24791388 0.09172172 0.28023356 -0.16587585 0.09828127 0.07621431 0.07940359 0.18702814 -0.15270686
mile -0.12921393 -0.06844681 0.07136886 0.15126052 0.07445924 0.047999267 0.08697401 -0.040451404 -0.03735845 -0.02437643 0.090576984 -0.010098582 -0.16571829 -0.055801015 -0.13356626 0.057086874 -0.03707665 0.008218016 -0.23669761 0.05064592 -0.09563102 -0.041402653 0.056385845 0.04485495 0.14320928 -0.061299324 -0.1464496 0.03348299 0.1101452 0.02702992 0.19893475 -0.047888685 -0.18899429 -0.1050167 0.08624625 -0.017233638 -0.12639928 0.07683602 0.117838934 -0.041624244 -0.0108140595 0.036622077 0.06440972 -0.02828611 0.056130745 0.09480142 0.034008358 -0.023306917 -0.07168439 0.0033106238 -0.15345958 0.06636668 -0.27971038 -0.019815193 -0.15791233 -0.008139936 -0.015862979 -0.0018691319 0.059016343 -0.11139422 0.10010122 -0.1938871 0.096529424 0.11935214 -0.026468147 -0.022287661 0.12123613 0.18038882 -0.33688533 -0.10957455 0.28481525 -0.041537274 0.15676051 0.070965245 -0.14303236 -0.13123462 -0.041232947 -0.026610564 -0.12965946 -0.060960513 0.015012078 -0.21883383 0.12456906 -0.12643193 0.19661836 -0.091753565 0.088391714 0.035831455 0.08494736 -0.055236287 0.055579577 0.024599424 0.18232334 -0.08109824 0.029497214 -0.038469613 0.055118255 0.14898488 -0.03498134 0.043432828 0.120274745 0.0737938 -0.048945542 -0.12515484 0.17255479 -0.2237737 0.0012778755 0.15204604 -0.03201671 0.02532976 0.0045376066 -0.11696002 0.03831246 0.2175792 -0.05863477 0.06632828 0.24600798 0.18555337 0.15384996 -0.103461206 -0.036461793 0.014677206 -0.103207186 0.08277438 -0.03156404 -0.04889911 0.09666125 0.010604249 0.06109428 -0.027429603 0.23465063 -0.09059582 -0.022606485 0.057211444 -0.00794292 -0.09629736 0.047917277 0.021026531 -0.065526575 -0.10321188 -0.14770392 -0.06781128 -0.05858083 -0.056609396 0.007712833 0.059704054 -0.005291138 0.014752648 0.17175695 -0.1154355 0.08475541 0.01513543 -0.09382187 -0.07048272 0.024243627 0.022065515 0.14987652 -0.02279954 0.24127202 -0.068074435 0.15955336 0.040972587 0.10320224 0.054433573 0.0025982745 -0.10403332 0.2564449 0.065878555 0.14316104 0.11612081 0.117167 -0.18750176 0.02819932 0.07216938 0.024193356 0.15049772 0.030609556 -0.042893395 0.029755684 0.13608503 -0.029914577 0.06295894 0.08973179 -0.070608824 0.01944441 0.01791634 -0.13250299 0.12682927 -0.049591295 0.14307734 -0.10101762 -3.3373795E-5 0.005377689 -0.10743973 0.0021275408 0.04867882 -0.079831526 0.07201779 0.036692303 -0.21589059
airport -0.06910443 -0.09198105 0.15685183 -0.020002086 0.0712008 -0.11992108 0.20533536 0.0701294 0.1563787 0.08383059 -0.0028147928 -0.2694419 0.068381675 -0.10463723 0.015160264 -0.17889807 0.0458321 0.08725501 0.12356331 -0.06726517 0.23451915 -0.08679437 0.07949184 -0.13334163 -0.10038262 -0.12469384 -0.24036397 0.23108514 0.092384815 -0.036933687 -0.025473569 0.054754958 -0.19162278 -0.11262667 -0.1593264 0.09880732 -0.070484444 -0.25499025 0.37064168 -0.15089786 -0.33398148 0.10515509 0.1408864 -0.09292055 0.09652652 0.40541828 0.2750342 0.17460243 0.024547745 0.11159643 0.02268729 0.30820087 0.2709213 0.13076659 -0.21548265 0.31195676 -0.048299834 -0.16565734 0.07849042 -0.06965236 -0.051921837 0.06333771 0.010762703 0.2096473 -0.15426588 0.1280804 0.05948146 0.16701007 -0.02907382 -0.034272544 0.199807 -0.18750975 0.18859886 -0.08439899 -0.088268995 0.53529596 -0.11477413 -0.18538581 0.018336851 0.19598648 0.16331485 0.06833496 -0.16540428 0.14685872 -0.037395295 0.14735219 -0.18670568 -0.13459231 -0.0030314177 -0.045334857 7.403524E-4 0.13407706 0.19458953 -0.23443638 0.13103138 0.03467417 0.0064199306 0.18181387 -0.0043634083 -0.078848176 0.08890407 0.110295214 -0.33185184 0.019105705 -0.049592808 -0.112794034 -0.10005529 0.38253495 -0.23123384 0.06491603 0.055523295 0.13438666 0.1280502 0.10455261 -0.055514324 -0.30476496 -0.043039467 0.07929383 0.0013501364 0.019060403 -0.30441013 0.02524653 -0.043305233 -0.07647835 -0.2946746 -0.16375072 -0.15045354 -0.032135524 0.09990031 0.094233304 0.15647654 -0.045006894 -0.09179657 0.22193478 -0.14594065 0.21297763 0.09251083 -0.066664495 -0.328605 -0.059662584 0.04145807 0.031411603 0.008325875 -0.020924361 0.06173944 0.31986794 0.09255306 0.048116762 0.24010271 -0.19206028 0.0123943 0.0686011 -0.17422158 -0.14847489 0.19331792 -0.15219623 0.009163796 -0.15286495 0.12652461 -0.020241056 -0.01885995 -0.06973847 0.17289759 -0.15609819 0.15029304 -0.021014173 0.025648886 0.23178937 0.24792351 0.09400124 0.013846108 0.21089129 0.05487609 0.09300656 -0.08117907 0.045762617 0.10627968 -0.028305715 0.05384459 0.07465594 0.18327227 0.21422672 -0.020568144 0.23589624 0.29773018 -0.21512271 -0.21739466 -0.18957761 0.0587173 0.19498521 -0.21400489 0.11017317 -0.02984877 -0.033042923 -0.023731496 0.1822346 -0.037234087 0.11753637 0.029277699 -0.18609136
population -0.132643 -0.18970041 -0.14858536 -0.13342573 -0.1433016 0.14657852 -0.018221946 -0.22145692 0.022913108 0.19793095 -0.029710354 -0.078394584 -0.19786355 -0.10329413 0.05903822 -0.17776 -0.28932106 -0.034034908 0.11195693 -0.28882706 0.050011143 0.0068250466 -0.18536375 -0.030489609 -0.08456197 -0.22281668 -0.13030413 -0.043891624 0.14666893 0.14736879 0.15687825 0.16582085 0.14657821 -0.2520031 0.12675029 0.15719731 0.33969027 -0.13468574 -0.09818996 -0.027850552 0.07496142 0.0531277 0.013853901 0.07504035 -0.0044868896 0.022805167 -0.41091698 0.03583658 0.019851673 0.30723178 0.29022428 0.007538626 -0.23001042 -0.035047967 -0.02477118 -0.03513412 0.061291877 -0.26073205 0.0761329 -0.08238991 -0.20520161 -0.2557748 0.07632744 -0.04950839 0.07255818 0.21279337 0.06583798 0.11051587 -0.1891971 -0.032730293 0.19576527 0.075472504 0.20862481 -0.024440747 0.05827687 0.08387108 -0.19855922 -0.012672439 -0.078546956 -0.07907692 -0.060326032 -0.19015579 0.18832289 0.12109812 0.11265281 0.06597213 -0.009695057 0.07008136 -0.25148648 0.21301652 0.023356227 0.019834772 -0.1003754 0.0976577 0.033972263 -0.117116585 0.21766618 0.13559239 -0.07673161 -0.08373617 0.21477284 -0.1579652 0.041922722 -0.2103337 -0.004212297 0.07173873 0.056241866 0.010480442 -0.08000856 0.07202939 0.057925366 -0.10572725 0.052933987 0.22660127 -0.16748022 -0.17167157 0.2029406 0.06326516 -0.03718027 0.1881214 0.10692241 0.07015267 -0.44114417 -0.0698 -0.23931372 -0.1727465 0.02645715 0.09356866 0.28521553 7.2917074E-4 0.22563185 -0.1527185 -0.053908728 -0.022136996 -0.019216772 0.023996787 -0.15494676 -0.0011735837 -0.016113564 0.06887454 -0.34516525 0.0766673 -0.0674617 -0.0443198 -0.22580473 -0.026002895 -0.15125364 0.012380468 -0.110082366 -0.063358836 -0.24597017 0.0077401064 0.04020334 0.2637803 0.086295635 0.22135581 0.017372042 -0.017282877 0.1306267 -0.052290916 0.008132503 -0.086469635 0.07421684 -0.15568666 0.04506792 -0.09667166 0.16953458 0.03288067 0.17876977 8.6213206E-4 0.1420574 -0.20502105 0.22951658 0.06515939 -0.06863622 0.2732116 -0.10968054 0.11253797 -0.040872782 0.1219741 -0.16148035 0.15122145 -0.08327989 -0.15801819 -0.028084474 0.043506507 -0.049718384 0.1439206 -0.005241098 0.22338344 -0.12637593 0.17159773 0.23677376 0.131751 -0.040511254 -0.02259162 -0.1192743 -0.19872668 0.049517237 -0.21738485
planning -0.09205364 -0.07172069 -0.14670172 0.024546118 0.10617664 -0.025195668 -0.070891075 -0.02778746 -0.03560946 0.14359078 0.15156515 0.0583761 0.031180909 -0.14512064 0.030166367 -0.22730033 0.054179285 0.027086662 -0.071351364 0.02139822 -0.16281524 -0.14967659 0.097911395 -0.008100364 -0.036562588 -0.13831238 0.034695197 0.043039687 0.026420718 0.089345194 -0.025991056 0.0141841015 -0.048585415 -0.23207545 -0.083689466 -0.058654323 -0.062171943 -0.08022223 -0.0066843433 0.012264484 -0.24834582 -0.15064353 0.08717264 -0.030663628 -0.09105147 0.14173855 -0.01581207 0.013959818 0.051924728 -0.08145926 -0.1012543 -0.08485655 0.05503872 0.08859362 0.029641554 0.17254339 -0.018443955 0.0700065 -0.2403639 0.04237111 -0.06708652 0.09108477 -0.033410963 -0.22406074 -0.16994406 0.2004832 -0.06274944 -0.09800252 -0.0244457 -0.04610008 0.06374903 -0.042306747 -0.032311093 -0.1001234 0.050495517 -0.15816405 0.045845196 -0.07071327 0.1737772 0.01322392 0.10098776 0.026920328 0.069131725 0.25182727 0.121581174 0.17125022 -0.18514434 -0.04851 -0.018298825 -0.04489087 0.061363135 -0.086943075 -0.0042641964 0.040035415 -0.03729028 0.0014636022 -0.10495119 0.031354014 0.21890211 -0.004804537 -0.22942877 -0.056881122 -0.15957221 0.06798468 0.06522119 -0.16320087 0.07678568 0.060250107 0.059322063 -0.086029835 -0.13731125 -0.2109703 0.014742683 0.051895503 0.062868536 -0.0047430038 -0.031242382 0.022181973 -0.049268264 -0.009336361 -0.011070005 -0.12934312 0.09178251 -0.16553147 -0.02934988 0.07501078 -0.05019202 0.18569826 -0.13518636 0.071029864 0.02884096 0.10704799 -0.06804307 -0.02997227 0.07085627 -0.08624782 -0.0047127013 -0.19921948 0.06524938 -0.07256088 -0.058112565 -0.23541617 -0.0070718713 0.17910849 -0.0032427046 0.064774804 0.0605277 -0.016294448 -0.21679744 -0.0021621261 -0.044058364 -0.15759946 0.026881946 -0.16992152 -0.086564556 0.17543744 0.30166677 -0.16185687 -0.0494579 0.14013071 -0.06525549 0.044122975 -0.0054994267 -0.02768359 0.10029125 0.25453812 -0.10100194 -0.047069505 0.09935341 -0.16349792 0.1366802 -0.016335458 -0.067972176 -0.11307326 -0.05710413 0.09800264 0.04345797 0.17344908 0.0061983652 -0.09244567 -0.17318012 0.18867278 0.19239265 0.02096533 0.16623712 0.1622539 -0.20084813 -0.095051356 0.032204457 0.044249587 0.065778226 -0.17304666 0.13918573 -0.1545668 0.033114307 -0.0605526 -0.10177543 0.03855289 0.14153935 0.031349882
canyon 0.034457266 0.029521633 0.026216416 0.015001882 0.017967202 0.04351952 0.13829279 0.015972748 -0.07458205 0.015631966 0.09931669 -0.05472478 -0.0023623041 -0.09233199 -0.037794244 -0.0070124106 -0.0138076 -0.045784917 0.046437338 0.019342955 -0.040354084 0.10275637 0.11434245 0.038842354 0.10947039 0.0056244386 -0.044852957 0.008487774 0.05325835 -0.01191688 -0.020650862 0.12383005 -0.008390116 -0.04868574 0.026756378 -0.036382034 -0.035352964 -0.040228114 0.0759905 -0.0031308513 -0.08513929 0.010510176 0.04122962 -0.053091098 0.025446534 -0.0081083765 0.1297189 0.05106475 -0.08926061 -0.108555354 0.08962339 0.07098853 0.07429605 -0.031446178 -0.03428777 0.038744494 0.015603312 0.015710197 0.121622115 -0.09064686 0.088445336 -0.03215282 -0.088769056 0.06974219 -0.09371628 0.039136373 0.15450498 0.15006405 -0.072382554 -0.019052155 0.06257343 -0.04047492 0.016545672 0.03419515 -0.027558748 0.04484732 -0.04737081 -0.04417712 -0.005876361 0.003310543 0.0053215134 -0.04524701 -0.06168531 0.020070883 0.06020146 0.04953613 0.061211888 0.0063596 -0.027922086 -0.13484795 -0.029963803 -0.06133999 0.057002764 -0.012180249 -0.002035946 0.059287384 0.027456675 0.073976465 0.11408207 -0.04039067 -0.005904857 0.022964844 -0.059161678 -0.011230011 0.018162431 -0.11145963 -0.07411959 0.11075028 -0.062053405 -0.048492357 0.04463741 -0.02098389 -0.00199846 0.12442272 -0.09976119 0.02116874 0.04701492 0.03958979 0.08768753 -0.03978842 -0.06932017 -0.054420386 -0.030615954 0.1102574 0.021444319 -0.041977834 -0.018223211 -0.046617992 0.010756365 0.023408351 0.038048163 0.02394148 0.09306004 0.11742548 -0.007691185 0.066638105 0.12430901 -0.008145514 -0.048975095 -0.051385757 -0.077607945 -0.03663735 0.0108351465 -0.043879647 0.02484704 0.08406888 -0.016535783 0.065934196 0.071495034 0.0032243978 0.041778628 0.009302108 0.008900049 -0.025300177 0.022165084 0.052828576 0.049879972 -0.025968987 0.056951825 -0.0025891399 -0.017914185 0.10025856 0.071686946 -0.115970545 -0.0796509 -0.08222558 0.0692348 0.033402283 0.018798472 0.03617244 -0.009138291 0.0096215 0.022168675 -0.009603249 0.024638653 0.020992508 0.09329502 0.0047559133 -0.057714023 0.03461597 -0.03566028 0.04171455 0.006754689 -0.097308844 8.2568184E-4 -0.0040661064 -0.019489992 -0.063024625 -0.031450372 -0.020733336 0.0060992874 -0.04479241 0.0046141003 -0.04477713 0.026142612 0.083448164 -0.12663992 -0.1271939 0.019945068 -0.03881328
delay 0.0142039815 0.10075041 0.02706945 0.12653212 -0.03545663 0.10069992 0.036084168 0.020143904 0.004645642 0.027463779 -0.051771663 -0.11498305 0.26588175 -0.11472139 0.029484067 0.005881059 -0.063139975 -0.0036852094 -0.07707184 -0.04255391 -0.08373497 0.0135230115 -0.0011232108 0.17441702 0.007114622 0.06501761 -0.06946136 0.029746255 -0.030483346 -0.15483432 -0.105946414 -0.018255385 0.1536405 -0.0947526 0.032674998 0.039962146 0.11845209 -0.010901251 0.11834971 -0.02673838 -0.0047476306 0.27180055 0.07483322 0.14440806 0.04006094 0.10454519 -0.23354273 -0.08548958 -0.031724505 0.029093698 -0.076294 -0.048898857 0.15379895 0.012733438 -0.1558907 -0.079973914 0.1089046 0.045842472 0.122190535 -0.11553646 -0.0223007 -0.07462946 -0.05351294 -0.014803461 -0.14700465 -0.03865652 -0.07765261 0.035471093 -0.05736662 -0.023188462 0.016505346 -0.044705097 -0.010634297 0.14940907 0.14910384 -0.14036772 -0.08792763 -0.15257233 0.0010088927 -0.028251676 -0.01579612 -0.05707815 0.12908562 -0.057901043 0.07411152 -0.11412505 0.109506816 -0.07304442 0.119655475 0.03869123 -0.16951221 -0.11216597 0.09584706 -0.15858886 0.098222874 -0.11857139 0.038766593 -0.031915523 -0.03494533 -0.039037265 -0.08108548 0.13869978 0.10427744 0.1296919 -0.16895106 -0.050661296 0.13693129 0.021362279 -0.039911464 -0.021300722 0.04722696 -0.02519705 -0.06551272 -0.06909718 0.1585534 -0.005319685 0.076098405 0.027045209 -0.093739495 0.07925574 0.0056725047 0.051967803 0.047075644 -0.09564003 -0.060689732 0.037694428 0.030650416 -0.0020473262 -0.010530042 0.09664418 0.095520586 0.10164636 0.17989713 -0.054199178 0.15286894 0.064698264 0.040318068 0.09040541 0.013343434 -0.12891737 0.08637603 -0.03343216 0.069704525 -0.037058562 0.010392465 -0.07108864 -0.11673228 -0.08788793 -0.07213951 0.16385886 -0.061171744 0.0062256907 0.047763325 0.03823015 0.16839205 -0.019980496 0.36770338 -0.10623558 -0.046154097 -0.36934653 -0.1815092 0.16226335 -0.0196601 0.13438416 -0.19109316 0.0038985903 -0.12740602 -0.028213792 0.14692695 -0.05569323 0.07531332 -0.18252361 0.0718794 0.023345832 0.09612388 0.018347885 -0.09714476 0.113898434 -0.1314574 0.118048176 -0.0064056437 0.04280526 0.02995894 -0.036145028 -0.04455354 -0.04755325 -0.06797475 0.0032597962 0.08922751 0.059596784 0.024385208 0.08669097 0.13559939 0.09789868 -0.10773077 -0.05569262 -0.06423227 -0.051900014 -0.059610173 0.19751763
size -0.17072074 -0.13794318 -0.029891877 0.059461277 -0.1549889 -0.066522434 0.030183822 -0.22378892 -0.054783467 0.12540828 -0.09007886 -0.016717447 -0.10829023 -0.06872858 -0.16177613 -0.07490338 -0.21555842 -0.027748147 -0.097806334 -0.220257 -0.06811526 0.111836396 0.0010565377 0.004754764 -0.12239885 0.11500231 -0.10948849 -0.10367269 0.0026557113 0.10204513 8.031363E-4 0.112838715 0.07207988 -0.13251975 -0.08733044 0.0072811064 0.16386124 -0.006205163 0.08994606 0.10869644 0.080122426 0.15171887 0.09521165 0.0017019527 -0.039505083 0.15205446 -0.22205177 -0.08989701 -0.21456341 -0.057714622 0.09592581 0.13558833 -0.06608336 -0.040183354 -0.022594089 0.11352271 0.05613208 -0.04135082 0.109672286 -0.21435854 0.015479288 0.021871487 0.055181287 -0.02575661 0.21439049 0.08040073 0.09459283 0.07587409 -0.22904037 -0.034241736 0.16028461 -0.06753769 0.1259659 0.09595855 0.16777802 -0.0094401 0.0032419476 -0.0028527216 -0.15253845 0.0954701 -0.026847152 -0.084823 0.18642142 -0.09932047 -0.09652474 0.085505664 0.19286202 -0.10528267 -0.1898285 0.15131558 0.03068436 -0.029180253 0.040716443 -0.15138605 -0.09436161 -0.10870274 0.13037151 0.18407634 -0.1802485 0.009615649 0.1968773 0.09015237 -0.07816159 0.021889737 0.086552866 0.10514176 0.031892724 0.07187817 -0.1776514 -0.082630165 0.043680456 -0.098138236 0.018061182 0.094963744 0.053385258 -0.06554277 0.13864796 0.115404785 0.060529437 -0.051286425 -0.0029967767 0.010375725 -0.039032362 0.19708574 -0.005495615 0.044191092 -0.161176 0.17902364 0.09099611 0.14833386 0.16305895 -0.026016137 -0.041379754 -0.12084776 0.14248249 -0.05310039 -0.10594814 -0.14127459 0.0036958298 -0.15038042 -0.14186351 -0.055504438 -0.079866886 -0.038720686 -0.10572028 -0.15099616 0.14023688 0.088355035 -0.1678882 2.4324738E-4 -0.24707337 0.11420646 0.117641605 0.09217357 -0.19239193 -0.0046527763 0.10432304 -0.08874037 0.010738836 -0.06619753 0.0012340675 -0.035623923 0.11112105 -0.08077152 -0.019526606 -0.08010935 0.09373455 -0.04283753 -0.056544315 0.10135367 0.14049439 -0.13966222 0.17658909 0.14940274 0.03779125 0.14169142 0.09928146 -0.08076711 -0.20024149 0.19709603 -0.20437345 0.09904652 -0.11401801 -0.13220973 0.0061406936 0.12759317 -0.00486077 -0.03913397 0.01668366 0.05496129 -0.03740977 -0.020006135 0.24822894 0.1362138 0.093288 -0.11256864 0.040335562 -0.01496884 0.10331848 -0.060110554
peace 0.21896464 0.07243913 -0.12181712 -0.375217 0.29155543 0.39399573 -0.111704566 -0.28626132 -0.08945074 -0.24668594 0.23783818 -0.33179802 -0.041364815 0.072247684 -0.17692743 -0.13761261 0.26089084 -0.2430963 0.12954305 -0.151252 0.09358596 -0.15901995 -0.16280594 0.31492114 -0.0058185756 -0.22744913 -0.07860558 0.03931625 0.008976486 -0.01748692 -0.108864464 0.1549142 -0.20801064 -0.07957652 0.13634568 -0.06563748 0.07546351 -0.0024653876 0.17833091 -0.112950906 0.11028907 -0.06723741 -0.089935206 -0.2794092 0.12852684 -0.040322408 0.30472755 -0.14463508 0.09989604 -0.4221011 0.33706215 0.056052253 0.05961805 -0.08461971 0.10684122 -0.03171182 0.20198487 -0.22890422 -0.010263853 0.086460344 0.05156779 0.20907468 0.0370394 -0.09497943 -0.33107242 0.25807807 0.1523959 -0.05448391 0.003191775 -0.04236521 0.054175843 -0.13368623 -0.09297265 -0.028729236 -0.20112513 -0.10294543 0.083317734 0.079293996 0.036942597 -0.09643328 0.2944646 0.095211044 -0.11017899 0.31058338 0.083786674 -0.10152611 0.31303343 0.009769574 -0.183258 -0.026787143 0.13519979 -0.19153628 0.17783645 0.07019716 0.118835494 0.299914 0.20949933 0.3032203 -0.19094822 -0.3027648 0.13130496 -0.15864676 -0.03524869 -0.03595221 -0.14573678 0.15407851 0.14028645 -0.043746676 -0.16507472 -0.18648416 0.07497133 -0.2535846 0.21918558 -0.25587505 -0.02139842 0.032554504 0.033266712 -0.1375827 -0.38896725 0.06303107 0.07067121 -0.14357288 -0.0844657 0.11605291 -0.020848095 0.16364945 0.1029247 -0.23486242 -0.18982366 0.17971642 0.0041763503 -0.09930832 0.031707052 0.11416443 -0.082653806 0.1220718 -0.040316887 -0.07588683 -0.12155687 0.24864842 -0.104781464 -0.16244048 -0.08710852 0.023870373 -0.09365631 0.08269173 0.0034539923 -0.15075023 -0.035348356 0.12814052 0.009812397 0.0847288 0.053575464 -0.27140152 0.22436047 0.05998503 0.28851637 0.28927296 -0.037461646 0.04536406 -0.24744494 -0.097429514 -0.28267884 0.025094653 0.052320424 0.13281162 0.17683186 -0.07558664 -0.089022756 -0.090146445 0.1448338 -0.12777434 0.21809208 0.0719411 0.3557773 -0.15620701 -0.015214738 0.26825556 -0.20525311 0.09660323 0.117634565 0.06341861 0.13000162 0.122761264 0.4744951 -0.01208194 -0.06205027 -0.4516813 -0.10158691 0.055530272 0.25954428 0.10057532 0.039421275 -0.33105245 0.117098555 -0.23599103 0.29856914 0.043823652 0.28503913 0.21005623
science -0.100326195 0.0056326124 0.149256 0.12538756 0.02471542 0.0624873 0.04573661 0.013428178 -0.02540619 0.038724132 0.018260438 -0.027811475 0.059307467 -0.05551686 0.036697596 0.032970566 0.18113996 0.023182638 -0.13649896 -0.26883548 -0.12179097 0.1559321 0.08506688 -0.04043248 -0.14170529 0.082130134 -0.06419713 0.119182885 -0.16266873 0.117081344 -0.038979586 -0.051576763 -0.033592608 -0.3582442 -0.11408023 0.21914177 0.13926534 0.25787124 -0.0636301 0.026581382 -0.056460656 0.009549811 -0.037837405 0.19135647 -0.008869306 -0.12296713 -0.014083283 -0.3207629 0.04520515 -0.0035943994 0.11174274 -0.06590933 0.08718834 -0.052813668 0.2215812 0.063259766 0.08922071 -0.02713195 -0.084374316 0.13991377 0.06961738 0.26217344 0.13662386 -0.02774861 0.19829361 0.2570327 -0.051002085 0.11992696 0.08568993 -0.22691928 0.078531995 -0.02057203 -0.14474441 -0.1369379 -0.10701623 0.14902426 -0.05831855 -0.21079089 -0.0024002308 -0.24830894 -0.0444291 -0.0050676963 -0.013119031 -0.06804147 -0.2597385 0.015186049 -0.08562523 0.14497739 -0.085597105 0.11356606 -0.13698927 -0.12097984 -0.008792855 0.04648445 -0.048258815 -0.00799548 0.20231941 0.00943534 0.06634899 0.08748225 -0.035377584 0.07272249 -0.2574235 -0.21952671 0.12665728 -0.13641155 0.0668005 -0.057565745 -0.067185596 -0.25355083 -0.100131266 -0.016404742 0.12956242 -0.14015841 0.11089867 0.06391385 0.13167618 -0.101625055 0.1322161 0.0861341 0.13287859 0.020867968 -0.17998351 -0.09770987 0.1068996 -0.06411385 -0.1122279 -0.32487902 0.0666495 0.016585067 -0.049558442 0.2925239 0.0876067 -0.41385335 0.1273678 0.20257498 0.017870445 -0.08817748 0.14336328 0.14221473 0.12170153 -0.084891595 0.12969795 0.08035123 -0.017312158 -7.243189E-4 -0.019219441 -0.18869705 0.15115955 -0.18753707 0.0676704 0.014663738 0.09207096 -0.0016972593 -0.011204164 -0.003366126 0.095675945 -0.04768263 0.14479926 0.22636385 0.047748245 0.058874052 0.07681964 0.0539283 0.16257426 0.087865256 -0.07772151 0.19919361 0.23434342 -0.19817196 -0.28586182 0.1502952 -0.04389688 -0.03281468 0.337293 0.05851087 0.021211507 0.15622829 0.17281224 0.13540468 -0.19490588 -0.06655232 -0.02519816 -0.11522779 -0.23289298 -0.14292897 0.0313761 -0.10956086 0.001362776 0.07669132 0.053233877 0.101883575 0.05075089 0.033561327 0.002013222 -0.11531912 0.016987594 -0.026152786 -0.0041299155 0.16700779
dawn -0.0051187 -0.12027309 0.041689504 0.068803675 0.072837636 0.081624836 0.09092246 0.037840195 -0.048149914 -0.031178096 0.023376698 -0.09997389 0.016739462 -0.13373423 -0.021572944 -0.15416153 0.047811497 -0.28821573 0.033145748 0.095475554 0.036279857 -0.14400302 0.11183383 -0.0059924633 0.014159852 -0.07895899 0.015540687 -0.008940864 -0.026449542 0.053635005 0.10470266 0.08702503 0.10171273 -0.009059539 -0.13102533 -0.037330426 0.036264658 -0.12990722 0.05620038 -0.037124947 -0.022793073 -0.06759528 0.075651 0.050788037 -0.048994932 0.19460519 0.09053824 0.1572983 0.015281405 -0.033365544 -0.0057067545 0.11639884 0.02465311 0.043651108 0.09353446 0.07453214 -0.022585524 -0.017747493 -0.01988548 -0.038049027 0.009064068 0.0066020046 0.0067639477 0.049808532 0.036378007 0.09636856 -0.020993229 0.06713981 -0.03739466 -0.067573555 0.0058585834 -0.08191201 0.08184725 -0.03070673 -0.07097439 -0.028624687 -0.12272534 0.02672128 -0.0027363491 -0.027038153 -0.036176354 0.009663289 0.027947525 0.114504315 -0.04707231 0.049812254 0.04956092 0.16474539 0.0191843 -0.12676036 -0.0015988708 -0.044643715 -0.003150257 -0.031363163 0.05685515 0.07268327 0.111061536 0.029015318 0.024391476 -0.08549555 0.0039424947 0.21889122 -0.10749494 -0.07499533 -0.1107839 -0.07452855 4.8006445E-4 0.08329192 -0.15499637 0.026084745 -0.06025989 -0.050338205 -0.13463861 0.08641853 -0.007783653 -0.067540795 0.021694519 0.080897614 -0.073820174 -0.02858194 -0.10312338 -0.028359901 -0.041292083 0.011692328 0.078574106 -0.032589864 0.04370154 0.04310189 0.033347577 -2.6814197E-4 0.10198078 -0.11636538 0.026788894 0.14110689 -0.03449753 0.05130564 -0.0061624693 -0.038934823 -0.023719665 -0.009403724 -0.0802474 0.11704708 -0.053564314 -0.0038516365 0.032202195 -0.11944405 0.0338007 0.05461841 0.08848625 -0.0089245485 0.0025939494 0.08984904 0.023697402 0.0676093 0.07218402 -0.16690446 -0.07425243 -0.03378194 -0.10755463 -0.011117506 -0.051572982 0.07162492 -0.104814924 0.027053293 0.04168026 -0.08783547 0.03247037 0.019811848 -0.08036131 -0.0050721355 -0.01067297 -0.055128396 0.02474108 0.10065472 0.09604252 0.037190653 0.11577966 -0.07450695 -0.045676976 -0.0722615 0.023798324 0.18844546 -0.15567452 -5.2047446E-5 -0.024797944 -0.07820307 -0.0425844 0.106165834 0.022520266 0.0057307375 -0.0064699054 0.0052373796 0.020654922 0.08719414 -0.06991599 0.19241454 -0.08987958 -0.14002652 0.058558624 -0.07219077
brother -0.14821616 0.07144538 -0.002478488 0.2602811 -0.07447589 -0.0067961593 -0.02442765 -0.13734803 0.16355838 -0.0056154486 0.083823256 -0.12968016 -0.050812118 -0.18970793 -0.23339935 -0.21043614 0.09302235 0.090158515 -0.31691125 -0.086777784 -0.103371404 -0.055706117 0.036627732 -0.119524434 0.18611254 -0.034270015 -0.13387765 -0.18090096 0.05262597 -0.018234031 -0.108127795 0.1544286 0.14375307 0.29923546 -0.06569582 -0.15099606 0.12072078 -0.1513777 0.16014363 -0.061346475 0.16932458 0.06992059 -0.236468 0.008661963 -0.04846614 0.094899096 -0.33192632 0.023573576 0.1686295 0.003862976 -0.00992178 0.22766405 -0.106089585 -0.03801087 -0.0761812 -0.13924156 0.075985834 -0.08235292 0.058729142 -0.056872327 0.15094526 0.034652516 0.20173311 -0.013035443 -0.12580644 -0.14757006 0.17675179 0.30558616 0.1265691 0.10020687 0.022453506 -0.06645624 0.08087814 -0.350786 -0.33462018 -0.018498259 0.12133489 0.061264496 0.14096512 -0.06603764 -0.37333655 -0.15867251 0.09192318 -0.119078174 0.3248705 -0.1333201 -0.09285285 -0.08540424 0.012510255 -0.13216454 0.06843613 0.2125488 0.015515233 -0.31719524 -0.0016617466 0.09005983 0.1533142 -0.19141808 0.024090972 0.24085873 0.12794325 -0.11214097 0.13699271 -0.093861535 0.0026626613 0.101216875 -0.24686715 0.07925501 -0.012084748 0.043815073 -0.086207636 0.07699138 0.113595955 0.11810482 -0.34888142 0.20047018 -0.023730835 -0.1014324 -0.03211081 0.04930302 -0.041291486 0.03472159 0.20135118 -0.0037649937 -0.21346498 0.16845457 -0.19010688 -0.110493034 0.08155248 0.27268878 0.05618108 -0.027106477 -0.14344192 0.109899215 0.12576759 0.095264636 0.0030025928 0.03225961 0.11517605 -0.020849496 0.030807145 -0.13732731 0.18651025 -0.12448479 -0.17935477 0.045694854 0.25284576 0.27445757 -0.036788426 -0.1216047 -0.19512631 0.21237864 0.11004379 0.11999718 0.14438142 -0.23913193 -0.056355577 0.16805705 0.1828752 0.22899956 -0.07229408 0.08458282 0.12655653 -0.24137466 -0.07909081 -0.1852445 0.09073106 -0.076253176 -0.10359755 0.22765921 0.21711847 -0.15510727 0.097859755 0.06996588 -0.14731872 0.1325085 -0.024015773 0.10615739 -0.0037680513 -0.030702427 0.19208765 -0.07903334 -0.4042091 0.23050548 -0.08373803 -0.19355337 0.23558182 0.014276044 0.40486124 -0.15260364 0.055273507 0.14110117 0.1414541 0.13004363 0.060719106 0.06267444 0.067563996 0.048699502 -0.009351954 0.14501326
wine -0.046966273 -0.08784986 -0.054797698 0.060356326 -0.095963955 -0.048021633 0.025991471 -0.055740837 0.061938714 0.024583478 -0.020560708 -2.8250887E-4 0.14685985 -0.038010377 -0.067331605 -0.0876918 -0.14460737 -0.06043376 0.058865003 -0.0771816 -0.17961836 0.07777167 0.03650663 -0.02798186 -0.15211672 -0.030303467 -0.098264046 -0.034085415 -0.10403594 0.065408945 -0.05445233 0.0062549138 0.030059429 -0.042507634 -0.03947552 -0.0438411 -0.0827533 0.032969896 -0.01913064 0.026333667 0.094446085 -0.13403934 0.06812438 0.16254936 -0.17977822 -0.03228446 0.058838215 0.13775912 0.0068453155 -0.02468397 0.089364104 0.0811002 -0.047122385 -0.066248134 -0.041399524 -0.06372055 0.11394037 0.051210295 0.18019459 0.0025060612 0.096394785 0.09157927 0.11273477 0.22669962 -0.0023110232 -0.17910258 0.05566688 0.06191381 0.012916072 -0.09312245 -0.017058734 0.04803884 0.09796651 0.051147364 -0.11948351 -0.018502897 -0.08490381 0.13760568 0.14760135 0.0467542 0.15106423 -0.03538542 0.15890257 0.0060023773 -0.12206363 0.003915728 0.12121694 0.057253517 -0.11657266 -0.08601758 0.0033355842 -0.08816595 0.09468336 0.05250514 -0.05973837 -0.06589698 0.07782726 0.038578045 -0.109933645 0.030898256 0.0032102691 -0.015383237 -0.19963318 0.0011200139 -0.09692627 -0.2691815 -0.13102332 0.013640334 0.090896465 -0.09409558 -0.13338076 -0.17843843 -0.05702431 0.010250139 -0.016592922 0.065959334 0.12230042 0.021248112 0.06272478 -0.086353675 -0.042775862 0.08817236 -0.051005907 0.13681175 0.027715286 -0.11490529 -0.026718328 0.07454671 -0.06708806 -0.0077372915 -0.05424609 -0.071470864 0.14302158 0.031130355 0.032250628 0.007860903 0.06521979 0.024304934 -0.04131848 -0.0033671875 0.015867814 -0.07069543 -0.08718587 -0.05387843 -0.064086825 0.027480489 -0.0054901256 0.11195041 -0.025931027 -0.008262703 -0.06538536 0.159461 -0.0011826067 0.06474875 -0.118462466 0.049693096 0.025518835 0.03323069 -0.043626085 0.042837802 0.046601247 -0.11954442 0.084731296 -0.19003911 -0.080897756 -0.038109034 0.20945188 -0.09370656 -0.115627155 0.12715785 0.017487833 -0.12009773 -0.013879608 -0.010294399 0.037290026 -0.18740503 0.054912355 -0.1952766 -0.048513815 0.0878266 -0.11178917 0.18245228 0.008054786 -0.16719522 -0.16076621 -0.045515932 -0.04093833 0.008173468 0.082066104 0.14716163 0.11364748 0.052797 -0.057040993 0.034629855 0.06360961 -0.024264691 -0.2034541 -0.042473596 -0.030765353 -0.11657197
object -0.112290055 -0.02469965 -0.03560931 0.12390865 -0.07189446 -0.08928455 -0.0065556495 0.047306046 -0.05087078 0.055162236 0.047276933 -0.092212975 0.08818175 -0.06735267 -0.14095913 -0.01749955 -0.0924855 -0.030948237 -0.041736707 -0.047665328 -0.13306957 0.05933423 0.11396038 -0.0072112065 -0.056597874 -0.15942787 -0.10185974 0.10497655 -0.002858349 -0.024743205 -0.04543248 -0.07638032 0.09503551 -0.030220432 0.051580988 -0.07492997 -0.0011449108 0.02629112 0.1254052 -0.14385091 0.04013778 0.12561591 0.020946465 -0.04454775 0.004810918 0.11077385 -0.18529914 -0.010780582 -0.012687003 -0.013208441 0.071093805 0.006704643 -0.01034719 0.031924423 -0.16475084 -0.054674935 0.016344149 -0.022249013 0.14021039 -0.16946699 -0.028656444 0.0761187 0.020803789 0.24417661 -0.21037067 -0.043354318 -0.08752349 -0.01001552 0.044539638 -0.0552137 0.055773877 -0.10987057 -0.054242574 0.10699281 0.17272717 0.019205531 0.064833365 -0.042289108 -0.02071941 -0.062161352 -0.039650027 -0.15202697 0.0359052 -0.07519109 0.043720808 0.06485275 0.07114355 0.025889777 -0.059855215 0.061441816 -0.025460895 -0.10526732 0.112879895 -0.19462296 0.071886785 0.048030876 0.057788804 -0.01774812 0.041633755 0.1338594 0.057835963 -0.08325543 -0.00433177 0.014387557 0.028350184 0.004735724 -0.003934763 0.13439761 -0.005358127 -0.17592247 -0.08927144 -0.15178491 3.6793313E-4 -0.13345242 0.11316792 -0.074232705 0.07200769 0.117799774 0.022897938 0.07598563 -0.09502301 0.046831816 -0.09550107 0.042827416 0.049114138 -0.03910547 -0.03760763 0.09758318 0.07545 0.12826544 0.051041685 0.061126176 0.08842441 0.061791964 0.18315458 -0.030133128 -0.13443947 0.059874985 0.037813466 -0.08087318 -0.008117702 -0.0049361615 0.114028424 -0.0038841057 0.13094337 -0.009205495 -0.10936149 0.027671395 0.0024097187 -0.011886923 -0.031174628 0.048101112 0.060302705 -0.0613295 -0.041400727 -0.028837167 0.20125785 -0.07343239 0.024172148 0.08331505 0.051823825 0.115012616 0.035235055 -0.1547013 0.040961623 -0.03863751 -0.042833842 0.011823776 -0.019095287 0.1926257 0.015789969 -0.12418894 0.025699068 0.07574638 -0.015691238 0.08259616 0.10750627 0.08488739 -0.16777791 0.06868705 -0.01499991 0.082197435 0.010924145 -0.048570607 -0.011640692 0.05161419 -0.047610123 -0.056413025 -0.016608063 0.01892254 -0.062722616 0.04233124 0.10468073 0.012792936 -0.036661174 0.036511328 0.055790417 -0.09932172 0.04170546 0.08161644
attitude -0.024222068 -0.055682898 -0.014776107 0.12379317 -0.10275277 -0.03337071 -0.004429391 -0.029020337 0.028957816 0.023359304 -0.00391902 -0.055373456 -0.004182523 -0.099228576 -0.017661946 -0.024801698 -0.030447623 -0.027488938 0.023330271 -0.07224052 -0.11135018 0.07170229 -0.016806806 -0.12690935 0.07438709 0.089757875 -0.16720572 0.038535602 -0.09784581 0.023759594 -0.08214529 0.043298583 0.13142252 -0.028014524 0.11454687 0.013614022 0.08132376 0.019187316 0.09938131 -0.12091551 0.15712847 0.10425963 0.047852494 -0.0343204 -1.5608335E-4 0.20584662 -0.1344146 -0.11686812 -0.055220798 -0.088830665 0.016716545 0.04827147 0.032695103 0.021650368 -0.07891706 -0.054934733 0.102517135 -9.3734334E-4 0.07133569 -0.19773313 -0.021991847 0.038935434 0.16233754 0.090657264 -0.20605871 0.17147608 0.09088316 -0.026263447 0.06644288 -0.005941676 0.14753598 -0.117076896 -0.015499732 0.0038636285 0.046706293 -0.04427338 0.044457667 0.0336577 0.11176626 -0.088703476 0.02075771 -0.108635396 0.035173878 0.03598827 -0.048007697 0.0061383336 -0.12839302 -0.047906145 -0.08693948 -0.040758736 0.1350322 -0.06681759 0.096252 -0.20750071 -0.0361849 0.0011222779 0.0717204 -0.04522204 -0.014775551 -0.045569267 0.0767981 0.016574267 -0.072105736 -0.027210357 0.010707395 0.070283756 -0.020787103 0.010097305 -0.08099971 -0.18226369 0.014900521 -0.14075416 0.13798001 -0.054126397 -0.076931715 0.040901076 0.056778166 0.0479546 -0.020939443 -0.006759798 -0.07089984 0.017621752 -0.13810375 1.1722989E-4 -0.0042269398 0.012045708 -0.04077004 -0.09041891 0.040590364 0.14800131 -0.046721008 -0.03314298 0.12319534 0.059477948 0.26136085 -0.07338022 -0.23070821 -0.033555813 0.10682939 -0.034544438 -0.0077248844 7.661547E-4 -0.013538593 0.02481491 -0.028006002 0.013731603 0.0018964612 0.07051576 0.070576206 -0.003941504 -0.15377502 0.05729254 0.011138194 -0.036802508 -0.037041154 0.06688671 0.12874031 -0.03575631 0.0911644 0.15715316 0.10016564 0.052999534 0.024537852 -0.023623928 -0.009291311 -0.12529734 0.053323124 0.13208917 8.9257985E-4 0.035480894 -0.08041814 -0.10715833 0.017750075 -0.021416372 -0.032809235 0.06510901 0.042355128 0.15423921 -0.023148097 0.03599075 -0.052718416 0.019953439 0.03168291 0.0018684723 -0.11616933 0.045711778 0.11257727 0.010573341 -0.06568166 0.06493003 0.027109807 0.0508733 0.19553582 0.07227557 -0.12154113 0.012924681 0.09608615 -0.14917552 0.010174343 -0.006047817
treatment -0.3154091 0.07482587 0.16290452 -0.08738728 0.14385165 0.0177507 -0.12820573 -0.033165485 0.006615131 0.058870196 -0.24138784 -0.14038238 0.07139986 -0.42502928 0.03853727 0.109229274 0.053652067 -0.007846362 -0.2165214 -0.24110104 0.29190198 0.060198225 -0.012165561 0.14581421 0.11096235 0.010207784 0.12877744 -0.04206632 -0.027765017 -0.04609684 -0.03954754 -0.14516331 0.26597837 -0.23927991 0.2727805 0.1723604 0.2663552 0.08767118 0.03137527 0.015668184 0.14280197 0.24112979 0.1134938 0.15794268 -0.007516126 -0.040394522 0.03222973 -0.19443412 0.21784508 0.042205285 0.109167635 0.14820956 -0.073113926 -0.029513167 0.1257036 -0.07342481 0.089806914 0.016719647 -0.18278965 0.031248575 -0.13018936 0.015829328 0.10514048 0.15937027 0.18574469 0.03591338 0.13957079 0.10461662 0.12372966 -0.0080236355 -0.0665105 -6.8771903E-4 0.04604914 0.066086754 -0.017582018 -0.050957873 0.030092772 -0.15109438 0.05324543 0.062120277 0.14581443 0.011939997 0.11996952 0.013135147 -0.17573267 -0.095810235 0.047373526 -0.11559038 -0.13265353 0.03382262 -0.22510982 -0.1353251 -0.036619857 -0.19912063 0.05837417 -0.12396427 0.089720406 0.14342812 0.044885963 -0.1980136 -0.120280616 0.028207995 -0.17340645 0.021541607 -0.21977429 0.0013185205 -0.02419714 -0.030447721 -0.05122492 -0.01880858 -0.0028846145 -0.088665046 -0.08724859 0.118156955 -0.2030465 0.01066602 -0.05657883 -0.1466456 -0.04148484 0.15963425 -0.019364256 0.13465762 0.019159267 -0.031109821 -0.29978415 0.015891327 -0.05029926 -0.042543925 0.07297418 0.13272299 0.11203743 -0.05592326 0.09403316 -0.2362829 0.25777754 -0.04785511 0.21274887 -0.052316032 0.054197166 0.08860814 -0.011345226 -0.014228936 0.03786603 0.093912885 0.03547146 -0.07144348 -0.031904884 -0.07058868 -0.15548944 0.029170034 0.18227006 0.35160992 0.24922366 -0.23711708 0.07893482 -0.14042552 0.24780099 0.00636744 0.0746291 -0.028237464 0.11714617 0.03203985 0.042720802 -0.002068573 0.20559457 -0.16319925 0.03382119 -0.09438317 0.28460407 -0.24093767 -0.14832008 -0.26143134 -0.057932805 0.23023573 0.06606644 -0.06651697 -0.14993478 0.20206282 -6.9222867E-4 0.05110854 -0.043363754 0.1197781 -0.09516034 0.36467823 -0.16131227 -0.12182365 -0.023996094 0.0026129177 -0.04222552 0.2944338 -0.1188263 0.026443366 -0.030921249 -0.055706475 -0.17799015 -0.04906429 -0.05234123 -0.085898235 0.13664667 -0.041194703
flight -0.27718574 -0.09503168 -0.0052960366 0.3803579 0.1590787 -0.20734787 0.21008042 0.0531486 0.20631795 -0.0123866 0.07680168 -0.01187685 0.2024388 -0.18297556 -0.012550969 0.11609817 0.010009433 0.04992813 -0.035847865 -6.775606E-4 -0.047983296 -0.0063912007 0.077742286 0.052811034 0.033565845 -0.05949382 -0.17429312 0.23024796 0.11939259 -0.054402273 0.08357651 -0.14959742 -0.14592734 -0.018974893 0.06724919 -0.04566991 0.054224692 -0.08116262 0.0022703568 -0.13412477 -0.06639773 0.15788732 0.2213232 0.02830306 0.034933235 0.16202879 -0.011944938 0.07817987 0.13098587 0.12703723 -0.22829735 -0.04490736 -0.10032091 0.13903879 -0.4244637 0.15557493 0.22582735 0.13514486 0.028830547 -0.09230459 -0.13943006 0.015593651 -0.051501106 0.18383141 -0.138381 -0.045828067 -0.009559076 -0.030967372 -0.09416408 -0.15678763 0.16481052 -0.050516173 0.1620711 0.35141307 -0.327437 0.18725511 -0.120427646 -0.035662994 -0.047608286 -0.07575717 0.08937089 0.00791687 -0.106247075 0.17218557 0.043888982 -0.17830712 -0.0010448433 0.19835575 -0.056273043 0.15982234 -0.12185061 0.07414147 0.23714344 -0.020010969 0.1358838 -0.09217766 -0.16356361 0.20834643 -0.13650365 0.007878232 -0.06254345 0.061284415 -0.15170938 0.05980853 0.094359055 -0.15351741 0.030649193 0.020162968 -0.113034636 -0.021401947 0.06292955 -0.007265152 0.17082544 0.21060213 0.033830386 0.075706184 0.03536005 0.08853328 -0.0105352625 -0.050797783 -0.10873014 0.05951968 -0.0115393605 0.14711 -0.12677154 -0.1263123 -0.04273902 0.0028213048 0.04236767 0.028910734 0.0867086 0.22114596 -0.0451722 0.12928696 0.16743016 -0.15836653 0.022987282 -0.22933322 -0.18859468 -0.075719185 -0.08321097 -0.09680185 0.0011890691 -0.0609619 -0.12181686 -0.20902634 0.008613191 -0.11686091 -0.14444551 -0.12539455 0.073278934 -0.028421927 -0.019935744 0.027106076 0.15252872 -0.24116102 -0.07289211 -0.29380643 0.22198232 -0.20419535 0.037272573 0.11701912 0.118448995 -0.07354693 0.07009274 -0.028441817 -0.03831478 -0.09721115 0.008060226 0.05211833 0.10456182 0.006470279 -0.092491925 0.04509296 -0.19318789 -0.03305726 0.025062833 -0.022601074 0.086440764 0.052645776 -0.002728923 0.21797158 0.11743173 0.10771325 -0.0068921656 -0.14945643 0.014772561 0.0710866 -0.1239988 0.10481234 -0.051835265 -0.044543803 -0.15562807 -0.021748085 0.08791022 0.006359586 -0.005619662 -0.08306304 0.054007497 -0.15719654
forest 0.022373889 -0.215816 0.07901037 0.0054177265 0.06780304 0.2314972 0.16990677 0.0011993936 -0.046852823 0.13067736 0.11591692 -0.09671573 0.019446224 -0.09832415 0.19951968 -0.11107542 0.018445048 0.055148356 0.021094956 -0.094611175 -0.02619779 -0.023126138 0.15667126 -0.08113813 0.011056445 -0.15564951 -0.08724369 0.08641533 0.107129 0.1429336 -0.047979217 0.18486063 -0.14977896 -0.2801659 -0.10889306 0.19595572 0.06868283 -0.11397041 0.06604523 0.030116083 -0.1283186 0.04788197 0.018172245 -0.01985649 7.6210126E-5 -0.008244361 0.032419596 0.04766694 0.07033198 -0.058723595 0.14383075 0.02351034 0.11835861 -0.13006523 -0.15155025 0.16945595 -0.0616663 0.009651572 -0.09288872 0.057672106 -0.0015799855 0.023486875 -0.08294411 -0.01942501 -0.08524065 0.10423627 0.0924289 0.27997473 -0.12487583 -0.1925606 0.12582321 0.01751292 0.07771248 -0.013007132 -0.067487024 0.095319815 -0.26634458 0.007069392 -0.0730235 0.062141903 0.08809695 -0.1981223 -0.047890984 -0.028628021 0.08890069 0.13602912 0.1151441 -0.0433548 0.008634133 -0.13281803 0.0055649225 -0.16660266 0.052763633 0.078303106 -0.061582502 -0.06635397 0.08161734 0.046948187 0.07519606 -0.11253753 -0.010827753 0.009130898 -0.14594884 -0.15485181 -0.004073536 -0.056607805 -0.0064874464 0.09618552 -0.107803985 0.026363509 -0.015388631 -0.035880998 0.019695489 -0.050648883 0.036879517 0.07296186 0.105910815 -0.0032924009 -0.016936243 -0.14815144 -0.08931902 -0.07968849 -0.14502399 0.07026423 -0.09524967 -0.10205175 -0.021730807 -0.12542406 0.033982452 0.007686233 0.06758634 -0.09409362 -0.028795667 -0.003629169 0.025035055 0.06431125 0.09635876 -0.14892742 0.03350333 -0.203548 0.013517259 -0.114331365 -0.047691803 -0.1554145 -0.13187343 0.014301693 -0.022123009 0.09345254 0.14456704 -0.011996265 -0.0053217295 0.086823344 -0.0086117815 0.06566798 0.0015017852 0.055678755 0.12448206 -0.051018037 0.20424588 -0.063939676 0.0017450778 0.1172836 0.10064025 -0.03758729 0.07381793 -0.10144096 -0.015031084 -0.065160885 0.11888911 0.05910981 -0.029739887 -0.033274833 0.041236762 0.16565621 0.030005766 0.049897302 0.019158423 -0.11606245 -0.048394337 0.10432171 -0.10744903 -0.009721618 0.025160832 -0.1296858 0.015455313 -0.06735316 0.06894975 -0.027899921 -0.010882989 0.046186097 -0.0043425807 0.002052469 -0.047607813 0.024301782 -0.019709144 0.095629506 -0.11115399 -0.10675934 -0.14097951 -0.08908665
abuse -0.26490942 -0.062054902 -0.006459278 -0.30073854 0.10252947 -0.074829005 -0.23781453 -0.11142975 -0.19304362 0.23808508 -0.42208794 0.06202119 0.19942975 -0.052150644 0.019617518 0.026397761 -0.1679228 0.08352775 0.08979928 -0.25441584 -0.072378 0.13380392 -0.13845187 -0.12404356 -0.40276596 -0.24130365 -0.116422094 0.1441279 0.03748561 -0.01311944 0.17897518 0.03232053 0.088913895 0.081824146 0.079441 -0.05334895 0.18334445 -0.14510544 -0.010216698 0.069762796 -0.29535872 0.25596052 -0.18910113 -0.10172795 0.05811834 0.018333858 -0.113087095 -0.34121263 0.23033816 -0.057493676 0.06856297 -0.10948861 0.2425824 -0.108084366 0.30537012 -0.016207777 0.38065308 0.20131163 -0.06440515 -0.121174306 -0.20393172 0.11269034 0.07701716 -0.10256871 0.19329296 -0.26446784 -0.2473677 -0.07336016 -0.2219518 0.097114496 -0.31446183 -0.36946642 0.030904561 -0.20496503 0.019603843 -0.07399028 0.1692164 -0.09118583 -0.10738783 -0.0014048807 -0.08993181 0.059031747 -0.05987303 -0.29683962 -0.1908875 0.08291582 0.023806337 4.865904E-4 -0.21894154 -0.114964545 -0.06974743 -0.32882434 -0.094190806 -0.40868407 -0.1011749 0.08516862 0.082275674 0.0579807 0.06726975 -0.1404423 -0.14829344 -0.06710525 -0.12827457 0.0028246783 -0.004860139 -0.12310263 0.0046850597 -0.105659984 0.03295179 -0.25658268 0.22772439 0.029556623 0.043891545 0.07066768 0.33780867 0.042563297 -0.18789604 -0.10714414 -0.031199047 0.22338274 0.048104495 0.060646184 0.10252484 0.12100457 -0.1100875 -0.15852857 0.3041899 -0.12647827 -0.07060454 0.011656777 0.017756395 0.07210742 0.0038465029 -0.11836095 -0.026523598 0.36853334 0.054152776 -0.09958776 -0.055813625 0.12659878 -0.118935615 -0.12165635 0.08508639 0.18976697 -0.05593237 -0.09781484 0.15629064 -0.02370757 0.1120128 -0.061222445 0.060444493 0.037841585 -0.02117656 -0.07551984 -0.03648329 -0.13013913 -0.017623853 -0.12056393 -0.0012732381 0.2675105 -0.023677453 -0.0014670826 -0.16163051 0.13307905 -0.12565015 -0.04387567 -0.12897713 -0.054595754 -0.030760068 0.068946816 -0.17861933 -0.06413347 -0.25820062 -0.091401346 0.04385524 -0.05223507 -0.16719097 -0.06884372 -0.18318973 -0.11618307 -0.24578239 0.11014611 -0.16967054 0.20928703 -0.25869188 -0.18405926 0.03624264 -0.025839647 -0.13288297 0.09746568 -0.028708663 -0.02781867 0.27400026 0.11392238 -0.027551044 0.06480423 0.18353811 -0.06517164 0.07361185 0.26121458
criterion -0.011796246 0.007269139 0.0075549185 -0.014575172 -0.01055188 -0.01832395 0.0047430033 -0.02197872 -0.007380582 0.0059520486 -0.031122545 0.012402628 0.033264063 0.024427231 0.018233653 0.016377611 -0.0017964419 0.02793097 -0.02937616 -0.003128582 -4.794662E-4 0.0034916694 0.03169299 -0.017549934 -0.0010501256 0.024236359 -0.04527327 3.4470556E-4 -0.009160767 -4.7351414E-4 0.016735489 0.0017191271 0.017693838 -0.049669992 0.037231788 0.029028572 0.0375254 0.0020082684 0.032138117 0.022839835 0.004124735 0.025271047 0.038506653 0.018999303 -0.008539524 -0.01714675 -0.015137165 -0.019194646 0.003288709 -0.010547503 -4.5041862E-4 -0.027109722 -0.02131453 3.7588135E-4 0.0011051807 0.008556288 0.004620246 0.010668632 0.031275973 -0.023544254 -0.005124754 0.0052719554 -0.010132598 0.010724583 0.0066579147 0.0018172417 -0.012244576 0.022908933 -0.003184465 0.014177942 0.04864663 -0.016427372 -0.018069753 0.011832777 0.0285667 0.03255394 0.032978933 -0.030046752 -0.0060750805 -0.01443386 -0.0062242732 -0.029033585 0.030147122 0.00294223 0.0039113048 -0.040477615 0.009254388 -0.011752571 -0.016567368 -0.03360479 -0.020696664 0.036702264 0.009885672 -0.007951844 0.006781236 -0.049154364 0.023686614 -0.01847701 -0.014998445 0.012630572 -0.02565414 0.016790785 0.02213071 -0.013822606 -0.025595354 0.026891893 0.004441072 -0.0041282917 -0.009823893 0.009571087 0.0048283995 -0.011557919 0.0016335786 0.004535257 0.011052478 -0.020886686 0.037881136 0.03898917 0.010141917 0.008064422 0.022868162 -0.008567709 -0.014372915 -0.027667178 0.0045306096 0.0077026673 -0.0144808525 -8.7443134E-4 0.035402156 -0.0023356709 0.008636845 0.0048787165 -0.015820047 -0.010306183 0.01914495 -0.023889098 9.72902E-4 -0.021617126 -0.008607385 0.0054076896 0.007650913 -0.0114688445 0.0033811515 -0.03991198 0.021533944 -0.0041893506 0.0035962388 0.023382558 -0.010573549 0.008980129 -0.04040593 0.01925184 -0.027940914 -0.006757028 -0.03077765 -0.0047532106 0.019517615 -0.021420276 0.012184229 0.02965945 -0.018574202 -0.0023724162 -8.9504337E-4 0.0062686405 0.011397453 -0.019645218 0.0040131495 0.0358175 0.03876447 -0.04091546 -0.0052905935 -0.030577388 -0.0017025367 0.018999945 -0.0034699189 -0.006023667 -0.007947921 0.01861329 -0.0014882257 0.032239523 -2.3907318E-4 0.01650865 0.01026398 0.0056258393 0.015301493 0.011049935 -0.0035884073 0.0067201694 0.0053364253 -0.023482116 -0.0053457352 4.913029E-4 0.0014418826 0.017570792 0.0066037984 -0.020160846 -0.007844281 -0.017337712 0.0041811373 -0.016879337
sea 0.08714558 -0.20992899 0.062143814 0.034526344 0.18522248 0.08643212 0.03444514 0.02874615 -0.09432467 0.007996296 0.0025552947 -0.121192545 -0.05590835 -0.031211453 0.03020397 0.14910512 -0.25361437 0.20907868 0.1905256 0.047125466 0.074442044 0.123097 0.1095425 0.15551466 0.109753266 -0.065098785 -0.13241291 0.06799849 0.11471321 -0.0060475455 0.050635085 0.19123717 -0.070158646 -0.016983079 0.13940918 -0.12701954 0.121731594 -0.04796342 0.20774928 -0.030590668 -2.3053498E-4 0.2077353 0.12813862 0.004765309 0.13492016 0.14056906 0.21041404 -0.051929325 0.08485228 -0.012772154 -0.101536304 -0.015698334 0.1014267 -0.05555801 -0.10619685 0.3617361 -0.0054806904 -0.106691405 0.23854834 -0.20035107 -0.008343854 -0.13381249 -0.005479405 0.17562702 -0.1318134 0.049098905 0.091295876 -0.017788468 -0.055417553 -0.067768194 0.14116283 -0.0941748 -0.0365201 0.28398448 -0.071452275 -0.031887844 0.11000484 0.30200106 -0.3072145 0.10765599 -0.012124766 0.08981959 -0.227153 0.27350274 -0.15992746 0.015185889 0.03165509 0.05731261 -0.15132175 -0.060063966 -0.23954591 -0.3030455 0.08970629 -0.036295697 -0.04412294 0.066561714 -0.08665295 0.15003908 -0.0033053034 -0.03000056 0.0024279526 0.043980278 -0.08999175 -0.09805014 -0.09170064 -0.09552971 -0.123156115 0.19163993 -0.13093036 0.047032364 0.11717445 -0.05077031 -0.0026558088 -0.027280992 -0.029491805 -0.1400128 0.21432003 0.28815332 0.0802266 -0.1166405 0.24150822 -0.04575522 -0.21502297 0.21249236 -0.023817997 -0.271157 0.06722531 0.11896258 0.007968535 -0.14225596 0.0019965526 -0.3214645 0.11327913 -0.18595374 0.24758407 0.009317913 0.07256418 -0.06258688 -0.20134367 -0.072990045 0.099599555 -0.14145395 -0.27027386 -0.11447779 0.044761267 -0.13057052 -0.070069686 0.22033647 0.112986855 -0.09254142 0.08720303 0.2245546 0.100665025 -0.082725935 -0.102375105 0.09670281 0.1257163 0.094084464 0.06452772 0.027342882 -0.17138022 0.12457544 0.069363214 0.04448455 -0.3658746 -0.11714587 0.06692847 0.20310634 0.032719906 0.194629 0.053828366 0.11783379 -0.0990935 -0.03851677 0.03250474 0.06005525 0.019543719 -0.0356272 -0.21292627 -0.012175903 -0.0461807 0.05197117 -0.028671762 0.069591396 -0.2757673 0.077631205 0.01684581 0.043881275 -0.052114364 0.06489864 0.12280201 -0.0769764 0.17911641 0.011358252 0.1102098 0.19399081 -0.2665108 -0.14977556 -0.091348976 -0.12416176
dollar 0.39618742 0.17747515 -0.24134482 -0.20461833 -0.21078557 -0.45115685 0.3942771 -0.404265 -0.12458576 -0.072976135 -0.22545917 -0.033288766 -0.17020799 -0.08972725 -0.18263325 0.20797455 0.140328 0.11942893 0.18273753 -0.060278434 -0.019364428 -0.1021485 -0.25436527 -0.03067395 -0.24334912 0.40143505 -0.25104484 -4.1837804E-4 -0.0058750664 -0.027463512 0.058914352 0.28848758 0.25415266 -0.10582054 0.18714327 -0.15960589 0.09504163 -0.05013867 -0.15050174 -0.0670228 -0.07477284 0.26887205 0.14374167 0.07122402 -0.026030447 -0.111065894 -0.3246738 0.33199528 -0.094286345 0.058533084 0.054895718 -0.12952599 -0.21300311 -0.001808785 0.10628575 -0.108582765 -0.17311794 -0.15227596 0.09232745 -0.06906943 -0.11392466 -0.20923768 -0.112094305 0.20100851 0.09041099 -0.042094715 -0.14948858 0.076940075 0.042626165 0.08152796 0.26026738 -0.108984925 0.22093707 0.026416179 -0.04138087 0.13610795 -0.004920552 0.039886206 -0.13001515 -0.05618249 0.31882653 -0.37035125 0.071057625 -0.17411843 0.16369356 0.045498252 0.1317653 0.09492478 -0.010830324 0.03877136 0.014686327 0.17765948 0.286024 0.31141797 -0.041075148 -0.15677994 0.14145125 -0.06463459 -0.14820942 0.23469985 0.14977603 0.11748413 -0.04840519 0.12863123 0.010369679 0.014286767 0.2462188 -0.08050429 -0.24055861 -0.11099038 -0.09491023 0.08212895 -0.006288012 0.13750993 0.21364702 -0.16185898 0.09152226 0.23800121 -0.057264585 0.17988662 0.15975769 0.40638596 -0.22390158 0.013293079 -0.23670046 0.0043190503 0.14087811 0.6201318 -0.2366667 0.01995631 0.31257483 -0.09537116 0.014573036 0.18286727 0.066341184 0.017425843 -0.056917723 -0.22308017 0.12874012 -0.023917092 0.16330044 0.16995008 -0.1160755 -0.20403291 -0.023211788 -0.0048889224 -0.0723748 0.40565905 -0.040600073 -0.038879286 -0.20415524 0.13458419 -0.08787712 0.015991654 0.072971106 0.025601512 -0.122870855 -0.085223086 -4.034326E-4 -0.02040017 0.037150107 0.004032766 0.1947302 0.12750682 -0.05438157 -0.5214722 0.25925902 0.2680786 0.07983817 -0.15700427 0.14361902 0.121375926 0.15156494 -0.30907843 0.15083666 0.15349565 -0.07384845 0.04543592 -0.4550722 0.18093416 0.0053679096 -0.115654506 0.056743138 -0.12679364 0.006432838 -0.14933781 -0.055718508 0.005041323 0.021482645 0.1382624 0.014196662 -0.17349201 -0.15331422 0.19522151 -0.28272435 -0.07551953 0.2763575 0.086414345 0.17752416 -0.1650558
example -0.33318216 0.26818055 0.09687968 -0.056338146 0.2848832 -0.07597586 -0.091744475 -0.16561836 -0.3136906 -0.05993595 0.077062815 0.32040346 -0.27614704 0.20921105 -0.13431342 0.094903775 0.13822514 -0.10079926 0.026685337 -0.22225557 0.106841035 -0.18022256 -0.07496337 -0.121356204 0.047419857 -0.13450444 -0.038836554 -0.100104555 0.053140376 0.03643292 0.32527143 0.21875934 -0.080738895 0.01694968 0.22620974 -0.09870904 0.33306566 0.07556735 0.0121144345 0.5189922 -0.24148192 0.25537968 0.0531345 0.14654621 -0.21482539 0.23106122 -0.12272256 -0.11321408 0.11435828 -0.050393417 0.19401887 -0.11645491 -0.33934918 -0.061183967 -0.033122897 -0.18692566 -0.007162818 0.09016045 -0.28632718 0.24496785 -0.016917808 0.079823345 0.25689012 0.44255987 0.15208194 -0.099994875 0.15547994 -0.13427618 0.1566297 0.13872889 0.2773316 -0.024750536 0.019830314 0.33055496 0.16701251 0.10142421 0.018601017 0.1241884 0.040415343 -0.048864383 0.08286708 -0.2515793 -0.055932626 0.046614334 0.08743316 0.038467262 -0.020184489 -0.12212388 -0.10851304 -0.3714123 -0.19922112 -0.048194133 0.10437761 0.23374587 0.043290574 -0.08353458 -0.11281216 0.030016374 0.1228752 0.04839039 0.11819925 0.08718498 0.06983947 -0.2511671 -0.16554189 0.24242382 -0.15095504 0.008399566 0.19405736 -0.36895826 -0.07045496 -0.1463956 -0.3050206 -0.09371454 0.18994528 -0.102336 0.11090097 0.0839589 0.23126575 0.26712346 0.25087914 0.019143814 -0.07282172 0.0038623475 0.13572828 0.018548114 0.1175477 -0.04194937 0.18864739 0.21064216 0.4463588 0.14331214 0.04312257 -0.10171078 0.4165458 -0.0018103939 0.18587485 -0.008716381 0.053717252 -0.16902304 -0.0068425788 -0.2408689 0.20972951 -0.14071442 -0.24852352 -0.4346778 0.07612104 -0.028930662 0.033802632 -0.32937595 -0.13683602 0.108127125 -0.046402946 0.017765293 0.022651251 -0.18445632 0.17824955 0.16958074 -0.3624318 0.15121733 -0.030528504 -0.06352207 -0.27745467 0.013419636 0.39763066 0.06736451 0.07967021 0.12957555 0.17159197 0.2574083 -0.019899966 -0.11538164 -0.18094386 0.15059984 0.10116909 -0.111706376 0.008843729 0.30070215 -0.40515837 -0.13212673 -0.1625455 0.37129638 0.09242682 0.15678029 -0.059105415 -0.14999793 0.08388457 0.04009359 -0.03306618 0.14639412 -0.14798108 0.044670008 0.008472962 -0.12672418 0.17132549 -0.010205182 0.22871618 -0.13120739 0.1960934 -0.19113079
journal -0.09063205 0.12205474 -0.19021803 0.12938741 0.059496347 0.15565008 -0.4075091 0.0062966845 0.010901033 0.093722194 -0.20440115 -0.013515774 -0.040124346 0.048503302 -0.2175165 -0.01630316 -0.012344604 0.014439363 -0.24514328 -0.012009486 0.03249311 0.15266314 -0.093163826 -0.20873083 0.05725904 0.298781 -0.25003636 -0.08505481 -0.0010051413 0.0077375285 -0.1828549 0.15998049 0.12357183 -0.5535499 -0.22567406 0.40517256 0.15803602 0.4529169 -0.263341 0.5961201 -0.032249033 0.21045673 0.06336135 0.1519026 0.112573035 -0.19089977 0.1437708 -0.089510195 -0.10023782 -0.13404621 0.20306058 -0.15815915 0.08924006 0.044525728 0.08321173 0.29076225 0.10628401 -0.11603331 0.16087598 0.122110516 -0.4501698 0.33497995 0.2525651 0.011564637 0.23554263 -0.16304682 -0.010861013 0.5216848 0.15662499 -0.25147873 0.06848873 0.18262506 -0.13757542 0.0029010167 -0.02653915 0.43552807 0.14010523 -0.19633262 0.059293035 0.19719657 -0.19620207 -0.11868643 -0.017503582 -0.0537523 -0.16635068 -0.03142304 -0.19825974 0.27988625 0.061558228 -0.046488535 -0.2132064 0.17062758 0.007093002 -0.24644452 0.14898936 -0.30164668 0.08603393 0.08148899 -0.19225612 0.14463775 -0.14443213 0.4194061 0.00804303 -0.04950237 -0.29103366 -0.11960208 -0.23220296 0.25147396 -0.065662846 0.02833335 0.096829124 0.034972917 0.16537228 0.08704757 0.12984994 0.3320585 0.17130913 -0.08162414 -0.122482054 0.11668685 0.051720552 0.20455196 -0.28182757 -0.12332411 5.2920385E-4 -0.29349902 -0.3107665 -0.14598109 0.3028427 0.048639107 -0.17482498 0.22654086 -0.30925897 -0.37663305 0.0500958 0.09937802 0.1471335 -0.17338383 0.08421979 -0.031471662 0.49182498 -0.028027855 0.42753795 -0.3164814 0.05942398 -0.031227792 -0.08358749 -0.099475786 -2.3790417E-4 0.25249863 -0.20245695 -0.20331632 -0.22982317 0.11004345 -0.17045893 0.14499943 -0.044523094 0.031785995 0.15522172 0.050945297 -0.1838794 0.24640644 0.28819078 0.16899997 -0.21065904 0.008447294 -0.16451639 -0.09618911 0.29891953 -0.21817015 -0.19334719 -0.16883068 -0.06317582 0.1394774 0.30175984 0.070031025 0.06626237 -0.35198843 0.122201644 0.17247392 -0.08023865 0.011910558 0.14763616 -0.010120821 -0.20356497 -0.124302745 0.19887137 -0.104604036 0.10553828 -0.10817959 -0.15909706 0.36454436 0.012225438 0.008908244 -0.19645496 0.10894343 -0.14436744 0.17019759 -0.03941632 0.39123845
laundering -0.054550797 0.07745554 0.030882573 -0.086215 0.09510538 -0.13983959 -0.1271661 -0.08733897 -0.05410018 0.052609697 -0.028699815 0.088423416 -0.030645968 0.0860776 0.05055301 -0.018143412 -0.071401924 0.012699997 -0.014553654 -0.13526447 0.008742452 -0.096586525 0.04206254 -0.057122562 -0.15127423 0.0034715866 -0.06569303 0.048478812 0.08010732 0.025830459 -0.04252674 0.08832102 -0.09777466 0.0023638837 -0.06327716 -0.053635515 -0.0810196 -0.016654754 0.10809469 -0.009460062 0.12195941 -0.07835441 0.022991909 -0.0040551964 0.09919922 -0.056954253 -0.004535967 -0.05091596 0.0046317982 0.016991535 0.042736344 -0.0068207965 -0.059506517 0.08045921 0.17023312 -0.099923566 0.03743382 0.13382465 0.114703506 -0.024133168 0.072954886 0.029124936 0.017473549 -0.17307293 0.111335285 -0.1026439 -0.10852765 0.027117625 -0.032391224 0.031960808 -0.15806165 -0.08413986 -0.01928409 -0.060088802 0.05373679 -0.13814646 0.06137236 -0.04705836 0.13243026 -0.014079017 0.2379369 -0.016445348 0.0019342517 -0.052159347 0.08553948 0.028748749 -0.016816113 -0.093290806 0.08731955 0.11052085 -0.06195271 -0.13981552 -0.015300327 -0.17371625 -0.038248364 0.052646797 0.059892472 0.100055836 0.13169771 -0.03850975 -0.011543733 -0.09566083 -0.08163628 0.058072686 0.0055113384 -0.07540499 0.02651756 0.040547065 -0.0028085303 0.2440163 0.094702475 0.09176872 0.021394929 0.064782016 0.15669554 0.05973494 -0.04516652 -0.07299479 0.08802564 0.11440972 0.009650885 -0.025715644 0.07374728 -0.028694868 -0.012869137 0.14439213 0.0653668 -0.0035719087 0.045235477 0.0361758 -0.08871659 0.03143014 -0.013657626 -0.015576994 -0.07002775 0.013833971 -0.06968259 0.11205391 0.14538129 -0.08207741 -0.05573905 -0.016149923 -0.0019701228 0.028656736 -0.16185547 0.06060893 -0.04643224 0.11496254 -0.0818583 -0.004181364 0.1473436 0.013100265 0.0040869913 -0.002968463 0.017232731 0.04429409 -0.0798231 -0.021224093 0.08253383 -0.0059752134 0.15919746 -0.038764417 0.055408854 -0.011504995 0.13161659 0.11285883 -0.040872492 -0.114446424 -0.274305 0.075230084 0.10172491 0.014048155 -0.13069357 -0.059350222 0.050031487 -0.10986981 -0.12019017 -0.019912604 -0.027069906 -0.10722722 -0.07773608 0.054070406 -0.0029856125 0.011148055 -0.061574787 -0.009406652 0.106919944 -0.13487412 -0.010850179 0.13240536 0.03490609 0.036789533 0.048241735 0.13916826 0.012514776 0.039373096 -0.04143682 0.15004455 -0.09507239 0.056747526
hotel -0.034313753 0.15779106 0.028663876 0.05555424 -0.015484604 0.11623033 0.10009959 -0.031101972 -0.06252313 0.15434721 -0.0081508225 0.057603564 0.1216516 -0.05531184 0.04425848 -0.11049814 0.01952748 0.0120989075 0.24668644 -0.056745958 0.008094014 0.21670516 0.21680303 0.022019038 -0.0062906877 -0.09662982 -0.30419472 0.2913512 0.07874039 0.053492665 -0.03024754 0.044426613 0.03957704 -0.13954417 -0.14664519 0.27499983 -0.084641054 0.027774787 0.15181813 0.060159903 -0.12304528 -0.03740554 0.0036016589 0.08655009 -0.05308559 0.1157173 0.35770005 0.26869792 -0.032388367 -0.050649583 -0.020069076 0.055312693 0.009042035 -0.17866157 -0.10110048 0.091458485 0.068883024 -0.08039454 0.27432558 -0.07372504 0.10508325 6.1546656E-4 0.029247247 0.24414347 -0.22426108 -0.13129319 0.13958453 0.2367759 -0.084960364 -0.124648675 0.3432468 -0.040660013 0.19677088 0.0042408328 -0.03343787 0.05923762 -0.035863906 -0.056421973 -0.10954849 0.017756773 -0.0060987063 -0.08295311 -0.14156142 0.13564534 0.018792316 0.04821881 -0.019256493 0.022676222 -0.0078031346 -0.055766158 -0.04913244 0.0047604167 0.22492018 -0.14740492 -0.0473908 -0.1547243 0.23520893 0.20045057 0.0421169 -0.14555022 -0.10344861 0.084175654 -0.18892339 -0.17666748 -0.0034187965 -0.33781078 -0.07784263 0.22952732 -0.07279651 0.060296815 -0.084145464 -0.2639265 0.009643743 0.27513492 -0.0884343 0.18907957 -0.06750994 0.07391527 0.24063772 -0.29247013 -0.033063106 -0.03159423 0.045933172 0.08659139 -0.14578925 0.107968666 -0.14162637 -0.03864929 -0.04239353 0.0155267585 0.23841782 0.025840163 0.06371187 0.12489119 0.101343304 0.13556443 0.13042238 0.1355837 0.021193827 0.029653814 -0.01363327 -0.045022648 -0.022277586 -0.15284029 0.025478119 -0.009012408 0.1472001 0.18278682 0.09707038 -0.07774286 -0.03771691 0.044933915 0.063352 0.061972383 0.058897734 0.12264522 0.18679032 -0.08487088 -0.012884512 -0.0017314162 0.046818268 0.012913689 0.1336681 -0.24701864 0.120247476 -0.030938301 0.07715954 0.13174057 -0.016458673 0.14778261 0.23231235 -0.21879898 -0.05767837 0.08978977 0.006972734 0.07730581 -0.021887416 -0.15531111 -0.033598308 -0.057824038 -0.12398826 0.111984015 0.17368856 -0.022780398 0.140104 -0.06893345 -0.1802669 0.088425554 0.2903408 0.07146408 -0.013270896 0.016924025 -0.080644794 0.12743522 -0.05422144 0.16687192 -0.28210458 -0.07714762 0.016754385 -0.14076313
term 0.13063306 0.011651459 0.110189974 -0.09906811 -0.056598436 -0.24986607 0.10563726 -0.23011647 -0.17007773 0.29571337 0.10627451 -0.2575144 0.1517303 -0.2730038 0.364429 0.20725387 0.12427352 0.040023398 -0.10514326 -0.3287531 -0.18251675 0.30507618 0.31221145 0.2481846 0.48035544 0.17276955 0.12920345 -0.11036112 -0.13208327 -0.19360693 0.23673777 -0.017748436 -0.10738712 -0.070061654 0.031580925 0.022287328 0.005147479 -0.07802794 -0.03416002 -0.10859332 0.10064301 0.11517569 0.08931968 0.26356536 -0.041911967 0.14397973 -0.25372785 -0.25560275 0.01959785 0.084038004 -0.15600622 0.06853133 -0.15231238 -0.011980149 0.08100752 -0.06849267 0.19813149 0.087480724 -0.2287555 0.14000015 -0.29809868 -0.25418848 0.16792439 -0.0060300273 -0.15699615 -0.013473795 0.012388616 -0.10173187 0.13920185 0.2988988 0.18488662 0.077007234 -0.024410084 0.2001725 -0.081373096 -0.24477172 0.056189314 0.035241656 0.023426581 -0.17356022 -0.048038274 0.18989146 0.28570828 0.10821263 -0.12836444 -0.0013156063 0.32354543 0.24773249 -0.21227245 0.12742363 0.2902721 0.02652262 0.081608556 0.11224772 0.013661557 0.17983063 0.16105913 -0.15680815 -0.15981102 -0.2846802 -0.13096389 0.032504257 0.28611046 -0.23969048 -0.015885944 -0.033678353 -0.07846759 -0.047702946 -0.21440129 -0.20022233 0.20752122 -0.14471892 0.20880778 0.13887206 -0.2931981 -0.03851037 0.2626621 0.057200987 0.05790012 0.43979922 0.13117339 0.1702452 0.02425666 -0.25920093 0.02738286 -0.12203986 0.12674254 -0.027492104 0.18884268 0.14773828 0.0014721681 0.17993975 0.038669664 -0.06524486 0.18951918 -0.5760613 0.11714562 0.09159713 -0.22059624 -0.5155703 0.0418348 -0.34327903 -0.16736193 -0.17581168 -0.0205814 -0.10819461 0.13596304 0.17305973 -0.07350199 -0.0869875 -0.1058141 -0.20767939 0.15696144 0.12775533 -0.04884301 -0.45467255 0.03724498 0.19467616 -0.018631106 -0.030699544 -0.06600047 -0.006498542 0.24010299 0.2352556 0.02361449 -0.098158 -0.019651009 0.11421821 0.05456274 0.25829992 -0.14012063 -0.26665223 0.19720191 0.21044847 0.07098244 0.017317545 -0.056302607 0.0755581 0.011198366 -0.18972978 0.09134018 0.2076893 -0.06803056 -0.04462677 -0.16846769 0.12463718 -0.3206621 -0.32741824 0.11894749 0.21633942 -0.15949543 -0.22179857 -0.13503753 0.07493904 -0.26977783 -0.24406742 0.20060998 -0.12089578 -0.14610028 0.10970628
listing -0.08403788 0.059380252 0.047177263 0.06511891 0.02004458 -0.04518666 0.0023394353 -0.030156756 -0.06489801 0.013544802 0.066928454 0.03364468 0.008542975 0.009805913 0.02570783 0.010076422 -0.052230306 0.014105553 -0.11326431 -0.01604009 0.0034919984 0.07377793 0.025450116 -0.038050573 -0.022436747 0.071427524 -0.027371913 0.036873132 -0.05665999 -7.483006E-4 -0.035432413 0.006634144 -0.016871562 -0.024158075 -0.07080343 0.021621494 0.020607216 0.060802825 0.009584942 0.034725968 -0.05075411 -0.039464667 0.02879611 0.019206824 0.010384985 0.013632043 -0.025409313 8.0659206E-4 0.041476384 -0.045823537 -0.07415943 -0.034807865 -0.06789394 0.012934834 -0.016587026 -0.043531336 0.11276413 0.011987976 0.02877583 -0.00793755 0.04677895 -0.04961551 0.03744466 0.08983983 -0.05931338 -0.15579982 0.09182755 0.12560366 0.027440192 -0.07293852 0.076660775 -0.03618005 0.08934044 -0.016008113 0.08771642 0.07546103 0.07626957 0.028139831 0.007490679 -0.09539709 0.07112054 -0.06648907 0.022352818 0.13623996 0.120956205 -0.098288886 0.06692975 0.020730875 -0.041049697 -0.056510985 0.0060635637 0.0059718713 0.15974955 0.050707508 0.025469828 -0.09624517 0.03935011 0.06116636 0.024420321 -0.05848305 -0.01661471 0.048284695 -0.07819713 -0.029466003 0.0037917497 0.014334057 0.02033946 -0.04775912 -0.012211369 -0.045802735 -0.01092207 0.019780023 0.011086141 0.094859675 0.008317672 0.0075685615 0.01775068 0.02223322 -0.038233493 0.016299259 0.015353058 0.07371098 0.0036752154 0.011114854 0.03072158 0.014398892 0.0234113 0.04263113 -0.006653251 -0.007931006 0.030724213 -0.047803327 -0.03656601 0.015222304 0.136512 -0.021665337 0.0022676156 -0.020952547 -0.003971474 -0.059133776 0.00809821 -0.062065795 0.06963516 -0.08048391 -0.029054249 -0.042600643 0.024620993 0.024175094 0.03182951 -0.04942579 -0.071704954 0.042823866 -0.07704721 -0.08109076 0.024460383 -0.15124372 0.15152822 0.009402163 0.07807635 -0.0435437 0.016899085 0.036823146 0.0022912794 0.019673826 0.11388532 -0.022981487 0.03513963 0.08660212 0.042655658 0.04431353 -0.030142331 -0.13427816 -0.019942489 0.058957916 -0.0061015757 0.012037358 -0.03288821 -0.03474821 -0.065661006 0.01481805 0.015594935 -0.049710087 0.08042954 0.0621392 0.073998764 -0.07254052 0.076180615 9.928745E-4 0.025661726 0.0378046 -0.035425443 0.010156574 0.055217065 0.035530087 -0.046980985 -0.034752175 0.052968364 0.042349625 0.0026105219 0.006737767
chemistry -0.01612979 -0.04851133 0.016804354 -0.023804957 -0.030277524 0.038710948 0.054589916 -0.059453942 0.0062904498 -0.04253979 0.021850798 -0.039410204 0.034316722 -0.06541523 -0.00450061 -0.049856395 0.0916909 0.03631161 -0.02618796 -0.12107007 0.014865381 0.021441199 -0.016121935 -0.055108134 -0.029662987 -0.020917984 -0.07475277 -0.04317507 -0.06632085 0.018535828 -0.08295158 0.025803838 0.043761134 -0.0733371 -0.06369852 0.05591432 0.038026262 -0.016818337 -0.0151172085 0.049237285 0.024754137 0.02340922 -0.0033917595 0.1049136 -0.0044319904 3.044868E-4 0.02955477 -0.09423727 -0.057623595 -0.03145031 0.04556027 -0.0480368 0.03390747 0.016572716 0.022847949 -0.0032866392 0.010183916 0.014919701 0.0043048477 -0.01126304 -0.0052038454 0.1023768 0.02585352 0.0584258 0.0030343707 0.085042596 0.028252682 0.12899002 0.039543353 -0.07094517 0.0043988004 -0.056044552 -0.015601152 -0.022669062 -0.06860967 0.03643142 -0.04592634 -0.021537365 -0.005817534 -0.027355453 0.05380983 -0.102346115 0.007738155 0.03257343 -0.07861914 -0.03849211 -0.042485975 0.055191733 -0.16375688 -0.095015 -0.052679405 -0.11339602 0.012211616 -0.06249411 -0.024725405 -0.05591707 0.1657722 0.05213411 -0.019898057 -0.0087254755 -0.042425197 0.05599423 -0.09152457 -0.09999761 -0.07895961 0.007324076 -0.025452146 -0.020762458 -0.021787079 -0.03664854 -0.004097148 -0.11711539 0.058488104 0.07509913 0.035844583 0.06454169 0.0586364 3.672091E-4 0.1087451 0.05429688 0.033405215 -0.012348828 -0.09988337 0.005128404 -0.02689487 -0.027542997 -0.025665388 -0.09918003 0.027546227 0.0999325 0.06397592 0.09700304 0.046494376 -0.03300138 0.09835963 0.10091816 -0.0058535584 -0.07069727 0.017760986 -0.0077611017 0.09532115 -0.027557991 0.022670029 -0.009904275 -0.074960284 -0.01397956 -0.03168686 0.02111503 -0.0019337693 0.022652272 -0.05339149 0.1220504 0.09260526 -0.013805144 -0.032772273 0.057684466 0.017660746 -0.03998812 0.026367046 0.11045325 -0.07001219 -0.002703084 0.0681378 -0.034729015 0.036343824 -0.03761688 -0.0346424 -0.03984905 0.069878705 -0.026597606 -0.023048189 -0.016567383 -0.070887074 0.020313354 0.0837421 0.025735423 0.024056047 0.06852802 0.016476488 0.05144086 0.018567251 0.085579425 -0.05035215 0.017910093 -0.101281084 0.051172104 0.12229198 -0.0037268098 0.00996473 0.048142977 -0.0061819563 0.0060759424 0.06312752 0.002815028 0.019001657 0.0031683308 -0.04175103 -0.14923 -0.020759983 -0.08203537
seafood -0.031322163 0.025922146 0.034767345 -0.021098139 -0.04014617 0.0146815255 9.010564E-4 -0.033542108 -0.0456769 -0.0090300795 0.04970986 0.003306997 0.043084558 -0.0052781464 0.0049740267 -0.040951524 0.015822878 -0.008575992 0.020103445 -0.03783635 0.020764185 0.043016165 0.008824327 -0.037730966 -0.010982827 -0.020515129 -0.041732673 -0.016539818 -0.014934163 0.011897882 -0.039004743 0.07486278 0.08075601 -0.027924431 -0.028666953 -0.024378406 0.017377285 0.004843379 -0.05466652 -0.016225353 0.017245391 0.010498347 0.016866434 0.010307095 -0.03595184 -0.017872425 -0.085752256 0.0042189746 0.019709252 -0.017820952 0.040524296 -0.014438303 -0.0024433506 0.012567345 0.02482646 -0.03475148 0.009058184 0.0069887666 0.030358769 0.021364322 0.03767444 0.016020313 0.028434556 0.07754268 -0.032883123 0.0061723557 -0.0017306703 0.065196015 0.042851415 0.009889837 0.030064398 -0.07430939 -0.01885998 0.01114106 0.049682446 0.02743436 -0.06868167 0.010214921 0.009421701 -0.015772367 0.06344218 -0.043885864 -0.021438535 0.038291883 -0.009226086 -0.004024902 -0.037197895 -0.03669346 -0.0034082637 -0.016767161 -0.05349777 -0.048598632 -0.012724 -0.014544773 -0.069221675 -0.058482077 0.023502612 0.032692503 0.051881816 -0.05081837 0.018515324 0.008462573 -0.1079463 -0.08656186 -0.009855081 -0.025496744 -0.041984268 0.006801374 0.06967389 -0.02633215 -0.05555322 -0.09218102 -0.03042242 0.03867184 0.019667473 -0.01974114 0.060632702 0.031000327 0.06313051 0.011484765 0.021650167 0.056546643 -0.057564463 0.03306848 0.0010989922 -0.022717325 0.024164034 0.034060843 -0.07386989 0.01091172 0.008966245 0.012579987 0.06993843 -0.0504943 0.096256584 0.035145823 -0.00677073 0.0027669577 0.024378356 -0.058344103 -0.025380867 0.024048358 0.04879978 -0.029640423 -0.008294581 0.014995955 -0.028684242 0.0463926 0.05379688 -0.027666576 -0.07909235 0.018940108 -0.014205517 0.041428257 0.0012905048 0.015739225 0.048709232 -0.016983302 0.044943437 0.037282005 -0.0071768626 0.025188021 0.0023291185 -0.04807544 0.007004326 -0.013375167 0.038868457 0.0011636728 -0.02630318 0.016989077 0.032568697 -0.10359977 -0.056271907 -0.0051640784 0.019872896 -0.02887294 -0.015456776 0.045747995 -0.04240254 0.018791044 -0.021199254 0.08734301 -0.03907822 -0.016206885 -0.069199406 -0.03366544 0.021095151 -0.025487527 0.033827476 0.056413364 0.016871072 0.02792973 0.0074209487 -0.022796145 0.023097126 -0.02647119 -0.09813463 -0.06007693 0.023973683 -0.026078109
mind -0.097013965 0.00816555 -0.1753884 -0.027190713 -0.22431147 -0.0055453004 -0.029333431 -0.02259215 -0.07942684 0.094693996 0.16352966 0.098668724 -0.072546564 -0.07510341 0.094091974 -0.17170438 0.077677384 -0.03297736 -0.08688382 -0.15850161 -0.041925225 -0.013741177 0.0014018114 -0.109186806 0.10727027 -0.1280992 -0.060684472 0.03294438 -0.1814547 -0.082519084 0.0089164805 -0.041256137 0.06295536 -0.14810683 0.01760862 -0.2195928 -0.10831405 0.06686014 0.18391225 -0.080334 0.112617664 -0.03982897 -0.06624576 -0.13797556 0.045284946 0.31827486 -0.010784776 -0.13984282 0.009114815 -0.0058709 0.032546647 0.17299974 0.03032896 -0.04348357 -0.02886436 -0.20323077 -0.1650742 0.14138626 0.16344978 -0.25543723 0.2748252 0.009613586 0.084114045 0.2569546 -0.12805778 0.23435044 0.21879216 0.17111649 0.09534254 0.035953026 0.10239968 0.16375296 -0.17521775 -0.09789235 0.13289344 -0.06959345 -0.13361007 0.11963945 0.1547941 -0.075265594 -0.08765685 -0.100846775 0.01841591 -0.20033213 6.5673114E-4 -0.08428865 0.060220864 0.057507332 -0.15493065 -0.013006396 0.004025695 -0.06904208 0.2531084 -0.297348 -0.050243754 0.012247153 0.14759871 -0.13833782 -0.24141766 -0.08100333 -0.08561789 -0.019414896 -0.019528145 0.08109395 -0.14961337 0.09043249 -0.10158931 0.0618877 -0.031130433 -0.17735252 -0.051918637 0.016186286 0.08405086 -0.13684347 0.018084347 0.021393629 0.010344809 -0.12862146 -0.108347245 -0.11933498 -0.31168094 -0.02169769 0.12208341 -0.05320518 -0.04363583 -0.036601678 -0.013993934 -0.23776017 0.03138778 0.27859554 -0.016268585 0.12213626 -0.04299824 0.1457741 0.21615519 -0.08090934 0.0018326025 -0.18756199 0.1421108 -0.03682067 0.05780663 0.095756434 -0.0062042065 -0.17840977 -0.23014721 0.054781772 0.05342725 0.051615648 0.1040372 0.054733492 -0.09087218 0.09998419 0.028466513 0.047321156 -0.09236133 0.0019082397 0.1573151 0.0022420562 0.3031195 0.20294537 0.08479386 0.087192215 0.024901677 0.12679626 0.11653294 0.055954464 0.056166764 -0.089637175 -0.051513907 0.035325848 -0.059351645 -0.06385375 -0.03580112 0.22148938 0.06758043 -0.06076662 0.07194551 0.12723346 -0.1549169 0.0033693486 0.077336825 0.017471787 -0.072302565 -0.10428273 0.060457647 0.040512927 0.32394776 -0.010912879 0.15712419 -0.16986613 0.09014503 -0.19095004 0.07949645 0.06834692 -0.1897364 0.074983835 0.16756287 -0.12518606 -0.06776558 -0.09282189
sex -0.13364789 -0.074035145 0.026137875 -0.06262399 0.15695791 0.13662298 0.0076053757 -0.045360554 0.1728077 0.16137116 -0.1040298 0.14941417 0.027066471 -0.059943166 0.074094385 -0.09995325 -0.09395753 -0.06224037 -0.11249519 -0.1686684 -0.032366686 0.083935514 -0.07369465 -0.063168816 -0.2175831 -0.25044 -0.010973163 0.043410573 0.057422474 0.033100314 -0.17618327 -0.044406686 0.12679885 0.14463978 0.22091106 0.03718339 0.18967779 -0.17488357 -0.049309146 0.019742342 0.14752704 -0.05048421 -0.038642865 -0.05227419 0.013778495 -0.23135906 -0.03556236 -0.19724457 0.2089044 0.07000735 -0.11280304 -0.045595393 0.10735139 -0.22472787 0.05624083 0.022923382 0.11071054 0.09535079 -0.23081002 0.06581657 -0.12077026 -0.116420224 -0.15865627 0.21110724 0.04658356 0.14267687 -0.100436814 0.08747588 -0.058189746 -0.11191991 0.065370806 -0.21251434 0.016299073 0.011556683 -0.20390606 -0.071657896 0.017310783 -0.04253759 -0.029968468 -0.09209288 0.055593543 -0.053627662 0.0900695 -0.08339956 -0.05775766 0.045175318 0.012022003 0.12502606 -0.10241626 -0.15605581 -0.15519515 -0.13270687 -0.06753568 -0.26221403 -0.14494365 -0.15295234 0.1982597 -0.25618458 -0.053235378 0.028746078 0.16987608 -0.26032585 -0.12951145 0.10303199 -0.09707631 0.0718223 -0.05376236 -0.058513984 0.18948576 -0.04346022 0.2842114 -0.10883837 0.12394799 -0.022972994 0.0930934 -0.14040089 0.0010898215 0.029489301 -0.018026376 0.21165003 -0.100702904 0.043208245 -0.00619752 0.075703606 -0.21276447 0.11120129 0.13668585 -0.111923866 -0.12964547 0.12742664 0.0075213765 0.038168635 0.062349364 -0.023568707 -0.10235762 0.0708307 0.07152033 -0.08893305 0.10296122 0.1223423 -0.08920397 0.14507762 0.13422063 0.055167217 -0.013129122 -0.023155278 0.09335694 0.20442109 0.076371 0.17762175 -0.16760914 0.1973199 -0.12511949 -0.07777589 0.051653713 0.14655215 0.1980293 0.011416801 0.117836855 0.1705223 -0.024656923 5.870712E-4 -0.047148492 -0.18111287 0.19655414 -0.21253145 0.23365355 -0.09923368 -0.0372895 -0.07898386 -0.0595033 -0.029811868 -0.12929165 0.080634594 0.05873965 0.041519854 0.050531965 0.15339735 0.15056741 -0.104126625 -0.27409786 -0.07225594 -0.14456716 0.1608604 -0.13095643 0.014562385 0.19655639 -0.044372577 0.032215662 0.15394461 0.2822978 -0.037472956 0.12604547 -0.022010779 -0.070033684 0.1928436 0.21571007 -0.24602081 -0.3999674 0.086515345
